tree
version=v4
num_class=1
num_tree_per_iteration=1
label_index=0
max_feature_idx=15
objective=binary sigmoid:1
feature_names=age balance campaign contact day default duration education housing job loan marital month pdays poutcome previous
feature_infos=[18:95] [-8019:102127] [1:63] -1:0:2:1 [1:31] -1:0:1 [0:4918] -1:1:2:0:3 -1:1:0 -1:1:4:9:0:7:5:6:2:10:3:8 -1:0:1 -1:1:2:0 -1:8:5:1:6:9:0:3:4:10:11:7 [-1:871] -1:3:0:1:2 [0:275]
tree_sizes=3213 3272 3268 3262 3277 3223 3278 3278 3293 3302 3304 3303 3289

Tree=0
num_leaves=31
num_cat=11
split_feature=6 14 12 6 6 0 6 6 13 3 3 12 8 12 4 12 13 4 6 6 8 4 6 3 8 13 0 4 0 1
split_gain=4447.26 2730.66 1035.96 496.532 355.248 356.507 350.764 337.33 307.222 237.085 225.026 222.125 145.217 204.271 188.074 84.6237 82.2545 81.887 78.3046 73.6448 67.4761 100.949 69.1543 57.7355 56.2679 65.3299 50.8381 50.0333 45.4299 42.4138
threshold=504.50000000000006 0 1 797.50000000000011 205.50000000000003 61.500000000000007 162.50000000000003 172.50000000000003 374.50000000000006 2 3 4 5 6 15.500000000000002 7 85.500000000000014 3.5000000000000004 94.500000000000014 611.50000000000011 8 9.5000000000000018 144.50000000000003 9 10 82.500000000000014 29.500000000000004 28.500000000000004 25.500000000000004 3663.5000000000005
decision_type=2 1 9 2 2 2 2 2 2 1 1 9 1 9 2 9 2 2 2 2 1 2 2 1 1 2 2 2 2 2
left_child=1 6 7 10 15 8 -1 18 9 -6 -2 -11 -13 16 -15 20 17 -14 -3 24 -4 -22 -23 -5 -12 -26 -18 -24 -19 -7
right_child=3 2 4 23 5 29 -8 -9 -10 11 19 12 13 14 -16 -17 26 28 -20 -21 21 22 27 -25 25 -27 -28 -29 -30 -31
leaf_value=-1.8262710270583833 -1.9499536028671076 -2.0912577336520481 -2.0999767645457599 -1.682045976290798 -2.1236143715402638 -1.554976216310894 -1.4219731745301405 -1.5846319014142907 -1.3662687453858327 -1.7501496947658595 -1.8839899044274222 -2.077089214869551 -1.5016142549247875 -1.9526311574311783 -1.6404689957427272 -2.1217447494798609 -1.3865249014383092 -1.7965374394660036 -1.8450517667549309 -1.6867067006466356 -2.0719835508798394 -1.9611536317993548 -1.5853925343009747 -1.5466777333188522 -1.7876409063177294 -1.4928285177617417 -1.8925795586803273 -2.0925141964186675 -2.0645631109972804 -1.9252857938722323
leaf_weight=30.162030756473541 75.818255394697189 20.762219801545143 132.83688887953758 42.867269739508629 345.72711281478405 16.217256262898449 74.372130632400513 53.093437701463699 6.507561430335044 18.696327283978462 49.478125795722008 372.06724241375923 2.6856602728366843 54.952740967273712 29.748852252960205 1757.5580593198538 2.2724817693233517 6.507561430335044 34.190521165728569 99.57601934671402 59.084526002407074 24.790710210800171 10.742641091346739 118.89211438596249 41.214555725455284 9.1932217031717283 15.700783133506773 2.3757763952016822 224.14933815598488 3.8219011574983588
leaf_count=292 734 201 1286 415 3347 157 720 514 63 181 479 3602 26 532 288 17015 22 63 331 964 572 240 104 1151 399 89 152 23 2170 37
internal_value=-2.02136 -2.06107 -2.07799 -1.7216 -2.08893 -2.04353 -1.58078 -1.78616 -2.05129 -2.05545 -1.80331 -2.02302 -2.03388 -1.9864 -1.86183 -2.11438 -2.03422 -2.05061 -1.93807 -1.74756 -2.05233 -1.99027 -1.8629 -1.58255 -1.80823 -1.73387 -1.8286 -1.67723 -2.057 -1.6256
internal_weight=3736.06 3299.02 3194.49 437.04 3086.44 1099.05 104.534 108.046 1079.02 1072.51 275.28 726.781 708.085 336.017 84.7016 1987.39 251.316 233.343 54.9527 199.462 229.831 96.9937 37.9091 161.759 99.8859 50.4078 17.9733 13.1184 230.657 20.0392
internal_count=36169 31938 30926 4231 29880 10640 1012 1046 10446 10383 2665 7036 6855 3253 820 19240 2433 2259 532 1931 2225 939 367 1566 967 488 174 127 2233 194
cat_boundaries=0 1 2 3 4 5 6 7 8 9 10 11
cat_threshold=4 3200 4 4 64 2 562 9 2 4 2
is_linear=0
shrinkage=1


Tree=1
num_leaves=31
num_cat=11
split_feature=6 14 12 6 6 8 6 3 3 12 6 0 13 12 13 6 3 8 4 2 4 6 3 1 0 13 6 12 1 0
split_gain=2989.18 1561.46 741.358 280.841 260.555 248.869 168.232 140.399 137.344 221.034 122.363 93.9132 86.1536 81.7788 70.1004 62.8704 62.0968 57.4013 71.8989 51.8181 44.0507 52.7058 37.5649 34.0124 33.61 31.402 31.0923 27.0184 26.7126 26.6894
threshold=455.50000000000006 0 1 637.50000000000011 205.50000000000003 2 130.50000000000003 3 4 5 132.50000000000003 60.500000000000007 85.500000000000014 6 374.50000000000006 874.50000000000011 7 8 9.5000000000000018 1.5000000000000002 27.500000000000004 103.50000000000001 9 22.500000000000004 25.500000000000004 388.50000000000006 405.50000000000006 10 1128.5000000000002 65.500000000000014
decision_type=2 1 9 2 2 1 2 1 1 9 2 2 2 9 2 2 1 1 2 2 2 2 1 2 2 2 2 9 2 2
left_child=1 10 6 7 13 14 -3 -2 -7 23 -1 12 24 17 22 16 -5 -4 -19 -9 21 -20 -6 -10 -11 -14 -8 28 -24 -21
right_child=3 2 4 15 5 8 26 19 9 11 -12 -13 25 -15 -16 -17 -18 18 20 29 -22 -23 27 -25 -26 -27 -28 -29 -30 -31
leaf_value=0.084648590971516932 -0.0029063977392398653 0.0097898362714754078 -0.075444361389994233 0.25123935730423003 -0.1053207782396724 -0.09664911588186581 0.24589643239738829 0.2210198143636955 0.031468003117028784 0.17607250937369712 0.33514954613673081 0.22873084922960574 0.11951103241713457 -0.098093266267384654 0.34385141503573829 0.29780717870826456 0.12216044556102755 -0.047478144103539101 0.0025745836161812493 0.1116870618561437 -0.088609584562457322 0.26120933657608214 -0.028272256188878544 0.24880920428173725 -0.029817766118097895 0.43592625498811571 0.51920905259839034 -0.062752234375529167 0.13360243101507813 0.37221387434931524
leaf_weight=23.412219554185867 68.702021189033985 38.759237430989742 124.99465684592724 128.48216211795807 225.93473625183105 71.844956248998642 84.862755291163921 86.699798591434956 8.0944731384515745 8.2064788192510587 116.68867993354797 18.669635504484177 26.237725101411346 1625.816855840385 4.0480904281139365 175.42192734777927 52.498673759400845 56.822168469429016 12.00231262296438 119.86708563566208 7.9372781142592421 22.936616621911526 31.855835914611816 65.184412680566311 234.14961815625429 3.562319576740264 4.3769738376140586 289.76283740252256 14.99194138497114 4.0655578896403304
leaf_count=196 658 363 1286 952 2368 753 629 719 67 68 768 140 219 17015 25 1241 449 572 111 1026 75 181 315 515 2301 22 31 2927 147 30
internal_value=-0.0013374 -0.0415946 -0.0571414 0.196305 -0.0679109 -0.0270918 0.170432 0.121229 0.0297087 0.0546416 0.273749 0.0113755 -0.00311688 -0.0903922 -0.0707953 0.255147 0.213796 -0.0290128 0.0262896 0.161719 0.124051 0.172362 -0.0737791 0.197808 -0.0228461 0.157336 0.259302 -0.0526082 0.0193908 0.120234
internal_weight=3756.89 3121.15 2981.05 635.737 2853.05 1002.54 127.999 279.334 435.95 364.105 140.101 290.826 272.156 1850.51 566.593 356.403 180.981 224.693 99.6984 210.632 42.8762 34.9389 562.545 73.2789 242.356 29.8 89.2397 336.611 46.8478 123.933
internal_count=36169 31094 30130 5075 29107 9867 1023 2433 4085 3332 964 2750 2610 19240 5782 2642 1401 2225 939 1775 367 292 5757 582 2369 241 660 3389 462 1056
cat_boundaries=0 1 2 3 4 5 6 7 8 9 10 11
cat_threshold=4 3200 2 4 4 321 9 1 2 4 74
is_linear=0
shrinkage=0.1


Tree=2
num_leaves=31
num_cat=11
split_feature=6 14 12 6 4 12 3 6 3 12 8 6 4 4 13 6 0 8 6 13 6 11 0 12 4 1 13 8 6 13
split_gain=2237.8 1118.08 595.131 223.716 191.582 178.956 158.379 111.5 135.368 236.491 95.2489 82.8123 79.2322 76.7501 76.5465 73.1703 70.9225 68.1778 65.831 64.2953 49.0367 40.1856 39.12 37.988 44.085 37.1396 36.644 31.6857 30.5435 27.6935
threshold=405.50000000000006 0 1 637.50000000000011 20.500000000000004 2 3 154.50000000000003 4 5 6 201.50000000000003 3.5000000000000004 6.5000000000000009 383.50000000000006 172.50000000000003 60.500000000000007 7 125.50000000000001 37.500000000000007 103.50000000000001 8 25.500000000000004 9 4.5000000000000009 694.50000000000011 82.500000000000014 10 94.500000000000014 8.5000000000000018
decision_type=2 1 9 2 2 9 1 2 1 9 1 2 2 2 2 2 2 1 2 2 2 1 2 9 2 2 2 1 2 2
left_child=1 18 7 6 5 10 -2 -3 -9 -10 -4 28 -11 -12 16 -7 22 23 -1 25 -15 29 27 -8 -25 -19 -22 -14 -6 -5
right_child=3 2 4 21 11 15 17 8 9 12 13 -13 14 20 -16 -17 -18 19 -20 -21 26 -23 -24 24 -26 -27 -28 -29 -30 -31
leaf_value=0.061608913506457141 -0.021921189225146673 -0.10305898503926261 -0.071542336578294327 0.15126576521325694 -0.043601641272617286 0.045106978017782275 0.0068947337643529829 -0.10708351449494724 0.20081163754625575 0.274413786352175 -0.032872740216494827 0.26366400529451112 -0.067685032513694718 -0.040683363249873324 0.27860215983712766 0.25347649237705655 0.15072556184610392 0.084353308168167523 0.24691167685605483 0.26816901790759068 0.20006742179312781 0.22908359277740359 -0.063265738930906867 0.46268964175794736 0.111999505789249 0.19002220355948415 0.0080094988527918635 0.17766264958656644 0.1257044184733313 0.24260807413966129
leaf_weight=22.329839706420898 96.940285630524158 1140.4868815541267 183.08174011856318 198.76844386011362 14.464163780212401 29.186823859810829 67.452930688858032 375.38274915516376 31.508980326354504 7.6023829877376548 77.946537420153618 45.388214237987995 9.1337897256016731 16.577910877764225 7.0069770812988272 39.878659039735794 16.56563313305378 76.556938484311104 135.56795656681061 45.061037696897984 42.608463138341904 180.18676824867725 636.23167296499014 3.7700343653559676 72.888008192181587 58.814746133983135 12.95476423949003 12.423380576074123 40.46636638045311 39.845785766839981
leaf_count=176 981 12904 1943 1270 145 255 571 4263 249 59 757 301 99 163 39 254 127 614 745 279 308 1129 6697 28 613 452 88 94 323 243
internal_value=-0.00200418 -0.0436814 -0.058709 0.141674 0.0392967 0.00924411 0.0902399 -0.0808099 -0.0583921 -0.0330228 -0.0224569 0.163712 -0.0459645 0.0359228 -0.0502137 0.144498 -0.0536303 0.123742 0.207561 0.164704 0.110254 0.193437 -0.0587768 0.0724566 0.114332 0.130263 0.155288 0.0737086 0.0811232 0.166519
internal_weight=3737.08 2896.79 2738.9 840.285 502.554 402.235 421.484 2236.34 1095.86 720.473 333.169 100.319 688.964 150.088 681.361 69.0655 674.354 324.544 157.898 180.433 72.1411 418.801 657.789 144.111 76.658 135.372 55.5632 21.5572 54.9305 238.614
internal_count=36169 29989 29068 6180 4537 3768 3538 24531 11627 7364 3259 769 7115 1316 7056 509 7017 2557 921 1345 559 2642 6890 1212 641 1066 396 193 468 1513
cat_boundaries=0 1 2 3 4 5 6 7 8 9 10 11
cat_threshold=4 882 1033 4 4 64 2 2 2 57 2
is_linear=0
shrinkage=0.1


Tree=3
num_leaves=31
num_cat=13
split_feature=6 14 12 6 3 6 8 6 3 12 12 8 4 4 12 0 13 6 13 6 3 13 4 9 12 6 12 0 2 13
split_gain=1728.76 806.617 483.381 198.763 148.272 147.084 122.861 88.2906 104.4 167.783 74.9079 73.5869 65.4024 62.3822 57.8146 52.4311 51.718 42.9875 42.2645 37.4146 36.9391 34.2614 33.8329 32.666 31.1313 27.6774 26.3521 25.504 24.5472 23.536
threshold=364.50000000000006 0 1 604.50000000000011 2 103.50000000000001 3 154.50000000000003 4 5 6 7 7.5000000000000009 4.5000000000000009 8 60.500000000000007 374.50000000000006 79.500000000000014 78.500000000000014 874.50000000000011 9 370.50000000000006 20.500000000000004 10 11 498.50000000000006 12 59.500000000000007 1.5000000000000002 199.50000000000003
decision_type=2 1 9 2 1 2 1 2 1 9 9 1 2 2 9 2 2 2 2 2 1 2 2 9 9 2 9 2 2 2
left_child=1 17 7 4 25 -4 10 -3 -9 -10 22 21 24 -11 18 16 23 -1 27 20 -5 26 -7 -15 -8 -2 -6 -13 -28 -19
right_child=3 2 5 19 11 6 12 8 9 13 -12 14 -14 15 -16 -17 -18 29 -20 -21 -22 -23 -24 -25 -26 -27 28 -29 -30 -31
leaf_value=-0.063713509901987653 -0.073939431656381088 -0.10131332227748531 -0.066621688036627852 0.059348238360522998 -0.012264442348530514 -0.063393712121585122 -0.023109975656418164 -0.10625292378807089 0.15922660044425838 0.11780196346597152 0.11238997841045051 0.03899393711979246 0.1479397013483483 0.069145576390966537 0.194280962002221 0.12514678543214139 0.20860315831016024 0.20125432564349346 0.18600051581693755 0.18087207623341278 0.14616455851666119 0.36361545473308965 0.15163184924807749 -0.066636438945246887 0.097291419577307123 0.030348138310984499 0.13022984503721111 0.19498682433531123 0.025539167559107196 0.093650230847607319
leaf_weight=7.282838746905326 73.734291434288025 1048.8340499997139 117.28448977321386 63.124376848340034 73.981839910149574 109.47125042974949 45.904502220451832 317.54860883206129 32.239011846482754 21.603214256465435 29.641794830560684 115.06308017671108 146.44515634328127 12.834264934062958 84.422797873616219 15.687614813446997 7.071715533733367 133.00913819670677 29.562667265534401 233.31230811774731 219.18694414943457 3.2232278361916533 7.8416048884391776 553.16891402751207 28.008065432310104 38.860611744225025 41.76784498244524 11.531257234513758 48.291877679526806 23.993968054652214
leaf_count=55 858 12904 1257 470 674 1238 457 3934 227 190 192 956 916 112 487 112 36 691 161 1241 1272 19 70 6134 190 366 341 75 412 122
internal_value=-0.0023345 -0.0450464 -0.0592268 0.107237 0.0636398 0.0302506 0.0620059 -0.080853 -0.0593449 -0.036165 -0.00881504 0.0916849 0.109236 -0.0483027 0.127103 -0.0552179 -0.0601553 0.163821 0.0736284 0.151241 0.126753 0.0407425 -0.0451702 -0.0635132 0.0325507 -0.037946 0.0343984 0.0532031 0.0666877 0.18481
internal_weight=3693.93 2657.87 2493.58 1036.06 520.439 484.597 367.312 2008.99 960.153 642.605 146.955 407.845 220.358 610.366 240.58 588.763 573.075 164.286 156.157 515.624 282.311 167.265 117.313 566.003 73.9126 112.595 164.042 126.594 90.0597 157.003
internal_count=36169 28837 27969 7332 4349 4320 3063 23649 10745 6811 1500 3125 1563 6584 1679 6394 6282 868 1192 2983 1742 1446 1308 6246 647 1224 1427 1031 753 813
cat_boundaries=0 1 2 3 4 5 6 7 8 9 10 11 12 13
cat_threshold=4 882 4 2 4 64 9 2 570 4 256 8 51
is_linear=0
shrinkage=0.1


Tree=4
num_leaves=31
num_cat=13
split_feature=6 14 12 6 3 12 6 14 8 6 3 12 12 4 12 4 13 13 12 0 4 0 6 13 13 8 6 0 1 9
split_gain=1370.67 522.942 341.276 228.242 204.357 131.17 102.552 82.6732 75.6832 61.6014 68.3697 109.508 50.2808 41.5759 66.8809 39.4138 37.6364 105.77 58.4864 38.2409 37.6858 36.4029 35.5379 33.4559 33.094 33.0156 31.4211 28.9362 42.2087 28.3176
threshold=298.50000000000006 0 1 548.50000000000011 2 3 92.500000000000014 4 5 154.50000000000003 6 7 8 20.500000000000004 9 7.5000000000000009 8.5000000000000018 100.50000000000001 10 60.500000000000007 3.5000000000000004 59.500000000000007 835.50000000000011 1.0000000180025095e-35 383.50000000000006 11 132.50000000000003 57.500000000000007 1448.5000000000002 12
decision_type=2 1 9 2 1 9 2 1 1 2 1 9 9 2 9 2 2 2 9 2 2 2 2 2 2 1 2 2 2 9
left_child=1 26 9 4 -2 7 -4 -6 12 -3 -11 -12 -8 14 25 -10 19 27 -19 20 -13 24 23 -5 29 -7 -1 28 -18 -9
right_child=3 2 6 22 5 13 8 21 15 10 11 16 -14 -15 -16 -17 17 18 -20 -21 -22 -23 -24 -25 -26 -27 -28 -29 -30 -31
leaf_value=0.043282461361727954 -0.067919567316339011 -0.099625225621406494 -0.077549947710015804 0.08411752381458476 0.15473283152562109 -0.051984282669572585 -0.048886419727356314 0.034979906041572299 0.015743129564361115 -0.10536617323067342 0.1239070312135639 0.22028443748864054 0.081608354014710269 0.23042541453426668 0.16863122209217041 0.10866942490860479 0.20124714221565268 0.11245319957006011 -0.070327103403654292 0.11906340560796176 -0.076605441983534028 0.13418734776067864 0.14685621457559503 0.16030632445104553 0.25606460529362618 0.14451710148051411 0.16044514011814051 -0.036474146101992386 0.64047827689070358 -0.021072614500291825
leaf_weight=28.46428593993187 144.50165084004402 964.29074865579605 90.438776656985283 285.67883723974228 39.758496537804604 32.340807162225246 103.40643752366304 153.88572591543198 66.688321642577648 236.94891582429409 29.417855016887188 4.3274854570627204 30.446982175111771 45.367044478654861 66.356555007398129 144.63021718710661 6.0045411214232427 13.381179720163345 71.056725218892097 10.669365301728247 355.91076608002186 24.528618834912777 284.14729408919811 72.202207326889038 5.3036572486162177 11.623529128730295 116.88073801994324 2.2680369764566413 3.4419737681746483 190.83073649555445
leaf_count=196 1782 12904 1040 1803 184 333 1210 1379 595 3205 193 28 192 233 341 874 61 100 820 74 4191 150 1399 397 23 67 534 17 34 1810
internal_value=-0.00240422 -0.0497821 -0.0622499 0.0771805 0.0382974 0.0652249 0.0168533 0.0326402 0.0420763 -0.0825266 -0.0611709 -0.0400782 -0.0167588 0.140797 0.116702 0.0793436 -0.0519476 0.00269349 -0.0363722 -0.067513 -0.073039 0.0159933 0.120452 0.0994886 0.00816741 -2.62196e-05 0.128649 0.284277 0.361287 0.00435337
internal_weight=3635.2 2278.67 2133.33 1356.53 714.497 569.995 435.611 414.307 345.172 1697.72 733.427 496.478 133.853 155.688 110.321 211.319 467.06 96.1525 84.4379 370.908 360.238 374.549 642.028 357.881 350.02 43.9643 145.345 11.7146 9.44651 344.716
internal_count=36169 26268 25538 9901 6302 4520 3911 3546 2871 21627 8723 5518 1402 974 741 1469 5325 1032 920 4293 4219 3362 3599 2200 3212 400 730 112 95 3189
cat_boundaries=0 1 2 3 4 5 6 7 8 9 10 11 12 13
cat_threshold=4 882 4 826 4 2 4 64 9 1 34 2 1361
is_linear=0
shrinkage=0.1


Tree=5
num_leaves=31
num_cat=18
split_feature=6 12 6 3 14 12 6 14 12 8 11 6 8 13 6 4 14 9 12 2 8 12 4 8 10 6 4 3 13 12
split_gain=1132.21 362.147 219.579 217.087 156.056 127.221 102.197 92.3825 66.7139 58.84 43.458 43.405 54.4491 52.6075 34.0454 33.4613 31.587 31.132 28.0628 26.7627 26.4367 35.5963 43.404 24.6279 23.5979 22.5073 21.9031 21.6099 19.7849 19.5814
threshold=259.50000000000006 0 470.50000000000006 1 2 3 77.500000000000014 4 5 6 7 154.50000000000003 8 37.500000000000007 874.50000000000011 7.5000000000000009 9 10 11 1.5000000000000002 12 13 20.500000000000004 14 15 162.50000000000003 28.500000000000004 16 99.500000000000014 17
decision_type=2 9 2 1 1 9 2 1 9 1 1 2 1 2 2 2 1 9 9 2 1 9 2 1 1 2 2 1 2 9
left_child=1 4 3 -2 25 7 -3 -5 -8 -10 14 -6 -13 19 16 -11 -4 23 -18 27 21 22 -7 -9 -25 -1 -17 -14 -15 -29
right_child=2 6 10 5 11 20 8 17 9 15 -12 12 13 28 -16 26 18 -19 -20 -21 -22 -23 -24 24 -26 -27 -28 29 -30 -31
leaf_value=0.0040900428591748262 -0.089207553887710733 -0.088536527017849073 0.16225611285474476 0.1344113210950231 -0.097975413056303695 -0.056683819009385808 0.10015904937337197 -0.019385703616682411 -0.043494783797471286 -0.012625690383538227 0.12106175191671364 -0.089925169644400685 -0.091394317857495924 0.22598274070471538 0.11497950756246925 0.11412506358138706 0.02118040699026574 -0.027865967335552175 0.087829347882753497 -0.069415877550607061 0.14387750057832835 0.13461159590667832 0.29110181272295826 0.07476452292857963 -0.064355402960663319 0.11793912198496359 -0.020552526662143675 0.072940613282812275 0.044586611809914654 -0.031226780191961873
leaf_weight=29.113452136516571 144.78291020542383 65.110525116324425 19.486697569489479 46.73970440030098 886.47615790367126 32.083175480365753 135.97843056917191 66.023750759661198 104.35582264512777 46.147946409881115 364.25944628566504 315.31699725985527 18.179031535983086 8.8907946348190325 148.23456750810146 74.558040283620358 213.29917672276497 209.46981392800808 96.02210696041584 141.1338334530592 130.60074007511139 21.665866687893867 4.0403534322977057 98.560674168169498 13.913797318935393 43.029019400477409 14.40963640809059 32.440173409879208 18.575200699269772 26.338449701666832
leaf_count=175 2030 795 94 200 12904 367 781 700 1226 461 2034 4262 268 67 692 449 1371 2169 602 1749 621 107 26 810 136 183 93 322 164 311
internal_value=-0.00239818 -0.0534304 0.0597613 0.0210959 -0.0762828 0.046726 0.0265172 0.0150756 0.0471761 0.012391 0.0950522 -0.0836229 -0.0624294 -0.0271225 0.0751919 0.0564712 0.0572547 -0.00231738 0.0439727 -0.0435483 0.112963 0.0626438 -0.0139287 0.027552 0.0575545 0.0632301 0.092312 0.0038907 0.103305 0.0333604
internal_weight=3569.24 1960.05 1609.18 767.881 1519.49 623.098 440.56 434.708 375.45 239.471 841.302 1447.35 560.874 245.557 477.043 135.116 328.808 387.968 309.321 218.091 188.39 57.7894 36.1235 178.498 112.474 72.1425 88.9677 76.9577 27.466 58.7786
internal_count=36169 24210 11959 7166 20405 5136 3805 4015 3010 2229 4793 20047 7143 2881 2759 1003 2067 3815 1973 2650 1121 500 393 1646 946 358 542 901 231 633
cat_boundaries=0 1 2 3 4 5 6 7 8 9 10 11 12 13 14 15 16 17 18
cat_threshold=882 4 4 826 4 3200 2 2 2 4 369 2865 2 1 2 1 4 578
is_linear=0
shrinkage=0.1


Tree=6
num_leaves=31
num_cat=13
split_feature=6 12 14 6 3 14 12 6 12 8 6 8 13 1 6 0 0 4 13 4 4 12 9 0 3 12 8 13 4 4
split_gain=938.04 322.068 177.065 206.928 137.855 136.9 101.388 85.4056 50.9438 47.1572 43.7396 51.4749 41.671 33.7885 31.0653 30.4981 26.3351 26.2701 25.3407 25.1249 24.6925 57.6841 22.8006 22.2082 21.8299 26.5203 21.0433 20.3372 16.4985 24.1016
threshold=259.50000000000006 0 1 522.50000000000011 2 3 4 77.500000000000014 5 6 154.50000000000003 7 21.500000000000004 1478.0000000000002 835.50000000000011 61.500000000000007 25.500000000000004 5.5000000000000009 383.50000000000006 7.5000000000000009 20.500000000000004 8 9 61.500000000000007 10 11 12 98.500000000000014 20.500000000000004 27.500000000000004
decision_type=2 9 1 2 1 1 9 2 9 1 2 1 2 2 2 2 2 2 2 2 2 9 9 2 1 9 1 2 2 2
left_child=1 5 -2 4 -4 27 13 -3 -9 28 -7 -12 16 15 24 18 -13 -18 -6 -11 21 -8 -15 -19 25 -5 -27 -1 -10 -30
right_child=2 7 3 14 6 10 20 8 9 19 11 12 -14 22 -16 -17 17 23 -20 -21 -22 -23 -24 -25 -26 26 -28 -29 29 -31
leaf_value=0.1211928151495701 0.15947006674492153 -0.08605935547144794 -0.077625415705585718 0.11696553672287374 -0.024396980469007089 -0.096346752978067884 -0.019229881773987781 0.086703455904515891 -0.053950661503141199 -0.011478210433866567 -0.087631975643088444 0.15714807952304718 0.085139829361373737 -0.032268321685711317 0.10537280743334627 0.14553427488347578 0.044972865568642259 -0.06888486465533554 0.20061817483689837 0.079033498424991397 0.15139661312952907 0.11824438831804512 0.06674981507028542 0.10448716514290901 0.02724779412272893 0.015803389415758009 0.081985348673852293 0.015444852733643303 0.26523571797098716 -0.050731742174171694
leaf_weight=33.432348072528839 134.86283081024885 60.524334028363228 155.71740571409464 111.26924620568752 314.92806731164455 814.99157565832138 50.600274696946144 142.54390493035316 90.910762071609497 45.709380954504013 292.39917516708374 6.50644277781248 29.994253881275654 27.011970832943916 300.30485905706882 11.41349485516548 26.813584230840206 168.37476028501987 5.0857211947441092 93.203159987926483 53.115515559911728 72.640120297670364 91.586403891444206 7.7275794968008986 120.13801560550928 96.54016150534153 95.637711852788925 39.880369246006012 4.1610556468367559 5.7503004744648933
leaf_count=161 579 795 2253 591 3130 12904 488 781 1139 461 4262 53 236 276 1343 55 266 2276 21 542 244 344 769 50 827 544 495 197 37 50
internal_value=-0.00228494 -0.0508451 0.0528473 0.0419615 0.0065783 -0.0737606 0.0275112 0.0237767 0.0417885 0.0110067 -0.0811864 -0.0594802 -0.0250984 0.00127082 0.0807696 -0.0150922 -0.0408871 -0.0472371 -0.020821 0.0492505 0.0893339 0.0698342 0.0471049 -0.0612771 0.063327 0.0776111 0.0463283 0.0560263 -0.0405938 0.08192
internal_weight=3503.77 1862.92 1640.85 1505.99 782.099 1420.12 626.382 442.803 382.279 239.735 1346.81 531.816 239.417 450.026 723.89 331.427 209.422 202.916 320.014 138.913 176.356 123.24 118.598 176.102 423.585 303.447 192.178 73.3127 100.822 9.91136
internal_count=36169 24210 11959 11380 7580 20405 5327 3805 3010 2229 20047 7143 2881 4251 3800 3206 2645 2592 3151 1003 1076 832 1045 2326 2457 1630 1039 358 1226 87
cat_boundaries=0 1 2 3 4 5 6 7 8 9 10 11 12 13
cat_threshold=882 4 4 4 826 3200 2 2 1 134 1 322 2
is_linear=0
shrinkage=0.1


Tree=7
num_leaves=31
num_cat=13
split_feature=6 6 3 12 12 8 14 13 6 12 14 6 4 12 13 14 13 12 0 1 4 13 6 8 13 0 4 3 3 4
split_gain=784.589 199.225 215.594 188.967 157.142 90.8314 66.5415 60.269 55.1075 46.7167 43.3038 38.8653 37.7548 47.8407 37.7201 31.248 30.1824 29.8892 28.906 20.6045 20.197 20.1912 19.7685 23.4977 30.5551 26.8662 19.0594 18.7678 18.5274 18.1742
threshold=205.50000000000003 441.50000000000006 0 1 2 3 4 78.500000000000014 77.500000000000014 5 6 645.50000000000011 7.5000000000000009 7 102.50000000000001 8 87.500000000000014 9 59.500000000000007 2190.5000000000005 3.5000000000000004 374.50000000000006 124.50000000000001 10 44.500000000000007 28.500000000000004 4.5000000000000009 11 12 27.500000000000004
decision_type=2 2 1 9 9 1 1 2 2 9 1 2 2 9 2 1 2 9 2 2 2 2 2 1 2 2 2 1 1 2
left_child=3 2 -2 6 5 21 14 9 -5 -7 -3 17 13 -6 -1 16 19 28 20 -10 -11 26 -8 -24 25 -25 -4 -15 -12 -19
right_child=1 10 4 8 12 7 22 -9 15 18 11 -13 -14 27 -16 -17 -18 29 -20 -21 -22 -23 23 24 -26 -27 -28 -29 -30 -31
leaf_value=0.092570182444306981 -0.090788020363374106 0.15623043643189016 0.10222010572844331 -0.083573167457182865 -0.029222404657888071 0.079936144149271846 -0.10036430874874409 0.10070550036114045 0.010267078991012271 0.1821710097987618 -0.037338763169214757 0.081174705096141858 0.12897756084598008 0.13978797285125003 -0.044910280519953827 -0.027488751047864773 0.13239076059254484 0.069076118939593631 0.094942290061761497 0.093578264183578605 -0.035627255438313375 0.13541685302198078 -0.092690785998986627 0.080922084439271444 0.094044972568103416 -0.068239244736190571 -0.052134848655810084 -0.039962071827011572 0.030430706755312006 0.19601890735487093
leaf_weight=33.4386006295681 183.71237754821777 55.176653146743774 8.2586712539195997 56.311344482004642 45.87742392718792 57.516139350831509 561.31885042414069 97.9551862180233 130.71339221298695 4.3670876920223227 50.785550341010094 528.56648096442223 149.21301417052746 50.628639236092567 49.498449496924877 79.142502799630165 34.042065411806107 124.94182404875755 20.652591273188591 38.409356214106083 170.02328834682703 6.1906488835811606 238.15413900837302 13.05392239615321 14.49725705385208 161.05299961939454 254.99050312489271 6.561454862356185 196.15416806936264 12.397274918854235
leaf_count=217 3047 239 79 795 450 319 9665 509 1098 22 500 2459 680 233 565 745 164 836 124 282 1942 26 3944 174 170 2487 3042 31 1261 64
internal_value=-0.00218504 0.037708 0.00766854 -0.059464 0.0284057 0.00055422 -0.0796558 0.0341227 0.00655916 0.00829856 0.0704759 0.0628921 0.0931343 0.0502796 0.0093873 0.02477 0.0442999 0.0393814 -0.0160996 0.0291878 -0.0301731 -0.0430945 -0.087149 -0.071809 -0.0454411 -0.0570557 -0.0472924 0.10143 0.0158513 0.075069
internal_weight=3433.6 2023.97 1055.95 1409.63 872.235 619.954 1071.01 350.514 338.619 252.559 968.022 912.845 252.281 103.068 82.9371 282.307 203.165 384.279 195.043 169.123 174.39 269.44 988.077 426.758 188.604 174.107 263.249 57.1901 246.94 137.339
internal_count=36169 15863 10504 20306 7457 6063 17222 2916 3084 2407 5359 5120 1394 714 782 2289 1544 2661 2088 1380 1964 3147 16440 6775 2831 2661 3121 264 1761 900
cat_boundaries=0 1 2 3 4 5 6 7 8 9 10 11 12 13
cat_threshold=4 882 819 2 6 257 4 8 12 824 2 1 4
is_linear=0
shrinkage=0.1


Tree=8
num_leaves=31
num_cat=13
split_feature=6 12 14 6 3 12 13 13 6 11 12 1 4 12 4 6 6 9 0 12 12 4 3 12 1 1 2 0 13 8
split_gain=661.379 171.791 166.51 199.926 123.795 94.4431 63.607 71.8481 47.6731 42.1944 30.2622 30.2394 29.9099 44.5296 29.3294 27.8586 27.0696 23.6614 21.8784 21.4901 18.7284 19.1033 18.2989 26.9235 20.4864 17.9152 17.4531 17.3497 17.2559 16.213
threshold=205.50000000000003 0 1 405.50000000000006 2 3 1.0000000180025095e-35 102.50000000000001 61.500000000000007 4 5 318.50000000000006 7.5000000000000009 6 6.5000000000000009 101.50000000000001 874.50000000000011 7 25.500000000000004 8 9 22.500000000000004 10 11 621.50000000000011 1421.5000000000002 1.5000000000000002 20.500000000000004 395.50000000000006 12
decision_type=2 9 1 2 1 9 2 2 2 1 9 2 2 9 2 2 2 9 2 9 9 2 1 9 2 2 2 2 2 1
left_child=1 6 -2 4 -4 11 27 15 -3 16 -9 -6 19 29 -13 -8 22 20 -16 -10 21 -7 -5 -24 -25 -19 -15 -1 -20 -14
right_child=2 8 3 9 5 17 7 10 12 -11 -12 14 13 26 18 -17 -18 25 28 -21 -22 -23 23 24 -26 -27 -28 -29 -30 -31
leaf_value=0.27609305532556572 0.12178491554811327 -0.10220339860637889 -0.092886144486196018 -0.015741122794488287 -0.056403542402548003 -0.060419308316498388 -0.061061359652587847 0.042023402431897422 0.046538376201919043 0.077161722060754959 -0.080710889185581461 0.091016993144055439 -0.063860746386862052 0.11829948061635157 0.13743238984885039 0.12165001452110598 0.071594217911594094 0.049783311674269352 -0.027539821264007641 -0.052713952016393277 0.057796993384620611 0.15361633496398741 0.0025418372717256037 0.028311403302902501 0.098684871202658467 0.11258935941655404 0.0419800623434292 -0.090232886311326505 0.13963449876890058 0.021662699406029436
leaf_weight=1.2949104607105244 185.62702661752701 36.39669793844223 154.76740008965135 95.015936963260174 172.8048881739378 45.024703688919544 10.744663566350935 21.387273915112019 22.838564649224281 442.24766012281179 104.14657268673182 30.060223400592804 40.871637910604477 63.59957580268383 9.0104644671082479 37.365753788501024 156.45111744105816 119.928228110075 186.17947581410408 68.869548954069614 25.699798926711082 4.5956409946084014 158.99782717227936 80.750736258924007 84.814619764685631 73.100118525326252 56.657848447561264 822.64261481165886 6.3862598538398734 48.433767884969711
leaf_count=19 759 554 2805 851 2090 491 126 219 188 2471 1695 260 540 374 69 277 666 761 2158 765 114 23 979 480 456 404 371 14886 26 292
internal_value=-0.00216182 -0.0568314 0.0337716 0.0241301 -0.0122459 0.00630445 -0.0772903 -0.023061 0.00573039 0.0539299 -0.0628824 -0.0241484 0.0189601 0.0398039 -0.001128 0.0808445 0.0360936 0.0511936 -0.0148692 -0.02867 0.000573664 -0.0337871 0.0228562 0.0341556 0.0606958 0.0699445 0.076021 -0.0896572 -0.0219956 -0.015718
internal_weight=3366.71 1335.25 2031.46 1845.84 827.557 672.79 997.582 173.644 337.668 1018.28 125.534 404.441 301.271 209.563 231.636 48.1104 576.03 268.348 201.576 91.7081 75.3201 49.6203 419.579 324.563 165.565 193.028 120.257 823.938 192.566 89.3054
internal_count=36169 20306 15863 15104 9201 6396 17222 2317 3084 5903 1914 4603 2530 1577 2513 403 3432 1793 2253 953 628 514 2766 1915 936 1165 745 14905 2184 832
cat_boundaries=0 1 2 3 4 5 6 7 8 9 10 11 12 13
cat_threshold=882 4 4 818 2 98 1 1222 1153 9 4 561 2
is_linear=0
shrinkage=0.1


Tree=9
num_leaves=31
num_cat=13
split_feature=6 12 14 6 3 12 13 13 6 6 8 9 10 2 12 14 13 6 4 4 3 12 0 9 4 1 12 0 4 4
split_gain=558.917 152.115 136.353 159.904 110.658 78.7834 59.4935 58.4446 41.0748 32.7739 30.5163 28.4654 26.3165 28.1015 25.8954 23.8049 24.9072 22.3152 21.6724 19.3116 18.6643 35.2778 19.3555 18.2949 18.0494 16.2673 16.117 15.3602 15.1077 14.8773
threshold=203.50000000000003 0 1 405.50000000000006 2 3 1.0000000180025095e-35 102.50000000000001 59.500000000000007 797.50000000000011 4 5 6 1.5000000000000002 7 8 87.500000000000014 88.500000000000014 17.500000000000004 4.5000000000000009 9 10 24.500000000000004 11 20.500000000000004 1588.5000000000002 12 28.500000000000004 18.500000000000004 22.500000000000004
decision_type=2 9 1 2 1 9 2 2 2 2 1 9 1 2 9 1 2 2 2 2 1 9 2 9 2 2 9 2 2 2
left_child=1 6 -2 4 -4 10 -1 17 -3 11 19 -5 13 18 -9 16 -10 -8 -12 -6 -13 22 -22 26 -23 28 29 -15 -24 -7
right_child=2 8 3 9 5 23 7 14 15 -11 12 20 -14 27 -16 -17 -18 -19 -20 -21 21 24 25 -25 -26 -27 -28 -29 -30 -31
leaf_value=-0.087966979425974964 0.10891910153568925 -0.10379392824959313 -0.09073881640583438 0.0028872646789784959 0.15224201273419974 -0.057397433232183895 -0.098807655208062409 0.036860861609322247 0.018845961502989818 0.072079108792726637 0.11438257093196016 0.004992694729275605 -0.07951687486692792 0.10489021015568445 -0.077707476647748797 -0.028424216942862769 0.11023621867289733 0.096954387196261496 0.0041681058954606076 -0.060259222408487315 0.25046645340786472 0.084357912801071008 0.038672857336732924 0.061651905686438996 0.16882944306501857 0.068135083601471955 0.053005380947093728 -0.02510544839208291 -0.02054780774668934 0.12581456669235444
leaf_weight=754.55511978268623 189.30730004608631 31.773217033594847 145.22858880087733 212.0390460640192 4.3875309377908698 43.336617849767208 6.7561667561531058 21.722164396196604 182.77014930173755 356.71648280322552 39.552219785749912 80.096339296549559 34.528799280524254 9.9086985588073713 96.317741692066193 82.553371246904135 35.635586619377136 42.157305281609297 32.503253899514675 169.09472488984466 4.0148464813828459 102.52273285388947 97.150072917342186 200.59332422912121 33.580800704658031 74.864070132374763 26.102462396025658 109.93721514940262 77.396334573626518 4.9370923042297354
leaf_count=14788 767 529 2858 1482 38 495 90 218 1540 1506 319 715 419 74 1683 828 166 309 313 2311 20 568 579 1180 152 408 114 1203 473 24
internal_value=-0.00212816 -0.0546979 0.0300699 0.0213374 -0.0115537 0.00548621 -0.075199 -0.0219978 0.00421375 0.0475202 -0.0227568 0.0346684 0.000853428 0.0153144 -0.0600846 0.0157565 0.0322794 0.0699148 0.0646663 -0.0548849 0.0479356 0.0579963 0.0314062 0.0457272 0.0979992 0.0291392 0.000561441 -0.0143576 0.0124136 -0.0320256
internal_weight=3302.04 1254.24 2047.8 1858.49 820.111 674.882 921.508 166.953 332.732 1038.38 399.912 681.664 226.43 191.901 118.04 300.959 218.406 48.9135 72.0555 173.482 469.625 389.529 253.425 274.969 136.104 249.41 74.3762 119.846 174.546 48.2737
internal_count=36169 20151 16018 15251 9348 6490 17088 2300 3063 5903 4677 4397 2328 1909 1901 2534 1706 399 632 2349 2915 2200 1480 1813 720 1460 633 1277 1052 519
cat_boundaries=0 1 2 3 4 5 6 7 8 9 10 11 12 13
cat_threshold=882 4 4 818 2 138 1 98 12 4 2618 1222 9
is_linear=0
shrinkage=0.1


Tree=10
num_leaves=31
num_cat=13
split_feature=6 12 3 6 14 6 12 13 13 1 6 6 12 4 12 4 12 10 12 4 8 12 12 6 9 4 6 0 0 2
split_gain=472.77 138.11 113.692 104.835 80.0896 77.8596 74.779 56.2693 53.0379 37.1022 36.1101 33.307 28.7511 48.1499 26.182 22.3899 33.9871 22.1121 20.1746 43.0682 21.5776 19.7155 18.8412 17.3083 16.8656 16.3885 15.9369 15.8432 17.4156 14.2708
threshold=203.50000000000003 0 1 498.50000000000006 2 611.50000000000011 3 8.5000000000000018 98.500000000000014 887.50000000000011 59.500000000000007 306.50000000000006 4 4.5000000000000009 5 7.5000000000000009 6 7 8 20.500000000000004 9 10 11 88.500000000000014 12 20.500000000000004 874.50000000000011 31.500000000000004 61.500000000000007 1.5000000000000002
decision_type=2 9 1 2 1 2 9 2 2 2 2 2 9 2 9 2 9 1 9 2 1 9 9 2 9 2 2 2 2 2
left_child=1 7 3 12 -4 6 9 -1 23 11 -3 -6 -2 -14 -10 22 -17 24 19 20 -8 25 -12 -9 -11 26 -7 -13 -29 -18
right_child=2 10 4 -5 5 21 18 8 14 17 15 27 13 -15 -16 16 29 -19 -20 -21 -22 -23 -24 -25 -26 -27 -28 28 -30 -31
leaf_value=-0.085908349849429036 -0.085621386721792467 -0.1028111352910899 0.098375819193108671 0.025992018221930993 -0.054844604242044417 -0.039630072019564748 -0.037753841495077323 -0.093959436712705763 0.033913324052520032 0.052136888936145313 0.041631495717653857 0.042142912233396057 -0.06927131871142693 0.52148370490040041 -0.074527070019761998 -0.017133293354662824 0.098670588830757411 -0.054945507230615614 0.095124709122549958 0.10080393818174016 0.040944209404149882 0.076481675958944839 -0.051316175605229525 0.101269977787889 -0.0053772078711756431 0.077715344438171907 0.045444760934235419 -0.019773387141215692 0.11984315622304896 0.030896570479393037
leaf_weight=700.09273650124669 165.69633792340755 29.010501965880394 189.34140826761723 201.9116231277585 176.99992956593633 45.776865229010582 66.030523985624313 5.1879199147224417 25.829198908060789 165.04217240959406 23.567836567759514 69.409623838961124 2.7053473182022563 2.8156029209494591 92.610719121992588 87.885391216725111 67.136347282677889 30.227693501859903 93.49660973995924 67.988470897078514 73.755167990922928 333.42704316973686 66.037033088505268 36.425261065363884 77.033703684806824 41.151152938604355 42.427022472023964 191.74078040570021 9.3710560798645002 57.831044763326645
leaf_count=14816 3300 529 765 1172 2275 211 697 72 239 1328 189 578 51 34 1710 832 376 307 409 294 329 1434 765 251 767 178 173 1675 41 372
internal_value=-0.00206353 -0.0521374 0.0270951 -0.0228189 0.038226 0.0296879 0.0144669 -0.0728322 -0.0201862 -0.00336162 0.00365191 -0.0211178 -0.0803802 0.0825264 -0.0543076 0.0139842 0.0316372 0.0256966 0.0553394 0.0338904 0.00376964 0.0639132 -0.0279499 0.0769307 0.0357663 0.0237668 0.00129184 0.000949337 -0.0132678 0.06232
internal_weight=3237.96 1191.61 2046.35 373.129 1673.22 1483.88 1021.1 860.146 160.053 719.825 331.468 447.521 171.217 5.52095 118.44 302.458 212.853 272.304 301.271 207.774 139.786 462.782 89.6049 41.6132 242.076 129.355 88.2039 270.521 201.112 124.967
internal_count=36169 20151 16018 4557 11461 10696 8700 17088 2272 6971 3063 4569 3385 85 1949 2534 1580 2402 1729 1320 1026 1996 954 323 2095 562 384 2294 1716 748
cat_boundaries=0 1 2 3 4 5 6 7 8 9 10 11 12 13
cat_threshold=882 4 4 826 320 98 1 1 3073 2 529 1153 825
is_linear=0
shrinkage=0.1


Tree=11
num_leaves=31
num_cat=12
split_feature=6 3 6 12 6 8 12 1 12 12 9 4 12 0 6 6 10 4 12 6 2 4 14 2 0 13 4 9 13 6
split_gain=413.362 143.496 125.136 93.4013 106.069 90.4809 69.442 44.9247 40.697 31.7644 28.5371 27.8004 25.0099 24.5356 23.505 20.2339 19.4754 18.9262 20.4153 17.2421 17.1077 23.3722 17.0355 15.8575 14.4945 14.2109 14.17 14.1162 13.107 12.9774
threshold=146.50000000000003 0 475.50000000000006 1 383.50000000000006 2 3 89.500000000000014 4 5 6 10.500000000000002 7 61.500000000000007 59.500000000000007 604.50000000000011 8 7.5000000000000009 9 916.50000000000011 1.5000000000000002 11.500000000000002 10 3.5000000000000004 60.500000000000007 82.500000000000014 27.500000000000004 11 93.500000000000014 126.50000000000001
decision_type=2 1 2 9 2 1 9 2 9 9 9 2 9 2 2 2 1 2 9 2 2 2 1 2 2 2 2 9 2 2
left_child=6 2 8 -3 5 9 14 25 -2 11 -9 -5 15 19 -1 20 26 -16 -19 22 21 -6 -14 -13 -8 -7 -12 -24 -21 -26
right_child=1 3 -4 4 12 7 24 10 -10 -11 16 23 13 -15 17 -17 -18 18 -20 28 -22 -23 27 -25 29 -27 -28 -29 -30 -31
leaf_value=-0.10183588414394351 -0.09034392709234651 0.088964632258906121 0.021348729442410216 -0.038537934254576411 0.012501608635832632 -0.055095852432143461 -0.088332143783976025 -0.017660389054745228 0.10763383529906034 -0.056467958690254894 0.063383897010806919 0.12670201402298972 0.085966112672908629 0.13303695603957186 -0.049844901991220603 0.091946692283858752 -0.0372945520078274 -0.025560767046007373 0.053600734689141727 0.074720472715105901 0.017519438329439134 0.13550228658013247 -0.0095190463858764295 -0.042642661980591641 -0.035187025088406827 0.041149840968509648 0.0030923632434753808 0.028879862183988549 -0.012935311502551623 0.28247113211077907
leaf_weight=26.229412149637938 221.95589425414801 224.1660770624876 212.34859522432089 35.891094882041216 26.574639223515987 83.026230450719595 539.78860817849636 80.633287653326988 4.6842550262808791 280.58509178459644 290.07219918817282 25.123517505824566 22.469496682286263 22.532841607928276 52.904234077781439 182.86863553524017 24.377195473760366 50.335217524319887 67.464414533227682 99.033154055476189 99.176289819180965 36.898068159818649 189.46074619144201 7.0900726653635493 3.8540747649967662 18.818332672119141 45.033242043107748 178.57266983389854 20.608392089605331 1.9301550537347791
leaf_count=524 4948 1004 1273 431 152 1083 12234 828 39 4213 2178 208 92 95 608 767 314 525 444 401 656 202 1147 101 65 114 374 1045 83 21
internal_value=-0.00199123 0.0179474 -0.0338093 0.0293475 0.0211696 -0.00302664 -0.0672981 0.0225392 -0.0854892 -0.0427631 0.0363891 0.0191754 0.0459501 0.0303486 -0.0130388 0.06718 0.0476776 -0.000158586 0.0221557 0.0264078 0.0434648 0.0840046 0.0162318 0.08943 -0.0850853 -0.0373121 0.0552816 0.0093835 0.0596217 0.0708132
internal_weight=3174.51 2432 438.989 1993.01 1768.85 890.65 742.506 541.96 226.64 348.69 440.116 68.1047 878.195 532.677 196.933 345.518 359.483 170.704 117.8 510.144 162.649 63.4727 390.503 32.2136 545.573 101.845 335.105 368.033 119.642 5.78423
internal_count=36169 21748 6260 15488 14484 9844 14421 4891 4987 4953 3694 740 4640 2863 2101 1777 2866 1577 969 2768 1010 354 2284 309 12320 1197 2552 2192 484 86
cat_boundaries=0 1 2 3 4 5 6 7 8 9 10 11 12
cat_threshold=4 2240 2 3209 2400 1034 78 1282 1 1 4 1195
is_linear=0
shrinkage=0.1


Tree=12
num_leaves=31
num_cat=13
split_feature=6 3 6 14 6 12 12 12 2 12 4 12 12 0 8 6 6 8 12 4 6 13 13 1 2 4 12 4 13 8
split_gain=355.214 130.834 119.566 88.0431 85.106 89.5074 43.1128 38.3536 28.9358 30.5074 39.6275 27.8394 27.684 23.8553 20.6974 20.2306 20.1155 19.1791 18.9962 17.0543 16.4197 15.6982 38.7748 16.1722 15.2189 17.4004 16.1842 15.1212 13.2673 12.9865
threshold=130.50000000000003 0 475.50000000000006 1 312.50000000000006 2 3 4 1.5000000000000002 5 16.500000000000004 6 7 59.500000000000007 8 942.50000000000011 604.50000000000011 9 10 13.500000000000002 59.500000000000007 8.5000000000000018 104.50000000000001 2146.5000000000005 1.5000000000000002 17.500000000000004 11 20.500000000000004 388.50000000000006 12
decision_type=2 1 2 1 2 9 9 9 2 9 2 9 9 2 1 2 2 1 9 2 2 2 2 2 2 2 9 2 2 1
left_child=7 2 6 -3 5 8 -2 20 9 10 19 -7 15 21 -13 17 24 -6 27 -5 -1 -10 23 -23 25 -14 -26 -12 -11 -27
right_child=1 3 -4 4 12 11 -8 -9 13 28 18 14 16 -15 -16 -17 -18 -19 -20 -21 -22 22 -24 -25 26 29 -28 -29 -30 -31
leaf_value=-0.1009246982799535 -0.090330243828474821 0.08022236218429557 0.019017909710418914 0.10978329743391652 -0.0094504049267595674 0.079684893176122942 0.1030976988604391 -0.086415235669984963 -0.078307857429324126 -0.047253459735510595 0.29077473037543539 -0.026520390658970938 0.042332254926435386 0.077552100232039595 0.033073065988816715 0.059505229822295419 0.080740900941674215 0.029868276113027253 -0.053053597346688512 0.3767759969420954 -0.010904710001974453 0.075294012470848826 -0.053050182648266858 0.37734657866979882 -0.0014349094864244804 0.25909645911861157 0.072803004801171245 0.028463193829114854 0.24337735637147723 0.097270424940221409
leaf_weight=23.936815354973078 224.84474581852555 244.75495456159115 214.42013455182314 28.066350296139721 222.41742292419076 77.845240201801062 6.0815984047949305 436.0853122510016 201.69875248149037 103.00713783502579 4.1150179207324982 86.969754051417112 76.042554527521133 12.12342546507716 176.66919367015362 111.82821336388588 187.13846378028393 280.53583189100027 29.498145405203104 2.6153474412858477 131.99184433370829 4.4320230185985556 40.484758749604225 2.9540142565965652 123.20335436612368 6.4473805204033852 29.30450302362442 4.7163837775588036 1.5950408279895771 21.481562256813053
leaf_count=524 5481 1005 1273 285 1642 418 44 10768 3610 1718 44 1052 493 106 1015 450 775 1644 508 25 1282 37 622 20 988 46 122 59 10 103
internal_value=-0.00190819 0.0144361 -0.0347545 0.0249685 0.0170693 -0.00797465 -0.0846833 -0.0716262 -0.0375721 -0.00678152 0.0417901 0.029977 0.035611 -0.059435 0.012924 0.0206977 0.0545815 0.0124807 -0.0199515 0.132542 -0.0232338 -0.0660895 -0.0146087 0.196099 0.0376226 0.0671248 0.0175096 0.0706685 -0.0390852 0.134628
internal_weight=3117.31 2525.29 445.346 2079.94 1835.19 776.791 230.926 592.014 435.306 173.613 69.0112 341.484 1058.4 261.693 263.639 614.781 443.618 502.953 38.3295 30.6817 155.929 249.57 47.8708 7.38604 256.479 103.971 152.508 8.8314 104.602 27.9289
internal_count=36169 23595 6798 16797 15792 9529 5525 12574 7044 2649 921 2485 6263 4395 2067 3736 2527 3286 611 310 1806 4289 679 57 1752 642 1110 103 1728 149
cat_boundaries=0 1 2 3 4 5 6 7 8 9 10 11 12 13
cat_threshold=4 4 818 352 3209 514 192 2617 2 2 2 258 2
is_linear=0
shrinkage=0.1


end of trees

feature_importances:
duration=83
month=74
day=48
pdays=41
contact=28
housing=28
age=27
poutcome=20
balance=14
campaign=10
job=10
loan=4
marital=3

parameters:
[boosting: gbdt]
[objective: binary]
[metric: binary_logloss]
[tree_learner: serial]
[device_type: cpu]
[data_sample_strategy: bagging]
[data: ]
[valid: ]
[num_iterations: 13]
[learning_rate: 0.1]
[num_leaves: 31]
[num_threads: 0]
[seed: 42]
[deterministic: 0]
[force_col_wise: 0]
[force_row_wise: 0]
[histogram_pool_size: -1]
[max_depth: -1]
[min_data_in_leaf: 20]
[min_sum_hessian_in_leaf: 0.001]
[bagging_fraction: 1]
[pos_bagging_fraction: 1]
[neg_bagging_fraction: 1]
[bagging_freq: 0]
[bagging_seed: 400]
[bagging_by_query: 0]
[feature_fraction: 1]
[feature_fraction_bynode: 1]
[feature_fraction_seed: 30056]
[extra_trees: 0]
[extra_seed: 12879]
[early_stopping_round: 0]
[early_stopping_min_delta: 0]
[first_metric_only: 0]
[max_delta_step: 0]
[lambda_l1: 0]
[lambda_l2: 0]
[linear_lambda: 0]
[min_gain_to_split: 0]
[drop_rate: 0.1]
[max_drop: 50]
[skip_drop: 0.5]
[xgboost_dart_mode: 0]
[uniform_drop: 0]
[drop_seed: 17869]
[top_rate: 0.2]
[other_rate: 0.1]
[min_data_per_group: 100]
[max_cat_threshold: 32]
[cat_l2: 10]
[cat_smooth: 10]
[max_cat_to_onehot: 4]
[top_k: 20]
[monotone_constraints: ]
[monotone_constraints_method: basic]
[monotone_penalty: 0]
[feature_contri: ]
[forcedsplits_filename: ]
[refit_decay_rate: 0.9]
[cegb_tradeoff: 1]
[cegb_penalty_split: 0]
[cegb_penalty_feature_lazy: ]
[cegb_penalty_feature_coupled: ]
[path_smooth: 0]
[interaction_constraints: ]
[verbosity: -1]
[saved_feature_importance_type: 0]
[use_quantized_grad: 0]
[num_grad_quant_bins: 4]
[quant_train_renew_leaf: 0]
[stochastic_rounding: 1]
[linear_tree: 0]
[max_bin: 255]
[max_bin_by_feature: ]
[min_data_in_bin: 3]
[bin_construct_sample_cnt: 200000]
[data_random_seed: 175]
[is_enable_sparse: 1]
[enable_bundle: 1]
[use_missing: 1]
[zero_as_missing: 0]
[feature_pre_filter: 0]
[pre_partition: 0]
[two_round: 0]
[header: 0]
[label_column: ]
[weight_column: ]
[group_column: ]
[ignore_column: ]
[categorical_feature: 3,5,7,8,9,10,11,12,14]
[forcedbins_filename: ]
[precise_float_parser: 0]
[parser_config_file: ]
[objective_seed: 16083]
[num_class: 1]
[is_unbalance: 0]
[scale_pos_weight: 1]
[sigmoid: 1]
[boost_from_average: 1]
[reg_sqrt: 0]
[alpha: 0.9]
[fair_c: 1]
[poisson_max_delta_step: 0.7]
[tweedie_variance_power: 1.5]
[lambdarank_truncation_level: 30]
[lambdarank_norm: 1]
[label_gain: ]
[lambdarank_position_bias_regularization: 0]
[eval_at: ]
[multi_error_top_k: 1]
[auc_mu_weights: ]
[num_machines: 1]
[local_listen_port: 12400]
[time_out: 120]
[machine_list_filename: ]
[machines: ]
[gpu_platform_id: -1]
[gpu_device_id: -1]
[gpu_use_dp: 0]
[num_gpu: 1]

end of parameters

pandas_categorical:[["cellular", "telephone", "unknown"], ["no", "yes"], ["primary", "secondary", "tertiary", "unknown"], ["no", "yes"], ["admin.", "blue-collar", "entrepreneur", "housemaid", "management", "retired", "self-employed", "services", "student", "technician", "unemployed", "unknown"], ["no", "yes"], ["divorced", "married", "single"], ["apr", "aug", "dec", "feb", "jan", "jul", "jun", "mar", "may", "nov", "oct", "sep"], ["failure", "other", "success", "unknown"]]
