tree
version=v4
num_class=1
num_tree_per_iteration=1
label_index=0
max_feature_idx=7
objective=binary sigmoid:1
feature_names=Age Embarked Fare Parch PassengerId Pclass Sex SibSp
feature_infos=[0.41999999999999998:80] -1:2:0:1 [0:512.32920000000001] [0:6] [1:890] [1:3] -1:1:0 [0:8]
tree_sizes=2795 2910 3112 3030 3024 3013 2931 3117 3227 3143 3040 3037 3266 3251 3124

Tree=0
num_leaves=26
num_cat=2
split_feature=6 5 2 0 2 7 4 0 4 2 4 2 1 4 0 0 4 4 2 2 2 0 2 2 0
split_gain=222.067 60.7538 20.2256 16.2439 14.0199 8.11674 7.34445 6.08554 5.79368 9.59752 3.74699 2.66753 2.52855 2.0185 1.55885 3.47147 1.41522 1.2812 1.13714 0.496759 0.206408 0.158564 0.119861 0.0845267 7.10543e-15
threshold=0 2.5000000000000004 26.268750000000004 16.500000000000004 23.725000000000005 2.5000000000000004 569.50000000000011 38.500000000000007 395.50000000000006 8.6729000000000003 685.50000000000011 9.1083500000000015 1 580.50000000000011 34.250000000000007 28.250000000000004 303.50000000000006 126.50000000000001 13.208350000000001 126.82500000000002 52.277100000000011 24.250000000000004 26.125000000000004 7.977100000000001 33.500000000000007
decision_type=1 2 2 2 2 2 2 2 2 2 2 2 1 2 2 2 2 2 2 2 2 2 2 2 2
left_child=2 18 3 -1 8 6 7 20 9 -3 -8 -10 -5 14 15 16 17 -14 -2 22 -4 -15 -20 -18 -23
right_child=1 4 5 12 -6 -7 10 -9 11 -11 -12 -13 13 21 -16 -17 23 -19 19 -21 -22 24 -24 -25 -26
leaf_value=-0.41240640083750318 -0.27454735251191009 -0.25991772863008156 -0.47278262638155855 -0.54677309886201853 -0.57615404284335026 -0.6126542155586201 -0.33794238933316822 -0.57925252949150563 -0.50699582085652328 -0.42928577572078747 -0.46089033953197184 -0.40325848787628266 -0.61457527728047623 -0.61366048598435419 -0.63378589449903944 -0.52108360681680277 -0.63378589449903955 -0.54925917873736196 -0.22740745333712872 -0.24957355012777813 -0.44360078403526509 -0.63378589449903944 -0.21115231569065201 -0.61688055134670394 -0.63378589449903944
leaf_weight=4.968843385577201 4.7322317957878104 6.15190133452416 4.9688433855772107 8.0447940528392792 5.2054549753665915 4.7322317957878104 4.7322317957878095 7.3349592834711066 4.7322317957878095 7.3349592834711075 5.2054549753665924 5.2054549753665924 5.2054549753665977 4.9688433855772045 7.3349592834711066 7.098347693681716 5.9152897447347623 7.0983476936817169 6.1519013345241609 5.2054549753665915 4.7322317957878113 12.067191079258921 17.272646054625511 5.9152897447347641 6.3885129243135443
leaf_count=21 20 26 21 34 22 20 20 31 20 31 22 22 22 21 31 30 25 30 26 22 20 51 73 25 27
internal_value=-0.471371 -0.320843 -0.558818 -0.587123 -0.427708 -0.491857 -0.470664 -0.510518 -0.39472 -0.35203 -0.402344 -0.452657 -0.599518 -0.606363 -0.5923 -0.582558 -0.600638 -0.576893 -0.229137 -0.221631 -0.458548 -0.629517 -0.215421 -0.625333 -0.633786
internal_weight=168.704 61.9922 106.712 75.0059 28.63 31.706 26.9737 17.036 23.4245 13.4869 9.93769 9.93769 70.037 61.9922 38.5677 31.2327 24.1344 12.3038 33.3622 28.63 9.70108 23.4245 23.4245 11.8306 18.4557
internal_count=713 262 451 317 121 134 114 72 99 57 42 42 296 262 163 132 102 52 141 121 41 99 99 50 78
cat_boundaries=0 1 2
cat_threshold=2 1
is_linear=0
shrinkage=1


Tree=1
num_leaves=27
num_cat=2
split_feature=6 5 5 0 2 4 4 2 0 0 0 1 2 4 4 2 4 4 2 0 4 0 2 0 2 2
split_gain=178.224 45.3795 17.5334 18.2865 11.3523 6.04185 4.48795 7.23577 4.33823 2.47995 2.8766 3.13871 2.1358 1.84261 1.76782 0.828104 0.544239 0.718857 0.504752 0.463221 0.696613 0.44878 0.00225644 0.00148644 0.000786843 0.000403034
threshold=0 2.5000000000000004 1.5000000000000002 9.5000000000000018 23.725000000000005 569.50000000000011 395.50000000000006 8.6729000000000003 41.500000000000007 34.250000000000007 31.500000000000004 1 9.1083500000000015 303.50000000000006 202.50000000000003 13.208350000000001 666.00000000000011 444.50000000000006 7.910400000000001 27.500000000000004 503.50000000000006 26.500000000000004 87.80210000000001 24.250000000000004 27.735400000000002 12.500000000000002
decision_type=1 2 2 2 2 2 2 2 2 2 2 1 2 2 2 2 2 2 2 2 2 2 2 2 2 2
left_child=2 15 5 -4 6 8 7 -3 -1 10 11 -5 -8 14 21 -2 17 -15 -19 20 -17 -13 24 -18 -21 -11
right_child=1 4 3 9 -6 -7 12 -9 -10 25 -12 13 -14 16 -16 19 23 18 -20 22 -22 -23 -24 -25 -26 -27
leaf_value=0.0023186638912468475 0.1704557237946322 0.1827445895091743 0.07117643446915696 -0.05521231807249774 -0.097006883626560722 0.060551274689371319 -0.032352286496170023 0.037505867095103423 -0.10761675767298616 -0.15362149588197613 -0.041675934457472696 -0.13968427055609539 0.060358781219244963 -0.15456842102483667 -0.051411654213059543 0.17617514299818648 -0.15594430220578626 -0.13535213146607217 -0.093991665471491848 0.22512874023900031 0.22470036064983573 -0.099365665369170061 0.22658368285842154 -0.15370644211721729 0.22351003909027903 -0.15471071910551115
leaf_weight=8.5058389157056826 4.9069508910179129 6.3914439976215416 5.6141661703586569 7.6995034664869308 5.0676784217357627 8.8317482620477659 4.691973924636839 7.4036325365304947 6.2103454172611228 7.9498536288738233 6.0270967632532111 5.7730861604213732 5.282324492931366 6.3882264941930833 5.5906822830438605 6.173871651291849 4.8207834362983686 5.4529610276222211 6.4296274781227112 4.9376643300056475 5.6802806109189987 5.2908238172531128 5.4239317774772635 7.7233156710863113 7.6642540544271469 5.9318749308586121
leaf_count=36 20 26 24 33 22 37 20 31 27 35 26 25 22 28 24 25 21 24 28 20 23 23 22 34 31 26
internal_value=-0.000253803 0.131636 -0.0807542 -0.102909 0.0388778 -0.00483446 0.0678487 0.104797 -0.0440749 -0.115927 -0.107271 -0.114437 0.0167469 -0.124043 -0.0972442 0.208529 -0.138528 -0.127516 -0.112972 0.214781 0.199427 -0.120404 0.224878 -0.154566 0.224144 -0.154087
internal_weight=167.864 63.624 104.24 80.692 28.8371 23.5479 23.7694 13.7951 14.7162 75.0778 61.1961 55.169 9.9743 47.4695 16.6546 34.787 30.8149 18.2708 11.8826 29.88 11.8542 11.0639 18.0259 12.5441 12.6019 13.8817
internal_count=713 262 451 351 121 100 99 57 63 327 266 240 42 207 72 141 135 80 52 121 48 48 73 55 51 61
cat_boundaries=0 1 2
cat_threshold=2 1
is_linear=0
shrinkage=0.1


Tree=2
num_leaves=29
num_cat=2
split_feature=6 5 2 2 7 0 2 4 4 2 1 2 2 4 0 0 0 4 4 2 0 3 2 0 2 0 0 4
split_gain=145.272 35.8214 15.1947 9.25903 6.34249 7.0586 6.78855 6.1204 3.55779 5.71447 2.74333 2.14458 1.71565 1.39787 1.25973 1.23904 2.73739 1.27661 1.19907 0.684559 0.591505 0.416849 0.126292 0.118078 0.0025502 0.00149701 0.0010859 0.000310215
threshold=0 2.5000000000000004 15.875000000000002 23.725000000000005 2.5000000000000004 20.500000000000004 26.268750000000004 369.50000000000006 395.50000000000006 8.6729000000000003 1 30.597900000000003 9.1083500000000015 583.50000000000011 38.500000000000007 34.250000000000007 28.250000000000004 285.50000000000006 126.50000000000001 13.208350000000001 23.500000000000004 1.5000000000000002 26.125000000000004 27.500000000000004 99.96250000000002 27.500000000000004 31.500000000000004 735.50000000000011
decision_type=1 2 2 2 2 2 2 2 2 2 1 2 2 2 2 2 2 2 2 2 2 2 2 2 2 2 2 2
left_child=2 19 10 8 5 -4 -7 14 9 -3 -1 -9 -10 15 -8 16 17 18 -12 -2 -15 22 -21 -19 25 -24 27 -22
right_child=1 3 4 -5 -6 6 7 11 12 -11 13 -13 -14 20 -16 -17 -18 23 -20 21 26 -23 24 -25 -26 -27 -28 -29
leaf_value=-0.052133419445041344 0.15080754001410007 0.16180030587191493 0.09587223436383889 -0.090047758096362937 -0.13475859739359802 -0.1121091186280901 -0.034026019121454851 0.083780275612423585 -0.029372320098599244 0.033485595430694112 -0.12633115122650726 0.0048541320489576302 0.053687429840147884 -0.10584895887304968 -0.10571747781309193 -0.14580550106782561 -0.032795815290273124 -0.14784621857416078 -0.05931099096297679 0.18296574154030165 -0.14673840868659413 0.1658896779142171 0.20086138685398597 -0.12588377764317024 0.202092204789802 0.19871360204015534 -0.14788303569116618 -0.14553974608506323
leaf_weight=7.7715688794851303 4.986480474472045 6.4903316795826012 4.9869765788316718 4.9211299121379843 5.0038614571094504 7.9618822932243338 5.4437795728445071 5.6578964442014685 4.6533089876174909 7.4600557088851929 4.6029450297355705 8.7931601107120496 5.3414435684680939 4.6164952516555813 4.4582995623350143 5.5995023697614661 5.7226707041263571 5.0217373967170698 6.3553726226091385 5.4993376731872621 4.336632311344145 5.4978588521480551 4.9991858005523708 4.7762966305017471 4.9992718696594229 9.2496093064546567 6.1172465980052939 4.2998594641685486
leaf_count=34 20 26 21 22 22 36 23 24 20 31 21 37 22 21 20 26 25 23 28 22 20 22 20 22 20 37 28 20
internal_value=-0.0003979 0.11747 -0.0748133 0.0348814 -0.029042 -0.0148607 -0.0319494 -0.00574247 0.0605564 0.0931832 -0.107511 0.0357554 0.0150169 -0.115876 -0.0663043 -0.103068 -0.09403 -0.110913 -0.0874622 0.185137 -0.137089 0.190797 0.196331 -0.13714 0.200149 0.199467 -0.146864 -0.146142
internal_weight=165.624 64.098 101.526 28.8663 42.3059 37.302 32.315 24.3531 23.9451 13.9504 59.2203 14.4511 9.99475 51.4488 9.90208 32.0785 26.479 20.7564 10.9583 35.2317 19.3702 30.2453 24.7474 9.79803 19.2481 14.2488 14.7537 8.63649
internal_count=713 262 451 121 183 161 140 104 99 57 268 61 42 234 43 145 119 94 49 141 89 121 99 45 77 57 68 40
cat_boundaries=0 1 2
cat_threshold=2 1
is_linear=0
shrinkage=0.1


Tree=3
num_leaves=28
num_cat=1
split_feature=6 5 2 2 7 0 2 4 4 2 0 2 4 4 4 4 0 2 2 2 4 2 4 4 2 2 3
split_gain=119.678 29.3599 13.3334 7.59005 5.45425 5.67894 5.81882 5.02846 2.86655 4.65948 2.59928 2.02047 1.63347 2.5279 1.90392 1.5995 1.10824 0.61326 0.440464 0.402774 0.243697 0.174732 0.156424 0.0808851 0.00382264 0.00224385 0.000372108
threshold=0 2.5000000000000004 15.875000000000002 23.725000000000005 2.5000000000000004 20.500000000000004 26.268750000000004 369.50000000000006 395.50000000000006 8.6729000000000003 20.500000000000004 52.277100000000011 583.50000000000011 428.50000000000006 147.50000000000003 648.50000000000011 38.500000000000007 13.208350000000001 7.910400000000001 126.82500000000002 432.00000000000006 10.481250000000001 285.50000000000006 314.00000000000006 7.5896000000000008 29.412500000000005 1.0000000180025095e-35
decision_type=1 2 2 2 2 2 2 2 2 2 2 2 2 2 2 2 2 2 2 2 2 2 2 2 2 2 2
left_child=2 17 10 8 5 -4 -7 16 9 -3 20 -9 13 14 18 -10 -8 -2 -12 23 -1 24 -16 -19 -14 -25 -27
right_child=1 3 4 -5 -6 6 7 11 15 -11 12 -13 21 -15 22 -17 -18 19 -20 -21 -22 -23 -24 25 -26 26 -28
leaf_value=-0.036080477753848671 0.13540310731124269 0.14564894928625285 0.084612688704560263 -0.083735237919722982 -0.12699901991813525 -0.10529049142360683 -0.030886263031625755 0.0019421000386670815 -0.026501471113022614 0.029940073551606213 -0.056765008070097392 0.078218620677327627 -0.1443326053451541 -0.049881136953675048 -0.14846118308177947 0.053473677418961946 -0.098947387978712789 0.17000554687326089 -0.10104902974612587 0.14868691173518014 -0.068156266099533 -0.11889982266420029 -0.12667098536801322 0.18411775221584448 -0.14061495852530717 0.1811636041449424 0.18231144470787886
leaf_weight=4.399599537253378 4.997273087501525 6.488375931978231 5.0800745636224738 4.7708717286586753 4.7897302061319342 7.646283924579623 5.3998478651046771 8.8381692469120008 5.0015536248683912 7.5065001398324966 4.4964033961296135 5.7203931510448447 4.2269017249345806 8.3383060991764051 7.2041325569152814 5.0015536248683929 4.2955638617277145 7.4369695633649888 4.4877487868070602 5.4635713249444953 5.1310131400823593 4.5253496915101996 6.0704607367515564 5.7061664462089565 8.001668453216551 6.1821344941854459 5.1997416913509369
leaf_count=20 20 26 21 22 22 36 23 37 21 31 21 24 20 39 33 21 20 30 21 22 24 22 29 23 39 25 21
internal_value=-0.000483649 0.106299 -0.0694932 0.031464 -0.0265919 -0.013587 -0.0292252 -0.00524492 0.054366 0.0835856 -0.100997 0.0319129 -0.110588 -0.0968437 -0.114436 0.0134861 -0.0610408 0.167836 -0.0788857 0.173241 -0.0533492 -0.135687 -0.138497 0.178711 -0.1419 0.182499 0.181688
internal_weight=162.406 63.7547 98.6516 28.7689 41.7701 36.9803 31.9003 24.254 23.998 13.9949 56.8816 14.5586 47.351 30.5971 22.2587 10.0031 9.69541 34.9859 8.98415 29.9886 9.53061 16.7539 13.2746 24.525 12.2286 17.088 11.3819
internal_count=713 262 451 121 183 161 140 104 99 57 268 61 224 143 104 42 43 141 42 121 44 81 62 99 59 69 46
cat_boundaries=0 1
cat_threshold=2
is_linear=0
shrinkage=0.1


Tree=4
num_leaves=28
num_cat=2
split_feature=6 5 0 5 2 4 0 0 0 1 4 2 4 4 4 2 2 4 0 4 4 2 4 2 0 2 2
split_gain=99.2744 24.7399 12.4613 14.4504 6.23991 4.44073 2.93092 2.37109 2.92453 3.21504 2.34231 3.88531 1.96555 1.44379 2.2277 1.37935 0.57864 0.43157 0.392186 0.585857 0.386145 0.717825 0.159826 0.00566058 0.00519119 0.00146945 0.000811146
threshold=0 2.5000000000000004 9.5000000000000018 1.5000000000000002 23.725000000000005 569.50000000000011 41.500000000000007 32.250000000000007 28.250000000000004 1 395.50000000000006 8.6729000000000003 428.50000000000006 303.50000000000006 107.50000000000001 9.1083500000000015 13.208350000000001 194.50000000000003 27.500000000000004 503.50000000000006 666.00000000000011 7.910400000000001 194.50000000000003 9.8312500000000025 37.500000000000007 87.80210000000001 30.597900000000003
decision_type=1 2 2 2 2 2 2 2 2 1 2 2 2 2 2 2 2 2 2 2 2 2 2 2 2 2 2
left_child=2 16 -1 5 10 6 -4 8 9 -5 11 -3 -10 14 -11 -12 -2 -16 19 -18 21 -15 -9 -22 -24 26 -20
right_child=1 4 3 7 -6 -7 -8 22 12 13 15 -13 -14 20 17 -17 18 -19 25 -21 23 -23 24 -25 -26 -27 -28
leaf_value=0.0777537098178748 0.12285132858797848 0.13266302066855665 -0.0018236314000802671 -0.028294968654003202 -0.077946445658808247 0.049833697003936639 -0.094798285784107192 -0.11497021993425567 -0.081303959121306654 -0.14044801646299646 -0.027935515174396006 0.026801572665284785 0.012200023426658796 -0.13668179108919828 -0.074606669056175481 0.046459473667063295 0.12415803443055771 -0.02966841496200482 0.16956136040372805 0.16904718021507159 -0.13611883979450876 -0.092046946093346127 -0.1410745954464406 -0.14095487015374711 -0.13658947096957857 0.17058026920694835 0.1679123732756618
leaf_weight=5.7757195681333533 4.9587690830230704 6.4145867526531273 8.1658264696598071 5.7467285245656967 4.6206538677215567 8.9403609186410886 5.7980191856622687 4.0213982164859763 4.5594315677881223 4.2734906673431388 4.6321673691272718 7.5448024868965149 4.4348567575216293 6.6676235646009463 4.2526720166206342 5.3947406262159348 6.0996004194021243 4.2958211302757263 5.0804302990436572 5.5555049926042557 5.633237496018408 7.8391950130462646 4.0831004828214628 4.2437436580657959 7.0127724558115005 5.3343839198350897 7.2259147614240646
leaf_count=25 20 26 35 26 22 37 27 20 21 21 20 31 21 34 20 22 25 20 21 23 29 38 20 21 36 22 30
internal_value=-0.000526767 0.0971121 -0.0646324 -0.0737732 0.0284638 -0.00519566 -0.0404282 -0.0971943 -0.0870508 -0.0979085 0.0489624 0.0754468 -0.0351995 -0.108661 -0.0814953 0.0120909 0.154442 -0.0520241 0.159789 0.145555 -0.122946 -0.112562 -0.13205 -0.138197 -0.13824 0.169194 0.168593
internal_weight=158.606 62.8616 95.744 89.9683 28.607 22.9042 13.9638 67.0641 51.9468 42.9525 23.9863 13.9594 8.99429 37.2058 12.822 10.0269 34.2546 8.54849 29.2958 11.6551 24.3838 14.5068 15.1173 9.87698 11.0959 17.6407 12.3063
internal_count=713 262 451 426 121 99 62 327 251 209 99 57 42 183 61 42 141 40 121 48 122 72 76 50 56 73 51
cat_boundaries=0 1 2
cat_threshold=2 1
is_linear=0
shrinkage=0.1


Tree=5
num_leaves=28
num_cat=3
split_feature=6 5 0 5 2 4 0 0 0 1 1 2 4 4 4 4 2 2 4 2 4 4 2 2 0 0 2
split_gain=82.8347 21.2507 10.4283 12.6917 5.14537 3.61715 2.51351 2.26285 2.64496 2.93293 2.17341 1.97033 1.66077 1.38351 2.06862 0.8833 0.565262 0.397706 0.383356 0.712515 0.373779 0.160576 0.0953961 0.00387276 0.00387226 0.00344137 1.80615e-05
threshold=0 2.5000000000000004 9.5000000000000018 1.5000000000000002 23.725000000000005 569.50000000000011 41.500000000000007 32.250000000000007 28.250000000000004 1 2 15.525000000000002 428.50000000000006 303.50000000000006 107.50000000000001 474.00000000000006 13.208350000000001 126.82500000000002 666.00000000000011 7.910400000000001 194.50000000000003 194.50000000000003 26.125000000000004 9.8312500000000025 27.500000000000004 37.500000000000007 74.375000000000014
decision_type=1 2 2 2 2 2 2 2 2 1 1 2 2 2 2 2 2 2 2 2 2 2 2 2 2 2 2
left_child=2 16 -1 5 10 6 -4 8 9 -5 -3 15 -10 14 -11 -12 -2 22 19 -15 -16 -9 -18 -20 -24 -23 -26
right_child=1 4 3 7 -6 -7 -8 21 12 13 11 -13 -14 18 20 -17 17 -19 23 -21 -22 25 24 -25 26 -27 -28
leaf_value=0.068766899504202589 0.11230857462155537 0.092676517787225049 -0.0016420486620478314 -0.025725989360523022 -0.072591578298983675 0.044511951106759151 -0.08868695238055474 -0.10935078083289629 -0.075582060307197899 -0.13518730292833023 -0.018649188226949925 0.077290187893871265 0.010926976363613498 -0.1319994508206753 -0.069269905042561114 0.036618330642987182 0.14404268933286357 0.12416852081487038 -0.13153406877206428 -0.086309587813211894 -0.027018687753194423 -0.13571777664557408 0.16041620344668572 -0.1356670160092231 0.15748937874556837 -0.13194586824911933 0.1572199824382606
leaf_weight=5.87189657986164 4.8855200409889212 6.6811707317829132 8.1621622741222399 5.6915542185306549 4.4732113778591147 9.0046322941780073 5.5888560712337485 3.8159659206867209 4.4214844703674299 4.0093978494405738 7.2557150125503629 5.1447869688272467 4.4552457332611084 6.2359311729669589 4.1288910806179029 4.8080894201993942 6.1004303693771424 5.2039123475551596 5.2655439525842649 7.5400907844305038 4.2480169087648392 3.8327172696590406 7.0356857478618648 3.9817183315753937 4.8672359585762006 6.5570586174726486 5.0926377773284912
leaf_count=25 20 28 35 26 22 37 27 20 21 21 30 21 21 34 20 20 26 22 29 38 20 20 30 21 21 36 22
internal_value=-0.000558697 0.0893975 -0.0602138 -0.0689252 0.0258387 -0.00475695 -0.0370199 -0.0916754 -0.0816648 -0.0923559 0.0442692 0.0254752 -0.032163 -0.103066 -0.0761166 0.00337796 0.14372 0.149143 -0.117564 -0.106992 -0.0478439 -0.126894 0.15477 -0.133314 0.15862 -0.133337 0.157352
internal_weight=154.36 61.5484 92.8112 86.9393 28.363 22.7557 13.751 64.1836 49.9779 41.1011 23.8898 17.2086 8.87673 35.4096 12.3863 12.0638 33.1854 28.2999 23.0233 13.776 8.37691 14.2057 23.096 9.24726 16.9956 10.3898 9.95987
internal_count=713 262 451 426 121 99 62 327 251 209 99 71 42 183 61 50 141 121 122 72 40 76 99 50 73 56 43
cat_boundaries=0 1 2 3
cat_threshold=2 1 2
is_linear=0
shrinkage=0.1


Tree=6
num_leaves=27
num_cat=2
split_feature=6 5 0 5 4 0 4 0 0 1 4 0 4 4 0 5 2 4 2 3 4 2 2 2 4 2
split_gain=69.2325 18.6589 11.1064 10.9465 4.92636 3.84679 3.09596 2.31768 2.72734 2.04264 1.7797 1.77911 0.972795 0.935702 0.872923 1.08401 2.68818 1.36699 0.563345 0.410092 0.244328 0.13511 0.00440184 0.00416573 0.00183015 0.000912845
threshold=0 2.5000000000000004 5.5000000000000009 1.5000000000000002 395.50000000000006 20.500000000000004 369.50000000000006 34.250000000000007 31.500000000000004 1 666.00000000000011 27.500000000000004 658.50000000000011 228.00000000000003 20.500000000000004 2.5000000000000004 8.0812500000000025 162.50000000000003 13.208350000000001 1.5000000000000002 490.50000000000006 26.125000000000004 99.96250000000002 10.481250000000001 375.50000000000006 12.500000000000002
decision_type=1 2 2 2 2 2 2 2 2 1 2 2 2 2 2 2 2 2 2 2 2 2 2 2 2 2
left_child=2 18 -1 6 5 -3 -4 8 9 -5 14 -6 -8 -7 -11 -16 17 -17 -2 21 -19 -20 24 -12 -23 -9
right_child=1 4 3 7 11 13 12 25 -10 10 23 -13 -14 -15 15 16 -18 20 19 -21 -22 22 -24 -25 -26 -27
leaf_value=0.10026433089461749 0.10323376700162681 -0.012307263429883517 -0.052751480685985043 -0.035263065401035618 0.017255674337950225 0.12660766204082971 0.045747003669484643 -0.12769827916553489 -0.0086330899259579406 -0.051502892383042335 -0.12869743984850882 -0.057882308865329996 -0.0073628586604716053 0.067259115347998485 -0.13757058507219808 -0.05225258780538436 -0.019256414522315961 -0.13507499063608069 0.13173739679916449 0.11461287105790069 -0.10231418703677553 0.15110007652371871 0.15316953608142592 -0.13292950723930516 0.14860881488636626 -0.12958522744920861
leaf_weight=4.3204145133495322 4.7885119915008572 4.9183298498392132 8.3398106247186679 7.140156090259552 5.8769637793302518 4.9177755117416364 8.4060606062412244 5.9300627857446653 5.2600198984146109 7.4122557789087322 6.0213548392057401 6.794532522559166 5.8482208102941504 5.7775150388479233 4.1005701124668148 3.7077674716711071 5.1487142592668524 6.3941554427146894 4.9471924006938996 5.011692836880683 3.5350572615861893 4.6967143416404742 4.5309253931045523 3.7897413372993469 7.9236599653959274 4.5163005292415619
leaf_count=18 20 21 39 33 25 21 36 35 26 36 35 30 24 24 21 20 27 34 22 22 20 21 20 21 36 26
internal_value=-0.000581854 0.0824223 -0.0561673 -0.0640674 0.0232919 0.0608883 -0.00435711 -0.0854965 -0.0769386 -0.0845426 -0.0933152 -0.0230338 0.0239572 0.094548 -0.0813285 -0.0909882 -0.0808202 -0.104064 0.134854 0.140439 -0.123411 0.146296 0.150496 -0.130332 0.149536 -0.128514
internal_weight=150.054 60.1838 89.8707 85.5502 28.2851 15.6136 22.5941 62.9562 52.5098 47.2498 40.1096 12.6715 14.2543 10.6953 30.2985 22.8863 18.7857 13.637 31.8987 27.1102 9.92921 22.0985 17.1513 9.8111 12.6204 10.4464
internal_count=713 262 451 433 121 66 99 334 273 247 214 55 60 45 158 122 101 74 141 121 54 99 77 56 57 61
cat_boundaries=0 1 2
cat_threshold=2 1
is_linear=0
shrinkage=0.1


Tree=7
num_leaves=29
num_cat=3
split_feature=6 5 0 5 2 4 0 0 1 0 1 2 4 4 4 4 2 4 2 0 0 4 4 0 2 4 2 2
split_gain=57.972 16.5653 9.21082 9.64582 4.05524 2.75499 2.36368 2.30412 2.38636 2.2457 1.80613 1.55567 1.42584 1.35951 1.19851 1.78748 1.74725 0.869665 0.568773 0.465218 0.4257 0.628195 0.169716 0.00486486 0.00361896 0.00169559 0.00086068 0.00109535
threshold=0 2.5000000000000004 5.5000000000000009 1.5000000000000002 23.725000000000005 569.50000000000011 32.250000000000007 28.250000000000004 1 41.500000000000007 2 15.525000000000002 428.50000000000006 666.00000000000011 107.50000000000001 228.00000000000003 7.910400000000001 474.00000000000006 13.208350000000001 25.500000000000004 27.500000000000004 503.50000000000006 194.50000000000003 37.500000000000007 10.481250000000001 466.50000000000006 87.80210000000001 30.597900000000003
decision_type=1 2 2 2 2 2 2 2 1 2 1 2 2 2 2 2 2 2 2 2 2 2 2 2 2 2 2 2
left_child=2 18 -1 5 10 9 7 8 -5 -4 -3 17 -9 14 -10 -16 25 -12 -2 -18 21 -20 -8 -24 -15 -17 27 -22
right_child=1 4 3 6 -6 -7 22 12 13 -11 11 -13 -14 24 15 16 19 -19 20 -21 26 -23 23 -25 -26 -27 -28 -29
leaf_value=0.08910902717730404 0.095264996414971007 0.081650464988784463 0.00055134597568506178 -0.020130360832974481 -0.067965616121485398 0.038667018844809942 -0.10035060812060584 -0.065285328215804239 -0.13056048712223164 -0.082937074782298614 -0.021508866479821254 0.065848710052974144 0.016681417761032158 -0.12443390138578675 -0.023754497638107483 -0.12859316836610099 -0.079859772600613471 0.033299349655191789 0.094354954173938313 -0.033994653477153351 0.14439844357279316 0.14368821551164335 -0.12942172262349308 -0.124658446629045 -0.12870600922182857 -0.12538881662516088 0.14482540968519483 0.14234960283166592
leaf_weight=4.372056618332862 4.6760588884353664 6.6030768901109695 8.0941990315914172 5.5678411424160004 4.3351455181837073 9.0578054785728437 3.4245866388082495 4.145097538828848 3.8769907802343395 5.3521659970283499 7.2308105975389569 5.2048861235380164 4.3487622439861298 4.8713037818670255 5.9906750768423107 3.3850865960121146 4.9126967489719373 4.828204944729805 5.5030217319726962 4.022161990404129 4.469921723008154 4.8613466322422028 3.4504739940166456 5.6636069416999817 3.3441561311483383 3.2242484390735626 4.6962441056966773 6.2690266370773315
leaf_count=18 20 28 35 26 22 37 20 21 22 27 30 21 21 31 30 20 25 20 25 22 21 23 20 36 20 20 22 30
internal_value=-0.000589983 0.0762416 -0.0523478 -0.0598232 0.0210086 -0.00396335 -0.0806953 -0.0705372 -0.0807697 -0.0326802 0.0371697 0.0201568 -0.0233193 -0.09081 -0.0793775 -0.0701629 -0.0880485 0.000435321 0.127354 -0.0592129 0.13317 0.117494 -0.11933 -0.126462 -0.126173 -0.12703 0.143696 0.143202
internal_weight=145.782 58.6777 87.1039 82.7319 28.2021 22.5042 60.2277 47.689 39.1952 13.4464 23.867 17.2639 8.49386 33.6273 25.4119 21.5349 15.5442 12.059 30.4756 8.93486 25.7996 10.3644 12.5387 9.11408 8.21546 6.60934 15.4352 10.7389
internal_count=713 262 451 433 121 99 334 258 216 62 99 71 42 190 139 117 87 50 141 47 121 48 76 56 51 40 73 51
cat_boundaries=0 1 2 3
cat_threshold=2 1 2
is_linear=0
shrinkage=0.1


Tree=8
num_leaves=30
num_cat=3
split_feature=6 5 0 5 4 2 4 0 0 1 7 2 1 4 4 4 4 2 2 2 0 4 4 2 0 0 0 4 2
split_gain=48.677 14.8133 7.66811 8.48563 4.03306 3.37992 2.55633 2.28464 2.07378 2.1797 1.87289 3.09391 1.4621 1.35405 1.19733 1.14804 1.61538 1.70914 0.579501 0.463318 0.407389 0.325497 0.176478 0.105327 0.00351965 0.00334511 0.0026178 0.0011862 2.19464e-05
threshold=0 2.5000000000000004 5.5000000000000009 1.5000000000000002 395.50000000000006 8.6729000000000003 185.00000000000003 32.250000000000007 28.250000000000004 1 1.0000000180025095e-35 30.597900000000003 2 666.00000000000011 428.50000000000006 107.50000000000001 228.00000000000003 7.910400000000001 13.208350000000001 126.82500000000002 25.500000000000004 165.50000000000003 194.50000000000003 26.125000000000004 27.500000000000004 37.500000000000007 23.500000000000004 466.50000000000006 74.375000000000014
decision_type=1 2 2 2 2 2 2 2 2 1 2 2 1 2 2 2 2 2 2 2 2 2 2 2 2 2 2 2 2
left_child=2 18 -1 6 5 -3 -4 8 9 -5 11 -8 -6 15 -10 -11 -17 27 -2 23 -19 -7 -9 -20 -25 -24 -15 -18 -26
right_child=1 4 3 7 12 21 10 22 14 13 -12 -13 -14 26 -16 16 17 20 19 -21 -22 -23 25 24 28 -27 -28 -29 -30
leaf_value=0.079637404571365089 0.088152321904440889 0.11125552199273921 -0.073357323743424074 -0.018263265051464351 -0.048868340146163008 -0.0030957831080928315 0.030687463214902511 -0.095874716125039047 -0.060676612944675357 -0.12686705398910389 0.064969978341748419 -0.069619368990948213 0.022042993424441326 -0.12531498475891475 0.014910552250372225 -0.021613995478235618 -0.12518290326492121 -0.074634914302083188 0.12156995679349403 0.098294261365182711 -0.031160377449707868 0.034067629040515073 -0.12588497581881014 0.13985177219585598 0.13686278248116443 -0.12178364890656238 -0.12154806853470781 -0.12239918335033569 0.13654025999147321
leaf_weight=4.4010661840438834 4.5544430613517788 6.0772436559200314 4.2564500421285656 5.5256683826446533 8.0060365498065931 4.6805467903614026 8.1698686033487338 3.2358883172273627 4.0206162333488447 3.6048615723848405 4.9815796166658393 4.9309284836053839 4.565975993871688 3.1433687359094611 4.3771317303180695 5.9289412200450924 3.1420602798461905 4.7401354759931547 5.3157716542482438 4.5685032606124869 3.9529777318239212 4.7469766736030579 3.2052743136882764 6.0924606174230567 4.131596699357031 5.2393475621938705 4.4659736901521683 2.9849849045276642 4.311478316783905
leaf_count=18 20 26 21 26 36 20 36 20 21 22 21 21 19 20 21 30 20 25 26 22 22 20 20 30 21 36 31 20 22
internal_value=-0.000595837 0.070739 -0.0488685 -0.0559463 0.0189752 0.0531034 -0.00363333 -0.0762463 -0.0661953 -0.0762569 0.0127792 -0.00706641 -0.0231144 -0.0862826 -0.0212786 -0.0747777 -0.065728 -0.0833762 0.1209 0.127007 -0.0548659 0.0156169 -0.115731 0.133615 0.13802 -0.12334 -0.123104 -0.123827 0.136698
internal_weight=141.358 57.051 84.3071 79.9061 28.0768 15.5048 22.3388 57.5672 45.8867 37.489 18.0824 13.1008 12.572 31.9633 8.39775 24.354 20.7491 14.8202 28.9743 24.4198 8.69311 9.42752 11.6805 19.8513 14.5355 8.44462 7.60934 6.12705 8.44308
internal_count=713 262 451 433 121 66 99 334 258 216 78 57 55 190 42 139 117 87 141 121 47 40 76 99 73 56 51 40 43
cat_boundaries=0 1 2 3
cat_threshold=2 1 4
is_linear=0
shrinkage=0.1


Tree=9
num_leaves=29
num_cat=2
split_feature=6 5 0 5 4 0 4 0 0 4 1 7 2 0 4 5 2 4 4 4 2 0 7 4 2 2 2 2
split_gain=40.9671 13.2528 10.3834 7.78469 3.30857 3.0074 2.13217 2.12965 2.67205 1.95738 1.54477 1.50197 2.53102 1.48532 0.892805 0.762639 0.907103 2.23551 0.979061 0.953617 0.591515 0.468433 0.668385 0.223688 0.192761 0.00106786 0.000817434 0.000325787
threshold=0 2.5000000000000004 3.5000000000000004 1.5000000000000002 395.50000000000006 20.500000000000004 185.00000000000003 34.250000000000007 31.500000000000004 711.50000000000011 1 1.0000000180025095e-35 30.597900000000003 27.500000000000004 228.00000000000003 2.5000000000000004 7.910400000000001 202.50000000000003 490.50000000000006 228.00000000000003 13.208350000000001 27.500000000000004 1.0000000180025095e-35 496.50000000000006 7.910400000000001 87.80210000000001 30.597900000000003 12.500000000000002
decision_type=1 2 2 2 2 2 2 2 2 2 1 2 2 2 2 2 2 2 2 2 2 2 2 2 2 2 2 2
left_child=2 20 -1 6 5 -3 -4 8 9 10 -5 12 -8 -6 -7 -12 19 -18 -19 -17 -2 22 -22 -21 -11 26 -23 -9
right_child=1 4 3 7 13 14 11 27 -10 24 15 -13 -14 -15 -16 16 17 18 -20 23 21 25 -24 -25 -26 -27 -28 -29
leaf_value=0.11831561339891912 0.081718956858488609 -0.016878122013514536 -0.068178811236095552 -0.013550805687508251 0.015722386215654634 0.10993968240581864 0.027416377173912539 -0.11931887040009122 0.004876747370543659 -0.099269328074066646 -0.10931895217505382 0.057917659814445382 -0.063587545780940766 -0.053405072174706497 0.051453795179585017 -0.044431470299644164 -0.098580689919041745 0.015511292091981384 -0.052751927303334278 -0.12378302212409738 0.13512547035979358 0.1339202449765432 0.081107183553006446 -0.087171965668910084 -0.12986094937815743 0.13474151459893866 0.13203813512162801 -0.12057936623611265
leaf_weight=3.6906761378049842 4.4283843040466335 4.8383012562990215 4.128606632351878 5.4185138940811157 5.8548057973384839 4.840644568204878 8.2269422709941882 4.7307059019803983 4.894126668572425 3.6601447910070402 4.5506926327943829 5.0267243832349768 4.8624617755413047 6.6259462088346481 5.664266049861908 3.4856403768062609 5.3353725820779792 4.5635490119457227 3.8937015533447266 4.0330848395824432 4.0225882232189196 3.9693292528390867 5.3198603242635727 2.8468465656042099 4.7106887549161911 4.1996867507696143 5.5121655762195587 3.6191114336252213
leaf_count=15 20 21 21 26 25 21 36 35 26 24 26 21 21 30 24 20 30 24 23 27 21 21 27 20 30 22 30 26
internal_value=-0.000589919 0.0658936 -0.0455832 -0.0533396 0.017257 0.0483579 -0.00332602 -0.0732983 -0.0650939 -0.0731517 -0.0625229 0.0114537 -0.00638983 -0.0209769 0.078404 -0.0717659 -0.0646921 -0.0478936 -0.015917 -0.0870444 0.115189 0.121627 0.104366 -0.108634 -0.116485 0.133414 0.132826 -0.119865
internal_weight=136.954 55.276 81.6776 77.9869 27.824 15.3432 22.2447 55.7422 47.3924 42.4982 34.1274 18.1161 13.0894 12.4808 10.5049 28.7089 24.1582 13.7926 8.45725 10.3656 27.452 23.0236 9.34245 6.87993 8.37083 13.6812 9.48149 8.34982
internal_count=713 262 451 436 121 66 99 337 276 250 196 78 57 55 45 170 144 77 47 67 141 121 48 47 54 73 51 61
cat_boundaries=0 1 2
cat_threshold=2 1
is_linear=0
shrinkage=0.1


Tree=10
num_leaves=28
num_cat=2
split_feature=6 5 0 5 2 0 0 4 0 2 2 1 4 2 7 0 4 2 2 2 4 4 2 2 0 0 2
split_gain=34.4489 11.9533 8.61414 6.83816 3.07127 2.14357 3.23402 1.84856 2.06742 1.78083 3.15477 1.69624 1.72656 0.791916 0.755906 1.92846 1.23097 1.25879 0.604841 0.499809 0.283899 0.193348 0.121574 0.00684575 0.00410031 0.00308278 1.17636e-05
threshold=0 2.5000000000000004 3.5000000000000004 1.5000000000000002 21.037500000000005 32.250000000000007 30.250000000000004 569.50000000000011 45.250000000000007 14.750000000000002 7.977100000000001 1 666.00000000000011 49.752100000000006 1.5000000000000002 20.500000000000004 155.00000000000003 8.0812500000000025 13.208350000000001 126.82500000000002 493.50000000000006 194.50000000000003 26.125000000000004 12.500000000000002 37.500000000000007 27.500000000000004 74.375000000000014
decision_type=1 2 2 2 2 2 2 2 2 2 2 1 2 2 2 2 2 2 2 2 2 2 2 2 2 2 2
left_child=2 18 -1 7 9 6 11 8 13 10 -3 -5 14 -4 15 -13 -17 20 -2 22 -18 -7 -20 -14 -23 -24 -27
right_child=1 4 3 5 -6 21 -8 -9 -10 -11 -12 12 23 -15 -16 16 17 -19 19 -21 -22 24 25 -25 -26 26 -28
leaf_value=0.10710166308982927 0.075837564352133041 0.058459133379113973 0.029829943428077866 -0.021060451591353647 -0.048485479809052281 -0.088489244221959321 0.035443083635837903 0.031566955974725586 -0.087119858175323722 0.085430848097204873 -0.0282879779695351 -0.0052080564464784132 -0.11779018132971675 -0.029370197202641418 -0.10860167293679948 -0.025666777453053763 -0.12484682485668451 -0.048703636838734389 0.11060453137208491 0.085636343304013693 -0.085537979176754222 -0.12197900053300095 0.13117617462287609 -0.12419444310896495 -0.11712828619065824 0.12816011313668701 0.12790706323431736
leaf_weight=3.6702946573495856 4.3013954162597683 8.8482936620712369 4.3775816708803195 6.6125828772783279 5.8869521468877783 2.8932671397924405 3.3179499804973593 9.0917454361915571 3.9922363907098761 4.9815215170383444 7.9672764539718619 5.2975900769233766 4.436234973371028 4.6703308671712875 3.3992266803979865 4.0308020710945156 5.7205399721860868 4.9542625099420539 4.7368621528148713 4.1370377987623206 2.7066223323345184 2.8646520674228668 5.4093222171068174 2.6758840456604958 4.4491252526640892 3.5992481559514999 3.7522596418857574
leaf_count=15 20 39 20 32 29 20 16 37 21 20 33 29 35 21 18 26 38 29 26 22 19 20 30 19 36 21 22
internal_value=-0.000582796 0.0613059 -0.0425035 -0.0497772 0.0156057 -0.0691605 -0.0594125 -0.00304492 -0.0271767 0.0329154 0.017358 -0.0673135 -0.0765201 -0.00072785 -0.0646217 -0.0580387 -0.0741122 -0.0887051 0.110086 0.116895 -0.112222 -0.110372 0.124286 -0.1202 -0.119028 0.129364 0.128031
internal_weight=132.781 53.6202 79.1609 75.4906 27.684 53.3587 43.1517 22.1319 13.0401 21.7971 16.8156 39.8337 33.2212 9.04791 26.109 22.7098 17.4122 13.3814 25.9361 21.6347 8.42716 10.207 17.4977 7.11212 7.31378 12.7608 7.35151
internal_count=713 262 451 436 121 337 261 99 62 92 72 245 213 41 159 141 112 86 141 121 57 76 99 54 56 73 43
cat_boundaries=0 1 2
cat_threshold=2 1
is_linear=0
shrinkage=0.1


Tree=11
num_leaves=28
num_cat=2
split_feature=6 5 0 2 5 1 2 4 2 2 0 0 4 4 4 2 4 2 0 2 0 4 2 0 4 2 2
split_gain=29.0015 10.7841 7.16788 6.29552 3.38871 2.82526 6.30574 2.37553 2.13341 1.98812 1.73469 1.55911 1.40719 3.35181 1.18651 1.00805 0.936107 0.933528 0.642852 0.61735 0.526419 0.772379 0.173273 0.00656568 0.00320783 0.00112167 0.000626388
threshold=0 2.5000000000000004 3.5000000000000004 52.277100000000011 1.5000000000000002 1 17.600000000000005 580.50000000000011 30.597900000000003 77.008350000000021 34.250000000000007 28.250000000000004 303.50000000000006 107.50000000000001 360.50000000000006 8.6729000000000003 444.50000000000006 7.977100000000001 20.500000000000004 13.208350000000001 27.500000000000004 503.50000000000006 14.750000000000002 33.500000000000007 769.50000000000011 87.80210000000001 30.597900000000003
decision_type=1 2 2 2 2 1 2 2 2 2 2 2 2 2 2 2 2 2 2 2 2 2 2 2 2 2 2
left_child=2 19 -1 4 8 6 15 10 -4 -5 11 12 13 -6 -7 -3 -14 -15 -9 -2 21 -21 23 24 -20 26 -22
right_child=1 5 3 9 7 14 -8 18 -10 -11 -12 -13 16 17 -16 -17 -18 -19 22 20 25 -23 -24 -25 -26 -27 -28
leaf_value=0.097484686982901025 0.070415207464927895 -0.00060152701328141289 0.015608961804565419 0.069321219201625359 -0.10627324191815934 0.087302271353308897 -0.092067973774098533 -0.063315944526222467 -0.067949766563522904 -0.017898560565939817 -0.1161623815156963 -0.0058086810609178103 -0.12519186317303715 -0.039338191422281156 0.02057924048326365 0.061539688540733987 -0.062653072931157849 0.029558849134415168 -0.11964080189968246 0.065487890025046444 0.12646771462196307 0.12661004906340281 -0.091893228272067959 -0.1155938678246969 -0.12399132164376184 0.12754053485613523 0.12470166854324088
leaf_weight=3.6311115473508826 4.1760542988777187 4.5472932606935519 8.6681017130613309 5.1865055263042432 4.5723964124918046 5.4067430049181002 6.1469583362340918 3.2398537918925276 4.7190680205821982 5.2679089307785034 4.1563728004693976 6.9664490967988959 4.0403868034481984 3.3722957670688611 5.2559673339128494 6.1289798319339752 5.871864527463913 4.7181783616542816 3.8676483705639821 4.5354072749614733 3.4717319011688215 3.7993533760309219 2.8737118616700164 2.5344488471746445 3.0168513134121895 3.708162620663642 4.7646096646785736
leaf_count=15 20 20 38 25 29 24 30 23 23 23 35 38 28 20 22 25 36 24 30 25 21 23 20 22 22 22 30
internal_value=-0.000577273 0.0571213 -0.0396492 -0.0464636 -0.058457 0.0141413 -0.0113829 -0.070588 -0.0138461 0.0253718 -0.0556744 -0.047164 -0.0599259 -0.0378366 0.0544125 0.0350722 -0.0881449 0.000840977 -0.102943 0.105428 0.112638 0.0933501 -0.113387 -0.119945 -0.121547 0.126096 0.125446
internal_weight=128.644 51.9413 76.7032 73.072 62.6176 27.4859 16.8232 49.2305 13.3872 10.4544 33.6979 29.5416 22.5751 12.6629 10.6627 10.6763 9.91225 8.09047 15.5325 24.4553 20.2793 8.33476 12.2927 9.41895 6.8845 11.9445 8.23634
internal_count=713 262 451 436 388 121 75 327 61 48 210 175 137 73 46 45 64 44 117 141 121 48 94 74 52 73 51
cat_boundaries=0 1 2
cat_threshold=2 4
is_linear=0
shrinkage=0.1


Tree=12
num_leaves=30
num_cat=1
split_feature=6 5 0 2 2 5 4 2 4 4 0 2 4 0 0 7 0 7 4 2 2 2 4 2 2 0 4 4 4
split_gain=24.414 9.73837 5.96954 5.37545 3.1799 5.35747 2.35838 2.60415 2.17106 2.00947 1.80664 1.76718 1.27061 1.20275 1.11532 0.95999 0.908443 1.1114 0.996879 0.943873 0.629738 0.698764 0.261074 0.256513 0.143886 0.00250172 0.00193545 0.00226692 5.56316e-05
threshold=0 2.5000000000000004 3.5000000000000004 52.277100000000011 36.125000000000007 1.5000000000000002 395.50000000000006 8.6729000000000003 580.50000000000011 388.50000000000006 34.250000000000007 29.412500000000005 509.50000000000006 19.500000000000004 27.500000000000004 1.0000000180025095e-35 25.500000000000004 1.0000000180025095e-35 155.00000000000003 7.977100000000001 13.208350000000001 135.06665000000001 165.50000000000003 7.7458500000000008 26.125000000000004 27.500000000000004 775.50000000000011 716.00000000000011 486.50000000000006
decision_type=1 2 2 2 2 2 2 2 2 2 2 2 2 2 2 2 2 2 2 2 2 2 2 2 2 2 2 2 2
left_child=2 20 -1 4 5 11 7 -3 10 -5 12 -4 13 -7 -8 23 -15 18 -18 -20 -2 24 -9 -10 -22 -26 27 -25 -27
right_child=1 6 3 9 -6 8 14 22 15 -11 -12 -13 -14 16 -16 -17 17 -19 19 -21 21 -23 -24 26 25 28 -28 -29 -30
leaf_value=0.089080316039850962 0.065383338355256129 0.093523517145849666 -0.022360344325730582 -0.030163412872071665 -0.14445498138973809 -0.0074832621855167375 0.011966121426387392 -0.0095576346577134 -0.082742586058493814 0.058769640856426331 -0.11439496120390009 0.057389520879583114 0.010312000078680749 -0.10071661902512907 -0.048384352321259462 -0.040259646731305707 0.0091488675669552013 -0.099351289240676599 -0.093225426745462997 -0.019767536176140101 0.10160834180598831 0.066442875812174979 0.023798901282884574 -0.11757923155095529 0.12501287290730201 0.12231968325916119 -0.11599056753614445 -0.12158141679910879 0.12174702562372633
leaf_weight=3.579033911228179 4.0542146563529995 5.585255071520808 6.3056863248348218 4.2798235118389112 3.7121184617280951 5.2145227640867331 5.8415433466434461 4.6467104554176313 2.6778468713164321 6.2524891272187233 3.815956473350524 4.967425525188446 4.1097117587923995 4.5400497242808369 6.4361782968044281 2.4117665141820899 3.6288025528192502 3.3621154949069014 3.3998534828424454 3.6027781814336777 4.1825813502073315 3.2307477146387091 4.7398028522729874 3.4721414446830732 4.7585550844669324 3.2745358496904373 2.7390026897192001 2.3890991657972336 3.519974023103714
leaf_count=15 20 26 28 21 20 27 25 20 22 27 35 23 23 32 30 18 22 20 25 21 26 19 20 29 30 22 24 19 24
internal_value=-0.000573742 0.0532707 -0.0369256 -0.0432881 -0.0547926 -0.0489159 0.0128161 0.0394571 -0.0642479 0.0226315 -0.0498655 0.0127809 -0.0410263 -0.0499106 -0.0196706 -0.097524 -0.0618477 -0.0492371 -0.0333889 -0.0554321 0.101157 0.108804 0.00728604 -0.10977 0.117501 0.123254 -0.118185 -0.119211 0.122023
internal_weight=124.73 50.2701 74.4602 70.8812 60.3489 56.6368 27.2495 14.9718 45.3636 10.5323 31.6738 11.2731 27.8578 23.7481 12.2777 13.6899 18.5336 13.9935 10.6314 7.00263 23.0206 18.9664 9.38651 11.2781 15.7356 11.5531 8.60024 5.86124 6.79451
internal_count=713 262 451 436 388 368 121 66 317 48 205 51 170 147 55 112 120 88 68 46 141 121 40 94 102 76 72 48 46
cat_boundaries=0 1
cat_threshold=2
is_linear=0
shrinkage=0.1


Tree=13
num_leaves=30
num_cat=2
split_feature=6 5 0 2 2 5 1 2 4 4 0 4 0 7 2 0 0 7 4 4 4 2 2 2 2 0 4 4 4
split_gain=20.5744 8.77185 4.9784 4.57819 2.85077 4.65745 2.23593 5.06382 2.06484 1.76528 1.75099 1.61845 1.46695 0.939658 0.936483 0.860907 1.3493 1.08758 1.40361 1.12271 0.837951 0.639102 0.69739 0.264952 0.151208 0.00173637 0.00143435 0.00171027 3.88101e-05
threshold=0 2.5000000000000004 3.5000000000000004 52.277100000000011 36.125000000000007 1.5000000000000002 1 17.600000000000005 580.50000000000011 525.50000000000011 36.250000000000007 388.50000000000006 19.500000000000004 1.0000000180025095e-35 8.6729000000000003 34.250000000000007 23.500000000000004 1.0000000180025095e-35 155.00000000000003 428.50000000000006 360.50000000000006 13.208350000000001 135.06665000000001 7.7458500000000008 26.125000000000004 27.500000000000004 775.50000000000011 716.00000000000011 486.50000000000006
decision_type=1 2 2 2 2 2 1 2 2 2 2 2 2 2 2 2 2 2 2 2 2 2 2 2 2 2 2 2 2
left_child=2 21 -1 4 5 10 7 14 9 12 -4 -5 -7 23 -3 16 -14 18 -18 -20 -8 -2 24 -10 -23 -26 27 -25 -27
right_child=1 6 3 11 -6 8 20 -9 13 -11 -12 -13 15 -15 -16 -17 17 -19 19 -21 -22 22 -24 26 25 28 -28 -29 -30
leaf_value=0.081624540851201799 0.060691083585289698 -0.0046926317767726159 0.050340630126344668 -0.027480948368451736 -0.13901757377710935 -0.0067577708371855663 0.07638084810504725 -0.085226886407225338 -0.079057530732456693 0.024673180199177788 -0.0283605476810566 0.052491213862770982 -0.12045743139615768 -0.037233883946392321 0.055451604685575175 -0.11287319620183167 0.014336340251682731 -0.096429349009932483 -0.085171827075226608 -0.010700702620113566 0.019676897849009112 0.097622300444630453 0.062239572293604009 -0.1156776663133285 0.12208529534868989 0.11975243673391632 -0.11426446497461458 -0.11930131092233949 0.11925458050965976
leaf_weight=3.5185485333204261 3.9371696114540127 4.4693813323974627 5.7199999690055829 4.2305231988430005 3.4833669736981383 5.1978263035416665 5.1982861459255236 5.9269481301307669 2.53016449511051 3.127504050731658 5.5893917083740234 6.2976944148540497 2.8928498253226342 2.3503074422478667 6.1529757082462311 3.302374690771102 4.2153219357132938 3.4126385226845732 5.2062927037477476 3.312304362654686 5.2262105941772461 3.9311328679323223 3.1104602664709082 3.1907100006937981 4.4036181569099409 3.0231562852859497 2.5138648152351379 2.2009335681796074 3.2481299191713333
leaf_count=15 20 20 24 21 20 27 24 30 22 18 27 27 22 18 25 33 26 22 36 21 22 26 19 29 30 22 24 19 24
internal_value=-0.000563765 0.0497308 -0.0343943 -0.0403299 -0.0512992 -0.0457196 0.0116768 -0.0111736 -0.0605975 -0.046522 0.0114445 0.0203562 -0.0546072 -0.0943575 0.0301458 -0.0657394 -0.057564 -0.0462959 -0.0328604 -0.0562151 0.0479529 0.0971343 0.105233 -0.107223 0.114389 0.120563 -0.116237 -0.117157 0.119495
internal_weight=120.92 48.6275 72.2926 68.7741 58.2459 54.7625 26.9738 16.5493 43.4531 30.6671 11.3094 10.5282 27.5396 12.786 10.6224 22.3418 19.0394 16.1466 12.7339 8.5186 10.4245 21.6537 17.7165 10.4357 14.606 10.6749 7.90551 5.39164 6.27129
internal_count=713 262 451 436 388 368 121 75 317 205 51 48 187 112 45 160 127 105 83 57 46 141 121 94 102 76 72 48 46
cat_boundaries=0 1 2
cat_threshold=2 4
is_linear=0
shrinkage=0.1


Tree=14
num_leaves=29
num_cat=3
split_feature=6 5 0 2 2 5 4 4 2 0 2 0 0 4 4 1 4 7 1 4 4 0 4 2 4 0 0 4
split_gain=17.3241 7.91086 4.15596 3.90134 2.57606 4.03683 1.9574 1.84679 2.12519 1.68132 1.64688 1.41339 1.27243 1.61687 3.28253 0.926326 0.920852 0.919904 0.653602 0.963329 0.641037 0.2894 0.217016 0.131606 0.211028 0.00385291 0.00204477 0.00169914
threshold=0 2.5000000000000004 3.5000000000000004 52.277100000000011 36.125000000000007 1.5000000000000002 580.50000000000011 395.50000000000006 8.6729000000000003 34.250000000000007 77.008350000000021 36.250000000000007 28.250000000000004 303.50000000000006 107.50000000000001 1 444.50000000000006 1.0000000180025095e-35 2 379.50000000000006 194.50000000000003 23.500000000000004 165.50000000000003 56.712500000000013 596.00000000000011 34.250000000000007 31.500000000000004 769.50000000000011
decision_type=1 2 2 2 2 2 2 2 2 2 2 2 2 2 2 1 2 2 1 2 2 2 2 2 2 2 2 2
left_child=2 18 -1 4 5 11 9 8 -3 12 -5 -4 13 14 -7 -9 -15 21 19 -2 -16 -8 -10 24 -21 27 -20 -23
right_child=1 7 3 10 -6 6 17 15 22 -11 -12 -13 -14 16 20 -17 -18 -19 26 23 -22 25 -24 -25 -26 -27 -28 -29
leaf_value=0.074931026897105402 0.047141092821505762 0.085135217213398798 0.044975007026396133 0.057786458853826154 -0.13438424109195507 -0.097829179204781597 -0.074032329129020705 -0.039800759267282021 -0.0096418428631537181 -0.11157320295827144 -0.021364406800692161 -0.025785915728384221 0.0028924157821396106 -0.12035733150707306 -0.01030189548734174 0.01725697742668026 -0.05391753659746297 -0.034379008648218752 0.1224452042001417 0.12545641080651709 0.04913219668069882 -0.11425105065517314 0.020880281545219766 0.082664927734318883 0.088991084705162191 -0.11071553998699449 0.11876353235441797 -0.11779851142468022
leaf_weight=3.4530542641878119 5.1663936749100694 5.291884750127795 5.7598775476217252 5.273243382573126 3.2548876032233229 3.797101505100736 2.3178986608982068 7.5447792857885343 4.6088200509548169 3.2222320437431327 5.2419079393148422 5.5356687009334564 6.6221632361412039 3.4189999476075155 3.9854854494333267 4.5681033432483673 5.3509580418467522 2.2939867675304404 3.3214603215456018 3.5166858658194524 3.3318262845277786 2.8458255380392075 4.7102885991334915 2.6957269310951233 2.8922105431556702 1.9151288047432897 2.7637849599123001 2.5690754577517509
leaf_count=15 34 26 24 25 20 27 21 36 20 35 23 27 38 28 22 19 35 18 23 23 20 28 20 20 20 22 21 23
internal_value=-0.000564619 0.0463652 -0.0320432 -0.0375783 -0.0480347 -0.0427284 -0.0571018 0.0105892 0.0345247 -0.0433653 0.018329 0.0102968 -0.0350738 -0.0477178 -0.0223876 -0.0182827 -0.0798193 -0.0912978 0.0933323 0.0816314 0.0167605 -0.104831 0.00578539 0.101203 0.109 -0.114571 0.120773 -0.115934
internal_weight=117.269 47.0801 70.1893 66.7363 56.2211 52.9662 41.6707 26.7239 14.611 29.7288 10.5152 11.2955 26.5065 19.8844 11.1144 12.1129 8.76996 11.9419 20.3563 14.271 7.31731 9.64793 9.31911 9.10462 6.4089 7.33003 6.08525 5.4149
internal_count=713 262 451 436 388 368 317 121 66 205 48 51 170 132 69 55 63 112 141 97 42 94 40 63 43 73 44 51
cat_boundaries=0 1 2 3
cat_threshold=2 4 4
is_linear=0
shrinkage=0.1


end of trees

feature_importances:
Fare=122
PassengerId=119
Age=94
Pclass=29
Embarked=17
Sex=15
SibSp=12
Parch=3

parameters:
[boosting: gbdt]
[objective: binary]
[metric: binary_logloss]
[tree_learner: serial]
[device_type: cpu]
[data_sample_strategy: bagging]
[data: ]
[valid: ]
[num_iterations: 15]
[learning_rate: 0.1]
[num_leaves: 31]
[num_threads: 0]
[seed: 42]
[deterministic: 0]
[force_col_wise: 0]
[force_row_wise: 0]
[histogram_pool_size: -1]
[max_depth: -1]
[min_data_in_leaf: 20]
[min_sum_hessian_in_leaf: 0.001]
[bagging_fraction: 1]
[pos_bagging_fraction: 1]
[neg_bagging_fraction: 1]
[bagging_freq: 0]
[bagging_seed: 400]
[bagging_by_query: 0]
[feature_fraction: 1]
[feature_fraction_bynode: 1]
[feature_fraction_seed: 30056]
[extra_trees: 0]
[extra_seed: 12879]
[early_stopping_round: 0]
[early_stopping_min_delta: 0]
[first_metric_only: 0]
[max_delta_step: 0]
[lambda_l1: 0]
[lambda_l2: 0]
[linear_lambda: 0]
[min_gain_to_split: 0]
[drop_rate: 0.1]
[max_drop: 50]
[skip_drop: 0.5]
[xgboost_dart_mode: 0]
[uniform_drop: 0]
[drop_seed: 17869]
[top_rate: 0.2]
[other_rate: 0.1]
[min_data_per_group: 100]
[max_cat_threshold: 32]
[cat_l2: 10]
[cat_smooth: 10]
[max_cat_to_onehot: 4]
[top_k: 20]
[monotone_constraints: ]
[monotone_constraints_method: basic]
[monotone_penalty: 0]
[feature_contri: ]
[forcedsplits_filename: ]
[refit_decay_rate: 0.9]
[cegb_tradeoff: 1]
[cegb_penalty_split: 0]
[cegb_penalty_feature_lazy: ]
[cegb_penalty_feature_coupled: ]
[path_smooth: 0]
[interaction_constraints: ]
[verbosity: -1]
[saved_feature_importance_type: 0]
[use_quantized_grad: 0]
[num_grad_quant_bins: 4]
[quant_train_renew_leaf: 0]
[stochastic_rounding: 1]
[linear_tree: 0]
[max_bin: 255]
[max_bin_by_feature: ]
[min_data_in_bin: 3]
[bin_construct_sample_cnt: 200000]
[data_random_seed: 175]
[is_enable_sparse: 1]
[enable_bundle: 1]
[use_missing: 1]
[zero_as_missing: 0]
[feature_pre_filter: 0]
[pre_partition: 0]
[two_round: 0]
[header: 0]
[label_column: ]
[weight_column: ]
[group_column: ]
[ignore_column: ]
[categorical_feature: 1,6]
[forcedbins_filename: ]
[precise_float_parser: 0]
[parser_config_file: ]
[objective_seed: 16083]
[num_class: 1]
[is_unbalance: 0]
[scale_pos_weight: 1]
[sigmoid: 1]
[boost_from_average: 1]
[reg_sqrt: 0]
[alpha: 0.9]
[fair_c: 1]
[poisson_max_delta_step: 0.7]
[tweedie_variance_power: 1.5]
[lambdarank_truncation_level: 30]
[lambdarank_norm: 1]
[label_gain: ]
[lambdarank_position_bias_regularization: 0]
[eval_at: ]
[multi_error_top_k: 1]
[auc_mu_weights: ]
[num_machines: 1]
[local_listen_port: 12400]
[time_out: 120]
[machine_list_filename: ]
[machines: ]
[gpu_platform_id: -1]
[gpu_device_id: -1]
[gpu_use_dp: 0]
[num_gpu: 1]

end of parameters

pandas_categorical:[["C", "Q", "S"], ["female", "male"]]
