{"learner":{"attributes":{},"feature_names":["Age","Embarked","Fare","Parch","PassengerId","Pclass","Sex","SibSp"],"feature_types":["float","float","float","int","int","int","float","int"],"gradient_booster":{"model":{"cats":{"enc":[],"feature_segments":[],"sorted_idx":[]},"gbtree_model_param":{"num_parallel_tree":"1","num_trees":"15"},"iteration_indptr":[0,1,2,3,4,5,6,7,8,9,10,11,12,13,14,15],"tree_info":[0,0,0,0,0,0,0,0,0,0,0,0,0,0,0],"trees":[{"base_weights":[-1.0343634E-7,1.4813819E0,-8.6634475E-1,2.3518513E-1,4.2189324E-1,1.3707156E0,-9.5572835E-1,7.5820476E-1,-9.0634114E-1,1.8291356E-1,3.597763E-3,-8.372246E-2,-1.2076864E0,1.1067879E0,2.708954E-1,-1.46549E-2,-1.2475377E-1,-4.9943388E-1,5.9266275E-1,-1.2461518E0,4.6665803E-2,1.7920732E-1,3.6321992E-1,-2.9409748E-1,7.15261E-1,-4.8506793E-2,-9.982898E-2,1.2277398E-1,1.16340086E-1,-7.2478336E-1,-1.3092506E0,9.521237E-2,-8.8016845E-2,-4.1973393E-2,8.894239E-2,3.6165055E-2,-1.0627196E-1,1.4374645E-2,1.234979E-1,1.8167255E-2,-8.8016845E-2,9.521237E-2,-2.3683282E-2,-6.3065896E-3,-9.296652E-2,-1.15356185E-1,-1.5226088E-1],"categories":[],"categories_nodes":[],"categories_segments":[],"categories_sizes":[],"default_left":[0,0,0,0,0,0,0,0,0,0,0,0,0,0,0,0,0,0,0,0,0,0,0,0,0,0,0,0,0,0,0,0,0,0,0,0,0,0,0,0,0,0,0,0,0,0,0],"id":0,"left_children":[1,3,5,-1,7,9,11,13,15,-1,-1,17,19,21,23,-1,-1,25,27,29,31,-1,33,35,37,39,-1,-1,41,43,45,-1,-1,-1,-1,-1,-1,-1,-1,-1,-1,-1,-1,-1,-1,-1,-1],"loss_changes":[2.1907945E2,5.7102478E1,2.284771E1,0E0,1.392293E1,2.717699E0,2.2784355E1,3.8089256E0,1.487206E0,0E0,0E0,7.1637154E0,3.9537048E0,6.369255E0,3.075218E0,0E0,0E0,3.476487E0,2.8079557E0,1.6293259E0,3.662905E0,0E0,3.6123054E0,3.2735064E0,1.8062205E0,1.9366542E0,0E0,0E0,2.1968803E0,1.3921561E0,5.246506E-1,0E0,0E0,0E0,0E0,0E0,0E0,0E0,0E0,0E0,0E0,0E0,0E0,0E0,0E0,0E0,0E0],"parents":[2147483647,0,0,1,1,2,2,4,4,5,5,6,6,7,7,8,8,11,11,12,12,13,13,14,14,17,17,18,18,19,19,20,20,22,22,23,23,24,24,25,25,28,28,29,29,30,30],"right_children":[2,4,6,-1,8,10,12,14,16,-1,-1,18,20,22,24,-1,-1,26,28,30,32,-1,34,36,38,40,-1,-1,42,44,46,-1,-1,-1,-1,-1,-1,-1,-1,-1,-1,-1,-1,-1,-1,-1,-1],"split_conditions":[1E0,3E0,4E0,2.3518513E-1,2.345E1,2E0,2E0,3.71E2,2.35E2,1.8291356E-1,3.597763E-3,5.6E2,4.71E1,8.05E0,8.6833E0,-1.46549E-2,-1.2475377E-1,4.05E1,6.5E2,1E0,5.69292E1,1.7920732E-1,1.5E1,7.8542E0,6.6E2,1.3365E2,-9.982898E-2,1.2277398E-1,2.8E1,2.7E1,5.81E2,9.521237E-2,-8.8016845E-2,-4.1973393E-2,8.894239E-2,3.6165055E-2,-1.0627196E-1,1.4374645E-2,1.234979E-1,1.8167255E-2,-8.8016845E-2,9.521237E-2,-2.3683282E-2,-6.3065896E-3,-9.296652E-2,-1.15356185E-1,-1.5226088E-1],"split_indices":[6,5,0,0,2,7,5,4,4,0,0,4,2,2,2,0,0,0,4,1,2,0,2,2,4,2,0,0,0,0,4,0,0,0,0,0,0,0,0,0,0,0,0,0,0,0,0],"split_type":[0,0,0,0,0,0,0,0,0,0,0,0,0,0,0,0,0,0,0,0,0,0,0,0,0,0,0,0,0,0,0,0,0,0,0,0,0,0,0,0,0,0,0,0,0,0,0],"sum_hessian":[1.6870407E2,6.1992237E1,1.0671183E2,3.3362236E1,2.8630003E1,3.5491738E0,1.0316265E2,2.3187935E1,5.4420667E0,2.3661158E0,1.1830579E0,2.3424547E1,7.9738106E1,1.2777026E1,1.041091E1,2.1295042E0,3.3125622E0,1.4669919E1,8.754629E0,7.737199E1,2.3661158E0,5.91529E0,6.8617363E0,4.7322316E0,5.678678E0,8.281405E0,6.388513E0,3.0759506E0,5.678678E0,9.701076E0,6.767091E1,1.1830579E0,1.1830579E0,2.839339E0,4.022397E0,2.839339E0,1.8928927E0,3.3125622E0,2.3661158E0,7.0983477E0,1.1830579E0,1.1830579E0,4.4956203E0,2.6027274E0,7.0983477E0,4.28267E1,2.4844217E1],"tree_param":{"num_deleted":"0","num_feature":"8","num_nodes":"47","size_leaf_vector":"1"}},{"base_weights":[-9.1060315E-4,1.3032594E0,-8.006915E-1,2.0352653E-1,3.8135448E-1,1.2498994E0,-8.862607E-1,6.849694E-1,-8.533568E-1,1.6574861E-1,3.4011789E-3,-7.5230956E-2,-1.1270306E0,9.927631E-1,2.4820344E-1,-1.3691408E-2,-1.1822485E-1,-4.6557224E-1,5.483927E-1,-1.1640322E0,4.3487176E-2,1.5892598E-1,3.303664E-1,-2.7880654E-1,6.5684396E-1,-5.1312182E-2,-9.3329936E-2,8.6144143E-1,-1.6385934E-1,-6.729092E-1,-1.2243805E0,8.903061E-2,-8.43006E-2,-3.917673E-2,8.053243E-2,3.3280436E-2,-1.0118854E-1,1.3235316E-2,1.1270199E-1,1.6511718E-2,-8.43006E-2,1.03945315E-1,6.482441E-5,-8.805771E-2,4.860091E-2,-3.5270914E-2,-1.1529869E-1,-1.0732509E-1,-1.4339606E-1],"categories":[],"categories_nodes":[],"categories_segments":[],"categories_sizes":[],"default_left":[0,0,0,0,0,0,0,0,0,0,0,0,0,0,0,0,0,0,0,0,0,0,0,0,0,0,0,0,0,0,0,0,0,0,0,0,0,0,0,0,0,0,0,0,0,0,0,0,0],"id":1,"left_children":[1,3,5,-1,7,9,11,13,15,-1,-1,17,19,21,23,-1,-1,25,27,29,31,-1,33,35,37,39,-1,41,43,45,47,-1,-1,-1,-1,-1,-1,-1,-1,-1,-1,-1,-1,-1,-1,-1,-1,-1,-1],"loss_changes":[1.7718144E2,4.28002E1,1.9583626E1,0E0,1.1759584E1,2.239521E0,1.9767006E1,3.044691E0,1.3293958E0,0E0,0E0,6.1811137E0,3.4427109E0,5.0174894E0,2.6497605E0,0E0,0E0,2.9578855E0,2.333056E0,1.4272995E0,3.2758112E0,0E0,3.0281684E0,2.89435E0,1.5152333E0,1.7301047E0,0E0,1.0702329E0,2.2173104E0,1.2123327E0,5.6487274E-1,0E0,0E0,0E0,0E0,0E0,0E0,0E0,0E0,0E0,0E0,0E0,0E0,0E0,0E0,0E0,0E0,0E0,0E0],"parents":[2147483647,0,0,1,1,2,2,4,4,5,5,6,6,7,7,8,8,11,11,12,12,13,13,14,14,17,17,18,18,19,19,20,20,22,22,23,23,24,24,25,25,27,27,28,28,29,29,30,30],"right_children":[2,4,6,-1,8,10,12,14,16,-1,-1,18,20,22,24,-1,-1,26,28,30,32,-1,34,36,38,40,-1,42,44,46,48,-1,-1,-1,-1,-1,-1,-1,-1,-1,-1,-1,-1,-1,-1,-1,-1,-1,-1],"split_conditions":[1E0,3E0,4E0,2.0352653E-1,2.345E1,2E0,2E0,3.71E2,2.35E2,1.6574861E-1,3.4011789E-3,5.6E2,4.71E1,8.05E0,8.6833E0,-1.3691408E-2,-1.1822485E-1,4.05E1,7.26E2,1E0,5.69292E1,1.5892598E-1,1.5E1,7.8542E0,6.6E2,1.3365E2,-9.3329936E-2,5.7E1,7.95E2,3E1,5.81E2,8.903061E-2,-8.43006E-2,-3.917673E-2,8.053243E-2,3.3280436E-2,-1.0118854E-1,1.3235316E-2,1.1270199E-1,1.6511718E-2,-8.43006E-2,1.03945315E-1,6.482441E-5,-8.805771E-2,4.860091E-2,-3.5270914E-2,-1.1529869E-1,-1.0732509E-1,-1.4339606E-1],"split_indices":[6,5,0,0,2,7,5,4,4,0,0,4,2,2,2,0,0,0,4,1,2,0,2,2,4,2,0,0,4,0,4,0,0,0,0,0,0,0,0,0,0,0,0,0,0,0,0,0,0],"split_type":[0,0,0,0,0,0,0,0,0,0,0,0,0,0,0,0,0,0,0,0,0,0,0,0,0,0,0,0,0,0,0,0,0,0,0,0,0,0,0,0,0,0,0,0,0,0,0,0,0],"sum_hessian":[1.6786812E2,6.357289E1,1.04295235E2,3.476294E1,2.8809954E1,3.6327477E0,1.0066248E2,2.3481182E1,5.328773E0,2.448708E0,1.1840397E0,2.3343317E1,7.731917E1,1.3027544E1,1.0453638E1,2.122187E0,3.2065861E0,1.4512825E1,8.830491E0,7.495527E1,2.3639014E0,6.1185007E0,6.9090433E0,4.704335E0,5.7493024E0,8.284793E0,6.228032E0,5.9888244E0,2.8416674E0,9.532085E0,6.542318E1,1.2068049E0,1.1570965E0,2.8107252E0,4.098318E0,2.8623135E0,1.842022E0,3.3234375E0,2.4258647E0,7.127696E0,1.1570965E0,4.790581E0,1.1982429E0,1.1825097E0,1.6591578E0,6.7588143E0,2.7732716E0,4.1568687E1,2.3854494E1],"tree_param":{"num_deleted":"0","num_feature":"8","num_nodes":"49","size_leaf_vector":"1"}},{"base_weights":[-2.3712155E-3,1.1677141E0,-7.444328E-1,1.811536E-1,3.4639773E-1,1.1499429E0,-8.264427E-1,6.226093E-1,-8.0582565E-1,1.5201885E-1,3.2153707E-3,-7.2594896E-2,-1.057084E0,8.9846814E-1,2.2769603E-1,-1.2791014E-2,-1.1252283E-1,-6.380655E-1,3.0682933E-1,-1.092848E0,4.0076673E-2,1.4304924E-1,3.0113432E-1,-2.650515E-1,6.050063E-1,-3.8663134E-1,-1.0475208E-1,-8.973774E-2,4.7304028E-1,-6.299862E-1,-1.1508455E0,8.345213E-2,-8.088752E-2,-4.8672836E-2,6.7531295E-2,3.0648995E-2,-9.66254E-2,1.2188909E-2,1.0344757E-1,-3.638594E-3,-8.411614E-2,6.7859106E-2,-3.186683E-2,-3.341799E-3,-8.228498E-2,-1.0021074E-1,-1.3605765E-1],"categories":[],"categories_nodes":[],"categories_segments":[],"categories_sizes":[],"default_left":[0,0,0,0,0,0,0,0,0,0,0,0,0,0,0,0,0,0,0,0,0,0,0,0,0,0,0,0,0,0,0,0,0,0,0,0,0,0,0,0,0,0,0,0,0,0,0],"id":2,"left_children":[1,3,5,-1,7,9,11,13,15,-1,-1,17,19,21,23,-1,-1,25,27,29,31,-1,33,35,37,39,-1,-1,41,43,45,-1,-1,-1,-1,-1,-1,-1,-1,-1,-1,-1,-1,-1,-1,-1,-1],"loss_changes":[1.4558649E2,3.3780823E1,1.6890202E1,0E0,9.995463E0,1.886137E0,1.7123268E1,2.4782248E0,1.1994281E0,0E0,0E0,5.398587E0,3.0132294E0,4.0689554E0,2.2923198E0,0E0,0E0,6.3090515E-1,3.4642787E0,1.243309E0,2.9368095E0,0E0,2.668479E0,2.5677829E0,1.2845807E0,1.2141622E0,0E0,0E0,2.4945812E0,1.1660881E0,6.314316E-1,0E0,0E0,0E0,0E0,0E0,0E0,0E0,0E0,0E0,0E0,0E0,0E0,0E0,0E0,0E0,0E0],"parents":[2147483647,0,0,1,1,2,2,4,4,5,5,6,6,7,7,8,8,11,11,12,12,13,13,14,14,17,17,18,18,19,19,20,20,22,22,23,23,24,24,25,25,28,28,29,29,30,30],"right_children":[2,4,6,-1,8,10,12,14,16,-1,-1,18,20,22,24,-1,-1,26,28,30,32,-1,34,36,38,40,-1,-1,42,44,46,-1,-1,-1,-1,-1,-1,-1,-1,-1,-1,-1,-1,-1,-1,-1,-1],"split_conditions":[1E0,3E0,4E0,1.811536E-1,2.345E1,2E0,2E0,3.71E2,2.35E2,1.5201885E-1,3.2153707E-3,3.57E2,4.71E1,8.05E0,8.6833E0,-1.2791014E-2,-1.1252283E-1,4.55E1,2.625E1,1E0,5.69292E1,1.4304924E-1,2.1E1,7.8542E0,6.6E2,2.5E2,-1.0475208E-1,-8.973774E-2,5.4E1,2.7E1,5.81E2,8.345213E-2,-8.088752E-2,-4.8672836E-2,6.7531295E-2,3.0648995E-2,-9.66254E-2,1.2188909E-2,1.0344757E-1,-3.638594E-3,-8.411614E-2,6.7859106E-2,-3.186683E-2,-3.341799E-3,-8.228498E-2,-1.0021074E-1,-1.3605765E-1],"split_indices":[6,5,0,0,2,7,5,4,4,0,0,4,2,2,2,0,0,0,2,1,2,0,0,2,4,4,0,0,0,0,4,0,0,0,0,0,0,0,0,0,0,0,0,0,0,0,0],"split_type":[0,0,0,0,0,0,0,0,0,0,0,0,0,0,0,0,0,0,0,0,0,0,0,0,0,0,0,0,0,0,0,0,0,0,0,0,0,0,0,0,0,0,0,0,0,0,0],"sum_hessian":[1.6567201E2,6.407101E1,1.01601E2,3.52406E1,2.883041E1,3.6755745E0,9.792542E1,2.3626337E1,5.2040725E0,2.4906125E0,1.1849619E0,2.3249504E1,7.467592E1,1.3159163E1,1.0467174E1,2.1151798E0,3.0888927E0,9.062155E0,1.4187348E1,7.2322365E1,2.3535504E0,6.2223444E0,6.9368196E0,4.6682305E0,5.798943E0,6.819043E0,2.2431118E0,1.1871753E0,1.3000173E1,9.373935E0,6.2948433E1,1.2245867E0,1.1289637E0,2.1368084E0,4.800011E0,2.882031E0,1.7861997E0,3.3331928E0,2.4657502E0,4.4613385E0,2.3577046E0,1.0434063E1,2.5661106E0,2.576754E0,6.79718E0,4.021008E1,2.2738354E1],"tree_param":{"num_deleted":"0","num_feature":"8","num_nodes":"47","size_leaf_vector":"1"}},{"base_weights":[-4.15063E-3,1.0592333E0,-6.9477546E-1,1.6439578E-1,3.149437E-1,1.0657126E0,-7.733828E-1,5.673728E-1,-7.627606E-1,1.4078534E-1,3.0397265E-3,-7.612045E-2,-9.944155E-1,6.384822E-1,-4.5147832E-2,5.8475137E-3,-9.709759E-1,-4.2220265E-1,4.6174672E-1,-1.0290768E0,3.6502782E-2,9.4875795E-1,1.9878723E-1,-2.8438544E-2,-1.0908444E-1,-5.219073E-2,-8.534565E-1,1.02137856E-1,4.6092276E-2,-5.8616287E-1,-1.0858898E0,7.839163E-2,-7.773722E-2,1.01211285E-2,1.19526766E-1,-6.556316E-3,9.509333E-2,1.5539619E-2,-8.1869654E-2,-4.7635283E-2,-1.0708898E-1,8.212089E-2,-2.741516E-2,-2.840789E-2,-1.05973005E-1,-9.38071E-2,-1.2986483E-1],"categories":[],"categories_nodes":[],"categories_segments":[],"categories_sizes":[],"default_left":[0,0,0,0,0,0,0,0,0,0,0,0,0,0,0,0,0,0,0,0,0,0,0,0,0,0,0,0,0,0,0,0,0,0,0,0,0,0,0,0,0,0,0,0,0,0,0],"id":3,"left_children":[1,3,5,-1,7,9,11,13,15,-1,-1,17,19,21,-1,-1,23,25,27,29,31,33,35,-1,-1,37,39,-1,41,43,45,-1,-1,-1,-1,-1,-1,-1,-1,-1,-1,-1,-1,-1,-1,-1,-1],"loss_changes":[1.20872185E2,2.7686066E1,1.4632271E1,0E0,8.525958E0,1.6168461E0,1.4733967E1,2.0761213E0,1.0951109E0,0E0,0E0,4.7020006E0,2.6418152E0,3.0148993E0,0E0,0E0,9.3132496E-2,2.3897128E0,2.2691078E0,1.1386185E0,2.6389403E0,2.6999216E0,2.2454515E0,0E0,0E0,1.6031425E0,6.215906E-2,0E0,1.903356E0,1.1571364E0,7.112503E-1,0E0,0E0,0E0,0E0,0E0,0E0,0E0,0E0,0E0,0E0,0E0,0E0,0E0,0E0,0E0,0E0],"parents":[2147483647,0,0,1,1,2,2,4,4,5,5,6,6,7,7,8,8,11,11,12,12,13,13,16,16,17,17,18,18,19,19,20,20,21,21,22,22,25,25,26,26,28,28,29,29,30,30],"right_children":[2,4,6,-1,8,10,12,14,16,-1,-1,18,20,22,-1,-1,24,26,28,30,32,34,36,-1,-1,38,40,-1,42,44,46,-1,-1,-1,-1,-1,-1,-1,-1,-1,-1,-1,-1,-1,-1,-1,-1],"split_conditions":[1E0,3E0,4E0,1.6439578E-1,2.345E1,2E0,2E0,3.65E1,1.52E2,1.4078534E-1,3.0397265E-3,5.6E2,4.71E1,3.71E2,-4.5147832E-2,5.8475137E-3,1.2E1,4.05E1,6.5E2,1E0,5.69292E1,1.9E1,1.555E1,-2.8438544E-2,-1.0908444E-1,1.3365E2,5.4E1,1.02137856E-1,2.8E1,3E1,5.81E2,7.839163E-2,-7.773722E-2,1.01211285E-2,1.19526766E-1,-6.556316E-3,9.509333E-2,1.5539619E-2,-8.1869654E-2,-4.7635283E-2,-1.0708898E-1,8.212089E-2,-2.741516E-2,-2.840789E-2,-1.05973005E-1,-9.38071E-2,-1.2986483E-1],"split_indices":[6,5,0,0,2,7,5,0,4,0,0,4,2,4,0,0,0,0,4,1,2,0,2,0,0,2,0,0,0,0,4,0,0,0,0,0,0,0,0,0,0,0,0,0,0,0,0],"split_type":[0,0,0,0,0,0,0,0,0,0,0,0,0,0,0,0,0,0,0,0,0,0,0,0,0,0,0,0,0,0,0,0,0,0,0,0,0,0,0,0,0,0,0,0,0,0,0],"sum_hessian":[1.6258437E2,6.380595E1,9.877842E1,3.5056393E1,2.8749557E1,3.6852915E0,9.5093124E1,2.3677214E1,5.072344E0,2.499463E0,1.1858284E0,2.3212414E1,7.1880714E1,2.248148E1,1.195734E0,1.1713812E0,3.9009628E0,1.4255183E1,8.957231E0,6.95443E1,2.3364162E0,1.2501729E1,9.979752E0,1.0810928E0,2.81987E0,8.275715E0,5.979468E0,3.1963835E0,5.760847E0,9.19302E0,6.0351276E1,1.2371253E0,1.099291E0,3.134682E0,9.367046E0,8.059855E0,1.9198966E0,7.139457E0,1.1362579E0,3.353739E0,2.625729E0,1.2269123E0,4.5339346E0,6.5895066E0,2.6035128E0,3.880186E1,2.1549416E1],"tree_param":{"num_deleted":"0","num_feature":"8","num_nodes":"47","size_leaf_vector":"1"}},{"base_weights":[-5.0604744E-3,9.6776044E-1,-6.4914316E-1,1.5129384E0,2.850472E-1,9.935688E-1,-7.245292E-1,5.0094526E-2,1.5344E-1,5.161489E-1,-7.2397923E-1,1.3141239E-1,2.8736803E-3,-7.203519E-2,-9.383408E-1,8.3634096E-1,2.5126392E-1,-9.590117E-3,-1.0387553E-1,-5.881348E-1,2.6670384E-1,-9.71995E-1,3.2817226E-2,1.2613462E-1,-9.646103E-2,-5.1087636E-1,5.728812E-1,-7.912294E-1,-2.1959063E-1,-8.5502885E-2,4.19389E-1,-5.5004835E-1,-1.0275367E0,7.377826E-2,-7.481624E-2,1.3762406E-2,-3.9345067E-2,-8.945651E-2,3.728289E-2,-1.0874401E-2,8.595972E-2,-2.6215184E-2,-1.0672914E-1,9.995569E-2,-8.6699806E-2,5.994928E-2,-2.9166183E-2,-2.6147936E-2,-1.01406336E-1,-8.796535E-2,-1.245492E-1],"categories":[],"categories_nodes":[],"categories_segments":[],"categories_sizes":[],"default_left":[0,0,0,0,0,0,0,0,0,0,0,0,0,0,0,0,0,0,0,0,0,0,0,0,0,0,0,0,0,0,0,0,0,0,0,0,0,0,0,0,0,0,0,0,0,0,0,0,0,0,0],"id":4,"left_children":[1,3,5,7,9,11,13,-1,-1,15,17,-1,-1,19,21,23,25,-1,-1,27,29,31,33,-1,35,37,39,41,43,-1,45,47,49,-1,-1,-1,-1,-1,-1,-1,-1,-1,-1,-1,-1,-1,-1,-1,-1,-1,-1],"loss_changes":[1.0080457E2,2.3422352E1,1.2706188E1,2.2888184E-4,7.296317E0,1.4061642E0,1.29239235E1,0E0,0E0,1.8880315E0,1.076417E0,0E0,0E0,4.3642297E0,2.3215714E0,4.391602E0,3.9615808E0,0E0,0E0,5.634134E-1,2.964984E0,1.0223846E0,2.376392E0,0E0,3.5310376E-1,2.0188618E0,2.2427375E0,5.9150195E-1,4.720847E0,0E0,1.9761269E0,1.0780959E0,7.9673386E-1,0E0,0E0,0E0,0E0,0E0,0E0,0E0,0E0,0E0,0E0,0E0,0E0,0E0,0E0,0E0,0E0,0E0,0E0],"parents":[2147483647,0,0,1,1,2,2,3,3,4,4,5,5,6,6,9,9,10,10,13,13,14,14,15,15,16,16,19,19,20,20,21,21,22,22,24,24,25,25,26,26,27,27,28,28,30,30,31,31,32,32],"right_children":[2,4,6,8,10,12,14,-1,-1,16,18,-1,-1,20,22,24,26,-1,-1,28,30,32,34,-1,36,38,40,42,44,-1,46,48,50,-1,-1,-1,-1,-1,-1,-1,-1,-1,-1,-1,-1,-1,-1,-1,-1,-1,-1],"split_conditions":[1E0,3E0,4E0,5E0,2.345E1,2E0,2E0,5.0094526E-2,1.5344E-1,8.05E0,2.35E2,1.3141239E-1,2.8736803E-3,3.57E2,4.71E1,3.8E2,1.11333E1,-9.590117E-3,-1.0387553E-1,1.87E2,2.625E1,1E0,5.69292E1,1.2613462E-1,6.57E2,5.68E2,1.42E2,2.85E1,2.5E2,-8.5502885E-2,5.4E1,3E1,5.81E2,7.377826E-2,-7.481624E-2,1.3762406E-2,-3.9345067E-2,-8.945651E-2,3.728289E-2,-1.0874401E-2,8.595972E-2,-2.6215184E-2,-1.0672914E-1,9.995569E-2,-8.6699806E-2,5.994928E-2,-2.9166183E-2,-2.6147936E-2,-1.01406336E-1,-8.796535E-2,-1.245492E-1],"split_indices":[6,5,0,0,2,7,5,0,0,2,4,0,0,4,2,4,2,0,0,4,2,1,2,0,4,4,4,0,4,0,0,0,4,0,0,0,0,0,0,0,0,0,0,0,0,0,0,0,0,0,0],"split_type":[0,0,0,0,0,0,0,0,0,0,0,0,0,0,0,0,0,0,0,0,0,0,0,0,0,0,0,0,0,0,0,0,0,0,0,0,0,0,0,0,0,0,0,0,0,0,0,0,0,0,0],"sum_hessian":[1.5887875E2,6.3088104E1,9.579066E1,3.4401142E1,2.8686962E1,3.668647E0,9.212201E1,1.2198986E0,3.3181244E1,2.3738499E1,4.9484634E0,2.4820042E0,1.1866429E0,2.3066454E1,6.905556E1,9.770536E0,1.3967961E1,2.0876346E0,2.8608289E0,8.848585E0,1.421787E1,6.674184E1,2.3137155E0,6.4703093E0,3.3002276E0,3.9705179E0,9.997443E0,4.96539E0,3.883195E0,1.1523021E0,1.3065567E1,9.031734E0,5.7710106E1,1.2451078E0,1.0686077E0,2.1456473E0,1.1545804E0,2.7599213E0,1.2105964E0,3.1439314E0,6.8535123E0,2.3709793E0,2.5944107E0,1.1582085E0,2.7249866E0,1.05501795E1,2.5153883E0,6.532633E0,2.4991019E0,3.738214E1,2.0327965E1],"tree_param":{"num_deleted":"0","num_feature":"8","num_nodes":"51","size_leaf_vector":"1"}},{"base_weights":[-6.373228E-3,8.917874E-1,-6.0838324E-1,1.4081455E0,2.5840947E-1,9.3087995E-1,-6.8067324E-1,8.208312E-1,1.4742217E0,4.7088644E-1,-6.8743414E-1,1.2345672E-1,2.7167285E-3,-7.3011875E-2,-8.8708097E-1,1.05028965E-1,-3.3223075E-3,4.7571186E-2,1.4999321E-1,5.343637E-1,-4.287064E-2,-8.958166E-3,-9.970968E-2,-3.724021E-1,4.2250663E-1,-9.197784E-1,2.905933E-2,7.996043E-1,1.6094756E-1,-4.461967E-2,-7.914286E-1,1.0420611E0,1.9267002E-2,-7.8276485E-1,-1.1408279E0,6.955312E-2,-7.209676E-2,5.939837E-3,1.0176245E-1,-7.228245E-3,8.153601E-2,1.4365447E-2,-7.933392E-2,-4.421949E-2,-9.954836E-2,1.2609272E-1,3.3091348E-2,7.367485E-2,-2.7558861E-2,-8.648224E-2,3.431285E-2,-4.918533E-2,-1.1991558E-1],"categories":[],"categories_nodes":[],"categories_segments":[],"categories_sizes":[],"default_left":[0,0,0,0,0,0,0,0,0,0,0,0,0,0,0,0,0,0,0,0,0,0,0,0,0,0,0,0,0,0,0,0,0,0,0,0,0,0,0,0,0,0,0,0,0,0,0,0,0,0,0,0,0],"id":5,"left_children":[1,3,5,7,9,11,13,15,17,19,21,-1,-1,23,25,-1,-1,-1,-1,27,-1,-1,-1,29,31,33,35,37,39,41,43,45,47,49,51,-1,-1,-1,-1,-1,-1,-1,-1,-1,-1,-1,-1,-1,-1,-1,-1,-1,-1],"loss_changes":[8.474733E1,2.0207577E1,1.1074665E1,1.2591553E-1,6.247055E0,1.2375407E0,1.1248768E1,1.1593158E0,4.862213E-2,1.6373048E0,9.8686695E-1,0E0,0E0,3.7119167E0,2.0409546E0,0E0,0E0,0E0,0E0,2.1969318E0,0E0,0E0,0E0,2.089135E0,2.351479E0,1.0742569E0,2.144296E0,2.114437E0,1.7384143E0,1.486732E0,3.933668E-2,1.6232061E-1,1.6350498E0,4.295803E0,2.6827812E-1,0E0,0E0,0E0,0E0,0E0,0E0,0E0,0E0,0E0,0E0,0E0,0E0,0E0,0E0,0E0,0E0,0E0,0E0],"parents":[2147483647,0,0,1,1,2,2,3,3,4,4,5,5,6,6,7,7,8,8,9,9,10,10,13,13,14,14,19,19,23,23,24,24,25,25,26,26,27,27,28,28,29,29,30,30,31,31,32,32,33,33,34,34],"right_children":[2,4,6,8,10,12,14,16,18,20,22,-1,-1,24,26,-1,-1,-1,-1,28,-1,-1,-1,30,32,34,36,38,40,42,44,46,48,50,52,-1,-1,-1,-1,-1,-1,-1,-1,-1,-1,-1,-1,-1,-1,-1,-1,-1,-1],"split_conditions":[1E0,3E0,4E0,1.34167E1,2.345E1,2E0,2E0,3.65E1,5E0,3.65E1,2.35E2,1.2345672E-1,2.7167285E-3,5.87E2,4.71E1,1.05028965E-1,-3.3223075E-3,4.7571186E-2,1.4999321E-1,3.71E2,-4.287064E-2,-8.958166E-3,-9.970968E-2,4.05E1,6.5E2,5.81E2,5.69292E1,1.9E1,1.555E1,1.3365E2,5.4E1,1E0,2.8E1,5.43E2,1E0,6.955312E-2,-7.209676E-2,5.939837E-3,1.0176245E-1,-7.228245E-3,8.153601E-2,1.4365447E-2,-7.933392E-2,-4.421949E-2,-9.954836E-2,1.2609272E-1,3.3091348E-2,7.367485E-2,-2.7558861E-2,-8.648224E-2,3.431285E-2,-4.918533E-2,-1.1991558E-1],"split_indices":[6,5,0,2,2,7,5,0,0,0,4,0,0,4,2,0,0,0,0,4,0,0,0,0,4,4,2,0,2,2,0,1,0,4,1,0,0,0,0,0,0,0,0,0,0,0,0,0,0,0,0,0,0],"split_type":[0,0,0,0,0,0,0,0,0,0,0,0,0,0,0,0,0,0,0,0,0,0,0,0,0,0,0,0,0,0,0,0,0,0,0,0,0,0,0,0,0,0,0,0,0,0,0,0,0,0,0,0,0],"sum_hessian":[1.5473242E2,6.190008E1,9.283234E1,3.342626E1,2.847382E1,3.6314416E0,8.92009E1,4.7377276E0,2.8688534E1,2.3660753E1,4.813066E0,2.4440331E0,1.1874084E0,2.2960182E1,6.6240715E1,3.5532956E0,1.1844319E0,1.2097133E0,2.747882E1,2.2480476E1,1.180278E0,2.082248E0,2.730818E0,1.4467463E1,8.492721E0,6.395419E1,2.2865233E0,1.2476787E1,1.0003689E1,8.738375E0,5.7290874E0,2.7236958E0,5.7690244E0,4.228544E1,2.166875E1,1.2491714E0,1.037352E0,3.128291E0,9.3484955E0,8.0310135E0,1.9726753E0,7.6282873E0,1.1100876E0,3.2809253E0,2.448162E0,1.491559E0,1.2321368E0,1.2437916E0,4.525233E0,3.9629066E1,2.6563728E0,2.5647788E0,1.9103973E1],"tree_param":{"num_deleted":"0","num_feature":"8","num_nodes":"53","size_leaf_vector":"1"}},{"base_weights":[-4.8509645E-3,8.269487E-1,-5.6842726E-1,1.3234172E0,2.3492786E-1,8.757089E-1,-6.377018E-1,7.697188E-1,1.3864129E0,4.3043366E-1,-6.5363526E-1,1.1660121E-1,2.5683613E-3,-6.672005E-2,-8.384231E-1,9.8968245E-2,-3.1408046E-3,4.520227E-2,1.4107858E-1,7.2796226E-1,1.9082353E-1,-8.367572E-3,-9.591437E-2,-5.399428E-1,2.3713294E-1,-8.7014794E-1,2.525964E-2,1.1056717E-1,-8.7526776E-2,-4.839477E-1,4.7286892E-1,-7.372692E-1,-1.9090164E-1,-8.1111014E-2,3.7765822E-1,-7.708396E-1,-1.2144953E-1,6.566706E-2,-6.955547E-2,1.3304326E-2,-3.7109822E-2,-1.0168338E-1,1.6082361E-2,1.3346417E-1,2.0138847E-2,-1.2325752E-2,-9.2649214E-2,9.395253E-2,-8.165928E-2,5.3649005E-2,-2.6467023E-2,-6.1581798E-2,-1.04710475E-1],"categories":[],"categories_nodes":[],"categories_segments":[],"categories_sizes":[],"default_left":[0,0,0,0,0,0,0,0,0,0,0,0,0,0,0,0,0,0,0,0,0,0,0,0,0,0,0,0,0,0,0,0,0,0,0,0,0,0,0,0,0,0,0,0,0,0,0,0,0,0,0,0,0],"id":6,"left_children":[1,3,5,7,9,11,13,15,17,19,21,-1,-1,23,25,-1,-1,-1,-1,27,29,-1,-1,31,33,35,37,-1,39,41,43,45,47,-1,49,51,-1,-1,-1,-1,-1,-1,-1,-1,-1,-1,-1,-1,-1,-1,-1,-1,-1],"loss_changes":[7.142538E1,1.7776989E1,9.644304E0,9.2819214E-2,5.368684E0,1.0998833E0,9.942703E0,1.0258737E0,1.3858795E-2,1.6153002E0,9.0850973E-1,0E0,0E0,3.5471158E0,1.7882996E0,0E0,0E0,0E0,0E0,3.3683324E0,3.0807486E0,0E0,0E0,5.206578E-1,2.5417128E0,1.191124E0,1.9385548E0,0E0,3.1762812E-1,1.85105E0,2.3219495E0,5.5797386E-1,4.1746955E0,0E0,1.5768046E0,1.5402431E0,0E0,0E0,0E0,0E0,0E0,0E0,0E0,0E0,0E0,0E0,0E0,0E0,0E0,0E0,0E0,0E0,0E0],"parents":[2147483647,0,0,1,1,2,2,3,3,4,4,5,5,6,6,7,7,8,8,9,9,10,10,13,13,14,14,19,19,20,20,23,23,24,24,25,25,26,26,28,28,29,29,30,30,31,31,32,32,34,34,35,35],"right_children":[2,4,6,8,10,12,14,16,18,20,22,-1,-1,24,26,-1,-1,-1,-1,28,30,-1,-1,32,34,36,38,-1,40,42,44,46,48,-1,50,52,-1,-1,-1,-1,-1,-1,-1,-1,-1,-1,-1,-1,-1,-1,-1,-1,-1],"split_conditions":[1E0,3E0,4E0,1.34167E1,2.345E1,2E0,2E0,3.65E1,5E0,8.05E0,2.35E2,1.1660121E-1,2.5683613E-3,3.57E2,4.71E1,9.8968245E-2,-3.1408046E-3,4.520227E-2,1.4107858E-1,3.8E2,1.11333E1,-8.367572E-3,-9.591437E-2,1.87E2,2.625E1,3.45E1,5.69292E1,1.1056717E-1,6.57E2,4.77E2,1.35E1,3.675E1,2.5E2,-8.1111014E-2,5.4E1,5.81E2,-1.2144953E-1,6.566706E-2,-6.955547E-2,1.3304326E-2,-3.7109822E-2,-1.0168338E-1,1.6082361E-2,1.3346417E-1,2.0138847E-2,-1.2325752E-2,-9.2649214E-2,9.395253E-2,-8.165928E-2,5.3649005E-2,-2.6467023E-2,-6.1581798E-2,-1.04710475E-1],"split_indices":[6,5,0,2,2,7,5,0,0,2,4,0,0,4,2,0,0,0,0,4,2,0,0,4,2,0,2,0,4,4,2,2,4,0,0,4,0,0,0,0,0,0,0,0,0,0,0,0,0,0,0,0,0],"split_type":[0,0,0,0,0,0,0,0,0,0,0,0,0,0,0,0,0,0,0,0,0,0,0,0,0,0,0,0,0,0,0,0,0,0,0,0,0,0,0,0,0,0,0,0,0,0,0,0,0,0,0,0,0],"sum_hessian":[1.5036082E2,6.0540257E1,8.9820564E1,3.2255436E1,2.8284822E1,3.5785694E0,8.624199E1,4.6451955E0,2.761024E1,2.3606413E1,4.6784086E0,2.390441E0,1.1881285E0,2.2778244E1,6.346375E1,3.4598653E0,1.1853304E0,1.1987715E0,2.6411469E1,9.621321E0,1.3985092E1,2.077149E0,2.6012597E0,8.602955E0,1.4175289E1,6.1207966E1,2.2557826E0,6.3324747E0,3.2888458E0,3.9114377E0,1.0073655E1,4.7853456E0,3.8176098E0,1.1115718E0,1.3063718E1,5.0020744E1,1.1187221E1,1.2498982E0,1.0058843E0,2.148506E0,1.14034E0,1.8255906E0,2.0858471E0,1.47508E0,8.598575E0,1.5163409E0,3.2690046E0,1.1814756E0,2.6361344E0,1.0605912E1,2.4578052E0,3.410972E1,1.5911024E1],"tree_param":{"num_deleted":"0","num_feature":"8","num_nodes":"53","size_leaf_vector":"1"}},{"base_weights":[-4.7170296E-3,7.7099526E-1,-5.331171E-1,1.251701E0,2.1507089E-1,8.26606E-1,-5.994618E-1,7.2349E-1,1.3129147E0,3.817582E-1,-7.091515E-1,1.1061384E-1,2.4281137E-3,-6.711293E-2,-7.933058E-1,9.352877E-2,-2.96923E-3,1.3721378E-1,7.062538E-1,6.718274E-1,1.639059E-1,-9.138E-2,-2.5058491E-2,-3.4182313E-1,3.7955227E-1,-8.2403743E-1,2.1442737E-2,-6.8648317E-4,1.0059734E-1,1.02771915E-1,-8.4509425E-2,-2.0913023E-1,5.7860696E-1,-3.5937726E-2,-7.439043E-1,9.152927E-2,-3.811275E-2,-7.254062E-1,-1.17423885E-1,7.792087E-3,-4.3618786E-3,1.2372858E-2,-3.5341304E-2,-6.287741E-2,6.441678E-2,-5.2906193E-2,8.6905956E-2,1.4450493E-2,-7.650431E-2,-3.0776609E-2,-8.762614E-2,6.6460855E-2,-3.4422435E-2,-7.812091E-2,-1.1405156E-2],"categories":[],"categories_nodes":[],"categories_segments":[],"categories_sizes":[],"default_left":[0,0,0,0,0,0,0,0,0,0,0,0,0,0,0,0,0,0,0,0,0,0,0,0,0,0,0,0,0,0,0,0,0,0,0,0,0,0,0,0,0,0,0,0,0,0,0,0,0,0,0,0,0,0,0],"id":7,"left_children":[1,3,5,7,9,11,13,15,17,19,21,-1,-1,23,25,-1,-1,-1,27,29,31,-1,-1,33,35,37,39,-1,-1,-1,41,43,45,47,49,-1,51,53,-1,-1,-1,-1,-1,-1,-1,-1,-1,-1,-1,-1,-1,-1,-1,-1,-1],"loss_changes":[6.063985E1,1.5750534E1,8.433512E0,8.28743E-2,4.739219E0,9.855447E-1,8.664482E0,9.122534E-1,1.5213013E-2,1.4838264E0,2.1977329E-1,0E0,0E0,3.0307999E0,1.5659866E0,0E0,0E0,0E0,9.6811366E-1,2.9121008E0,2.5540595E0,0E0,0E0,1.8384773E0,2.1555452E0,1.2073479E0,1.523936E-2,0E0,0E0,0E0,2.8353184E-1,3.632893E0,2.941386E0,1.3819394E0,1.0563135E-1,0E0,1.5808741E0,1.587017E0,0E0,0E0,0E0,0E0,0E0,0E0,0E0,0E0,0E0,0E0,0E0,0E0,0E0,0E0,0E0,0E0,0E0],"parents":[2147483647,0,0,1,1,2,2,3,3,4,4,5,5,6,6,7,7,8,8,9,9,10,10,13,13,14,14,18,18,19,19,20,20,23,23,24,24,25,25,26,26,30,30,31,31,32,32,33,33,34,34,36,36,37,37],"right_children":[2,4,6,8,10,12,14,16,18,20,22,-1,-1,24,26,-1,-1,-1,28,30,32,-1,-1,34,36,38,40,-1,-1,-1,42,44,46,48,50,-1,52,54,-1,-1,-1,-1,-1,-1,-1,-1,-1,-1,-1,-1,-1,-1,-1,-1,-1],"split_conditions":[1E0,3E0,4E0,1.34167E1,2.54667E1,2E0,2E0,3.65E1,1.5155E2,8.05E0,3.13875E1,1.1061384E-1,2.4281137E-3,5.87E2,4.71E1,9.352877E-2,-2.96923E-3,1.3721378E-1,2.113375E2,3.8E2,1.55E1,-9.138E-2,-2.5058491E-2,4.05E1,6.63E2,3.45E1,5.11E2,-6.8648317E-4,1.0059734E-1,1.02771915E-1,6.57E2,5.81E2,5.3E1,1.3365E2,3.06958E1,9.152927E-2,2.8E1,3.2E1,-1.17423885E-1,7.792087E-3,-4.3618786E-3,1.2372858E-2,-3.5341304E-2,-6.287741E-2,6.441678E-2,-5.2906193E-2,8.6905956E-2,1.4450493E-2,-7.650431E-2,-3.0776609E-2,-8.762614E-2,6.6460855E-2,-3.4422435E-2,-7.812091E-2,-1.1405156E-2],"split_indices":[6,5,0,2,2,7,5,0,2,2,2,0,0,4,2,0,0,0,2,4,2,0,0,0,4,0,4,0,0,0,4,4,4,2,2,0,0,0,0,0,0,0,0,0,0,0,0,0,0,0,0,0,0,0,0],"split_type":[0,0,0,0,0,0,0,0,0,0,0,0,0,0,0,0,0,0,0,0,0,0,0,0,0,0,0,0,0,0,0,0,0,0,0,0,0,0,0,0,0,0,0,0,0,0,0,0,0,0,0,0,0,0,0],"sum_hessian":[1.4594025E2,5.894603E1,8.6994225E1,3.0940407E1,2.8005623E1,3.5140994E0,8.3480125E1,4.544571E0,2.6395836E1,2.4223717E1,3.7819061E0,2.3252938E0,1.1888057E0,2.264285E1,6.0837273E1,3.358396E0,1.1861748E0,2.2898653E1,3.4971826E0,9.495991E0,1.4727726E1,1.928518E0,1.853388E0,1.41654625E1,8.477389E0,5.8614964E1,2.2223094E0,1.3240304E0,2.1731522E0,6.213457E0,3.2825334E0,8.014316E0,6.7134104E0,8.663805E0,5.501657E0,3.1918018E0,5.285588E0,4.8130745E1,1.048422E1,1.0838231E0,1.1384863E0,2.1542037E0,1.1283299E0,5.5486617E0,2.465654E0,1.2240125E0,5.489398E0,7.5877547E0,1.0760505E0,2.055086E0,3.446571E0,1.248455E0,4.0371327E0,4.385036E1,4.2803826E0],"tree_param":{"num_deleted":"0","num_feature":"8","num_nodes":"55","size_leaf_vector":"1"}},{"base_weights":[-3.3073167E-3,7.2090787E-1,-4.982935E-1,1.1904916E0,1.9553426E-1,5.1431745E-1,-5.8389354E-1,1.2128323E0,3.808059E-2,3.679071E-1,-6.0244566E-1,1.4225666E-1,-7.505658E-2,-8.064775E-1,-1.1165195E-1,3.7687242E-2,1.2337357E-1,4.241143E-1,-4.029051E-2,-5.5781626E-3,-9.130757E-2,-3.2058835E-1,-8.714156E-1,-5.458431E-1,1.9132362E-1,6.473784E-1,1.1811591E-1,-5.9248682E-2,2.2529097E-1,-5.986582E-1,-1.0003836E0,-2.9933095E-1,-7.719156E-1,6.4460665E-1,-1.0272368E-1,8.5376436E-4,8.4235825E-2,7.89445E-2,-7.1654357E-3,1.0110594E-1,-7.0707165E-2,4.935229E-2,-7.6796554E-2,-1.1100381E-1,-7.20016E-2,6.4200506E-4,-8.0917485E-2,-1.0007369E-1,-1.2320734E-2,9.6174814E-2,-3.8474273E-2,-9.5768765E-2,3.7068482E-2],"categories":[],"categories_nodes":[],"categories_segments":[],"categories_sizes":[],"default_left":[0,0,0,0,0,0,0,0,0,0,0,0,0,0,0,0,0,0,0,0,0,0,0,0,0,0,0,0,0,0,0,0,0,0,0,0,0,0,0,0,0,0,0,0,0,0,0,0,0,0,0,0,0],"id":8,"left_children":[1,3,5,7,9,11,13,15,-1,17,19,-1,-1,21,23,-1,-1,25,-1,-1,-1,27,29,31,33,35,37,-1,39,41,43,45,47,49,51,-1,-1,-1,-1,-1,-1,-1,-1,-1,-1,-1,-1,-1,-1,-1,-1,-1,-1],"loss_changes":[5.1451763E1,1.4143694E1,7.690033E0,9.119797E-2,4.169262E0,9.3125925E0,8.2219715E0,4.6958923E-2,0E0,1.220309E0,8.791704E-1,0E0,0E0,1.4113617E0,3.5895038E0,0E0,0E0,1.4991732E0,0E0,0E0,0E0,1.3059037E0,1.0433464E0,3.9021325E-1,2.244726E0,1.6259298E0,1.4518495E0,0E0,3.169798E0,3.61089E0,1.2943268E-1,1.0911372E0,6.4585996E-1,2.514288E0,4.7165995E0,0E0,0E0,0E0,0E0,0E0,0E0,0E0,0E0,0E0,0E0,0E0,0E0,0E0,0E0,0E0,0E0,0E0,0E0],"parents":[2147483647,0,0,1,1,2,2,3,3,4,4,5,5,6,6,7,7,9,9,10,10,13,13,14,14,17,17,21,21,22,22,23,23,24,24,25,25,26,26,28,28,29,29,30,30,31,31,32,32,33,33,34,34],"right_children":[2,4,6,8,10,12,14,16,-1,18,20,-1,-1,22,24,-1,-1,26,-1,-1,-1,28,30,32,34,36,38,-1,40,42,44,46,48,50,52,-1,-1,-1,-1,-1,-1,-1,-1,-1,-1,-1,-1,-1,-1,-1,-1,-1,-1],"split_conditions":[1E0,3E0,1.3E1,5.7E1,2.345E1,3E0,2.62875E1,5E0,3.808059E-2,3.65E1,2.35E2,1.4225666E-1,-7.505658E-2,1E0,3.63E2,3.7687242E-2,1.2337357E-1,3.71E2,-4.029051E-2,-5.5781626E-3,-9.130757E-2,5.36E2,3.07E2,1E0,3.06958E1,1.9E1,1.6E1,-5.9248682E-2,7.67E2,2E1,2.9E1,4.55E1,2.19E2,5.4E1,5.25542E1,8.5376436E-4,8.4235825E-2,7.89445E-2,-7.1654357E-3,1.0110594E-1,-7.0707165E-2,4.935229E-2,-7.6796554E-2,-1.1100381E-1,-7.20016E-2,6.4200506E-4,-8.0917485E-2,-1.0007369E-1,-1.2320734E-2,9.6174814E-2,-3.8474273E-2,-9.5768765E-2,3.7068482E-2],"split_indices":[6,5,0,0,2,7,2,0,0,0,4,0,0,1,4,0,0,4,0,0,0,4,4,7,2,0,0,0,4,0,0,0,4,0,2,0,0,0,0,0,0,0,0,0,0,0,0,0,0,0,0,0,0],"split_type":[0,0,0,0,0,0,0,0,0,0,0,0,0,0,0,0,0,0,0,0,0,0,0,0,0,0,0,0,0,0,0,0,0,0,0,0,0,0,0,0,0,0,0,0,0,0,0,0,0,0,0,0,0],"sum_hessian":[1.4152689E2,5.7273502E1,8.425339E1,2.9574001E1,2.7699501E1,6.176753E0,7.807664E1,2.8295372E1,1.2786287E0,2.3222193E1,4.4773083E0,3.5226514E0,2.6541016E0,5.2584133E1,2.5492504E1,1.1544931E0,2.7140879E1,2.2063143E1,1.1590496E0,2.049703E0,2.4276056E0,6.8991523E0,4.568498E1,1.014796E1,1.5344545E1,1.2111015E1,9.9521265E0,4.548298E0,2.3508544E0,1.647774E1,2.9207241E1,5.966291E0,4.1816688E0,5.568438E0,9.776107E0,3.0761073E0,9.034908E0,1.4968576E0,8.455269E0,1.2299132E0,1.1209412E0,1.9545046E0,1.4523233E1,1.8868408E1,1.0338833E1,4.3468895E0,1.6194017E0,2.6901138E0,1.4915547E0,4.3070993E0,1.261339E0,3.1194663E0,6.6566405E0],"tree_param":{"num_deleted":"0","num_feature":"8","num_nodes":"53","size_leaf_vector":"1"}},{"base_weights":[-4.4604754E-3,6.735927E-1,-4.6900302E-1,1.133719E0,1.7826957E-1,4.8200914E-1,-5.502473E-1,6.069703E-1,1.1993716E0,3.2452598E-1,-6.5354943E-1,1.3290186E-1,-7.14266E-2,-7.650444E-1,-1.09437525E-1,8.2341665E-1,-8.6192135E-3,1.2605216E-1,6.0756934E-1,5.937028E-1,1.274926E-1,-8.597959E-2,-2.1479344E-2,-6.4003646E-1,-1.0853046E0,-5.187391E-1,1.7217098E-1,2.254824E-2,9.5133245E-2,9.300406E-2,-9.648241E-3,9.194773E-2,-7.622015E-2,-4.4933772E-1,3.5218802E-1,-7.1842027E-1,7.559386E-2,-2.268854E-2,-1.1514777E-1,-2.8413308E-1,-7.3649186E-1,4.1264707E-1,-2.9532495E-1,1.2008701E-2,-3.332826E-2,-9.588569E-2,1.5239799E-2,1.219334E-1,1.097279E-2,-1.1830721E-2,-8.1901506E-2,5.897261E-4,-7.809656E-2,-9.6256346E-2,-1.1611884E-2,8.679934E-4,8.647224E-2,5.112614E-2,-7.932525E-2],"categories":[],"categories_nodes":[],"categories_segments":[],"categories_sizes":[],"default_left":[0,0,0,0,0,0,0,0,0,0,0,0,0,0,0,0,0,0,0,0,0,0,0,0,0,0,0,0,0,0,0,0,0,0,0,0,0,0,0,0,0,0,0,0,0,0,0,0,0,0,0,0,0,0,0,0,0,0,0],"id":9,"left_children":[1,3,5,7,9,11,13,15,17,19,21,-1,-1,23,25,27,-1,-1,29,31,33,-1,-1,35,37,39,41,-1,-1,-1,-1,-1,43,45,47,49,-1,-1,-1,51,53,55,57,-1,-1,-1,-1,-1,-1,-1,-1,-1,-1,-1,-1,-1,-1,-1,-1],"loss_changes":[4.3833256E1,1.269326E1,6.6454296E0,2.79953E-1,3.6714346E0,8.074763E0,7.1638317E0,8.59344E-1,1.3492584E-1,1.2423239E0,2.3011732E-1,0E0,0E0,1.3591213E0,3.1144016E0,9.900856E-2,0E0,0E0,1.0572708E0,2.302552E0,2.183001E0,0E0,0E0,4.8471184E0,4.7519302E-1,3.499508E-1,1.9541881E0,0E0,0E0,0E0,0E0,0E0,2.5551474E-1,1.6235237E0,2.3477697E0,2.1823597E0,0E0,0E0,0E0,9.9850255E-1,5.96349E-1,2.0341654E0,2.8630867E0,0E0,0E0,0E0,0E0,0E0,0E0,0E0,0E0,0E0,0E0,0E0,0E0,0E0,0E0,0E0,0E0],"parents":[2147483647,0,0,1,1,2,2,3,3,4,4,5,5,6,6,7,7,8,8,9,9,10,10,13,13,14,14,15,15,18,18,19,19,20,20,23,23,24,24,25,25,26,26,32,32,33,33,34,34,35,35,39,39,40,40,41,41,42,42],"right_children":[2,4,6,8,10,12,14,16,18,20,22,-1,-1,24,26,28,-1,-1,30,32,34,-1,-1,36,38,40,42,-1,-1,-1,-1,-1,44,46,48,50,-1,-1,-1,52,54,56,58,-1,-1,-1,-1,-1,-1,-1,-1,-1,-1,-1,-1,-1,-1,-1,-1],"split_conditions":[1E0,3E0,1.3E1,1.34167E1,2.54667E1,3E0,2.62875E1,3.65E1,1.5155E2,8.05E0,3.13875E1,1.3290186E-1,-7.14266E-2,3.25E1,3.63E2,2.8E1,-8.6192135E-3,1.2605216E-1,2E0,3.8E2,1.11333E1,-8.597959E-2,-2.1479344E-2,3.2E1,1.05E2,1E0,6.85E2,2.254824E-2,9.5133245E-2,9.300406E-2,-9.648241E-3,9.194773E-2,6.57E2,4.77E2,1.35E1,1E0,7.559386E-2,-2.268854E-2,-1.1514777E-1,4.55E1,2.19E2,5.87E2,3.00708E1,1.2008701E-2,-3.332826E-2,-9.588569E-2,1.5239799E-2,1.219334E-1,1.097279E-2,-1.1830721E-2,-8.1901506E-2,5.897261E-4,-7.809656E-2,-9.6256346E-2,-1.1611884E-2,8.679934E-4,8.647224E-2,5.112614E-2,-7.932525E-2],"split_indices":[6,5,0,2,2,7,2,0,2,2,2,0,0,0,4,0,0,0,3,4,2,0,0,0,4,7,4,0,0,0,0,0,4,4,2,1,0,0,0,0,4,4,2,0,0,0,0,0,0,0,0,0,0,0,0,0,0,0,0],"split_type":[0,0,0,0,0,0,0,0,0,0,0,0,0,0,0,0,0,0,0,0,0,0,0,0,0,0,0,0,0,0,0,0,0,0,0,0,0,0,0,0,0,0,0,0,0,0,0,0,0,0,0,0,0,0,0,0,0,0,0],"sum_hessian":[1.3715707E2,5.5580677E1,8.157639E1,2.8145918E1,2.7434761E1,6.0322695E0,7.554412E1,4.254675E0,2.3891243E1,2.3850971E1,3.5837896E0,3.4667275E0,2.565542E0,5.029897E1,2.5245152E1,3.0990539E0,1.155621E0,2.0629642E1,3.261599E0,9.229244E0,1.4621727E1,1.7850618E0,1.7987278E0,3.8334328E1,1.19646435E1,9.946474E0,1.5298677E1,1.0330179E0,2.0660357E0,2.0168526E0,1.2447463E0,5.9589667E0,3.2702775E0,3.818708E0,1.0803019E1,3.6755856E1,1.5784733E0,1.1732686E0,1.0791374E1,5.897439E0,4.049035E0,1.01796665E1,5.119012E0,2.1563883E0,1.1138891E0,1.7464327E0,2.0722752E0,1.4801896E0,9.322829E0,5.5891314E0,3.1166721E1,4.3476124E0,1.5498265E0,2.5633357E0,1.4856993E0,5.9141126E0,4.2655535E0,1.9436843E0,3.1753273E0],"tree_param":{"num_deleted":"0","num_feature":"8","num_nodes":"59","size_leaf_vector":"1"}},{"base_weights":[-3.5328355E-3,6.3267034E-1,-4.4007856E-1,1.0860897E0,1.627782E-1,4.5292303E-1,-5.169909E-1,5.77812E-1,1.1513102E0,2.9978868E-1,-6.250906E-1,1.24689005E-1,-6.8015784E-2,-7.2484493E-1,-1.0471938E-1,7.888117E-1,-8.146335E-3,3.1298026E-2,1.1786075E-1,5.2207005E-1,9.546819E-2,-8.289847E-2,-2.0216381E-2,-6.003895E-1,-1.0513705E0,-4.9347395E-1,1.5880689E-1,1.952967E-2,9.222653E-2,2.647313E-1,1.2597539E-1,3.8569528E-1,-8.062153E-1,-6.780448E-1,6.915066E-2,-2.1623157E-2,-1.1192738E-1,-2.699542E-1,-7.035464E-1,5.583737E-1,-1.0301436E-1,6.034558E-2,-4.0408485E-2,-3.1910415E-3,1.10634804E-1,-1.0405948E-1,-1.5392557E-2,-1.0877962E-2,-7.7768825E-2,5.417106E-4,-7.545004E-2,-9.274452E-2,-1.0943713E-2,8.491621E-2,-3.801966E-2,-9.051748E-2,3.2738697E-2],"categories":[],"categories_nodes":[],"categories_segments":[],"categories_sizes":[],"default_left":[0,0,0,0,0,0,0,0,0,0,0,0,0,0,0,0,0,0,0,0,0,0,0,0,0,0,0,0,0,0,0,0,0,0,0,0,0,0,0,0,0,0,0,0,0,0,0,0,0,0,0,0,0,0,0,0,0],"id":10,"left_children":[1,3,5,7,9,11,13,15,17,19,21,-1,-1,23,25,27,-1,-1,-1,29,31,-1,-1,33,35,37,39,-1,-1,41,-1,43,45,47,-1,-1,-1,49,51,53,55,-1,-1,-1,-1,-1,-1,-1,-1,-1,-1,-1,-1,-1,-1,-1,-1],"loss_changes":[3.7452644E1,1.1515642E1,5.7267475E0,2.5476456E-1,3.223523E0,7.0325994E0,6.273533E0,7.82562E-1,1.7093658E-1,1.0690227E0,2.1965504E-1,0E0,0E0,1.3637428E0,2.742435E0,1.3713408E-1,0E0,0E0,0E0,1.8639123E0,3.9904E0,0E0,0E0,4.268607E0,4.5074654E-1,3.148167E-1,1.7580314E0,0E0,0E0,2.4747982E0,0E0,3.4399242E0,4.1271162E-1,1.9706364E0,0E0,0E0,0E0,9.1549706E-1,5.5280256E-1,2.1215727E0,3.9782352E0,0E0,0E0,0E0,0E0,0E0,0E0,0E0,0E0,0E0,0E0,0E0,0E0,0E0,0E0,0E0,0E0],"parents":[2147483647,0,0,1,1,2,2,3,3,4,4,5,5,6,6,7,7,8,8,9,9,10,10,13,13,14,14,15,15,19,19,20,20,23,23,24,24,25,25,26,26,29,29,31,31,32,32,33,33,37,37,38,38,39,39,40,40],"right_children":[2,4,6,8,10,12,14,16,18,20,22,-1,-1,24,26,28,-1,-1,-1,30,32,-1,-1,34,36,38,40,-1,-1,42,-1,44,46,48,-1,-1,-1,50,52,54,56,-1,-1,-1,-1,-1,-1,-1,-1,-1,-1,-1,-1,-1,-1,-1,-1],"split_conditions":[1E0,3E0,1.3E1,1.34167E1,2.54667E1,3E0,2.62875E1,3.65E1,5E0,2E0,3.13875E1,1.24689005E-1,-6.8015784E-2,3.25E1,3.63E2,3.24E2,-8.146335E-3,3.1298026E-2,1.1786075E-1,1.555E1,1.78E1,-8.289847E-2,-2.0216381E-2,3.2E1,1.05E2,1E0,3.06958E1,1.952967E-2,9.222653E-2,1.35E1,1.2597539E-1,1.11333E1,3E1,1E0,6.915066E-2,-2.1623157E-2,-1.1192738E-1,4.55E1,2.19E2,5.4E1,5.25542E1,6.034558E-2,-4.0408485E-2,-3.1910415E-3,1.10634804E-1,-1.0405948E-1,-1.5392557E-2,-1.0877962E-2,-7.7768825E-2,5.417106E-4,-7.545004E-2,-9.274452E-2,-1.0943713E-2,8.491621E-2,-3.801966E-2,-9.051748E-2,3.2738697E-2],"split_indices":[6,5,0,2,2,7,2,0,0,1,2,0,0,0,4,4,0,0,0,2,2,0,0,0,4,7,2,0,0,2,0,2,0,1,0,0,0,0,4,0,2,0,0,0,0,0,0,0,0,0,0,0,0,0,0,0,0],"split_type":[0,0,0,0,0,0,0,0,0,0,0,0,0,0,0,0,0,0,0,0,0,0,0,0,0,0,0,0,0,0,0,0,0,0,0,0,0,0,0,0,0,0,0,0,0,0,0,0,0,0,0,0,0,0,0,0,0],"sum_hessian":[1.3284937E2,5.387906E1,7.8970314E1,2.6752777E1,2.712628E1,5.8745217E0,7.309579E1,4.1636753E0,2.2589102E1,2.363555E1,3.490731E0,3.3950891E0,2.4794328E0,4.809145E1,2.500434E1,3.0053396E0,1.1583353E0,1.1054399E0,2.1483662E1,1.0575382E1,1.3060167E1,1.7074509E0,1.78328E0,3.6875168E1,1.1216281E1,9.749409E0,1.52549305E1,1.0039271E0,2.0014126E0,8.847742E0,1.7276399E0,1.031296E1,2.7472079E0,3.5232513E1,1.6426562E0,1.1580384E0,1.0058243E1,5.8306146E0,3.9187944E0,5.590534E0,9.664396E0,5.9380956E0,2.909646E0,7.1344123E0,3.1785474E0,1.5830822E0,1.1641257E0,5.559969E0,2.9672544E1,4.348276E0,1.4823384E0,2.4386754E0,1.4801192E0,4.340895E0,1.2496389E0,2.989542E0,6.6748543E0],"tree_param":{"num_deleted":"0","num_feature":"8","num_nodes":"57","size_leaf_vector":"1"}},{"base_weights":[-3.5348714E-3,5.9333044E-1,-4.1407567E-1,1.0421093E0,1.4855433E-1,4.264731E-1,-4.8691294E-1,5.5046463E-1,1.1072991E0,2.7651924E-1,-5.982879E-1,1.1737491E-1,-6.479985E-2,-6.8667823E-1,-1.0313004E-1,7.5630605E-2,-7.699616E-3,1.1731775E-1,5.1585627E-1,4.5768726E-1,4.4236112E-2,-8.0016755E-2,-1.9026957E-2,-5.7664376E-1,-1.07458234E-1,-4.6985394E-1,1.4261629E-1,8.504203E-2,-1.495775E-2,-2.6940202E-2,5.9666246E-1,6.0974527E-2,-1.2995744E-1,-6.894206E-1,-1.332435E-1,-2.8770658E-1,-7.436183E-2,3.6104903E-1,-2.864071E-1,1.08495794E-1,1.7870953E-2,-5.5364486E-2,1.6832389E-2,-3.0102003E-2,-8.807386E-2,2.2538375E-2,-8.4328875E-2,-6.009211E-2,6.3752435E-2,-1.5091057E-3,7.8851216E-2,4.2800248E-2,-7.370715E-2],"categories":[],"categories_nodes":[],"categories_segments":[],"categories_sizes":[],"default_left":[0,0,0,0,0,0,0,0,0,0,0,0,0,0,0,0,0,0,0,0,0,0,0,0,0,0,0,0,0,0,0,0,0,0,0,0,0,0,0,0,0,0,0,0,0,0,0,0,0,0,0,0,0],"id":11,"left_children":[1,3,5,7,9,11,13,15,17,19,21,-1,-1,23,25,-1,-1,-1,27,29,31,-1,-1,33,-1,35,37,-1,-1,-1,39,-1,41,43,45,47,-1,49,51,-1,-1,-1,-1,-1,-1,-1,-1,-1,-1,-1,-1,-1,-1],"loss_changes":[3.203141E1,1.0478996E1,4.9490185E0,2.3504066E-1,2.8339853E0,6.1472487E0,5.428854E0,7.135223E-1,2.62825E-1,1.0116954E0,2.1022761E-1,0E0,0E0,1.3865032E0,2.3861558E0,0E0,0E0,0E0,1.0216267E0,1.5420444E0,1.2467743E0,0E0,0E0,1.8469954E0,0E0,3.1254482E-1,1.6192577E0,0E0,0E0,0E0,2.211722E0,0E0,1.3424884E0,2.0140114E0,2.5077193E0,2.6930647E0,0E0,1.806387E0,2.2519813E0,0E0,0E0,0E0,0E0,0E0,0E0,0E0,0E0,0E0,0E0,0E0,0E0,0E0,0E0],"parents":[2147483647,0,0,1,1,2,2,3,3,4,4,5,5,6,6,7,7,8,8,9,9,10,10,13,13,14,14,18,18,19,19,20,20,23,23,25,25,26,26,30,30,32,32,33,33,34,34,35,35,37,37,38,38],"right_children":[2,4,6,8,10,12,14,16,18,20,22,-1,-1,24,26,-1,-1,-1,28,30,32,-1,-1,34,-1,36,38,-1,-1,-1,40,-1,42,44,46,48,-1,50,52,-1,-1,-1,-1,-1,-1,-1,-1,-1,-1,-1,-1,-1,-1],"split_conditions":[1E0,3E0,1.3E1,1.34167E1,2.54667E1,3E0,2.62875E1,3.65E1,1.5155E2,3.71E2,3.13875E1,1.1737491E-1,-6.479985E-2,3.45E1,3.63E2,7.5630605E-2,-7.699616E-3,1.1731775E-1,2E0,1E0,1E0,-8.0016755E-2,-1.9026957E-2,2.9E1,-1.07458234E-1,2.5E2,6.85E2,8.504203E-2,-1.495775E-2,-2.6940202E-2,2E0,6.0974527E-2,5.36E2,3.07E2,5.81E2,1.87E2,-7.436183E-2,5.87E2,3.00708E1,1.08495794E-1,1.7870953E-2,-5.5364486E-2,1.6832389E-2,-3.0102003E-2,-8.807386E-2,2.2538375E-2,-8.4328875E-2,-6.009211E-2,6.3752435E-2,-1.5091057E-3,7.8851216E-2,4.2800248E-2,-7.370715E-2],"split_indices":[6,5,0,2,2,7,2,0,2,4,2,0,0,0,4,0,0,0,3,1,1,0,0,0,0,4,4,0,0,0,1,0,4,4,4,4,0,4,2,0,0,0,0,0,0,0,0,0,0,0,0,0,0],"split_type":[0,0,0,0,0,0,0,0,0,0,0,0,0,0,0,0,0,0,0,0,0,0,0,0,0,0,0,0,0,0,0,0,0,0,0,0,0,0,0,0,0,0,0,0,0,0,0,0,0,0,0,0,0],"sum_hessian":[1.2871777E2,5.227396E1,7.644381E1,2.5351408E1,2.6922552E1,5.7087817E0,7.073503E1,4.073574E0,2.1277834E1,2.3522009E1,3.4005432E0,3.312559E0,2.3962228E0,4.6001343E1,2.4733688E1,2.912704E0,1.16087E0,1.8260307E1,3.017527E0,1.2669846E1,1.0852163E1,1.6319695E0,1.7685739E0,3.777305E1,8.228293E0,9.5581875E0,1.51755E1,1.8229818E0,1.1945453E0,1.8825014E0,1.0787344E1,1.9667702E0,8.885393E0,2.967141E1,8.101639E0,6.971003E0,2.5871847E0,1.0160718E1,5.0147824E0,4.239011E0,6.548333E0,3.317295E0,5.5680985E0,1.0641391E1,1.9030018E1,5.836392E0,2.2652469E0,5.469839E0,1.5011641E0,5.9179754E0,4.242742E0,1.959228E0,3.0555544E0],"tree_param":{"num_deleted":"0","num_feature":"8","num_nodes":"53","size_leaf_vector":"1"}},{"base_weights":[-3.2344388E-3,5.5782497E-1,-3.8861477E-1,1.0020077E0,1.3599068E-1,4.022224E-1,-4.5729905E-1,5.201264E-1,1.068275E0,2.5609973E-1,-5.729831E-1,1.1078397E-1,-6.175893E-2,-6.5141225E-1,-9.513648E-2,-4.091072E-3,7.4604355E-2,1.1350014E-1,4.91545E-1,4.922021E-1,8.875327E-2,-7.7309884E-2,-1.7906737E-2,-5.2704215E-1,-9.944875E-1,-4.3846503E-1,1.3163827E-1,-1.608246E-2,8.2880594E-2,8.029937E-2,-1.00686595E-1,-2.3181045E-1,4.4894248E-1,-6.0458094E-1,6.329795E-2,-1.8415207E-2,-1.0675614E-1,-2.1487455E-1,-6.604326E-1,-1.9486675E-1,3.9721954E-1,8.874473E-3,-3.3704862E-2,-5.1768094E-2,7.1141146E-2,-5.0575744E-2,7.079372E-2,-5.233832E-3,-7.083415E-2,2.3931846E-2,-4.753052E-2,-8.798773E-2,-1.0003232E-2,3.443754E-2,-5.7734873E-2,7.08535E-2,-3.0814433E-2],"categories":[],"categories_nodes":[],"categories_segments":[],"categories_sizes":[],"default_left":[0,0,0,0,0,0,0,0,0,0,0,0,0,0,0,0,0,0,0,0,0,0,0,0,0,0,0,0,0,0,0,0,0,0,0,0,0,0,0,0,0,0,0,0,0,0,0,0,0,0,0,0,0,0,0,0,0],"id":12,"left_children":[1,3,5,7,9,11,13,15,17,19,21,-1,-1,23,25,-1,-1,-1,27,29,31,-1,-1,33,35,37,39,-1,-1,-1,41,43,45,47,-1,-1,-1,49,51,53,55,-1,-1,-1,-1,-1,-1,-1,-1,-1,-1,-1,-1,-1,-1,-1,-1],"loss_changes":[2.7420057E1,9.539602E0,4.267146E0,2.4258232E-1,2.5006876E0,5.389663E0,4.833272E0,6.6055906E-1,2.5123596E-1,9.1760623E-1,2.0159757E-1,0E0,0E0,1.402914E0,2.0407376E0,0E0,0E0,0E0,1.0011117E0,1.8998682E0,1.8889076E0,0E0,0E0,3.5555267E0,4.4818306E-1,3.7236202E-1,1.4741398E0,0E0,0E0,0E0,2.2170915E-1,2.7514591E0,2.2420926E0,1.8868675E0,0E0,0E0,0E0,8.996953E-1,4.9215102E-1,1.8273576E0,2.2411003E0,0E0,0E0,0E0,0E0,0E0,0E0,0E0,0E0,0E0,0E0,0E0,0E0,0E0,0E0,0E0,0E0],"parents":[2147483647,0,0,1,1,2,2,3,3,4,4,5,5,6,6,7,7,8,8,9,9,10,10,13,13,14,14,18,18,19,19,20,20,23,23,24,24,25,25,26,26,30,30,31,31,32,32,33,33,37,37,38,38,39,39,40,40],"right_children":[2,4,6,8,10,12,14,16,18,20,22,-1,-1,24,26,-1,-1,-1,28,30,32,-1,-1,34,36,38,40,-1,-1,-1,42,44,46,48,-1,-1,-1,50,52,54,56,-1,-1,-1,-1,-1,-1,-1,-1,-1,-1,-1,-1,-1,-1,-1,-1],"split_conditions":[1E0,3E0,1.3E1,1.34167E1,2.54667E1,3E0,2.62875E1,3.6E2,1.5155E2,8.05E0,3.13875E1,1.1078397E-1,-6.175893E-2,3.25E1,3.63E2,-4.091072E-3,7.4604355E-2,1.1350014E-1,2.113375E2,3.8E2,1.55E1,-7.7309884E-2,-1.7906737E-2,3.2E1,1.05E2,1E0,3.2E1,-1.608246E-2,8.2880594E-2,8.029937E-2,6.57E2,7.04E2,5.3E1,1E0,6.329795E-2,-1.8415207E-2,-1.0675614E-1,1.03E2,2.19E2,6.48E2,5.4E1,8.874473E-3,-3.3704862E-2,-5.1768094E-2,7.1141146E-2,-5.0575744E-2,7.079372E-2,-5.233832E-3,-7.083415E-2,2.3931846E-2,-4.753052E-2,-8.798773E-2,-1.0003232E-2,3.443754E-2,-5.7734873E-2,7.08535E-2,-3.0814433E-2],"split_indices":[6,5,0,2,2,7,2,4,2,2,2,0,0,0,4,0,0,0,2,4,2,0,0,0,4,7,0,0,0,0,4,4,4,1,0,0,0,4,4,4,0,0,0,0,0,0,0,0,0,0,0,0,0,0,0,0,0],"split_type":[0,0,0,0,0,0,0,0,0,0,0,0,0,0,0,0,0,0,0,0,0,0,0,0,0,0,0,0,0,0,0,0,0,0,0,0,0,0,0,0,0,0,0,0,0,0,0,0,0,0,0,0,0,0,0,0,0],"sum_hessian":[1.2481221E2,5.064002E1,7.417219E1,2.3996668E1,2.6643353E1,5.539041E0,6.863315E1,3.9707954E0,2.0025871E1,2.332977E1,3.313582E0,3.2228222E0,2.316219E0,4.4163544E1,2.4469604E1,1.3750191E0,2.5957763E0,1.7081575E1,2.944297E0,8.871755E0,1.4458015E1,1.5589898E0,1.7545922E0,3.4274677E1,9.888868E0,9.362161E0,1.5107445E1,1.1816863E0,1.7626108E0,5.5881023E0,3.2836523E0,7.83838E0,6.6196356E0,3.257603E1,1.698645E0,1.1091617E0,8.779707E0,5.6444683E0,3.7176921E0,6.895902E0,8.211543E0,2.169475E0,1.1141772E0,6.3615007E0,1.476879E0,1.2092729E0,5.4103627E0,5.390534E0,2.7185497E1,2.0865595E0,3.5579088E0,2.261884E0,1.4558083E0,2.9028912E0,3.993011E0,5.6939826E0,2.5175602E0],"tree_param":{"num_deleted":"0","num_feature":"8","num_nodes":"57","size_leaf_vector":"1"}},{"base_weights":[-2.6471633E-3,5.250923E-1,-3.6436963E-1,9.6433794E-1,1.24092996E-1,-7.355179E-1,-2.1302469E-1,9.911867E-1,1.9868335E-2,2.5188014E-1,-4.943868E-1,-1.2179108E-1,-8.6019754E-1,-6.090956E-1,-7.614183E-2,1.0462395E-1,4.236336E-1,3.0081776E-1,-3.743666E-2,1.9135472E-3,-8.27352E-2,-5.7760555E-1,5.515812E-2,-3.415687E-1,-9.6327044E-2,2.6413668E-3,-7.0017326E-1,4.6741197E-1,-2.1858308E-1,-2.9311791E-2,8.000523E-2,4.8626128E-1,6.122217E-2,-1.4487765E-2,-7.054419E-2,2.6410988E-2,-6.0745966E-1,1.6001077E-2,-8.177157E-1,1.1270217E-1,-1.3974744E-2,9.931369E-2,-4.6312925E-1,-5.0254962E-3,6.609135E-2,6.463067E-2,-9.934949E-3,-7.562625E-2,-1.4080939E-2,-9.540696E-2,-3.9438695E-2,-2.7898988E-2,5.2464128E-2,-2.5930671E-2,4.0496286E-2,4.5964815E-2,-6.020662E-2],"categories":[],"categories_nodes":[],"categories_segments":[],"categories_sizes":[],"default_left":[0,0,0,0,0,0,0,0,0,0,0,0,0,0,0,0,0,0,0,0,0,0,0,0,0,0,0,0,0,0,0,0,0,0,0,0,0,0,0,0,0,0,0,0,0,0,0,0,0,0,0,0,0,0,0,0,0],"id":13,"left_children":[1,3,5,7,9,11,13,15,-1,17,19,21,23,25,27,-1,29,31,-1,-1,-1,33,-1,35,-1,-1,37,39,41,-1,-1,43,45,-1,-1,-1,47,-1,49,-1,51,53,55,-1,-1,-1,-1,-1,-1,-1,-1,-1,-1,-1,-1,-1,-1],"loss_changes":[2.3464478E1,8.685401E0,3.9396715E0,2.904625E-1,2.280593E0,1.4804068E0,2.8384197E0,2.6465988E-1,0E0,8.258172E-1,8.722737E-1,1.7497693E0,5.825796E-1,8.012438E-1,3.252301E0,0E0,1.2283665E0,9.539063E-1,0E0,0E0,0E0,7.8637004E-2,0E0,8.652757E-1,0E0,0E0,1.3304582E0,2.7994673E0,2.605184E0,0E0,0E0,1.1891327E0,1.0791601E0,0E0,0E0,0E0,1.2574983E-1,0E0,2.3569965E-1,0E0,1.0107931E0,1.764169E0,2.6848664E0,0E0,0E0,0E0,0E0,0E0,0E0,0E0,0E0,0E0,0E0,0E0,0E0,0E0,0E0],"parents":[2147483647,0,0,1,1,2,2,3,3,4,4,5,5,6,6,7,7,9,9,10,10,11,11,12,12,13,13,14,14,16,16,17,17,21,21,23,23,26,26,27,27,28,28,31,31,32,32,36,36,38,38,40,40,41,41,42,42],"right_children":[2,4,6,8,10,12,14,16,-1,18,20,22,24,26,28,-1,30,32,-1,-1,-1,34,-1,36,-1,-1,38,40,42,-1,-1,44,46,-1,-1,-1,48,-1,50,-1,52,54,56,-1,-1,-1,-1,-1,-1,-1,-1,-1,-1,-1,-1,-1,-1],"split_conditions":[1E0,3E0,7.925E0,5.7E1,2.345E1,1.48E2,1.83E2,1.5155E2,1.9868335E-2,3.65E1,2.35E2,1.08E2,1E0,1.3E1,3.07E2,1.0462395E-1,2.113375E2,3.71E2,-3.743666E-2,1.9135472E-3,-8.27352E-2,5.3E1,5.515812E-2,2.3E1,-9.6327044E-2,2.6413668E-3,2.7E1,2.7E1,2E0,-2.9311791E-2,8.000523E-2,1.9E1,1.6E1,-1.4487765E-2,-7.054419E-2,2.6410988E-2,2.85E1,1.6001077E-2,3.5E1,1.1270217E-1,2.78E2,5.87E2,1E1,-5.0254962E-3,6.609135E-2,6.463067E-2,-9.934949E-3,-7.562625E-2,-1.4080939E-2,-9.540696E-2,-3.9438695E-2,-2.7898988E-2,5.2464128E-2,-2.5930671E-2,4.0496286E-2,4.5964815E-2,-6.020662E-2],"split_indices":[6,5,2,0,2,4,4,2,0,0,4,4,1,0,4,0,2,4,0,0,0,4,0,0,0,0,4,0,5,0,0,0,0,0,0,0,0,0,2,0,4,4,0,0,0,0,0,0,0,0,0,0,0,0,0,0,0],"split_type":[0,0,0,0,0,0,0,0,0,0,0,0,0,0,0,0,0,0,0,0,0,0,0,0,0,0,0,0,0,0,0,0,0,0,0,0,0,0,0,0,0,0,0,0,0,0,0,0,0,0,0,0,0,0,0,0,0],"sum_hessian":[1.20915825E2,4.898984E1,7.192598E1,2.2709515E1,2.6280327E1,1.9715971E1,5.221001E1,2.1655571E1,1.0539441E0,2.2271456E1,4.008871E0,3.6628215E0,1.6053148E1,1.2523494E1,3.9686516E1,1.8971872E1,2.6836982E0,2.1139196E1,1.1322582E0,1.9476302E0,2.0612411E0,2.2690747E0,1.3937466E0,3.3766763E0,1.2676473E1,1.658817E0,1.0864676E1,7.766858E0,3.1919659E1,1.000297E0,1.6834011E0,1.1335881E1,9.803316E0,1.0039603E0,1.2651145E0,1.032171E0,2.3445053E0,1.2627175E0,9.601959E0,2.7109876E0,5.0558705E0,1.4136658E1,1.7783E1,2.9588413E0,8.37704E0,1.4596534E0,8.343662E0,1.3070889E0,1.0374165E0,6.3143725E0,3.2875865E0,3.7116518E0,1.3442187E0,6.5744395E0,7.562218E0,2.0250309E0,1.5757971E1],"tree_param":{"num_deleted":"0","num_feature":"8","num_nodes":"57","size_leaf_vector":"1"}},{"base_weights":[-2.6102162E-3,4.9238753E-1,-3.397944E-1,9.2673737E-1,1.12763695E-1,-7.027723E-1,-1.9552802E-1,4.294056E-1,1.0022271E0,2.5496548E-1,-3.8974178E-1,-1.169672E-1,-8.277141E-1,-5.7512504E-1,-6.663009E-2,6.52311E-1,-1.5321806E-2,1.07148424E-1,4.4892484E-1,9.172427E-2,1.5483145E-1,7.636433E-2,-7.7132565E-1,-5.567519E-1,5.080367E-2,-3.2589823E-1,-9.322436E-1,2.4752137E-3,-6.641613E-1,4.3031555E-1,-2.0107087E-1,2.0424899E-2,7.6492056E-2,7.874719E-2,-1.709215E-2,4.3991163E-1,-9.7444214E-2,-1.0257739E-1,-1.5268335E-2,-1.735412E-2,-6.601571E-2,2.4925431E-2,-5.843888E-1,-1.0458603E-1,-5.039377E-1,1.502868E-2,-7.8074783E-1,1.0124379E0,-8.79819E-3,9.0523295E-2,-4.3200994E-1,7.282292E-2,-8.920368E-3,-2.7864946E-2,6.734522E-2,-7.2998114E-2,-1.3426447E-2,9.747331E-3,-8.028424E-2,-4.5393493E-2,-1.0050595E-1,1.1812555E-1,3.1805914E-2,-3.3543117E-2,8.060672E-2,-2.3816563E-2,3.68998E-2,4.3068282E-2,-5.659417E-2],"categories":[],"categories_nodes":[],"categories_segments":[],"categories_sizes":[],"default_left":[0,0,0,0,0,0,0,0,0,0,0,0,0,0,0,0,0,0,0,0,0,0,0,0,0,0,0,0,0,0,0,0,0,0,0,0,0,0,0,0,0,0,0,0,0,0,0,0,0,0,0,0,0,0,0,0,0,0,0,0,0,0,0,0,0,0,0,0,0],"id":14,"left_children":[1,3,5,7,9,11,13,15,17,19,21,23,25,27,29,31,-1,-1,33,-1,35,-1,37,39,-1,41,43,-1,45,47,49,-1,-1,-1,-1,51,53,-1,-1,-1,-1,-1,55,-1,57,-1,59,61,63,65,67,-1,-1,-1,-1,-1,-1,-1,-1,-1,-1,-1,-1,-1,-1,-1,-1,-1,-1],"loss_changes":[1.9961884E1,7.886338E0,3.5876503E0,4.1298676E-1,2.0286102E0,1.3557739E0,2.5201602E0,7.1162903E-1,2.3760986E-1,1.2936046E0,3.3839517E0,1.5619051E0,5.455818E-1,7.1739054E-1,2.7699797E0,2.5247931E-2,0E0,0E0,9.335505E-1,0E0,1.4818116E0,0E0,6.728337E-1,1.257658E-2,0E0,7.8926665E-1,9.894943E-2,0E0,1.205842E0,2.2764707E0,2.213849E0,0E0,0E0,0E0,0E0,1.525593E0,1.7847852E0,0E0,0E0,0E0,0E0,0E0,1.1731768E-1,0E0,9.1000986E-1,0E0,2.9073763E-1,7.242966E-2,1.8801156E0,1.4699864E0,2.346024E0,0E0,0E0,0E0,0E0,0E0,0E0,0E0,0E0,0E0,0E0,0E0,0E0,0E0,0E0,0E0,0E0,0E0,0E0],"parents":[2147483647,0,0,1,1,2,2,3,3,4,4,5,5,6,6,7,7,8,8,9,9,10,10,11,11,12,12,13,13,14,14,15,15,18,18,20,20,22,22,23,23,25,25,26,26,28,28,29,29,30,30,35,35,36,36,42,42,44,44,46,46,47,47,48,48,49,49,50,50],"right_children":[2,4,6,8,10,12,14,16,18,20,22,24,26,28,30,32,-1,-1,34,-1,36,-1,38,40,-1,42,44,-1,46,48,50,-1,-1,-1,-1,52,54,-1,-1,-1,-1,-1,56,-1,58,-1,60,62,64,66,68,-1,-1,-1,-1,-1,-1,-1,-1,-1,-1,-1,-1,-1,-1,-1,-1,-1,-1],"split_conditions":[1E0,3E0,7.925E0,1.34167E1,2.0575E1,1.48E2,1.83E2,3.65E1,1.5155E2,6E0,2E0,1.08E2,1E0,1.3E1,3.07E2,3.31E2,-1.5321806E-2,1.07148424E-1,2E0,9.172427E-2,8.05E0,7.636433E-2,3.13875E1,7.4958E0,5.080367E-2,2.3E1,2.85E1,2.4752137E-3,2.7E1,2.7E1,2E0,2.0424899E-2,7.6492056E-2,7.874719E-2,-1.709215E-2,3.8E2,7.04E2,-1.0257739E-1,-1.5268335E-2,-1.735412E-2,-6.601571E-2,2.4925431E-2,2.85E1,-1.0458603E-1,3.25E1,1.502868E-2,1.03E2,2.625E1,2.87E2,5.87E2,1E1,7.282292E-2,-8.920368E-3,-2.7864946E-2,6.734522E-2,-7.2998114E-2,-1.3426447E-2,9.747331E-3,-8.028424E-2,-4.5393493E-2,-1.0050595E-1,1.1812555E-1,3.1805914E-2,-3.3543117E-2,8.060672E-2,-2.3816563E-2,3.68998E-2,4.3068282E-2,-5.659417E-2],"split_indices":[6,5,2,2,2,4,4,0,2,0,1,4,1,0,4,4,0,0,3,0,2,0,2,2,0,0,0,0,4,0,5,0,0,0,0,4,4,0,0,0,0,0,0,0,0,0,4,2,4,4,0,0,0,0,0,0,0,0,0,0,0,0,0,0,0,0,0,0,0],"split_type":[0,0,0,0,0,0,0,0,0,0,0,0,0,0,0,0,0,0,0,0,0,0,0,0,0,0,0,0,0,0,0,0,0,0,0,0,0,0,0,0,0,0,0,0,0,0,0,0,0,0,0,0,0,0,0,0,0,0,0,0,0,0,0,0,0,0,0,0,0],"sum_hessian":[1.1759756E2,4.7461777E1,7.013578E1,2.1463236E1,2.5998543E1,1.8846403E1,5.128938E1,3.7099657E0,1.775327E1,2.0648054E1,5.3504887E0,3.653356E0,1.5193047E1,1.21237545E1,3.9165623E1,2.5968354E0,1.1131305E0,1.4945952E1,2.807317E0,1.6401436E0,1.900791E1,1.0811951E0,4.269294E0,2.2085264E0,1.4448296E0,3.3290422E0,1.1864004E1,1.6602062E0,1.0463548E1,7.8709054E0,3.129472E1,1.086709E0,1.5101262E0,1.6407455E0,1.1665716E0,8.5745735E0,1.0433336E1,2.558766E0,1.7105279E0,1.038436E0,1.1700903E0,1.0433269E0,2.2857153E0,8.237096E0,3.6269083E0,1.2740753E0,9.189472E0,2.82295E0,5.0479555E0,1.4099751E1,1.7194967E1,5.306643E0,3.267931E0,8.964662E0,1.4686755E0,1.2573079E0,1.0284076E0,1.427867E0,2.1990414E0,4.9708405E0,4.218632E0,1.706819E0,1.1161308E0,4.0235176E0,1.024438E0,6.53322E0,7.566532E0,2.012996E0,1.5181972E1],"tree_param":{"num_deleted":"0","num_feature":"8","num_nodes":"69","size_leaf_vector":"1"}}]},"name":"gbtree"},"learner_model_param":{"base_score":"[3.8429174E-1]","boost_from_average":"1","num_class":"0","num_feature":"8","num_target":"1"},"objective":{"name":"binary:logistic","reg_loss_param":{"scale_pos_weight":"1"}}},"version":[3,2,0]}