{"learner":{"attributes":{},"feature_names":["age","balance","campaign","contact","day","default","duration","education","housing","job","loan","marital","month","pdays","poutcome","previous"],"feature_types":["int","int","int","float","int","float","int","float","float","float","float","float","float","int","float","int"],"gradient_booster":{"model":{"cats":{"enc":[],"feature_segments":[],"sorted_idx":[]},"gbtree_model_param":{"num_parallel_tree":"1","num_trees":"13"},"iteration_indptr":[0,1,2,3,4,5,6,7,8,9,10,11,12,13],"tree_info":[0,0,0,0,0,0,0,0,0,0,0,0,0],"trees":[{"base_weights":[-1.6664134E-7,-3.988133E-1,2.9837677E0,-4.9762034E-1,2.907541E0,2.1728022E0,4.36795E0,-7.069585E-1,5.238598E-1,4.296328E-3,4.169013E0,2.7215135E0,7.1645516E-1,4.712403E0,3.3244598E0,-7.5566334E-1,2.329185E0,-2.2106792E-1,4.543939E0,-1.0377015E-1,6.5676075E-1,2.545975E0,4.6826873E0,2.0627594E0,3.297901E0,3.1617627E-1,1.3274753E0,4.7417042E-1,1.3745409E-1,2.6459756E0,4.181139E0,-8.736863E-1,-1.341333E-1,-4.8522073E-1,3.220143E0,9.4192713E-1,-6.560152E-1,1.6781237E0,5.803245E0,2.5749478E-1,2.441233E-1,2.852011E0,-3.2859113E-2,1.9637907E-1,4.7718415E0,2.8168845E0,1.2351407E0,2.8173695E0,3.963692E0,-1.3208668E-2,6.208347E-1,9.351765E-1,2.1980548E0,1.1222175E0,2.9632678E0,4.482371E0,8.0232605E-2,1.1447582E-2,-9.185212E-2,3.4536537E-2,-9.455355E-2,1.627778E-3,-8.133002E-2,1.9555585E-1,3.8440892E-1,-5.140666E-2,1.9932127E-1,-7.175636E-2,2.536239E-1,-3.2691643E-2,2.1808682E-1,6.156702E-1,3.8200393E-1,-5.325047E-2,7.117852E-2,3.507672E-1,1.3200472E-1,4.8172283E-1,1.3921732E-1,2.263068E-1,4.7667846E-1,4.8817247E-2,2.0186527E-1,3.4481934E-1,1.9073252E-1,4.6974882E-1,2.7860248E-1,-3.5814535E-2,3.591947E-2,1.685473E-1,3.8280886E-2,1.8589728E-1,5.666861E-2,2.3847584E-1,4.0837947E-2,1.7547423E-1,-1.10758245E-2,3.0919284E-1,3.3387378E-2,1.2700978E-1,4.6438438E-1],"categories":[],"categories_nodes":[],"categories_segments":[],"categories_sizes":[],"default_left":[0,0,0,0,0,0,0,0,0,0,0,0,0,0,0,0,0,0,0,0,0,0,0,0,0,0,0,0,0,0,0,0,0,0,0,0,0,0,0,0,0,0,0,0,0,0,0,0,0,0,0,0,0,0,0,0,0,0,0,0,0,0,0,0,0,0,0,0,0,0,0,0,0,0,0,0,0,0,0,0,0,0,0,0,0,0,0,0,0,0,0,0,0,0,0,0,0,0,0,0,0],"id":0,"left_children":[1,3,5,7,9,11,13,15,17,19,21,23,25,27,29,31,33,35,37,-1,39,41,43,45,47,49,51,-1,-1,53,55,57,59,61,63,65,67,69,71,-1,73,75,-1,-1,77,79,81,83,85,87,89,91,93,95,97,99,-1,-1,-1,-1,-1,-1,-1,-1,-1,-1,-1,-1,-1,-1,-1,-1,-1,-1,-1,-1,-1,-1,-1,-1,-1,-1,-1,-1,-1,-1,-1,-1,-1,-1,-1,-1,-1,-1,-1,-1,-1,-1,-1,-1,-1],"loss_changes":[4.4481685E3,1.0786577E3,4.8523413E2,6.851791E2,3.509261E2,2.2171863E2,4.2500732E1,3.9484924E2,1.6338757E3,2.1095053E1,4.376892E1,7.025342E1,1.8646286E1,5.147461E0,1.4254242E1,1.9185535E2,1.07416245E2,2.3379622E2,2.9806213E2,0E0,1.4470795E1,1.6992233E1,2.6396484E0,5.7294525E1,2.2927124E1,4.866364E0,8.375446E0,0E0,0E0,9.743057E0,1.424292E1,9.753931E1,1.6327795E2,1.8263047E0,1.7885529E1,1.9370969E2,6.7853806E1,2.8376564E1,1.7730225E1,0E0,6.482259E0,1.2041031E1,0E0,0E0,5.4541016E-1,4.338849E1,2.7227318E1,3.0940613E1,2.3393127E1,3.2425735E0,5.733392E0,6.706249E0,1.9488602E0,5.08271E0,6.329834E0,2.3358765E0,0E0,0E0,0E0,0E0,0E0,0E0,0E0,0E0,0E0,0E0,0E0,0E0,0E0,0E0,0E0,0E0,0E0,0E0,0E0,0E0,0E0,0E0,0E0,0E0,0E0,0E0,0E0,0E0,0E0,0E0,0E0,0E0,0E0,0E0,0E0,0E0,0E0,0E0,0E0,0E0,0E0,0E0,0E0,0E0,0E0],"parents":[2147483647,0,0,1,1,2,2,3,3,4,4,5,5,6,6,7,7,8,8,9,9,10,10,11,11,12,12,13,13,14,14,15,15,16,16,17,17,18,18,20,20,21,21,22,22,23,23,24,24,25,25,26,26,29,29,30,30,31,31,32,32,33,33,34,34,35,35,36,36,37,37,38,38,40,40,41,41,44,44,45,45,46,46,47,47,48,48,49,49,50,50,51,51,52,52,53,53,54,54,55,55],"right_children":[2,4,6,8,10,12,14,16,18,20,22,24,26,28,30,32,34,36,38,-1,40,42,44,46,48,50,52,-1,-1,54,56,58,60,62,64,66,68,70,72,-1,74,76,-1,-1,78,80,82,84,86,88,90,92,94,96,98,100,-1,-1,-1,-1,-1,-1,-1,-1,-1,-1,-1,-1,-1,-1,-1,-1,-1,-1,-1,-1,-1,-1,-1,-1,-1,-1,-1,-1,-1,-1,-1,-1,-1,-1,-1,-1,-1,-1,-1,-1,-1,-1,-1,-1,-1],"split_conditions":[5.04E2,1E1,8E2,1.3E1,1.31E2,2E0,2E0,6.1E1,2E0,7.9E1,1.85E2,6.06E2,6.48E2,1E0,8.16E2,3.08E2,1.26E2,1E0,1.64E2,-1.0377015E-1,1E0,1.99E2,2.5E1,1E0,6E0,4E0,2.2E1,4.7417042E-1,1.3745409E-1,8.67E2,7.633E3,1E0,2E0,2E0,2.06E2,1.55E2,3.79E2,8E1,2.03E2,2.5749478E-1,1E1,2E0,-3.2859113E-2,1.9637907E-1,8E1,8E1,6E0,1E0,9E0,3.56E2,3E1,3.4E1,4.9E1,3E0,7.19E2,8.34E2,8.0232605E-2,1.1447582E-2,-9.185212E-2,3.4536537E-2,-9.455355E-2,1.627778E-3,-8.133002E-2,1.9555585E-1,3.8440892E-1,-5.140666E-2,1.9932127E-1,-7.175636E-2,2.536239E-1,-3.2691643E-2,2.1808682E-1,6.156702E-1,3.8200393E-1,-5.325047E-2,7.117852E-2,3.507672E-1,1.3200472E-1,4.8172283E-1,1.3921732E-1,2.263068E-1,4.7667846E-1,4.8817247E-2,2.0186527E-1,3.4481934E-1,1.9073252E-1,4.6974882E-1,2.7860248E-1,-3.5814535E-2,3.591947E-2,1.685473E-1,3.8280886E-2,1.8589728E-1,5.666861E-2,2.3847584E-1,4.0837947E-2,1.7547423E-1,-1.10758245E-2,3.0919284E-1,3.3387378E-2,1.2700978E-1,4.6438438E-1],"split_indices":[6,12,6,13,6,3,3,0,14,6,6,6,6,5,1,6,6,8,6,0,11,13,0,8,12,9,4,0,0,6,1,12,3,2,6,6,13,6,13,0,4,2,0,0,0,13,12,8,12,1,0,0,0,2,1,6,0,0,0,0,0,0,0,0,0,0,0,0,0,0,0,0,0,0,0,0,0,0,0,0,0,0,0,0,0,0,0,0,0,0,0,0,0,0,0,0,0,0,0,0,0],"split_type":[0,0,0,0,0,0,0,0,0,0,0,0,0,0,0,0,0,0,0,0,0,0,0,0,0,0,0,0,0,0,0,0,0,0,0,0,0,0,0,0,0,0,0,0,0,0,0,0,0,0,0,0,0,0,0,0,0,0,0,0,0,0,0,0,0,0,0,0,0,0,0,0,0,0,0,0,0,0,0,0,0,0,0,0,0,0,0,0,0,0,0,0,0,0,0,0,0,0,0,0,0],"sum_hessian":[3.736064E3,3.2963386E3,4.3972528E2,3.2015142E3,9.482448E1,2.7889554E2,1.6082976E2,2.6572546E3,5.4425946E2,2.9025795E1,6.579868E1,2.0194102E2,7.6954506E1,1.1827236E2,4.2557392E1,2.61604E3,4.121456E1,4.5997104E2,8.428843E1,1.0949232E1,1.8076563E1,1.7250204E1,4.854848E1,9.63739E1,1.0556712E2,4.741224E1,2.9542267E1,1.1682624E2,1.446125E0,2.6030249E1,1.6527142E1,2.1982131E3,4.178268E2,1.001958E1,3.119498E1,1.24883224E2,3.3508783E2,2.6443428E1,5.7844997E1,2.2724822E0,1.580408E1,1.559749E1,1.6527143E0,2.2724822E0,4.6276E1,4.9168247E1,4.720565E1,6.435256E1,4.121456E1,2.3241295E1,2.4170946E1,2.179517E1,7.747098E0,5.268027E0,2.0762222E1,1.4874428E1,1.6527143E0,9.534095E1,2.1028723E3,2.6298816E2,1.5483867E2,4.338375E0,5.6812053E0,1.1672295E1,1.9522688E1,5.2576973E1,7.230625E1,3.2950992E2,5.5779104E0,5.371321E0,2.1072107E1,4.7308945E1,1.0536054E1,5.8877945E0,9.9162855E0,1.001958E1,5.5779104E0,4.5243053E1,1.0329463E0,3.9975025E1,9.193223E0,2.4997303E1,2.2208347E1,3.6359715E1,2.7992847E1,2.3551178E1,1.7663383E1,1.2085473E1,1.1155821E1,3.3054285E0,2.0865517E1,5.0614376E0,1.6733732E1,6.714152E0,1.0329463E0,3.202134E0,2.0658927E0,1.9625982E1,1.1362411E0,1.1362411E0,1.3738187E1],"tree_param":{"num_deleted":"0","num_feature":"16","num_nodes":"101","size_leaf_vector":"1"}},{"base_weights":[-9.635737E-3,-4.2588753E-1,1.9198835E0,-6.655138E-1,5.584941E-1,1.2060566E0,2.5813425E0,-7.225482E-1,1.6575998E0,-1.6051021E-1,3.0531228E0,1.608781E0,-6.0726915E-2,2.8522606E0,1.9555475E0,-7.631663E-1,1.5214896E0,-4.1775241E-1,2.2567499E0,8.23514E-1,-6.2771887E-1,8.7272674E-1,3.4750097E0,2.0864556E0,1.0233127E0,-6.1953187E-1,2.8152603E-1,2.5613668E0,3.101456E0,1.2089477E0,2.5604997E0,2.8494534E-1,-8.1734353E-1,-1.905287E-1,2.3463805E0,-7.69038E-1,1.1650365E-1,2.334E0,-5.9627365E-2,-4.1954315E-1,1.6355116E0,-7.020442E-1,1.7219868E0,-3.417509E-1,1.2699685E0,8.209283E-3,3.5189726E0,1.6902368E0,3.3561342E0,4.6967545E-1,1.5619369E0,7.4093305E-2,-9.660279E-1,3.6129534E-1,-8.2351424E-2,1.374839E0,2.6903992E0,3.2081656E0,2.1360247E0,1.4117737E0,2.5976047E-1,2.609349E0,2.0497208E-2,2.3282242E-1,-7.189273E-2,-9.6730046E-2,-5.1911045E-2,-8.0944106E-2,8.253709E-2,1.3759945E-1,2.9983625E-1,-1.0010084E-2,-9.5812276E-2,8.771824E-2,-5.9417546E-2,1.6033764E-1,2.6902413E-1,-7.2466426E-2,2.7948981E-2,1.416955E-1,3.5771084E-1,3.1321727E-2,-8.299752E-2,-4.402639E-2,3.758143E-1,3.7763968E-2,-8.53984E-2,1.8337888E-1,2.9194055E-2,3.7094167E-1,2.856222E-1,3.8473004E-1,1.49895E-1,2.3949042E-1,4.4387135E-1,2.7094373E-2,1.545767E-1,1.0589726E-1,2.404245E-1,1.1998184E-1,-8.068108E-2,-1.7599175E-2,-1.0579047E-1,2.7216864E-3,6.665086E-2,6.328648E-2,3.5109887E-1,3.0194992E-1,2.2529788E-1,3.2310462E-1,3.8330924E-2,2.6813594E-1,5.6016523E-2,5.542879E-2,1.6780256E-1,1.6085845E-1,-1.12203015E-2,2.8816743E-2,2.652567E-1],"categories":[],"categories_nodes":[],"categories_segments":[],"categories_sizes":[],"default_left":[0,0,0,0,0,0,0,0,0,0,0,0,0,0,0,0,0,0,0,0,0,0,0,0,0,0,0,0,0,0,0,0,0,0,0,0,0,0,0,0,0,0,0,0,0,0,0,0,0,0,0,0,0,0,0,0,0,0,0,0,0,0,0,0,0,0,0,0,0,0,0,0,0,0,0,0,0,0,0,0,0,0,0,0,0,0,0,0,0,0,0,0,0,0,0,0,0,0,0,0,0,0,0,0,0,0,0,0,0,0,0,0,0,0,0,0,0,0,0],"id":1,"left_children":[1,3,5,7,9,11,13,15,17,19,21,23,25,27,29,31,33,35,37,39,41,43,45,47,49,51,53,55,57,59,61,63,65,67,69,71,73,75,-1,77,79,81,83,85,87,-1,89,91,93,95,97,99,101,103,-1,105,107,109,111,113,115,117,-1,-1,-1,-1,-1,-1,-1,-1,-1,-1,-1,-1,-1,-1,-1,-1,-1,-1,-1,-1,-1,-1,-1,-1,-1,-1,-1,-1,-1,-1,-1,-1,-1,-1,-1,-1,-1,-1,-1,-1,-1,-1,-1,-1,-1,-1,-1,-1,-1,-1,-1,-1,-1,-1,-1,-1,-1],"loss_changes":[3.012546E3,7.281302E2,3.1115112E2,3.3001562E2,1.0848357E3,1.6436786E2,5.2842773E1,2.2200708E2,7.526521E1,2.167066E2,1.2143518E2,6.620294E1,1.52137985E1,9.329956E0,4.5361786E1,1.354076E2,6.1752396E1,2.760972E0,1.1648361E1,1.5392786E2,5.699288E1,1.1661325E1,1.6572021E1,6.1539856E1,3.259162E1,7.3252764E0,4.656907E0,1.4013489E1,5.8812256E0,9.243156E0,6.1817627E0,2.4318767E2,1.0073828E2,1.012455E1,1.4456116E1,1.0069256E0,4.043147E0,7.532837E0,0E0,1.3167049E1,3.3987274E1,4.0567245E1,4.604931E1,2.726489E0,9.251495E0,0E0,3.4866943E0,3.7080383E1,2.138086E1,1.1672215E1,2.1269455E1,1.1859423E1,1.2799187E0,4.7559137E0,0E0,1.9004374E1,8.067627E0,5.82666E0,1.1641762E1,8.408226E0,5.204577E0,4.9637146E0,0E0,0E0,0E0,0E0,0E0,0E0,0E0,0E0,0E0,0E0,0E0,0E0,0E0,0E0,0E0,0E0,0E0,0E0,0E0,0E0,0E0,0E0,0E0,0E0,0E0,0E0,0E0,0E0,0E0,0E0,0E0,0E0,0E0,0E0,0E0,0E0,0E0,0E0,0E0,0E0,0E0,0E0,0E0,0E0,0E0,0E0,0E0,0E0,0E0,0E0,0E0,0E0,0E0,0E0,0E0,0E0,0E0],"parents":[2147483647,0,0,1,1,2,2,3,3,4,4,5,5,6,6,7,7,8,8,9,9,10,10,11,11,12,12,13,13,14,14,15,15,16,16,17,17,18,18,19,19,20,20,21,21,22,22,23,23,24,24,25,25,26,26,27,27,28,28,29,29,30,30,31,31,32,32,33,33,34,34,35,35,36,36,37,37,39,39,40,40,41,41,42,42,43,43,44,44,46,46,47,47,48,48,49,49,50,50,51,51,52,52,53,53,55,55,56,56,57,57,58,58,59,59,60,60,61,61],"right_children":[2,4,6,8,10,12,14,16,18,20,22,24,26,28,30,32,34,36,38,40,42,44,46,48,50,52,54,56,58,60,62,64,66,68,70,72,74,76,-1,78,80,82,84,86,88,-1,90,92,94,96,98,100,102,104,-1,106,108,110,112,114,116,118,-1,-1,-1,-1,-1,-1,-1,-1,-1,-1,-1,-1,-1,-1,-1,-1,-1,-1,-1,-1,-1,-1,-1,-1,-1,-1,-1,-1,-1,-1,-1,-1,-1,-1,-1,-1,-1,-1,-1,-1,-1,-1,-1,-1,-1,-1,-1,-1,-1,-1,-1,-1,-1,-1,-1,-1,-1],"split_conditions":[4.41E2,1.3E1,6.48E2,6.1E1,2E0,2E0,1E0,1E1,1.26E2,1E0,1.33E2,1E0,5.04E2,8.67E2,8.67E2,1E0,1.31E2,7E1,2E0,1.59E2,3.79E2,8E1,4.2E1,8E1,6E0,8E0,5.8E1,1E0,5.6E1,4E0,1.39E2,1E0,2.04E2,3.9E1,1.6E1,6.2E1,1E0,2.06E2,-5.9627365E-2,1.26E2,3.73E2,1.31E2,1.96E2,1E0,1.22E2,8.209283E-3,1E0,1E0,2E0,2E0,2E0,6.28E2,4.47E2,4E0,-8.2351424E-2,2.1E1,1.7E1,1.4E1,9E0,8E1,1E0,-3.49E2,2.0497208E-2,2.3282242E-1,-7.189273E-2,-9.6730046E-2,-5.1911045E-2,-8.0944106E-2,8.253709E-2,1.3759945E-1,2.9983625E-1,-1.0010084E-2,-9.5812276E-2,8.771824E-2,-5.9417546E-2,1.6033764E-1,2.6902413E-1,-7.2466426E-2,2.7948981E-2,1.416955E-1,3.5771084E-1,3.1321727E-2,-8.299752E-2,-4.402639E-2,3.758143E-1,3.7763968E-2,-8.53984E-2,1.8337888E-1,2.9194055E-2,3.7094167E-1,2.856222E-1,3.8473004E-1,1.49895E-1,2.3949042E-1,4.4387135E-1,2.7094373E-2,1.545767E-1,1.0589726E-1,2.404245E-1,1.1998184E-1,-8.068108E-2,-1.7599175E-2,-1.0579047E-1,2.7216864E-3,6.665086E-2,6.328648E-2,3.5109887E-1,3.0194992E-1,2.2529788E-1,3.2310462E-1,3.8330924E-2,2.6813594E-1,5.6016523E-2,5.542879E-2,1.6780256E-1,1.6085845E-1,-1.12203015E-2,2.8816743E-2,2.652567E-1],"split_indices":[6,13,6,0,14,3,3,12,6,8,6,8,6,6,6,12,6,0,3,6,13,6,13,13,12,12,0,12,0,2,13,8,6,0,4,0,3,6,0,6,13,13,6,8,13,0,8,12,14,15,11,1,6,9,0,4,4,2,12,1,11,1,0,0,0,0,0,0,0,0,0,0,0,0,0,0,0,0,0,0,0,0,0,0,0,0,0,0,0,0,0,0,0,0,0,0,0,0,0,0,0,0,0,0,0,0,0,0,0,0,0,0,0,0,0,0,0,0,0],"split_type":[0,0,0,0,0,0,0,0,0,0,0,0,0,0,0,0,0,0,0,0,0,0,0,0,0,0,0,0,0,0,0,0,0,0,0,0,0,0,0,0,0,0,0,0,0,0,0,0,0,0,0,0,0,0,0,0,0,0,0,0,0,0,0,0,0,0,0,0,0,0,0,0,0,0,0,0,0,0,0,0,0,0,0,0,0,0,0,0,0,0,0,0,0,0,0,0,0,0,0,0,0,0,0,0,0,0,0,0,0,0,0,0,0,0,0,0,0,0,0],"sum_hessian":[3.748821E3,3.0842422E3,6.645788E2,2.4806948E3,6.0354736E2,3.2099448E2,3.4358435E2,2.4219236E3,5.8771267E1,4.692386E2,1.3430875E2,2.4335825E2,7.7636215E1,2.3729654E2,1.0628783E2,2.3795132E3,4.2410355E1,1.3233944E1,4.5537323E1,1.5082074E2,3.1841785E2,2.2271875E1,1.1203687E2,1.3260452E2,1.1075372E2,2.9181194E1,4.845502E1,1.1469169E2,1.2260484E2,4.891632E1,5.7371506E1,1.1674319E2,2.26277E3,1.4040029E1,2.8370327E1,7.719042E0,5.514902E0,4.4513958E1,1.0233644E0,5.9783585E1,9.1037155E1,3.093343E2,9.083571E0,5.5237966E0,1.674808E1,1.469801E0,1.1056707E2,1.0284251E2,2.9762018E1,5.5538845E1,5.5214878E1,9.98304E0,1.9198154E1,4.582044E1,2.634582E0,1.2392293E1,1.022994E2,1.0831019E2,1.4294653E1,3.990246E1,9.0138645E0,5.610033E1,1.2711754E0,3.8025986E1,7.87172E1,1.5041923E3,7.585777E2,8.850999E0,5.18903E0,1.265121E1,1.5719117E1,2.0381045E0,5.6809373E0,2.5505843E0,2.9643178E0,1.639332E1,2.8120636E1,4.159229E1,1.8191298E1,8.338111E1,7.6560445E0,3.4454525E1,2.7487976E2,4.7854967E0,4.2980747E0,2.4066317E0,3.1171649E0,1.0068649E1,6.67943E0,8.231619E1,2.825088E1,6.820285E0,9.6022224E1,1.7466026E1,1.2295994E1,4.793756E1,7.601284E0,3.5984695E1,1.9230183E1,4.2235937E0,5.759446E0,2.3037784E0,1.6894375E1,2.2395779E1,2.3424662E1,1.0159677E1,2.2326164E0,5.500932E1,4.7290077E1,1.07297325E2,1.0128658E0,1.0098495E1,4.196158E0,1.0184443E1,2.9718014E1,1.2297902E0,7.784075E0,1.1655886E0,5.4934742E1],"tree_param":{"num_deleted":"0","num_feature":"16","num_nodes":"119","size_leaf_vector":"1"}},{"base_weights":[-1.4159662E-2,-4.337548E-1,1.420788E0,-6.601081E-1,4.2518792E-1,8.9035815E-1,1.9446563E0,-7.141215E-1,1.2625197E0,-2.0576225E-1,2.2727997E0,1.2287632E0,-2.3158611E-1,2.11998E0,1.5138502E0,-7.54233E-1,1.1892195E0,-3.942911E-1,1.6968901E0,6.163558E-1,-6.358592E-1,7.42445E-1,2.5460892E0,1.6128429E0,7.2578996E-1,-6.549529E-1,2.4651735E-1,1.9614787E0,2.4298728E0,1.1090342E0,2.1490357E0,2.3511973E-1,-8.1004006E-1,-9.728257E-2,1.5853244E0,-7.429375E-1,1.0671783E-1,1.8334496E0,5.011846E-1,-3.9204672E-1,1.2211242E0,-7.070779E-1,1.3185223E0,-6.2628883E-1,9.819109E-1,2.6474748E0,1.6821201E0,1.8201604E0,1.8171446E-1,2.8109953E-1,1.1362966E0,-1.7499001E-1,-9.0444374E-1,3.1955436E-1,-7.916709E-2,1.764308E0,2.2541387E0,2.4981296E0,1.4975022E0,3.7215614E-1,1.3275498E0,2.2949495E0,1.1395224E0,1.7362402E-1,-6.9801114E-2,-6.519263E-2,-1.0712478E-1,9.454741E-2,2.036378E-1,-9.389521E-3,-9.37328E-2,7.7375606E-2,-5.6988038E-2,1.9590646E-1,6.7578495E-2,-7.4579366E-2,1.0998588E-1,-6.931581E-2,2.4766982E-2,1.3771391E-1,-2.7465248E-2,6.493439E-2,-8.014258E-2,-5.5361073E-2,2.6380318E-1,-7.931873E-3,-7.742514E-2,-2.2957588E-2,1.2244854E-1,2.6084587E-2,2.6698846E-1,2.516042E-1,2.8740728E-2,1.4759246E-1,2.6655254E-1,-2.9022533E-3,9.697524E-2,2.0219175E-2,2.709672E-1,3.4906325E-1,9.8337196E-2,5.308318E-2,-8.1490844E-2,-3.7629705E-2,-1.00213006E-1,4.395802E-4,6.0266502E-2,1.565531E-1,2.2937997E-1,3.1079242E-1,2.1290092E-1,2.5321183E-1,1.0060467E-1,9.005333E-3,1.9165175E-1,1.3262096E-2,1.1795948E-1,8.678491E-2,1.6589265E-1,2.661369E-1,1.8844397E-1,-1.8352827E-2,1.6230088E-1],"categories":[],"categories_nodes":[],"categories_segments":[],"categories_sizes":[],"default_left":[0,0,0,0,0,0,0,0,0,0,0,0,0,0,0,0,0,0,0,0,0,0,0,0,0,0,0,0,0,0,0,0,0,0,0,0,0,0,0,0,0,0,0,0,0,0,0,0,0,0,0,0,0,0,0,0,0,0,0,0,0,0,0,0,0,0,0,0,0,0,0,0,0,0,0,0,0,0,0,0,0,0,0,0,0,0,0,0,0,0,0,0,0,0,0,0,0,0,0,0,0,0,0,0,0,0,0,0,0,0,0,0,0,0,0,0,0,0,0,0,0,0,0],"id":2,"left_children":[1,3,5,7,9,11,13,15,17,19,21,23,25,27,29,31,33,35,37,39,41,43,45,47,49,51,53,55,57,59,61,63,65,-1,67,69,71,73,75,77,79,81,83,85,87,89,91,93,95,97,99,101,103,105,-1,107,109,111,113,115,117,119,121,-1,-1,-1,-1,-1,-1,-1,-1,-1,-1,-1,-1,-1,-1,-1,-1,-1,-1,-1,-1,-1,-1,-1,-1,-1,-1,-1,-1,-1,-1,-1,-1,-1,-1,-1,-1,-1,-1,-1,-1,-1,-1,-1,-1,-1,-1,-1,-1,-1,-1,-1,-1,-1,-1,-1,-1,-1,-1,-1,-1],"loss_changes":[2.2451423E3,5.6123004E2,2.3270337E2,2.3807166E2,7.0265955E2,1.6014667E2,2.8786499E1,1.7054187E2,4.5841866E1,1.5948361E2,6.2274292E1,6.1351196E1,2.0081276E1,9.900024E0,3.0022858E1,1.20378296E2,4.1150414E1,2.4984431E0,7.2321625E0,9.503322E1,4.2116318E1,8.696941E0,6.913025E0,5.3873596E1,2.5593307E1,6.1244698E0,3.8126135E0,7.7216797E0,2.4228516E0,1.2232758E1,4.453842E0,1.6510895E2,8.44137E1,0E0,9.465607E0,9.5818615E-1,3.4004037E0,5.136566E0,5.667515E0,1.1513996E1,2.3052505E1,3.713858E1,2.802168E1,2.8515017E-1,6.5629025E0,5.421631E0,1.8317196E1,4.2470825E1,4.051571E0,1.276425E1,2.3024025E1,9.097792E0,1.3916111E0,3.9742374E0,0E0,9.642181E0,1.7166748E0,1.9532471E0,5.1959724E0,3.6087077E0,7.7874527E0,1.1434479E0,5.445134E0,0E0,0E0,0E0,0E0,0E0,0E0,0E0,0E0,0E0,0E0,0E0,0E0,0E0,0E0,0E0,0E0,0E0,0E0,0E0,0E0,0E0,0E0,0E0,0E0,0E0,0E0,0E0,0E0,0E0,0E0,0E0,0E0,0E0,0E0,0E0,0E0,0E0,0E0,0E0,0E0,0E0,0E0,0E0,0E0,0E0,0E0,0E0,0E0,0E0,0E0,0E0,0E0,0E0,0E0,0E0,0E0,0E0,0E0,0E0,0E0],"parents":[2147483647,0,0,1,1,2,2,3,3,4,4,5,5,6,6,7,7,8,8,9,9,10,10,11,11,12,12,13,13,14,14,15,15,16,16,17,17,18,18,19,19,20,20,21,21,22,22,23,23,24,24,25,25,26,26,27,27,28,28,29,29,30,30,31,31,32,32,34,34,35,35,36,36,37,37,38,38,39,39,40,40,41,41,42,42,43,43,44,44,45,45,46,46,47,47,48,48,49,49,50,50,51,51,52,52,53,53,55,55,56,56,57,57,58,58,59,59,60,60,61,61,62,62],"right_children":[2,4,6,8,10,12,14,16,18,20,22,24,26,28,30,32,34,36,38,40,42,44,46,48,50,52,54,56,58,60,62,64,66,-1,68,70,72,74,76,78,80,82,84,86,88,90,92,94,96,98,100,102,104,106,-1,108,110,112,114,116,118,120,122,-1,-1,-1,-1,-1,-1,-1,-1,-1,-1,-1,-1,-1,-1,-1,-1,-1,-1,-1,-1,-1,-1,-1,-1,-1,-1,-1,-1,-1,-1,-1,-1,-1,-1,-1,-1,-1,-1,-1,-1,-1,-1,-1,-1,-1,-1,-1,-1,-1,-1,-1,-1,-1,-1,-1,-1,-1,-1,-1,-1],"split_conditions":[4.04E2,1.3E1,6.33E2,6.1E1,2E0,2E0,1E0,1E1,1.26E2,1E0,1.33E2,1E0,5.04E2,2E0,9.97E2,1E0,7.8E1,7E1,4E0,1.59E2,3.79E2,6.9E1,2.21E2,1E0,6E0,8E0,5.8E1,9.45E2,3.15E2,8E1,9E0,1E0,2E0,-9.728257E-2,1.6E1,6.2E1,1E0,3E0,1.96E2,1.26E2,1E0,1.01E2,1.66E2,1E0,1E0,4.2E1,8E0,3.5E1,6E0,3.45E2,5E0,6.28E2,3.1E1,4E0,-7.916709E-2,6E0,1E0,3E0,3.37E2,2.7E1,7.47E2,7E0,2E0,1.7362402E-1,-6.9801114E-2,-6.519263E-2,-1.0712478E-1,9.454741E-2,2.036378E-1,-9.389521E-3,-9.37328E-2,7.7375606E-2,-5.6988038E-2,1.9590646E-1,6.7578495E-2,-7.4579366E-2,1.0998588E-1,-6.931581E-2,2.4766982E-2,1.3771391E-1,-2.7465248E-2,6.493439E-2,-8.014258E-2,-5.5361073E-2,2.6380318E-1,-7.931873E-3,-7.742514E-2,-2.2957588E-2,1.2244854E-1,2.6084587E-2,2.6698846E-1,2.516042E-1,2.8740728E-2,1.4759246E-1,2.6655254E-1,-2.9022533E-3,9.697524E-2,2.0219175E-2,2.709672E-1,3.4906325E-1,9.8337196E-2,5.308318E-2,-8.1490844E-2,-3.7629705E-2,-1.00213006E-1,4.395802E-4,6.0266502E-2,1.565531E-1,2.2937997E-1,3.1079242E-1,2.1290092E-1,2.5321183E-1,1.0060467E-1,9.005333E-3,1.9165175E-1,1.3262096E-2,1.1795948E-1,8.678491E-2,1.6589265E-1,2.661369E-1,1.8844397E-1,-1.8352827E-2,1.6230088E-1],"split_indices":[6,13,6,0,14,3,3,12,6,8,6,8,6,11,6,12,6,0,2,6,13,6,13,10,12,12,0,6,13,1,9,8,3,0,4,0,3,7,6,6,10,13,6,8,9,13,12,13,12,13,4,1,0,9,0,13,9,7,13,4,6,12,2,0,0,0,0,0,0,0,0,0,0,0,0,0,0,0,0,0,0,0,0,0,0,0,0,0,0,0,0,0,0,0,0,0,0,0,0,0,0,0,0,0,0,0,0,0,0,0,0,0,0,0,0,0,0,0,0,0,0,0,0],"split_type":[0,0,0,0,0,0,0,0,0,0,0,0,0,0,0,0,0,0,0,0,0,0,0,0,0,0,0,0,0,0,0,0,0,0,0,0,0,0,0,0,0,0,0,0,0,0,0,0,0,0,0,0,0,0,0,0,0,0,0,0,0,0,0,0,0,0,0,0,0,0,0,0,0,0,0,0,0,0,0,0,0,0,0,0,0,0,0,0,0,0,0,0,0,0,0,0,0,0,0,0,0,0,0,0,0,0,0,0,0,0,0,0,0,0,0,0,0,0,0,0,0,0,0],"sum_hessian":[3.7268472E3,2.8841782E3,8.42669E2,2.2828267E3,6.0135156E2,4.200536E2,4.2261542E2,2.2210579E3,6.176879E1,4.4893213E2,1.5241943E2,3.226419E2,9.74117E1,2.9758655E2,1.2502888E2,2.175808E3,4.524979E1,1.284949E1,4.89193E1,1.5404549E2,2.9488663E2,2.3657858E1,1.2876157E2,1.8169197E2,1.4094992E2,5.1467056E1,4.5944637E1,2.0173459E2,9.585195E1,7.8039055E1,4.6989822E1,1.1600732E2,2.0598008E3,6.7810497E0,3.8468742E1,7.292111E0,5.5573792E0,4.3426296E1,5.4930067E0,5.7882626E1,9.616286E1,2.851344E2,9.752243E0,3.2821963E0,2.0375662E1,1.1339098E2,1.53705845E1,1.584645E2,2.3227474E1,6.846666E1,7.248326E1,1.8184898E1,3.3282158E1,4.357156E1,2.3730783E0,1.24730064E2,7.700452E1,8.7748726E1,8.103225E0,1.8467178E1,5.957188E1,3.994316E1,7.0466633E0,4.4139606E1,7.1867714E1,1.2852883E3,7.745125E2,1.718574E1,2.1283E1,2.022452E0,5.269659E0,2.7261505E0,2.831229E0,3.855098E1,4.8753157E0,1.7020549E0,3.7909517E0,3.930052E1,1.8582104E1,8.715192E1,9.010942E0,1.816058E1,2.6697382E2,4.2718053E0,5.4804378E0,1.0258883E0,2.2563078E0,3.408119E0,1.6967543E1,1.1723827E0,1.122186E2,9.115995E0,6.2545896E0,1.145608E2,4.39037E1,1.9086529E1,4.140946E0,6.736125E1,1.1054083E0,3.089734E0,6.939353E1,8.728235E0,9.456662E0,5.952379E0,2.7329779E1,2.109933E1,2.2472229E1,9.356237E1,3.1167692E1,6.796032E0,7.020849E1,8.511289E1,2.6358356E0,2.1377065E0,5.965518E0,1.5139989E1,3.3271885E0,2.6470175E1,3.3101707E1,1.8207832E1,2.1735327E1,2.0519502E0,4.994713E0],"tree_param":{"num_deleted":"0","num_feature":"16","num_nodes":"123","size_leaf_vector":"1"}},{"base_weights":[-1.6506976E-2,-4.457001E-1,1.0867476E0,-6.667536E-1,3.280201E-1,6.441488E-1,1.539964E0,-7.169492E-1,9.5278305E-1,-2.2979118E-1,1.8099065E0,9.355136E-1,-3.8712782E-1,1.6653682E0,1.1161448E0,-7.5639147E-1,9.860108E-1,-3.725059E-1,1.2911006E0,4.6477103E-1,-6.2020576E-1,9.628494E-1,2.1024995E0,1.2895358E0,4.2420095E-1,-7.300112E-1,2.8725162E-1,1.5021954E0,1.845176E0,6.196016E-1,1.5260817E0,-5.114886E-1,-9.630403E-1,-9.535151E-2,1.3179752E0,-7.175477E-1,9.712195E-2,1.5730109E0,7.008718E-1,-4.305187E-1,9.73121E-1,2.1728548E-1,-7.47634E-1,-3.2880858E-1,1.1562448E0,2.210246E0,1.2502439E0,1.442838E0,-4.4746245E-3,3.5866672E-1,3.0251598E-1,1.1641312E-1,-7.8748417E-1,7.339505E-1,1.8344244E-2,1.3360114E0,1.8967537E0,1.3597742E0,1.9282087E0,7.329328E-1,-3.6988834E-1,1.0639523E0,1.7650801E0,1.2576674E-1,-6.116273E-2,-8.6219266E-2,-1.0793733E-1,9.71449E-2,2.0660062E-1,-8.806061E-3,-9.1724776E-2,5.6596406E-2,-7.2649196E-2,1.733288E-1,2.503517E-2,-1.5898487E-2,1.4572662E-1,-6.815953E-2,1.5173375E-2,1.1028246E-1,-3.398231E-2,-4.1748647E-2,1.2885806E-1,-8.221485E-2,9.316622E-2,-8.415368E-2,3.3806786E-2,4.002731E-3,1.3144279E-1,2.2496133E-1,9.351804E-2,-7.0913495E-3,1.7224167E-1,1.9914576E-1,1.0400876E-1,-2.2773158E-2,7.7845655E-2,7.698319E-2,4.289006E-3,-4.5666277E-2,-9.4237275E-2,1.009342E-1,-5.0500244E-2,-1.8724697E-2,7.534356E-2,1.3941889E-1,2.9641781E-2,1.9431005E-1,5.565982E-2,1.5565582E-1,4.65846E-2,1.9994637E-1,1.4214867E-1,1.2558134E-1,4.748178E-2,-7.065613E-2,3.0123523E-2,1.8385415E-1,7.022234E-2,1.8351537E-1,3.8280554E-2],"categories":[],"categories_nodes":[],"categories_segments":[],"categories_sizes":[],"default_left":[0,0,0,0,0,0,0,0,0,0,0,0,0,0,0,0,0,0,0,0,0,0,0,0,0,0,0,0,0,0,0,0,0,0,0,0,0,0,0,0,0,0,0,0,0,0,0,0,0,0,0,0,0,0,0,0,0,0,0,0,0,0,0,0,0,0,0,0,0,0,0,0,0,0,0,0,0,0,0,0,0,0,0,0,0,0,0,0,0,0,0,0,0,0,0,0,0,0,0,0,0,0,0,0,0,0,0,0,0,0,0,0,0,0,0,0,0,0,0,0,0],"id":3,"left_children":[1,3,5,7,9,11,13,15,17,19,21,23,25,27,29,31,33,35,37,39,41,43,45,47,49,51,53,55,57,59,61,63,65,-1,67,69,71,73,75,77,79,81,83,85,87,89,91,93,95,97,-1,-1,99,101,103,105,107,109,111,113,115,117,119,-1,-1,-1,-1,-1,-1,-1,-1,-1,-1,-1,-1,-1,-1,-1,-1,-1,-1,-1,-1,-1,-1,-1,-1,-1,-1,-1,-1,-1,-1,-1,-1,-1,-1,-1,-1,-1,-1,-1,-1,-1,-1,-1,-1,-1,-1,-1,-1,-1,-1,-1,-1,-1,-1,-1,-1,-1,-1],"loss_changes":[1.7463032E3,4.543255E2,2.0620154E2,1.6858777E2,4.8866907E2,1.5790036E2,2.5226318E1,1.3534387E2,2.8512856E1,1.1689571E2,3.8038696E1,7.350455E1,2.707989E1,8.706543E0,2.3356827E1,9.865491E1,3.074229E1,2.2556849E0,7.2220078E0,7.110317E1,2.9586418E1,1.1208038E1,8.191772E0,4.7861115E1,2.76966E1,9.333721E0,4.777643E0,1.1266724E1,4.703064E0,6.51462E0,5.2697754E0,1.5998283E2,1.1521545E1,0E0,8.237709E0,9.118118E-1,2.9575756E0,6.5733185E0,1.1922555E1,8.427593E0,1.7296501E1,2.58252E1,3.0738266E1,2.4808414E0,6.643242E0,3.1470947E0,9.911133E0,4.5585785E1,4.8178854E0,2.149897E1,0E0,0E0,3.4453506E0,5.614873E0,4.0588264E0,8.748474E0,2.6449127E0,4.5416107E0,2.6749878E0,6.1910076E0,1.6557828E0,5.595377E0,3.2821655E0,0E0,0E0,0E0,0E0,0E0,0E0,0E0,0E0,0E0,0E0,0E0,0E0,0E0,0E0,0E0,0E0,0E0,0E0,0E0,0E0,0E0,0E0,0E0,0E0,0E0,0E0,0E0,0E0,0E0,0E0,0E0,0E0,0E0,0E0,0E0,0E0,0E0,0E0,0E0,0E0,0E0,0E0,0E0,0E0,0E0,0E0,0E0,0E0,0E0,0E0,0E0,0E0,0E0,0E0,0E0,0E0,0E0,0E0],"parents":[2147483647,0,0,1,1,2,2,3,3,4,4,5,5,6,6,7,7,8,8,9,9,10,10,11,11,12,12,13,13,14,14,15,15,16,16,17,17,18,18,19,19,20,20,21,21,22,22,23,23,24,24,25,25,26,26,27,27,28,28,29,29,30,30,31,31,32,32,34,34,35,35,36,36,37,37,38,38,39,39,40,40,41,41,42,42,43,43,44,44,45,45,46,46,47,47,48,48,49,49,52,52,53,53,54,54,55,55,56,56,57,57,58,58,59,59,60,60,61,61,62,62],"right_children":[2,4,6,8,10,12,14,16,18,20,22,24,26,28,30,32,34,36,38,40,42,44,46,48,50,52,54,56,58,60,62,64,66,-1,68,70,72,74,76,78,80,82,84,86,88,90,92,94,96,98,-1,-1,100,102,104,106,108,110,112,114,116,118,120,-1,-1,-1,-1,-1,-1,-1,-1,-1,-1,-1,-1,-1,-1,-1,-1,-1,-1,-1,-1,-1,-1,-1,-1,-1,-1,-1,-1,-1,-1,-1,-1,-1,-1,-1,-1,-1,-1,-1,-1,-1,-1,-1,-1,-1,-1,-1,-1,-1,-1,-1,-1,-1,-1,-1,-1,-1,-1],"split_conditions":[3.64E2,1E0,6.06E2,6.1E1,2E0,2E0,2E0,1E1,1.26E2,1E0,1.64E2,1E0,5.04E2,8.67E2,8.34E2,1E0,7.8E1,7E1,1E0,1.55E2,1.31E2,8E1,2.21E2,1E0,3.71E2,6E0,7E0,1.602E3,2E0,3.355E3,3.62E2,1E0,2E0,-9.535151E-2,2.48E2,6.2E1,3E0,5.473E3,8.16E2,1.26E2,1E0,1.75E2,3.79E2,1.2E2,1E0,5E0,2.24E2,2E0,6E0,2E0,3.0251598E-1,1.1641312E-1,8E0,5.2E1,2.8E1,1E0,1.4922E4,5E1,5.6E1,3.4E1,4.7E1,0E0,7.633E3,1.2576674E-1,-6.116273E-2,-8.6219266E-2,-1.0793733E-1,9.71449E-2,2.0660062E-1,-8.806061E-3,-9.1724776E-2,5.6596406E-2,-7.2649196E-2,1.733288E-1,2.503517E-2,-1.5898487E-2,1.4572662E-1,-6.815953E-2,1.5173375E-2,1.1028246E-1,-3.398231E-2,-4.1748647E-2,1.2885806E-1,-8.221485E-2,9.316622E-2,-8.415368E-2,3.3806786E-2,4.002731E-3,1.3144279E-1,2.2496133E-1,9.351804E-2,-7.0913495E-3,1.7224167E-1,1.9914576E-1,1.0400876E-1,-2.2773158E-2,7.7845655E-2,7.698319E-2,4.289006E-3,-4.5666277E-2,-9.4237275E-2,1.009342E-1,-5.0500244E-2,-1.8724697E-2,7.534356E-2,1.3941889E-1,2.9641781E-2,1.9431005E-1,5.565982E-2,1.5565582E-1,4.65846E-2,1.9994637E-1,1.4214867E-1,1.2558134E-1,4.748178E-2,-7.065613E-2,3.0123523E-2,1.8385415E-1,7.022234E-2,1.8351537E-1,3.8280554E-2],"split_indices":[6,15,6,0,14,3,3,12,6,8,6,8,6,6,6,8,6,0,3,6,13,6,13,10,13,12,12,1,14,1,1,12,3,0,6,0,2,1,1,6,10,6,13,13,9,2,6,2,12,2,0,0,12,0,4,3,1,0,0,0,0,1,1,0,0,0,0,0,0,0,0,0,0,0,0,0,0,0,0,0,0,0,0,0,0,0,0,0,0,0,0,0,0,0,0,0,0,0,0,0,0,0,0,0,0,0,0,0,0,0,0,0,0,0,0,0,0,0,0,0,0],"split_type":[0,0,0,0,0,0,0,0,0,0,0,0,0,0,0,0,0,0,0,0,0,0,0,0,0,0,0,0,0,0,0,0,0,0,0,0,0,0,0,0,0,0,0,0,0,0,0,0,0,0,0,0,0,0,0,0,0,0,0,0,0,0,0,0,0,0,0,0,0,0,0,0,0,0,0,0,0,0,0,0,0,0,0,0,0,0,0,0,0,0,0,0,0,0,0,0,0,0,0,0,0,0,0,0,0,0,0,0,0,0,0,0,0,0,0,0,0,0,0,0,0],"sum_hessian":[3.685979E3,2.6540747E3,1.0319043E3,2.0644075E3,5.896673E2,5.2329236E2,5.0861185E2,2.0028876E3,6.151982E1,4.2902045E2,1.6064684E2,4.0808865E2,1.1520373E2,3.9021997E2,1.1839189E2,1.9580922E3,4.4795483E1,1.2490361E1,4.902946E1,1.5430882E2,2.7471164E2,4.234597E1,1.1830086E2,2.4023381E2,1.6785484E2,7.631793E1,3.88858E1,2.094771E2,1.8074287E2,5.4676037E1,6.3715855E1,8.9769495E2,1.0603971E3,6.2729545E0,3.852253E1,6.8959255E0,5.5944357E0,3.205431E1,1.6975151E1,5.5940792E1,9.836803E1,3.6185577E1,2.3852606E2,5.423444E0,3.6922527E1,1.0360871E2,1.4692148E1,2.1468494E2,2.554888E1,1.6483942E2,3.0154269E0,1.6804338E0,7.46375E1,1.3962476E1,2.4923323E1,1.5048181E2,5.8995293E1,2.8939806E1,1.5180307E2,4.92899E1,5.3861337E0,2.3577648E1,4.0138206E1,4.7470547E1,8.502244E2,5.7250806E2,4.8788907E2,2.7897606E1,1.0624922E1,2.0078423E0,4.8880835E0,3.7643871E0,1.8300484E0,2.8312948E1,3.7413607E0,8.31388E0,8.661271E0,3.8966984E1,1.6973808E1,8.966974E1,8.69829E0,2.3105328E1,1.3080249E1,2.2888051E2,9.645557E0,2.9180171E0,2.5054266E0,4.7384872E0,3.218404E1,9.976421E1,3.8444948E0,4.092102E0,1.0600046E1,8.9214226E1,1.254707E2,2.043178E1,5.1171E0,7.098007E1,9.3859344E1,2.5060322E1,4.957718E1,1.157495E1,2.3875256E0,2.0058586E1,4.864735E0,1.4218388E2,8.297923E0,5.658838E1,2.4069147E0,2.311103E1,5.828775E0,1.3050555E2,2.1297518E1,1.50125885E1,3.4277313E1,3.5516331E0,1.8345006E0,6.205926E0,1.7371723E1,3.7889774E1,2.248431E0],"tree_param":{"num_deleted":"0","num_feature":"16","num_nodes":"121","size_leaf_vector":"1"}},{"base_weights":[-1.7898856E-2,-5.6138206E-1,7.085633E-1,-6.327427E-1,9.5218337E-1,3.540477E-1,1.2322488E0,-8.7901706E-1,-3.0270624E-1,-8.345084E-1,1.1796668E0,6.52797E-1,-7.6237196E-1,1.0204886E0,1.4416968E0,-8.9854366E-1,3.246604E-1,1.997308E-1,-7.517745E-1,4.0549304E-2,-1.000092E-1,3.8451597E-1,1.3726842E0,1.0278758E0,9.417137E-2,-9.168616E-1,8.550243E-2,1.1841906E0,4.4083044E-1,1.2811458E0,1.5584941E0,-1.0252287E0,-7.717757E-1,-2.3138426E-1,1.207461E0,3.9848348E-1,-9.756783E-1,-9.0549886E-1,-2.5072703E-1,-2.7548257E-1,1.1002681E0,1.4561763E0,-2.4784832E-1,1.1798633E0,-3.1719312E-1,2.6563395E-2,2.4967185E-1,-9.5002365E-1,1.837697E-1,6.4991915E-1,-2.192714E-1,1.6255997E0,1.0224123E0,5.363137E-1,-4.630429E-1,1.8204952E0,1.1654507E0,2.3765764E0,1.5065998E0,-1.0300433E-1,-8.887036E-3,7.62701E-2,-8.027796E-2,7.136586E-2,-5.8731552E-2,1.77969E-1,-4.1154522E-2,7.0082694E-3,1.3015479E-1,-1.042302E-1,1.3681266E-1,-9.179324E-2,8.213481E-2,1.2540159E-1,-4.907535E-2,5.2381244E-2,-8.3486386E-2,1.4247242E-1,-6.597679E-2,1.19126275E-1,1.9897854E-1,-7.615615E-2,3.42107E-2,2.665448E-2,1.3565317E-1,-5.8507074E-2,6.750663E-2,1.2749802E-1,-8.600969E-3,8.251898E-3,-9.714374E-2,1.2104344E-1,-4.4582125E-2,-9.3796685E-2,1.4120839E-2,1.1567066E-1,2.7085584E-1,1.278329E-1,7.679119E-2,2.0666065E-2,7.899928E-2,-9.263041E-2,3.188094E-2,-3.0312598E-2,1.9536693E-1,9.1088675E-2,1.6178368E-1,1.00975536E-1,2.6434737E-1,-4.5902305E-4,1.5200315E-1],"categories":[],"categories_nodes":[],"categories_segments":[],"categories_sizes":[],"default_left":[0,0,0,0,0,0,0,0,0,0,0,0,0,0,0,0,0,0,0,0,0,0,0,0,0,0,0,0,0,0,0,0,0,0,0,0,0,0,0,0,0,0,0,0,0,0,0,0,0,0,0,0,0,0,0,0,0,0,0,0,0,0,0,0,0,0,0,0,0,0,0,0,0,0,0,0,0,0,0,0,0,0,0,0,0,0,0,0,0,0,0,0,0,0,0,0,0,0,0,0,0,0,0,0,0,0,0,0,0,0,0],"id":4,"left_children":[1,3,5,7,9,11,13,15,17,19,21,23,25,27,29,31,33,35,37,-1,-1,39,41,43,45,47,49,51,53,55,57,59,61,63,65,67,69,71,73,75,77,79,81,83,85,87,-1,89,-1,91,93,95,97,99,101,103,105,107,109,-1,-1,-1,-1,-1,-1,-1,-1,-1,-1,-1,-1,-1,-1,-1,-1,-1,-1,-1,-1,-1,-1,-1,-1,-1,-1,-1,-1,-1,-1,-1,-1,-1,-1,-1,-1,-1,-1,-1,-1,-1,-1,-1,-1,-1,-1,-1,-1,-1,-1,-1,-1],"loss_changes":[1.4358301E3,2.2529456E2,2.8850793E2,1.6125635E2,3.9216194E1,3.105072E2,2.6376648E1,2.7027466E1,1.9209981E2,2.7070928E0,1.2342072E1,1.5365567E2,2.5841019E1,2.9428955E1,3.8771362E0,1.7189392E1,9.553622E0,9.437201E1,3.4389893E1,0E0,0E0,8.6968E0,9.437836E0,9.0105316E1,4.7993332E1,1.6950653E1,5.5143294E0,1.5871613E1,6.384762E0,6.46019E0,3.9213257E0,2.4191895E0,2.742871E1,4.600589E0,7.6456566E0,1.0217155E2,1.0557301E1,8.129913E0,3.922506E1,4.928084E0,5.922086E0,6.668915E0,1.5157173E0,6.3304993E1,1.2449093E1,4.0695576E1,0E0,3.731308E0,0E0,7.419723E0,5.579738E0,2.944609E1,1.0896606E1,5.2533493E0,2.950277E0,6.9587326E0,1.1887146E1,5.442009E-1,3.4352417E0,0E0,0E0,0E0,0E0,0E0,0E0,0E0,0E0,0E0,0E0,0E0,0E0,0E0,0E0,0E0,0E0,0E0,0E0,0E0,0E0,0E0,0E0,0E0,0E0,0E0,0E0,0E0,0E0,0E0,0E0,0E0,0E0,0E0,0E0,0E0,0E0,0E0,0E0,0E0,0E0,0E0,0E0,0E0,0E0,0E0,0E0,0E0,0E0,0E0,0E0,0E0,0E0],"parents":[2147483647,0,0,1,1,2,2,3,3,4,4,5,5,6,6,7,7,8,8,9,9,10,10,11,11,12,12,13,13,14,14,15,15,16,16,17,17,18,18,21,21,22,22,23,23,24,24,25,25,26,26,27,27,28,28,29,29,30,30,31,31,32,32,33,33,34,34,35,35,36,36,37,37,38,38,39,39,40,40,41,41,42,42,43,43,44,44,45,45,47,47,49,49,50,50,51,51,52,52,53,53,54,54,55,55,56,56,57,57,58,58],"right_children":[2,4,6,8,10,12,14,16,18,20,22,24,26,28,30,32,34,36,38,-1,-1,40,42,44,46,48,50,52,54,56,58,60,62,64,66,68,70,72,74,76,78,80,82,84,86,88,-1,90,-1,92,94,96,98,100,102,104,106,108,110,-1,-1,-1,-1,-1,-1,-1,-1,-1,-1,-1,-1,-1,-1,-1,-1,-1,-1,-1,-1,-1,-1,-1,-1,-1,-1,-1,-1,-1,-1,-1,-1,-1,-1,-1,-1,-1,-1,-1,-1,-1,-1,-1,-1,-1,-1,-1,-1,-1,-1,-1,-1],"split_conditions":[2.59E2,1E1,5.54E2,1.46E2,8.2E1,2E0,8E2,6.1E1,1E0,1E0,8E0,1E0,4.77E2,2E0,4.56E2,8.9E1,1.22E2,2E0,2E0,4.0549304E-2,-1.000092E-1,1.93E2,7.633E3,1E0,3.73E2,9E0,7E0,3E0,3.355E3,1E0,5.25E2,3.73E2,2.5E1,6.3E1,1.39E2,6E0,9E0,6.1E1,1.02E2,3E0,1E0,1.852E3,2.2E1,6.7E1,6E0,5E0,2.4967185E-1,6E0,1.837697E-1,1.442E3,5.04E2,2E0,1.7E1,6.48E2,2E0,2.9E1,2E0,4.74E2,5.44E2,-1.0300433E-1,-8.887036E-3,7.62701E-2,-8.027796E-2,7.136586E-2,-5.8731552E-2,1.77969E-1,-4.1154522E-2,7.0082694E-3,1.3015479E-1,-1.042302E-1,1.3681266E-1,-9.179324E-2,8.213481E-2,1.2540159E-1,-4.907535E-2,5.2381244E-2,-8.3486386E-2,1.4247242E-1,-6.597679E-2,1.19126275E-1,1.9897854E-1,-7.615615E-2,3.42107E-2,2.665448E-2,1.3565317E-1,-5.8507074E-2,6.750663E-2,1.2749802E-1,-8.600969E-3,8.251898E-3,-9.714374E-2,1.2104344E-1,-4.4582125E-2,-9.3796685E-2,1.4120839E-2,1.1567066E-1,2.7085584E-1,1.278329E-1,7.679119E-2,2.0666065E-2,7.899928E-2,-9.263041E-2,3.188094E-2,-3.0312598E-2,1.9536693E-1,9.1088675E-2,1.6178368E-1,1.00975536E-1,2.6434737E-1,-4.5902305E-4,1.5200315E-1],"split_indices":[6,12,6,6,6,3,6,0,8,11,4,8,6,3,1,6,6,3,13,0,0,6,1,10,13,12,12,14,1,11,1,13,0,0,6,12,12,0,13,4,3,1,4,1,12,4,0,12,0,1,6,14,4,6,7,0,11,1,1,0,0,0,0,0,0,0,0,0,0,0,0,0,0,0,0,0,0,0,0,0,0,0,0,0,0,0,0,0,0,0,0,0,0,0,0,0,0,0,0,0,0,0,0,0,0,0,0,0,0,0,0],"split_type":[0,0,0,0,0,0,0,0,0,0,0,0,0,0,0,0,0,0,0,0,0,0,0,0,0,0,0,0,0,0,0,0,0,0,0,0,0,0,0,0,0,0,0,0,0,0,0,0,0,0,0,0,0,0,0,0,0,0,0,0,0,0,0,0,0,0,0,0,0,0,0,0,0,0,0,0,0,0,0,0,0,0,0,0,0,0,0,0,0,0,0,0,0,0,0,0,0,0,0,0,0,0,0,0,0,0,0,0,0,0,0],"sum_hessian":[3.6346626E3,2.0793098E3,1.5553528E3,1.9862456E3,9.30643E1,9.2848145E2,6.2687134E2,1.1365125E3,8.4973315E2,1.020942E1,8.285488E1,7.3280194E2,1.9567949E2,3.1463504E2,3.1223627E2,1.1186193E3,1.789321E1,4.0129837E2,4.484348E2,1.0320284E0,9.177392E0,1.676837E1,6.608651E1,4.379252E2,2.948767E2,1.654515E2,3.0227983E1,2.4453322E2,7.010183E1,1.365298E2,1.7570648E2,5.559475E2,5.626717E2,1.1431079E1,6.4621315E0,3.4382172E2,5.7476643E1,3.425356E2,1.058992E2,9.0439825E0,7.7243867E0,6.294492E1,3.1415875E0,3.9357553E2,4.434968E1,2.8778934E2,7.0873723E0,1.6413066E2,1.3208555E0,1.0202082E1,2.0025902E1,6.3158398E1,1.8137482E2,6.3771767E1,6.330064E0,2.1511553E1,1.1501825E2,7.808817E0,1.6789766E2,5.530041E2,2.9434593E0,1.0676128E1,5.519956E2,2.8524399E0,8.578638E0,4.7012515E0,1.76088E0,2.5292334E2,9.089838E1,5.6427948E1,1.0486951E0,3.4055203E2,1.983592E0,1.3987305E1,9.1911896E1,3.7496817E0,5.294301E0,6.682928E0,1.0414581E0,4.4222733E1,1.8722187E1,1.5238183E0,1.6177692E0,6.419854E1,3.2937698E2,3.5245037E1,9.104643E0,2.2950153E1,2.648392E2,3.2767453E0,1.6085391E2,6.680212E0,3.5218694E0,6.1541867E0,1.3871715E1,4.551826E1,1.7640137E1,8.8429886E1,9.294493E1,2.852218E1,3.5249588E1,3.8588636E0,2.4712002E0,1.1940956E0,2.0317457E1,7.5529976E1,3.948827E1,2.0571504E0,5.7516665E0,1.4849603E0,1.664127E2],"tree_param":{"num_deleted":"0","num_feature":"16","num_nodes":"111","size_leaf_vector":"1"}},{"base_weights":[-1.8798752E-2,-6.5243655E-1,5.027022E-1,-7.070623E-1,5.778102E-1,7.0884585E-1,-2.5809392E-1,-8.9082754E-1,-4.3666357E-1,-9.701403E-2,7.958341E-1,4.786084E-1,1.1134626E0,-9.073392E-1,6.6520894E-1,-1.0046048E0,-7.4450016E-1,-6.2968716E-2,-7.881279E-1,3.130453E-1,1.1374536E0,8.302787E-1,-7.427524E-2,9.973313E-1,1.351663E0,-9.399509E-1,1.7878273E-1,3.1459695E-1,1.0264844E0,-1.0096952E0,-8.267433E-2,1.4550902E-1,-7.936289E-1,-2.99782E-1,7.123578E-1,-9.15351E-1,-3.7639618E-1,6.166775E-1,-5.3974193E-1,7.7298194E-1,1.7411464E0,4.9100024E-1,1.4170451E0,-3.1043696E-1,6.370194E-1,8.599745E-1,1.3252149E0,1.3778726E0,4.1528374E-1,-1.0173383E0,-5.2279276E-1,4.5884946E-1,-8.145183E-2,1.701377E0,9.1233957E-1,-1.0131381E-1,-1.3557504E-2,-7.3865786E-2,8.996087E-2,8.322192E-2,-8.710132E-2,-3.7808593E-2,-8.8110216E-2,1.361465E-1,-4.4659015E-2,1.3863204E-1,3.033779E-2,-9.29546E-2,8.783262E-2,-6.2188525E-2,1.03063606E-1,-1.8271165E-2,1.03555135E-1,-7.9052076E-2,-2.6335372E-3,4.4879835E-2,1.383898E-1,1.9595551E-1,-2.131634E-2,2.0736365E-2,1.3687061E-1,2.9530972E-1,1.0156357E-1,-3.6029886E-2,1.4402841E-1,2.4496755E-2,1.6989426E-1,1.1284622E-1,6.84571E-2,1.8990587E-1,1.244007E-1,1.2195674E-1,1.5851085E-1,1.0422102E-1,-4.0479254E-2,-1.3480133E-2,-1.035453E-1,-4.949684E-3,-8.040838E-2,8.5982874E-2,2.5762295E-2,-2.4564326E-2,6.0575914E-2,2.0383644E-1,2.6749978E-2,6.1482787E-2,1.2689106E-1],"categories":[],"categories_nodes":[],"categories_segments":[],"categories_sizes":[],"default_left":[0,0,0,0,0,0,0,0,0,0,0,0,0,0,0,0,0,0,0,0,0,0,0,0,0,0,0,0,0,0,0,0,0,0,0,0,0,0,0,0,0,0,0,0,0,0,0,0,0,0,0,0,0,0,0,0,0,0,0,0,0,0,0,0,0,0,0,0,0,0,0,0,0,0,0,0,0,0,0,0,0,0,0,0,0,0,0,0,0,0,0,0,0,0,0,0,0,0,0,0,0,0,0,0,0,0,0],"id":5,"left_children":[1,3,5,7,9,11,13,15,17,-1,19,21,23,25,27,29,31,33,35,37,39,41,43,45,47,49,-1,51,53,55,57,59,61,63,65,67,69,71,73,75,77,79,81,83,85,87,89,91,93,95,97,99,101,103,105,-1,-1,-1,-1,-1,-1,-1,-1,-1,-1,-1,-1,-1,-1,-1,-1,-1,-1,-1,-1,-1,-1,-1,-1,-1,-1,-1,-1,-1,-1,-1,-1,-1,-1,-1,-1,-1,-1,-1,-1,-1,-1,-1,-1,-1,-1,-1,-1,-1,-1,-1,-1],"loss_changes":[1.1855505E3,1.09259155E2,3.088383E2,7.669562E1,2.4197994E1,1.4374463E2,2.5255518E2,1.4613159E1,8.2649994E1,0E0,9.769321E0,1.9232184E2,1.4168274E1,2.3407837E1,2.1730492E1,2.3389282E0,1.7931595E1,5.644609E1,1.6647781E1,7.2773013E0,6.481121E0,1.1964139E2,6.492929E1,1.6014557E1,3.870514E0,7.3741913E0,0E0,5.1676407E0,5.0193863E0,1.4073486E0,3.1927576E0,1.6193966E1,1.3708374E1,5.7996708E1,1.9412575E1,7.108429E0,2.7677376E1,6.967904E0,9.5447874E-1,4.1280155E0,5.792938E0,9.544753E1,1.3322516E2,2.5831797E1,3.970952E1,1.2003357E1,2.7918549E0,3.829773E0,3.6919308E0,3.1460419E0,5.3360834E0,5.1017914E0,2.9498029E0,4.8590508E0,7.1890945E0,0E0,0E0,0E0,0E0,0E0,0E0,0E0,0E0,0E0,0E0,0E0,0E0,0E0,0E0,0E0,0E0,0E0,0E0,0E0,0E0,0E0,0E0,0E0,0E0,0E0,0E0,0E0,0E0,0E0,0E0,0E0,0E0,0E0,0E0,0E0,0E0,0E0,0E0,0E0,0E0,0E0,0E0,0E0,0E0,0E0,0E0,0E0,0E0,0E0,0E0,0E0,0E0],"parents":[2147483647,0,0,1,1,2,2,3,3,4,4,5,5,6,6,7,7,8,8,10,10,11,11,12,12,13,13,14,14,15,15,16,16,17,17,18,18,19,19,20,20,21,21,22,22,23,23,24,24,25,25,27,27,28,28,29,29,30,30,31,31,32,32,33,33,34,34,35,35,36,36,37,37,38,38,39,39,40,40,41,41,42,42,43,43,44,44,45,45,46,46,47,47,48,48,49,49,50,50,51,51,52,52,53,53,54,54],"right_children":[2,4,6,8,10,12,14,16,18,-1,20,22,24,26,28,30,32,34,36,38,40,42,44,46,48,50,-1,52,54,56,58,60,62,64,66,68,70,72,74,76,78,80,82,84,86,88,90,92,94,96,98,100,102,104,106,-1,-1,-1,-1,-1,-1,-1,-1,-1,-1,-1,-1,-1,-1,-1,-1,-1,-1,-1,-1,-1,-1,-1,-1,-1,-1,-1,-1,-1,-1,-1,-1,-1,-1,-1,-1,-1,-1,-1,-1,-1,-1,-1,-1,-1,-1,-1,-1,-1,-1,-1,-1],"split_conditions":[2.06E2,1E1,2E0,1.31E2,7.9E1,5.23E2,5.04E2,8.9E1,1E0,-9.701403E-2,1.5E1,1E0,2E0,9E0,7.71E2,3.73E2,2.7E1,4.2E1,8E0,5.6E1,9.7E1,6E0,2E0,9.45E2,3E0,4.09E2,1.7878273E-1,1.042E3,1E0,7E1,4.9E1,1E0,3E0,1E0,1.03E2,6.1E1,2E0,3.98E2,7E1,1E0,3.794E3,8E1,8E0,1E1,2E0,2E0,1E0,6E0,3.4E1,6E0,8E0,7E0,7.25E2,3E0,8.16E2,-1.0131381E-1,-1.3557504E-2,-7.3865786E-2,8.996087E-2,8.322192E-2,-8.710132E-2,-3.7808593E-2,-8.8110216E-2,1.361465E-1,-4.4659015E-2,1.3863204E-1,3.033779E-2,-9.29546E-2,8.783262E-2,-6.2188525E-2,1.03063606E-1,-1.8271165E-2,1.03555135E-1,-7.9052076E-2,-2.6335372E-3,4.4879835E-2,1.383898E-1,1.9595551E-1,-2.131634E-2,2.0736365E-2,1.3687061E-1,2.9530972E-1,1.0156357E-1,-3.6029886E-2,1.4402841E-1,2.4496755E-2,1.6989426E-1,1.1284622E-1,6.84571E-2,1.8990587E-1,1.244007E-1,1.2195674E-1,1.5851085E-1,1.0422102E-1,-4.0479254E-2,-1.3480133E-2,-1.035453E-1,-4.949684E-3,-8.040838E-2,8.5982874E-2,2.5762295E-2,-2.4564326E-2,6.0575914E-2,2.0383644E-1,2.6749978E-2,6.1482787E-2,1.2689106E-1],"split_indices":[6,12,3,6,6,6,6,6,8,0,4,8,11,12,6,13,0,13,13,0,13,12,15,6,7,6,0,1,11,0,6,8,14,12,13,0,14,1,0,3,1,13,12,12,14,2,9,12,0,12,12,12,6,2,1,0,0,0,0,0,0,0,0,0,0,0,0,0,0,0,0,0,0,0,0,0,0,0,0,0,0,0,0,0,0,0,0,0,0,0,0,0,0,0,0,0,0,0,0,0,0,0,0,0,0,0,0],"split_type":[0,0,0,0,0,0,0,0,0,0,0,0,0,0,0,0,0,0,0,0,0,0,0,0,0,0,0,0,0,0,0,0,0,0,0,0,0,0,0,0,0,0,0,0,0,0,0,0,0,0,0,0,0,0,0,0,0,0,0,0,0,0,0,0,0,0,0,0,0,0,0,0,0,0,0,0,0,0,0,0,0,0,0,0,0,0,0,0,0,0,0,0,0,0,0,0,0,0,0,0,0,0,0,0,0,0,0],"sum_hessian":[3.585772E3,1.6187255E3,1.9670465E3,1.5503132E3,6.841217E1,1.547742E3,4.1930463E2,9.2165466E2,6.2865857E2,8.020145E0,6.039203E1,9.878261E2,5.5991583E2,2.4619984E2,1.7310477E2,5.151965E2,4.0645816E2,3.052647E2,3.2339386E2,2.5819433E1,3.4572594E1,6.034748E2,3.8435132E2,3.7989188E2,1.8002397E2,2.4389989E2,2.2999575E0,8.879826E1,8.4306496E1,5.122728E2,2.9236581E0,2.116024E1,3.852979E2,2.3431088E2,7.0953835E1,2.4612065E2,7.7273224E1,1.9244394E1,6.5750384E0,2.2979467E1,1.1593127E1,3.8354132E2,2.1993344E2,2.889715E2,9.5379814E1,2.702864E2,1.09605484E2,1.7466359E2,5.36039E0,2.0452037E2,3.9379524E1,6.4974205E1,2.3824066E1,1.0184457E1,7.412204E1,5.1010468E2,2.1681561E0,1.9016961E0,1.0219622E0,1.273705E1,8.423189E0,6.7927864E1,3.1737006E2,1.8353472E1,2.1595741E2,2.5893665E1,4.506017E1,2.4466615E2,1.4544932E0,6.626907E1,1.1004146E1,6.8106275E0,1.2433767E1,4.054715E0,2.5203238E0,1.614613E1,6.8333387E0,1.0425334E1,1.1677926E0,2.9080273E2,9.273862E1,4.4249477E1,1.7568396E2,2.817415E2,7.230021E0,7.05603E1,2.4819506E1,1.04656586E2,1.6562982E2,1.0812851E1,9.879263E1,1.0292516E2,7.173843E1,2.8844414E0,2.4759488E0,4.28327E0,2.002371E2,1.5118065E1,2.4261457E1,2.0617422E1,4.435678E1,1.9748274E1,4.075793E0,7.90505E0,2.2794068E0,4.1892513E1,3.2229527E1],"tree_param":{"num_deleted":"0","num_feature":"16","num_nodes":"107","size_leaf_vector":"1"}},{"base_weights":[-1.9244E-2,-6.246142E-1,4.437114E-1,-8.406778E-1,-3.2703125E-1,6.1852956E-1,-2.4135962E-1,-1.0201405E0,-6.9791186E-1,-1.1893223E-1,-9.960595E-1,3.9237073E-1,9.2153156E-1,-8.934049E-1,5.736395E-1,-1.0224464E0,-1.0108209E-2,-7.44151E-1,2.7226394E-1,1.5781032E-1,-5.133105E-1,-1.0559876E-1,1.7034044E0,6.993537E-1,-1.1303795E-1,7.325962E-1,1.0480515E0,-9.278072E-1,1.5570164E-1,2.4280111E-1,8.656942E-1,-1.0266213E0,-4.6545616E-1,3.8268305E-2,-7.8601384E-1,-7.323693E-1,6.759396E-1,-1.406461E-1,7.2731984E-1,-6.000937E-1,1.3023194E0,2.382168E-1,3.9999515E-2,-1.281724E-1,8.704566E-1,-3.2864413E-1,4.9285313E-1,1.0472902E0,4.9817598E-1,9.108776E-1,1.1492275E0,1.6505246E-1,-9.553271E-1,5.884598E-1,3.7376445E-2,7.934332E-1,1.9960998E-1,-2.4869835E-2,-1.0289844E-1,-8.057819E-2,3.5607435E-2,6.5480605E-2,-8.849218E-2,-8.099154E-2,2.852921E-2,-9.886086E-2,3.9717413E-2,1.14482164E-1,-5.823061E-2,1.05737306E-1,-3.348587E-2,2.010943E-1,2.673539E-2,-6.3159086E-2,1.0894276E-1,1.6413844E-1,-3.2142676E-2,-3.883709E-2,5.7288766E-2,9.702148E-2,-3.0085448E-2,-3.7989378E-2,1.2566003E-1,1.0503473E-1,-8.620079E-3,1.14931725E-1,3.6731634E-2,2.6553363E-2,7.822019E-2,7.5239286E-2,1.213086E-1,1.23682134E-1,7.9921775E-2,-7.1109876E-2,2.3389034E-1,-1.0269834E-1,-5.951878E-2,9.542649E-2,-8.948927E-3,1.02073364E-1,-1.008839E-2,1.4435314E-1,6.872553E-2],"categories":[],"categories_nodes":[],"categories_segments":[],"categories_sizes":[],"default_left":[0,0,0,0,0,0,0,0,0,0,0,0,0,0,0,0,0,0,0,0,0,0,0,0,0,0,0,0,0,0,0,0,0,0,0,0,0,0,0,0,0,0,0,0,0,0,0,0,0,0,0,0,0,0,0,0,0,0,0,0,0,0,0,0,0,0,0,0,0,0,0,0,0,0,0,0,0,0,0,0,0,0,0,0,0,0,0,0,0,0,0,0,0,0,0,0,0,0,0,0,0,0,0],"id":6,"left_children":[1,3,5,7,9,11,13,15,17,19,21,23,25,27,29,31,-1,33,35,37,39,-1,41,43,45,47,49,51,-1,53,55,57,59,61,63,65,67,69,71,73,75,-1,-1,77,79,81,83,85,87,89,91,93,95,97,99,101,-1,-1,-1,-1,-1,-1,-1,-1,-1,-1,-1,-1,-1,-1,-1,-1,-1,-1,-1,-1,-1,-1,-1,-1,-1,-1,-1,-1,-1,-1,-1,-1,-1,-1,-1,-1,-1,-1,-1,-1,-1,-1,-1,-1,-1,-1,-1],"loss_changes":[9.895078E2,9.809918E1,2.3975864E2,2.1982544E1,8.9712425E1,1.0888568E2,2.1704741E2,7.237549E-1,2.2475174E1,5.391826E1,2.6541183E1,1.4198276E2,1.550177E1,2.0560074E1,1.7347424E1,4.2718506E-1,0E0,1.5561218E1,9.951826E0,4.9502937E1,3.2868893E1,0E0,2.324377E0,8.069754E1,4.5422733E1,1.9861023E1,4.5785217E0,6.901825E0,0E0,6.126423E0,6.2680283E0,4.5272827E-1,1.6079592E0,1.4829096E1,1.1757172E1,2.4661489E0,1.0787355E1,4.491911E1,5.8563477E1,1.1067047E1,5.81575E0,0E0,0E0,1.8169752E1,5.5415436E1,2.1286797E1,2.9574575E1,7.6980286E0,1.0381218E1,7.5587463E0,6.0460205E0,1.3777985E1,5.037277E0,8.073283E0,7.6323385E0,5.3588676E0,0E0,0E0,0E0,0E0,0E0,0E0,0E0,0E0,0E0,0E0,0E0,0E0,0E0,0E0,0E0,0E0,0E0,0E0,0E0,0E0,0E0,0E0,0E0,0E0,0E0,0E0,0E0,0E0,0E0,0E0,0E0,0E0,0E0,0E0,0E0,0E0,0E0,0E0,0E0,0E0,0E0,0E0,0E0,0E0,0E0,0E0,0E0],"parents":[2147483647,0,0,1,1,2,2,3,3,4,4,5,5,6,6,7,7,8,8,9,9,10,10,11,11,12,12,13,13,14,14,15,15,17,17,18,18,19,19,20,20,22,22,23,23,24,24,25,25,26,26,27,27,29,29,30,30,31,31,32,32,33,33,34,34,35,35,36,36,37,37,38,38,39,39,40,40,43,43,44,44,45,45,46,46,47,47,48,48,49,49,50,50,51,51,52,52,53,53,54,54,55,55],"right_children":[2,4,6,8,10,12,14,16,18,20,22,24,26,28,30,32,-1,34,36,38,40,-1,42,44,46,48,50,52,-1,54,56,58,60,62,64,66,68,70,72,74,76,-1,-1,78,80,82,84,86,88,90,92,94,96,98,100,102,-1,-1,-1,-1,-1,-1,-1,-1,-1,-1,-1,-1,-1,-1,-1,-1,-1,-1,-1,-1,-1,-1,-1,-1,-1,-1,-1,-1,-1,-1,-1,-1,-1,-1,-1,-1,-1,-1,-1,-1,-1,-1,-1,-1,-1,-1,-1],"split_conditions":[2.06E2,1.31E2,2E0,7.8E1,2E0,4.7E2,4.94E2,7.1E1,1E1,1E0,9E0,1E0,6.48E2,9E0,7.47E2,3.73E2,-1.0108209E-2,2.7E1,2.04E2,6E0,1E1,-1.0559876E-1,1.59E2,6.7E1,2E0,2E0,4.66E2,6E0,1.5570164E-1,7E0,3E1,2E0,4.9E1,1E0,6.1E1,1.54E2,2E0,1E0,8E0,6E1,1.85E2,2.382168E-1,3.9999515E-2,6E0,1E0,1E1,2.47E2,1E0,7.19E2,6E0,9E0,5E0,4.04E2,8.79E2,1E0,1E0,1.9960998E-1,-2.4869835E-2,-1.0289844E-1,-8.057819E-2,3.5607435E-2,6.5480605E-2,-8.849218E-2,-8.099154E-2,2.852921E-2,-9.886086E-2,3.9717413E-2,1.14482164E-1,-5.823061E-2,1.05737306E-1,-3.348587E-2,2.010943E-1,2.673539E-2,-6.3159086E-2,1.0894276E-1,1.6413844E-1,-3.2142676E-2,-3.883709E-2,5.7288766E-2,9.702148E-2,-3.0085448E-2,-3.7989378E-2,1.2566003E-1,1.0503473E-1,-8.620079E-3,1.14931725E-1,3.6731634E-2,2.6553363E-2,7.822019E-2,7.5239286E-2,1.213086E-1,1.23682134E-1,7.9921775E-2,-7.1109876E-2,2.3389034E-1,-1.0269834E-1,-5.951878E-2,9.542649E-2,-8.948927E-3,1.02073364E-1,-1.008839E-2,1.4435314E-1,6.872553E-2],"split_indices":[6,6,3,6,3,6,6,0,12,8,12,8,6,12,6,13,0,0,1,12,12,0,6,1,15,2,1,12,0,12,4,4,6,8,0,13,11,12,12,0,13,0,0,12,10,12,13,10,1,12,12,4,6,1,11,11,0,0,0,0,0,0,0,0,0,0,0,0,0,0,0,0,0,0,0,0,0,0,0,0,0,0,0,0,0,0,0,0,0,0,0,0,0,0,0,0,0,0,0,0,0,0,0],"split_type":[0,0,0,0,0,0,0,0,0,0,0,0,0,0,0,0,0,0,0,0,0,0,0,0,0,0,0,0,0,0,0,0,0,0,0,0,0,0,0,0,0,0,0,0,0,0,0,0,0,0,0,0,0,0,0,0,0,0,0,0,0,0,0,0,0,0,0,0,0,0,0,0,0,0,0,0,0,0,0,0,0,0,0,0,0,0,0,0,0,0,0,0,0,0,0,0,0,0,0,0,0,0,0],"sum_hessian":[3.5286965E3,1.5289979E3,1.9996987E3,8.847729E2,6.4422504E2,1.5932312E3,4.0646756E2,3.892827E2,4.9549017E2,4.9228055E2,1.5194446E2,9.136119E2,6.796193E2,2.2575479E2,1.8071277E2,3.881963E2,1.0864385E0,4.731715E2,2.2318659E1,2.8963684E2,2.026437E2,1.4924014E2,2.7043161E0,5.6814154E2,3.4547034E2,2.7529904E2,4.0432028E2,2.2324199E2,2.5128047E0,8.558913E1,9.512365E1,3.844713E2,3.7249563E0,2.4035322E1,4.491362E2,6.1639924E0,1.6154665E1,1.905372E2,9.909963E1,1.9403856E2,8.605147E0,1.2340356E0,1.4702805E0,9.73871E1,4.7075443E2,2.5513737E2,9.033297E1,1.1604654E2,1.592525E2,1.7587398E2,2.2844629E2,5.3607335E0,2.1788126E2,3.1209587E1,5.437954E1,9.100787E1,4.115769E0,1.4861234E0,3.829852E2,2.6474133E0,1.0775429E0,1.4585406E1,9.449916E0,4.3957303E2,9.563176E0,5.1259346E0,1.0380577E0,1.1834656E1,4.3200097E0,2.5959446E1,1.6457776E2,2.5253363E1,7.3846275E1,1.911021E2,2.9364703E0,7.1096687E0,1.4954785E0,7.135114E1,2.603596E1,4.3396606E2,3.6788364E1,2.4788385E2,7.2535257E0,4.56086E1,4.4724373E1,1.00305855E2,1.5740686E1,8.860888E1,7.0643616E1,1.1766008E2,5.82139E1,1.8069234E2,4.775396E1,4.3003864E0,1.060347E0,1.8017961E2,3.770164E1,2.0006813E1,1.1202774E1,5.916509E0,4.8463028E1,1.1008774E1,7.99991E1],"tree_param":{"num_deleted":"0","num_feature":"16","num_nodes":"103","size_leaf_vector":"1"}},{"base_weights":[-1.9404912E-2,-5.965924E-1,3.9304137E-1,-7.317878E-1,-1.05143465E-1,5.423455E-1,-2.2498362E-1,-7.661168E-1,3.2118532E-1,-4.8380065E-1,1.0509213E0,3.8000903E-1,8.6071557E-1,-8.952439E-1,4.8411158E-1,-7.9931855E-2,-8.087209E-1,1.2935818E0,3.6527034E-2,4.265831E-1,-6.4826757E-1,-1.1568859E-1,1.1558741E0,6.243332E-1,-3.3073623E-2,9.974477E-1,7.2854644E-1,-9.3247294E-1,1.370773E0,6.252117E-2,6.889114E-1,5.2705467E-1,-7.8554565E-1,-8.400112E-1,2.4051262E-1,1.6797987E0,-3.2423336E-2,-5.241031E-1,3.2399073E-1,-4.1677082E-1,8.657957E-1,-3.1713912E-1,-8.88314E-1,1.2127387E-1,-5.425586E-1,1.2369143E0,-3.0365402E-1,3.6477748E-1,1.0581945E0,-9.212485E-2,1.917831E0,8.755301E-1,1.2161896E0,4.920809E-1,9.253802E-1,-1.0125221E0,-6.2812746E-1,1.7335506E-1,2.4091437E-2,4.3826288E-1,-1.8051746E-1,5.73115E-1,1.0982645E0,1.1265486E-1,-7.9282664E-2,-9.01443E-2,3.8472123E-2,-9.2724524E-2,-6.337724E-2,-1.8982945E-2,8.69326E-2,2.273645E-2,2.4886833E-1,-8.1833385E-2,1.04586175E-2,4.9944784E-2,-8.133377E-2,-7.0533745E-2,4.4402115E-2,1.16310455E-1,-4.330691E-2,-6.971313E-2,6.0929433E-5,-1.0055218E-1,7.8823455E-2,-8.1686236E-2,1.6171815E-2,1.8130116E-1,8.9444034E-2,6.0105074E-2,-9.706695E-2,1.5348992E-1,1.8732114E-2,2.0935535E-1,7.644703E-2,7.866093E-2,-1.7834624E-2,2.0359348E-1,3.2786373E-2,9.072811E-2,1.2768342E-2,1.2459741E-1,-4.3718196E-3,2.085118E-3,6.245872E-2,2.2513382E-1,8.0242775E-2,-2.278253E-2,-1.0300169E-1,1.0416126E-2,-7.603251E-2,6.5362714E-2,-6.733995E-2,-8.981299E-2,-4.7710235E-3,4.1244697E-2,8.3938345E-2,5.2554794E-2,1.2883525E-1],"categories":[],"categories_nodes":[],"categories_segments":[],"categories_sizes":[],"default_left":[0,0,0,0,0,0,0,0,0,0,0,0,0,0,0,0,0,0,0,0,0,0,0,0,0,0,0,0,0,0,0,0,0,0,0,0,0,0,0,0,0,0,0,0,0,0,0,0,0,0,0,0,0,0,0,0,0,0,0,0,0,0,0,0,0,0,0,0,0,0,0,0,0,0,0,0,0,0,0,0,0,0,0,0,0,0,0,0,0,0,0,0,0,0,0,0,0,0,0,0,0,0,0,0,0,0,0,0,0,0,0,0,0,0,0,0,0,0,0],"id":7,"left_children":[1,3,5,7,9,11,13,15,17,19,21,23,25,27,29,31,33,35,37,39,41,43,45,47,49,51,53,55,57,59,61,63,65,67,69,71,-1,73,75,77,79,81,83,-1,85,87,89,91,93,95,97,99,101,103,105,107,109,-1,-1,111,113,115,117,-1,-1,-1,-1,-1,-1,-1,-1,-1,-1,-1,-1,-1,-1,-1,-1,-1,-1,-1,-1,-1,-1,-1,-1,-1,-1,-1,-1,-1,-1,-1,-1,-1,-1,-1,-1,-1,-1,-1,-1,-1,-1,-1,-1,-1,-1,-1,-1,-1,-1,-1,-1,-1,-1,-1,-1],"loss_changes":[8.2750775E2,9.6176575E1,1.8719635E2,4.13089E1,1.3783838E2,8.408154E1,1.8825775E2,3.210492E1,1.0075479E1,3.5761883E1,9.649361E0,1.09369064E2,9.226288E0,1.8446487E1,1.6593227E1,2.8441006E1,3.4213745E1,5.7008924E0,4.894747E0,1.4016871E1,1.570546E1,4.810997E0,8.820076E0,7.6283936E1,4.6674137E1,6.0820923E0,1.2751862E1,4.256363E0,1.0966105E0,5.932436E0,5.513012E0,2.920126E1,4.5055275E0,1.7514832E1,8.493566E0,7.4509754E0,0E0,1.9944842E0,4.3970046E0,3.6168854E0,9.9906025E0,1.0394412E1,2.359639E1,0E0,1.3363343E0,1.1762154E1,3.3342547E0,8.848442E1,7.574118E1,2.9894115E1,1.5677834E0,4.054962E0,3.557129E0,8.169014E0,2.3254227E1,1.9256134E0,4.382553E0,0E0,0E0,6.5372996E0,3.7340384E0,4.0645447E0,2.3147736E0,0E0,0E0,0E0,0E0,0E0,0E0,0E0,0E0,0E0,0E0,0E0,0E0,0E0,0E0,0E0,0E0,0E0,0E0,0E0,0E0,0E0,0E0,0E0,0E0,0E0,0E0,0E0,0E0,0E0,0E0,0E0,0E0,0E0,0E0,0E0,0E0,0E0,0E0,0E0,0E0,0E0,0E0,0E0,0E0,0E0,0E0,0E0,0E0,0E0,0E0,0E0,0E0,0E0,0E0,0E0,0E0],"parents":[2147483647,0,0,1,1,2,2,3,3,4,4,5,5,6,6,7,7,8,8,9,9,10,10,11,11,12,12,13,13,14,14,15,15,16,16,17,17,18,18,19,19,20,20,21,21,22,22,23,23,24,24,25,25,26,26,27,27,28,28,29,29,30,30,31,31,32,32,33,33,34,34,35,35,37,37,38,38,39,39,40,40,41,41,42,42,44,44,45,45,46,46,47,47,48,48,49,49,50,50,51,51,52,52,53,53,54,54,55,55,56,56,59,59,60,60,61,61,62,62],"right_children":[2,4,6,8,10,12,14,16,18,20,22,24,26,28,30,32,34,36,38,40,42,44,46,48,50,52,54,56,58,60,62,64,66,68,70,72,-1,74,76,78,80,82,84,-1,86,88,90,92,94,96,98,100,102,104,106,108,110,-1,-1,112,114,116,118,-1,-1,-1,-1,-1,-1,-1,-1,-1,-1,-1,-1,-1,-1,-1,-1,-1,-1,-1,-1,-1,-1,-1,-1,-1,-1,-1,-1,-1,-1,-1,-1,-1,-1,-1,-1,-1,-1,-1,-1,-1,-1,-1,-1,-1,-1,-1,-1,-1,-1,-1,-1,-1,-1,-1,-1],"split_conditions":[2.06E2,1.3E1,2E0,6.1E1,2E0,5.54E2,4.77E2,1E0,1E0,1.01E2,8.6E1,1E0,1.6E1,9E0,6.48E2,1E0,1E1,2.5E1,1.22E2,1.14E2,8E0,4E0,6.9E1,6E0,3.73E2,1.2E1,2.1E1,3.79E2,5E1,7E0,1.21E3,2.4E1,2.1E1,1.46E2,2.1E1,1.4E1,-3.2423336E-2,2E0,4E0,2.132E3,5.8E1,1.24E2,2.2E1,1.2127387E-1,1.71E2,9.9E1,2E0,1E0,8E0,5E0,4E0,1.584E3,3E0,1E0,1E0,6E0,3.1E1,1.7335506E-1,2.4091437E-2,2.926E3,5.04E2,1.9E1,1E0,1.1265486E-1,-7.9282664E-2,-9.01443E-2,3.8472123E-2,-9.2724524E-2,-6.337724E-2,-1.8982945E-2,8.69326E-2,2.273645E-2,2.4886833E-1,-8.1833385E-2,1.04586175E-2,4.9944784E-2,-8.133377E-2,-7.0533745E-2,4.4402115E-2,1.16310455E-1,-4.330691E-2,-6.971313E-2,6.0929433E-5,-1.0055218E-1,7.8823455E-2,-8.1686236E-2,1.6171815E-2,1.8130116E-1,8.9444034E-2,6.0105074E-2,-9.706695E-2,1.5348992E-1,1.8732114E-2,2.0935535E-1,7.644703E-2,7.866093E-2,-1.7834624E-2,2.0359348E-1,3.2786373E-2,9.072811E-2,1.2768342E-2,1.2459741E-1,-4.3718196E-3,2.085118E-3,6.245872E-2,2.2513382E-1,8.0242775E-2,-2.278253E-2,-1.0300169E-1,1.0416126E-2,-7.603251E-2,6.5362714E-2,-6.733995E-2,-8.981299E-2,-4.7710235E-3,4.1244697E-2,8.3938345E-2,5.2554794E-2,1.2883525E-1],"split_indices":[6,13,3,0,14,6,6,12,11,13,13,8,4,12,6,8,12,4,6,6,12,9,0,12,13,4,4,6,0,12,6,4,4,6,4,4,0,7,2,1,0,6,4,0,6,13,2,12,12,4,2,6,7,12,12,12,0,0,0,1,6,4,8,0,0,0,0,0,0,0,0,0,0,0,0,0,0,0,0,0,0,0,0,0,0,0,0,0,0,0,0,0,0,0,0,0,0,0,0,0,0,0,0,0,0,0,0,0,0,0,0,0,0,0,0,0,0,0,0],"split_type":[0,0,0,0,0,0,0,0,0,0,0,0,0,0,0,0,0,0,0,0,0,0,0,0,0,0,0,0,0,0,0,0,0,0,0,0,0,0,0,0,0,0,0,0,0,0,0,0,0,0,0,0,0,0,0,0,0,0,0,0,0,0,0,0,0,0,0,0,0,0,0,0,0,0,0,0,0,0,0,0,0,0,0,0,0,0,0,0,0,0,0,0,0,0,0,0,0,0,0,0,0,0,0,0,0,0,0,0,0,0,0,0,0,0,0,0,0,0,0],"sum_hessian":[3.4740786E3,1.4476937E3,2.0263849E3,1.1349777E3,3.1271613E2,1.6321968E3,3.941881E2,1.0994071E3,3.5570454E1,2.3599867E2,7.671744E1,1.0824503E3,5.497465E2,2.0250818E2,1.9167995E2,6.443803E1,1.0349691E3,7.25227E0,2.8318184E1,3.586718E1,2.001315E2,6.3236923E0,7.0393745E1,6.79838E2,4.0261224E2,2.6699112E2,2.827554E2,1.9981387E2,2.6943018E0,6.3096992E1,1.2858296E2,3.4775948E1,2.9662079E1,1.00519165E3,2.9777502E1,5.8236837E0,1.4285862E0,9.3195E0,1.8998684E1,1.2300148E1,2.3567032E1,8.508434E1,1.1504716E2,1.0901434E0,5.2335486E0,6.683525E1,3.5584953E0,4.265168E2,2.5332121E2,3.9170853E2,1.0903706E1,1.7465068E2,9.234043E1,1.300365E2,1.527189E2,1.5636084E2,4.345303E1,1.6350187E0,1.0592831E0,2.4467134E1,3.862986E1,1.0210102E2,2.6481937E1,2.4014822E1,1.0761125E1,2.7198215E1,2.4638636E0,7.039442E2,3.012474E2,1.8093166E1,1.1684336E1,2.5414093E0,3.2822745E0,6.1429214E0,3.1765783E0,1.694536E1,2.053324E0,9.347234E0,2.952914E0,1.926241E1,4.304623E0,3.8203358E1,4.688098E1,1.07903824E2,7.1433334E0,3.651494E0,1.5820545E0,2.3317503E1,4.3517746E1,1.552144E0,2.0063512E0,5.515872E1,3.7135812E2,5.4629192E1,1.9869202E2,3.42744E1,3.5743414E2,9.88868E0,1.0150254E0,1.6733311E2,7.317565E0,9.0218704E1,2.1217291E0,2.8794062E1,1.0124245E2,1.149055E1,1.4122835E2,3.7158484E0,1.5264499E2,6.677286E0,3.6775745E1,2.0841501E1,3.625633E0,5.132763E0,3.3497097E1,6.52673E1,3.6833717E1,7.5373635E0,1.8944574E1],"tree_param":{"num_deleted":"0","num_feature":"16","num_nodes":"119","size_leaf_vector":"1"}},{"base_weights":[-1.9324016E-2,-5.7003224E-1,3.4965E-1,-8.122285E-1,-3.0202216E-1,4.7862333E-1,-2.1048635E-1,-9.9673504E-1,-6.528885E-1,-1.085721E-1,-9.8114556E-1,3.0148855E-1,7.104895E-1,-8.757415E-1,4.2680848E-1,-9.994063E-1,-7.424804E-3,-7.007355E-1,2.0481034E-1,1.3840845E-1,-4.865696E-1,-1.04263715E-1,1.4971503E0,5.2667147E-1,-1.0095475E-1,6.169543E-1,9.142427E-1,-9.146538E-1,1.2437408E0,5.3690247E-2,6.0367316E-1,-1.0042665E0,-4.1554704E-1,4.3069813E-1,-7.308376E-1,-6.487639E-1,5.207563E-1,3.0961865E-1,-6.419233E-1,-5.700705E-1,1.0323275E0,2.022682E-1,3.7853513E-2,-1.5983056E-1,6.606299E-1,-1.5916595E-1,1.6886635E0,5.047728E-1,9.158018E-1,5.9200656E-1,9.715523E-1,-1.0006386E0,-5.9927243E-1,1.557806E-1,2.27137E-2,3.8148588E-1,-1.6742486E-1,5.021646E-1,9.6130204E-1,-2.1518074E-2,-1.0069839E-1,-7.714737E-2,3.672841E-2,1.0068774E-1,-5.9486933E-2,-1.0535272E-2,-7.839847E-2,-9.323229E-2,3.76434E-2,-7.142983E-2,9.33054E-2,-4.575904E-2,5.0225075E-2,1.0358863E-1,-7.152816E-2,-3.716122E-2,-8.107199E-2,1.2810689E-1,-3.155082E-2,-2.792022E-2,1.0526184E-1,1.8451588E-1,5.8749057E-2,-3.3409283E-2,3.2394487E-2,1.9191734E-1,8.0841474E-2,3.7285246E-2,7.512642E-2,5.4286893E-2,1.784728E-1,3.9626744E-2,1.4756446E-1,1.0252609E-1,6.2235262E-2,-2.1317521E-2,-1.0195627E-1,9.432822E-3,-7.337248E-2,-1.3105877E-2,7.9375386E-2,-8.8120714E-2,-4.3232525E-3,4.519793E-2,1.3257618E-1,1.4595477E-1,7.556739E-2],"categories":[],"categories_nodes":[],"categories_segments":[],"categories_sizes":[],"default_left":[0,0,0,0,0,0,0,0,0,0,0,0,0,0,0,0,0,0,0,0,0,0,0,0,0,0,0,0,0,0,0,0,0,0,0,0,0,0,0,0,0,0,0,0,0,0,0,0,0,0,0,0,0,0,0,0,0,0,0,0,0,0,0,0,0,0,0,0,0,0,0,0,0,0,0,0,0,0,0,0,0,0,0,0,0,0,0,0,0,0,0,0,0,0,0,0,0,0,0,0,0,0,0,0,0,0,0],"id":8,"left_children":[1,3,5,7,9,11,13,15,17,19,21,23,25,27,29,31,-1,33,35,37,39,-1,41,43,45,47,49,51,53,55,57,59,61,63,65,67,69,71,73,75,77,-1,-1,79,81,83,85,87,89,91,93,95,97,-1,-1,99,101,103,105,-1,-1,-1,-1,-1,-1,-1,-1,-1,-1,-1,-1,-1,-1,-1,-1,-1,-1,-1,-1,-1,-1,-1,-1,-1,-1,-1,-1,-1,-1,-1,-1,-1,-1,-1,-1,-1,-1,-1,-1,-1,-1,-1,-1,-1,-1,-1,-1],"loss_changes":[6.946697E2,8.8784E1,1.4799297E2,2.0513367E1,8.56396E1,6.8142E1,1.6310782E2,7.431946E-1,1.6115067E1,4.7596004E1,2.3593216E1,8.5715294E1,1.3159027E1,1.6653244E1,1.2948887E1,5.209961E-1,0E0,1.2877182E1,6.0922275E0,4.144017E1,2.6133102E1,0E0,1.5334034E0,5.5860046E1,3.568671E1,1.6185944E1,3.5702972E0,4.425644E0,8.643441E-1,4.7284765E0,4.358383E0,4.8495483E-1,1.5192599E0,6.6192627E0,1.1873505E1,2.1561174E0,8.878984E0,3.774217E1,7.617256E0,8.847321E0,4.0421886E0,0E0,0E0,1.4737081E1,4.2881805E1,2.801193E1,6.391716E-1,1.1532852E1,4.2552803E1,5.720561E0,2.907074E0,1.9303284E0,4.003937E0,0E0,0E0,5.646472E0,3.4303803E0,3.7806225E0,1.805624E0,0E0,0E0,0E0,0E0,0E0,0E0,0E0,0E0,0E0,0E0,0E0,0E0,0E0,0E0,0E0,0E0,0E0,0E0,0E0,0E0,0E0,0E0,0E0,0E0,0E0,0E0,0E0,0E0,0E0,0E0,0E0,0E0,0E0,0E0,0E0,0E0,0E0,0E0,0E0,0E0,0E0,0E0,0E0,0E0,0E0,0E0,0E0,0E0],"parents":[2147483647,0,0,1,1,2,2,3,3,4,4,5,5,6,6,7,7,8,8,9,9,10,10,11,11,12,12,13,13,14,14,15,15,17,17,18,18,19,19,20,20,22,22,23,23,24,24,25,25,26,26,27,27,28,28,29,29,30,30,31,31,32,32,33,33,34,34,35,35,36,36,37,37,38,38,39,39,40,40,43,43,44,44,45,45,46,46,47,47,48,48,49,49,50,50,51,51,52,52,55,55,56,56,57,57,58,58],"right_children":[2,4,6,8,10,12,14,16,18,20,22,24,26,28,30,32,-1,34,36,38,40,-1,42,44,46,48,50,52,54,56,58,60,62,64,66,68,70,72,74,76,78,-1,-1,80,82,84,86,88,90,92,94,96,98,-1,-1,100,102,104,106,-1,-1,-1,-1,-1,-1,-1,-1,-1,-1,-1,-1,-1,-1,-1,-1,-1,-1,-1,-1,-1,-1,-1,-1,-1,-1,-1,-1,-1,-1,-1,-1,-1,-1,-1,-1,-1,-1,-1,-1,-1,-1,-1,-1,-1,-1,-1,-1],"split_conditions":[2.06E2,1.25E2,2E0,7.8E1,2E0,4.7E2,4.77E2,7.1E1,1E1,1E0,9E0,1E0,8.67E2,9E0,6.48E2,3.73E2,-7.424804E-3,2.5E1,2.04E2,4E0,1E1,-1.04263715E-1,1.59E2,6.7E1,3.79E2,8E0,2E0,3.79E2,5E1,7E0,1.21E3,2E0,4.9E1,1E0,1E0,1.42E2,3.4E1,1.05E2,2.6E1,8E0,1.85E2,2.022682E-1,3.7853513E-2,1E1,2.6E1,2E0,2.5E1,6E0,2E0,3.002E3,5.6E1,6E0,3.1E1,1.557806E-1,2.27137E-2,1E0,5.04E2,3E1,3.1E1,-2.1518074E-2,-1.0069839E-1,-7.714737E-2,3.672841E-2,1.0068774E-1,-5.9486933E-2,-1.0535272E-2,-7.839847E-2,-9.323229E-2,3.76434E-2,-7.142983E-2,9.33054E-2,-4.575904E-2,5.0225075E-2,1.0358863E-1,-7.152816E-2,-3.716122E-2,-8.107199E-2,1.2810689E-1,-3.155082E-2,-2.792022E-2,1.0526184E-1,1.8451588E-1,5.8749057E-2,-3.3409283E-2,3.2394487E-2,1.9191734E-1,8.0841474E-2,3.7285246E-2,7.512642E-2,5.4286893E-2,1.784728E-1,3.9626744E-2,1.4756446E-1,1.0252609E-1,6.2235262E-2,-2.1317521E-2,-1.0195627E-1,9.432822E-3,-7.337248E-2,-1.3105877E-2,7.9375386E-2,-8.8120714E-2,-4.3232525E-3,4.519793E-2,1.3257618E-1,1.4595477E-1,7.556739E-2],"split_indices":[6,6,3,6,3,6,6,0,12,8,12,8,6,12,6,13,0,0,1,2,12,0,6,1,13,13,14,6,0,12,6,4,6,8,12,13,0,1,0,12,13,0,0,12,0,15,4,12,14,1,0,12,0,0,0,8,6,4,0,0,0,0,0,0,0,0,0,0,0,0,0,0,0,0,0,0,0,0,0,0,0,0,0,0,0,0,0,0,0,0,0,0,0,0,0,0,0,0,0,0,0,0,0,0,0,0,0],"split_type":[0,0,0,0,0,0,0,0,0,0,0,0,0,0,0,0,0,0,0,0,0,0,0,0,0,0,0,0,0,0,0,0,0,0,0,0,0,0,0,0,0,0,0,0,0,0,0,0,0,0,0,0,0,0,0,0,0,0,0,0,0,0,0,0,0,0,0,0,0,0,0,0,0,0,0,0,0,0,0,0,0,0,0,0,0,0,0,0,0,0,0,0,0,0,0,0,0,0,0,0,0,0,0,0,0,0,0],"sum_hessian":[3.4167192E3,1.3705598E3,2.0461594E3,7.1888495E2,6.5167487E2,1.6633198E3,3.8283966E2,3.3069913E2,3.881858E2,5.081009E2,1.4357397E2,9.4425433E2,7.190654E2,1.8712778E2,1.9571187E2,3.2966113E2,1.0379995E0,3.6784824E2,2.0337543E1,3.0769153E2,2.0040935E2,1.4066313E2,2.910844E0,6.0527203E2,3.389823E2,4.9558813E2,2.2347726E2,1.8431238E2,2.8153992E0,6.335665E1,1.3235522E2,3.2622546E2,3.4356604E0,9.188176E0,3.5866006E2,5.209612E0,1.5127931E1,2.5282352E2,5.4868008E1,1.9055815E2,9.851193E0,1.4305582E0,1.4802859E0,9.879262E1,5.0647943E2,3.2918588E2,9.796419E0,3.6228314E2,1.3330501E2,3.5454784E1,1.8802248E2,1.4311977E2,4.119261E1,1.7441928E0,1.0712065E0,2.5229498E1,3.8127155E1,1.0496605E2,2.7389168E1,1.3947608E0,3.2483072E2,2.3717945E0,1.0638659E0,5.8946795E0,3.2934961E0,2.832208E1,3.3033798E2,4.151847E0,1.057765E0,3.6028788E0,1.1525052E1,5.046352E1,2.0236E2,1.7488313E0,5.311918E1,1.0582816E2,8.472999E1,8.358229E0,1.4929644E0,9.063853E1,8.154095E0,2.8045204E1,4.7843423E2,2.419045E2,8.728139E1,6.828091E0,2.9683287E0,2.3762215E2,1.2466098E2,9.441008E1,3.889493E1,3.0211035E1,5.2437506E0,1.612807E2,2.6741776E1,3.646528E0,1.3947324E2,6.736971E0,3.445564E1,1.1551014E1,1.3678484E1,4.7472625E0,3.3379894E1,1.003972E2,4.568847E0,6.219956E0,2.1169212E1],"tree_param":{"num_deleted":"0","num_feature":"16","num_nodes":"107","size_leaf_vector":"1"}},{"base_weights":[-1.8958924E-2,-5.426849E-1,3.1226003E-1,-6.819767E-1,-6.975494E-2,4.243654E-1,-1.962638E-1,-9.125391E-1,-5.192793E-1,-4.3123642E-1,9.176161E-1,3.6771896E-1,1.0270767E0,-8.5613996E-1,3.7900633E-1,-1.003872E0,-7.617084E-1,-3.416296E-1,-9.594148E-1,3.863175E-1,-5.963483E-1,-8.9563295E-2,1.0026037E0,2.2610867E-1,6.908148E-1,1.062207E0,-1.5158153E-2,-8.966942E-1,1.1340522E0,1.8424253E-1,6.4922106E-1,-1.00729264E-1,-1.797339E-2,-7.972914E-1,1.9326355E-1,5.1373493E-2,-5.892825E-1,-1.0160671E0,1.7361566E-1,-7.578219E-1,6.05476E-1,-2.688521E-1,-8.515224E-1,9.111412E-2,-6.187392E-1,1.0715768E0,-2.9826656E-1,1.2512124E-2,5.532147E-1,6.645091E-1,1.4828109E0,1.1344025E0,4.3546963E-1,-5.4221475E-1,6.441719E-2,-9.8900014E-1,-5.707045E-1,1.4097671E-1,2.1416886E-2,2.2035582E-1,-7.068986E-1,5.911183E-1,1.5183454E0,4.1931782E-2,-8.2323566E-2,7.4103214E-2,-5.3900238E-2,3.6201578E-2,-4.5678284E-2,9.280761E-2,-6.390358E-2,-9.015149E-3,-1.03927076E-1,-1.408795E-2,-8.737852E-2,9.4224356E-2,3.9005317E-3,-6.3937776E-2,9.054268E-4,-9.805882E-2,6.806847E-2,-9.620464E-2,1.6303701E-2,1.5461679E-1,7.830593E-2,5.4505643E-2,-9.368201E-2,3.3507895E-2,-2.4120744E-2,3.6372226E-2,9.8572984E-2,7.2069116E-2,2.7449682E-2,3.0786252E-2,1.6356449E-1,1.00874595E-1,1.537511E-1,-6.1215676E-2,1.0192626E-1,-8.3498344E-2,-5.431931E-3,-1.9933617E-2,-1.00947954E-1,7.36219E-2,-6.3166566E-2,4.6458658E-2,7.6044165E-3,-8.484241E-2,-1.1430331E-2,3.9124724E-2,8.5210495E-2,1.780416E-1,4.2490643E-2],"categories":[],"categories_nodes":[],"categories_segments":[],"categories_sizes":[],"default_left":[0,0,0,0,0,0,0,0,0,0,0,0,0,0,0,0,0,0,0,0,0,0,0,0,0,0,0,0,0,0,0,0,0,0,0,0,0,0,0,0,0,0,0,0,0,0,0,0,0,0,0,0,0,0,0,0,0,0,0,0,0,0,0,0,0,0,0,0,0,0,0,0,0,0,0,0,0,0,0,0,0,0,0,0,0,0,0,0,0,0,0,0,0,0,0,0,0,0,0,0,0,0,0,0,0,0,0,0,0,0,0,0,0],"id":9,"left_children":[1,3,5,7,9,11,13,15,17,19,21,23,25,27,29,31,33,35,37,39,41,43,45,47,49,51,53,55,57,59,61,-1,-1,63,65,67,69,71,-1,73,75,77,79,-1,81,83,85,87,89,91,93,95,97,99,-1,101,103,-1,-1,105,107,109,111,-1,-1,-1,-1,-1,-1,-1,-1,-1,-1,-1,-1,-1,-1,-1,-1,-1,-1,-1,-1,-1,-1,-1,-1,-1,-1,-1,-1,-1,-1,-1,-1,-1,-1,-1,-1,-1,-1,-1,-1,-1,-1,-1,-1,-1,-1,-1,-1,-1,-1],"loss_changes":[5.8366156E2,8.58215E1,1.1758739E2,3.7293976E1,1.0664494E2,5.7293396E1,1.4191713E2,4.9552917E0,4.6008057E1,2.9737286E1,6.945938E0,7.056152E1,5.3090973E0,1.5063057E1,1.0404261E1,5.3915405E-1,5.616371E0,4.1273148E1,2.7702911E1,9.820569E0,1.500177E1,4.3504605E0,6.9544754E0,7.5179276E1,8.817261E0,5.8344574E0,2.3299735E0,4.5845184E0,6.915169E-1,3.940503E0,3.3122025E0,0E0,0E0,5.2428894E0,3.0384426E0,2.6168034E1,2.0223274E1,3.4940338E0,0E0,3.3806443E-1,6.0467205E0,8.375063E0,2.0833885E1,0E0,1.5720539E0,8.434578E0,2.9368896E0,5.344392E1,3.4480057E1,9.820129E0,2.0667095E0,4.7702026E0,1.0452314E1,4.8466754E-1,0E0,1.9332886E0,3.6618128E0,0E0,0E0,3.9750957E0,3.070867E-1,3.8280773E0,5.5772495E-1,0E0,0E0,0E0,0E0,0E0,0E0,0E0,0E0,0E0,0E0,0E0,0E0,0E0,0E0,0E0,0E0,0E0,0E0,0E0,0E0,0E0,0E0,0E0,0E0,0E0,0E0,0E0,0E0,0E0,0E0,0E0,0E0,0E0,0E0,0E0,0E0,0E0,0E0,0E0,0E0,0E0,0E0,0E0,0E0,0E0,0E0,0E0,0E0,0E0,0E0],"parents":[2147483647,0,0,1,1,2,2,3,3,4,4,5,5,6,6,7,7,8,8,9,9,10,10,11,11,12,12,13,13,14,14,15,15,16,16,17,17,18,18,19,19,20,20,21,21,22,22,23,23,24,24,25,25,26,26,27,27,28,28,29,29,30,30,33,33,34,34,35,35,36,36,37,37,39,39,40,40,41,41,42,42,44,44,45,45,46,46,47,47,48,48,49,49,50,50,51,51,52,52,53,53,55,55,56,56,59,59,60,60,61,61,62,62],"right_children":[2,4,6,8,10,12,14,16,18,20,22,24,26,28,30,32,34,36,38,40,42,44,46,48,50,52,54,56,58,60,62,-1,-1,64,66,68,70,72,-1,74,76,78,80,-1,82,84,86,88,90,92,94,96,98,100,-1,102,104,-1,-1,106,108,110,112,-1,-1,-1,-1,-1,-1,-1,-1,-1,-1,-1,-1,-1,-1,-1,-1,-1,-1,-1,-1,-1,-1,-1,-1,-1,-1,-1,-1,-1,-1,-1,-1,-1,-1,-1,-1,-1,-1,-1,-1,-1,-1,-1,-1,-1,-1,-1,-1,-1,-1],"split_conditions":[2.06E2,1.3E1,2E0,1.04E2,2E0,6E1,4.77E2,7.8E1,2E0,1.01E2,8.6E1,6.06E2,1E1,9E0,8.34E2,7E1,1E1,2E0,9E0,9.1E1,8E0,6.8E1,6.9E1,2E0,1E1,6.029E3,5.33E2,3.79E2,5E1,6.029E3,3E1,-1.00729264E-1,-1.797339E-2,2.5E1,5E0,1E0,2.6E1,6E0,1.7361566E-1,3E1,1.6E1,1.24E2,2.2E1,9.111412E-2,1.71E2,9.9E1,2E0,2E0,1.74E3,9E0,9.3E1,2.524E3,8.142E3,2.99E2,6.441719E-2,6E0,-3.93E2,1.4097671E-1,2.1416886E-2,7E0,4.5E1,8.16E2,2.707E3,4.1931782E-2,-8.2323566E-2,7.4103214E-2,-5.3900238E-2,3.6201578E-2,-4.5678284E-2,9.280761E-2,-6.390358E-2,-9.015149E-3,-1.03927076E-1,-1.408795E-2,-8.737852E-2,9.4224356E-2,3.9005317E-3,-6.3937776E-2,9.054268E-4,-9.805882E-2,6.806847E-2,-9.620464E-2,1.6303701E-2,1.5461679E-1,7.830593E-2,5.4505643E-2,-9.368201E-2,3.3507895E-2,-2.4120744E-2,3.6372226E-2,9.8572984E-2,7.2069116E-2,2.7449682E-2,3.0786252E-2,1.6356449E-1,1.00874595E-1,1.537511E-1,-6.1215676E-2,1.0192626E-1,-8.3498344E-2,-5.431931E-3,-1.9933617E-2,-1.00947954E-1,7.36219E-2,-6.3166566E-2,4.6458658E-2,7.6044165E-3,-8.484241E-2,-1.1430331E-2,3.9124724E-2,8.5210495E-2,1.780416E-1,4.2490643E-2],"split_indices":[6,13,3,6,14,0,6,6,3,13,13,6,9,12,6,0,12,2,12,6,12,13,0,7,12,1,1,6,0,1,4,0,0,0,9,8,0,12,0,0,4,6,4,0,6,13,2,2,1,12,1,1,1,6,0,12,1,0,0,12,0,1,1,0,0,0,0,0,0,0,0,0,0,0,0,0,0,0,0,0,0,0,0,0,0,0,0,0,0,0,0,0,0,0,0,0,0,0,0,0,0,0,0,0,0,0,0,0,0,0,0,0,0],"split_type":[0,0,0,0,0,0,0,0,0,0,0,0,0,0,0,0,0,0,0,0,0,0,0,0,0,0,0,0,0,0,0,0,0,0,0,0,0,0,0,0,0,0,0,0,0,0,0,0,0,0,0,0,0,0,0,0,0,0,0,0,0,0,0,0,0,0,0,0,0,0,0,0,0,0,0,0,0,0,0,0,0,0,0,0,0,0,0,0,0,0,0,0,0,0,0,0,0,0,0,0,0,0,0,0,0,0,0,0,0,0,0,0,0],"sum_hessian":[3.3626877E3,1.3025101E3,2.0601775E3,1.0058235E3,2.9668665E2,1.6881796E3,3.71998E2,4.1421725E2,5.916062E2,2.1758934E2,7.90973E1,1.5446172E3,1.4356235E2,1.7303088E2,1.9896709E2,2.5447113E2,1.5974612E2,4.2274994E2,1.688563E2,3.6335217E1,1.8125412E2,6.1508093E0,7.294649E1,1.0751064E3,4.695107E2,1.3886258E2,4.6997685E0,1.701139E2,2.9169743E0,1.16603874E2,8.236322E1,2.5319798E2,1.2731513E0,1.5416685E2,5.579267E0,1.6372519E2,2.5902475E2,1.6599075E2,2.8655403E0,5.445991E0,3.0889225E1,8.027763E1,1.00976494E2,1.877856E0,4.2729535E0,6.944093E1,3.5055501E0,6.510297E2,4.2407678E2,4.5619742E2,1.3313275E1,1.2379257E2,1.5070006E1,2.7105951E0,1.9891734E0,1.3098958E2,3.912434E1,1.8345561E0,1.0824182E0,1.1278597E2,3.8179007E0,7.877695E1,3.5862756E0,2.902387E0,1.5126447E2,3.1848679E0,2.394399E0,1.01788315E2,6.193688E1,7.663142E0,2.5136159E2,4.1774917E0,1.6181326E2,1.2121308E0,4.23386E0,1.8956314E1,1.193291E1,3.3848106E1,4.6429527E1,9.3463585E1,7.5129094E0,2.8088791E0,1.4640743E0,2.4606298E1,4.4834637E1,1.573666E0,1.9318842E0,2.8648535E2,3.6454434E2,2.9616336E2,1.2791342E2,3.9801477E2,5.818266E1,1.8793879E0,1.14338875E1,9.70444E1,2.6748169E1,5.3753195E0,9.694687E0,1.2494478E0,1.4611472E0,3.5825756E0,1.27407E2,1.2499646E0,3.7874374E1,4.1066444E1,7.171953E1,2.7333937E0,1.084507E0,4.602715E1,3.2749794E1,2.3861108E0,1.2001648E0],"tree_param":{"num_deleted":"0","num_feature":"16","num_nodes":"113","size_leaf_vector":"1"}},{"base_weights":[-1.8612463E-2,-5.1661175E-1,2.7889153E-1,-9.079912E-1,-3.498924E-1,4.5563232E-2,4.761868E-1,-1.017675E0,-7.8324795E-1,-1.9981728E-1,-9.289218E-1,2.0141107E-1,-9.016379E-1,3.9894652E-1,7.691875E-1,-1.0224848E-1,-6.3530966E-3,-2.858156E-1,-8.333604E-1,8.5487485E-2,-4.1712442E-1,-9.9053806E-1,1.4676684E0,4.0831235E-1,-1.8028866E-1,-9.539706E-1,1.1083069E0,2.5267854E-1,6.721307E-1,4.970817E-1,1.4224956E0,6.764424E-1,-5.2895284E-1,-8.5833603E-1,2.778951E-2,3.4727696E-1,-3.0681023E-1,2.7642885E-2,-5.928676E-1,1.3429466E-1,-1.0124316E0,1.9587776E-1,2.6793078E-2,5.030406E-1,-5.042296E-1,-2.3690292E-1,1.3796971E0,-4.6270356E-2,-9.810755E-1,3.392868E-2,1.4198819E-1,2.1350408E-1,9.157281E-1,1.0006176E0,6.200849E-1,1.2666916E0,3.711161E-1,-1.4285526E-2,1.46545E0,-1.7710207E-2,1.16775714E-1,-7.1168534E-2,6.510667E-3,-8.734744E-2,3.1401034E-2,9.4092615E-2,-5.4643255E-2,-3.791376E-2,5.0593317E-2,-4.032309E-2,7.971561E-2,-2.9211719E-2,8.13135E-2,1.1438135E-1,-6.316074E-2,-1.3101234E-2,-1.0178675E-1,1.1270746E-1,3.8757358E-2,2.075861E-1,-6.2440623E-2,-2.9673878E-2,1.0643053E-1,1.607962E-1,4.985785E-2,8.970981E-2,-7.58022E-2,-4.682788E-2,-1.0021978E-1,7.390046E-3,4.918115E-2,1.3738273E-1,4.2222403E-2,2.5435865E-2,1.2204676E-1,5.0530065E-2,8.226693E-2,1.6633344E-1,1.6487785E-2,3.0131776E-2,1.0976012E-1,1.512168E-1,3.923777E-2],"categories":[],"categories_nodes":[],"categories_segments":[],"categories_sizes":[],"default_left":[0,0,0,0,0,0,0,0,0,0,0,0,0,0,0,0,0,0,0,0,0,0,0,0,0,0,0,0,0,0,0,0,0,0,0,0,0,0,0,0,0,0,0,0,0,0,0,0,0,0,0,0,0,0,0,0,0,0,0,0,0,0,0,0,0,0,0,0,0,0,0,0,0,0,0,0,0,0,0,0,0,0,0,0,0,0,0,0,0,0,0,0,0,0,0,0,0,0,0,0,0,0,0],"id":10,"left_children":[1,3,5,7,9,11,13,15,17,19,21,23,25,27,29,-1,-1,31,33,35,37,39,41,43,45,47,49,51,53,55,57,59,61,63,65,67,69,71,73,-1,75,-1,-1,77,79,81,83,85,87,-1,-1,89,91,93,95,97,99,-1,101,-1,-1,-1,-1,-1,-1,-1,-1,-1,-1,-1,-1,-1,-1,-1,-1,-1,-1,-1,-1,-1,-1,-1,-1,-1,-1,-1,-1,-1,-1,-1,-1,-1,-1,-1,-1,-1,-1,-1,-1,-1,-1,-1,-1],"loss_changes":[4.9090042E2,8.053644E1,9.546683E1,4.2590027E0,7.546747E1,1.4063559E2,2.51268E1,8.220978E-1,4.179962E0,4.2980473E1,2.7875473E1,6.466251E1,1.5216652E1,3.545053E1,4.0779755E1,0E0,0E0,4.509055E0,3.4757843E0,3.0948278E1,3.0763428E1,1.0302032E1,2.3550882E0,4.6126602E1,2.5778048E1,3.1956863E0,4.475789E-1,1.4926598E1,4.6837616E0,1.5650921E1,4.787216E0,1.8917081E0,1.6448536E0,3.0429535E0,3.3939877E0,2.1004215E1,1.3172154E1,2.846006E1,1.9694778E1,0E0,7.0022583E-1,0E0,0E0,3.42408E1,1.6925398E1,2.2033777E1,1.2576046E0,3.9493976E0,9.1565704E-1,0E0,0E0,2.1372053E1,6.693651E0,6.3841095E0,5.873207E0,9.766453E0,6.9871902E0,0E0,2.7331238E0,0E0,0E0,0E0,0E0,0E0,0E0,0E0,0E0,0E0,0E0,0E0,0E0,0E0,0E0,0E0,0E0,0E0,0E0,0E0,0E0,0E0,0E0,0E0,0E0,0E0,0E0,0E0,0E0,0E0,0E0,0E0,0E0,0E0,0E0,0E0,0E0,0E0,0E0,0E0,0E0,0E0,0E0,0E0,0E0],"parents":[2147483647,0,0,1,1,2,2,3,3,4,4,5,5,6,6,7,7,8,8,9,9,10,10,11,11,12,12,13,13,14,14,17,17,18,18,19,19,20,20,21,21,22,22,23,23,24,24,25,25,26,26,27,27,28,28,29,29,30,30,31,31,32,32,33,33,34,34,35,35,36,36,37,37,38,38,40,40,43,43,44,44,45,45,46,46,47,47,48,48,51,51,52,52,53,53,54,54,55,55,56,56,58,58],"right_children":[2,4,6,8,10,12,14,16,18,20,22,24,26,28,30,-1,-1,32,34,36,38,40,42,44,46,48,50,52,54,56,58,60,62,64,66,68,70,72,74,-1,76,-1,-1,78,80,82,84,86,88,-1,-1,90,92,94,96,98,100,-1,102,-1,-1,-1,-1,-1,-1,-1,-1,-1,-1,-1,-1,-1,-1,-1,-1,-1,-1,-1,-1,-1,-1,-1,-1,-1,-1,-1,-1,-1,-1,-1,-1,-1,-1,-1,-1,-1,-1,-1,-1,-1,-1,-1,-1],"split_conditions":[2.06E2,9.1E1,4.04E2,6.3E1,2E0,2E0,1.3E1,6.3E1,3E1,2E0,9E0,1E0,9E0,8E2,2E0,-1.0224848E-1,-6.3530966E-3,6E0,5E0,1E0,3E0,5E0,1.59E2,1E0,3.79E2,6E0,3.355E3,6E1,1E0,1.11E2,2E0,7.9E1,7.4E1,1.1E1,1E0,1.05E2,1E1,2E0,2.5E1,1.3429466E-1,2.3E1,1.9587776E-1,2.6793078E-2,3E1,1E0,1E1,2.5E1,1E0,2.7E1,3.392868E-2,1.4198819E-1,2E0,5E0,9E0,2E0,5.5E1,3.7E2,-1.4285526E-2,3E0,-1.7710207E-2,1.16775714E-1,-7.1168534E-2,6.510667E-3,-8.734744E-2,3.1401034E-2,9.4092615E-2,-5.4643255E-2,-3.791376E-2,5.0593317E-2,-4.032309E-2,7.971561E-2,-2.9211719E-2,8.13135E-2,1.1438135E-1,-6.316074E-2,-1.3101234E-2,-1.0178675E-1,1.1270746E-1,3.8757358E-2,2.075861E-1,-6.2440623E-2,-2.9673878E-2,1.0643053E-1,1.607962E-1,4.985785E-2,8.970981E-2,-7.58022E-2,-4.682788E-2,-1.0021978E-1,7.390046E-3,4.918115E-2,1.3738273E-1,4.2222403E-2,2.5435865E-2,1.2204676E-1,5.0530065E-2,8.226693E-2,1.6633344E-1,1.6487785E-2,3.0131776E-2,1.0976012E-1,1.512168E-1,3.923777E-2],"split_indices":[6,6,6,6,3,3,13,0,0,2,12,8,12,6,14,0,0,4,15,8,14,12,6,10,13,12,1,0,11,13,4,6,13,12,8,1,12,14,0,0,0,0,0,0,12,12,4,10,0,0,0,11,12,1,11,0,13,0,7,0,0,0,0,0,0,0,0,0,0,0,0,0,0,0,0,0,0,0,0,0,0,0,0,0,0,0,0,0,0,0,0,0,0,0,0,0,0,0,0,0,0,0,0],"split_type":[0,0,0,0,0,0,0,0,0,0,0,0,0,0,0,0,0,0,0,0,0,0,0,0,0,0,0,0,0,0,0,0,0,0,0,0,0,0,0,0,0,0,0,0,0,0,0,0,0,0,0,0,0,0,0,0,0,0,0,0,0,0,0,0,0,0,0,0,0,0,0,0,0,0,0,0,0,0,0,0,0,0,0,0,0,0,0,0,0,0,0,0,0,0,0,0,0,0,0,0,0,0,0],"sum_hessian":[3.3114126E3,1.2381335E3,2.073279E3,3.685361E2,8.695974E2,9.5046124E2,1.1228177E3,1.9229622E2,1.7623988E2,6.916722E2,1.7792526E2,8.168484E2,1.3361287E2,8.9044257E2,2.3237514E2,1.9126048E2,1.0357308E0,1.6743355E1,1.5949654E2,2.993107E2,3.9236148E2,1.7403745E2,3.8878057E0,5.296698E2,2.8717856E2,1.3073433E2,2.8785377E0,5.8118823E2,3.092543E2,1.6529138E2,6.708375E1,3.0177891E0,1.3725567E1,1.5500426E2,4.4922714E0,1.7958452E2,1.1972619E2,1.1136469E2,2.8099677E2,1.0568376E0,1.729806E2,2.3096752E0,1.5781307E0,4.8026382E2,4.9406002E1,2.7793985E2,9.238723E0,3.8691735E0,1.2686515E2,1.4323052E0,1.4462324E0,5.5001416E2,3.117407E1,3.980423E1,2.6945007E2,2.1975039E1,1.4331635E2,1.7295481E0,6.5354195E1,1.3361228E0,1.6816664E0,1.0345341E1,3.3802261E0,1.532799E2,1.7243553E0,1.4877766E0,3.004495E0,3.1942886E1,1.4764163E2,1.10692986E2,9.033204E0,7.959221E1,3.1772484E1,5.50893E0,2.7548785E2,1.2141166E0,1.717665E2,7.362131E1,4.0664252E2,1.4745809E0,4.7931423E1,2.6645874E2,1.1481113E1,6.682601E0,2.556122E0,1.5518777E0,2.3172956E0,5.935492E0,1.2092966E2,3.6712415E2,1.8289003E2,1.5241862E1,1.5932207E1,9.548788E0,3.0255442E1,1.7422723E2,9.522286E1,1.5783493E1,6.191546E0,1.3204468E2,1.1271667E1,6.2235477E1,3.1187198E0],"tree_param":{"num_deleted":"0","num_feature":"16","num_nodes":"103","size_leaf_vector":"1"}},{"base_weights":[-1.7810993E-2,-5.661801E-1,2.1592133E-1,-9.0335685E-1,-3.9659283E-1,3.1253996E-1,-2.5122654E-1,-1.0090364E0,-7.729732E-1,-2.6969305E-1,-8.9968896E-1,1.6606301E-1,5.1594204E-1,-8.4590864E-1,2.9236883E-1,-1.0142633E0,-6.047019E-3,-5.282963E-1,-8.7600607E-1,-1.2063874E-1,-6.4128125E-1,-9.705302E-1,1.6325712E0,-7.7017415E-3,4.8366094E-1,4.6201622E-1,9.775642E-1,-8.933446E-1,9.696417E-1,7.0009534E-3,4.2495632E-1,-1.019054E-1,-4.1831538E-1,-8.014647E-1,6.4000887E-1,-9.194293E-1,-1.11724064E-1,9.825348E-2,-4.6032497E-1,-4.10904E-1,-8.251474E-1,1.2739319E-1,-1.000148E0,2.0798424E-1,1.6252525E-2,3.935932E-1,-2.0483497E-1,3.9274013E-1,7.2893906E-1,5.6166345E-1,-2.5648763E-2,5.727159E-1,1.14584E0,-9.793715E-1,-5.3568E-1,-2.3242494E-2,1.3802503E-1,2.6794016E-1,-1.7776532E-1,8.841985E-1,3.555511E-1,-5.5283654E-2,-8.368729E-3,-1.8074933E-2,-8.603179E-2,-6.0373165E-2,2.7610323E-1,-8.482291E-3,-9.461826E-2,7.1084544E-2,-4.0523395E-2,-6.391858E-3,7.397973E-2,-5.0139625E-2,1.4374541E-1,-6.011344E-2,-8.729693E-4,-2.0302285E-3,-9.091973E-2,-3.0949092E-2,-1.00732625E-1,-8.067179E-3,1.2549461E-1,6.268958E-2,-2.9562065E-2,2.421611E-2,6.384089E-2,-7.966114E-3,8.221587E-2,2.5415558E-2,6.691136E-2,1.4777605E-1,-2.698704E-2,1.465985E-1,3.1147806E-2,9.3422525E-2,1.5564255E-1,-3.1938143E-2,-9.9727884E-2,1.4609014E-2,-6.800703E-2,4.3063845E-2,-6.6293456E-2,-8.691608E-2,-6.399769E-3,6.9688037E-3,1.1842441E-1,7.513496E-2,2.4752133E-2],"categories":[],"categories_nodes":[],"categories_segments":[],"categories_sizes":[],"default_left":[0,0,0,0,0,0,0,0,0,0,0,0,0,0,0,0,0,0,0,0,0,0,0,0,0,0,0,0,0,0,0,0,0,0,0,0,0,0,0,0,0,0,0,0,0,0,0,0,0,0,0,0,0,0,0,0,0,0,0,0,0,0,0,0,0,0,0,0,0,0,0,0,0,0,0,0,0,0,0,0,0,0,0,0,0,0,0,0,0,0,0,0,0,0,0,0,0,0,0,0,0,0,0,0,0,0,0,0,0],"id":11,"left_children":[1,3,5,7,9,11,13,15,17,19,21,23,25,27,29,31,-1,33,35,37,39,41,43,45,47,49,51,53,55,57,59,-1,61,63,65,67,69,71,73,75,77,-1,79,-1,-1,81,83,85,87,89,91,93,95,97,99,-1,-1,101,103,105,107,-1,-1,-1,-1,-1,-1,-1,-1,-1,-1,-1,-1,-1,-1,-1,-1,-1,-1,-1,-1,-1,-1,-1,-1,-1,-1,-1,-1,-1,-1,-1,-1,-1,-1,-1,-1,-1,-1,-1,-1,-1,-1,-1,-1,-1,-1,-1,-1],"loss_changes":[4.179832E2,5.5369263E1,1.03284004E2,3.703125E0,4.1269455E1,5.637802E1,1.2710702E2,8.1340027E-1,3.3168945E0,2.876131E1,2.5002945E1,6.088761E1,1.928711E1,1.7028458E1,7.782387E0,7.446289E-2,0E0,1.549556E1,3.3482208E0,2.7767998E1,5.9652824E0,9.757858E0,2.2430515E0,5.6569256E1,8.414574E0,3.4608246E1,4.93309E0,5.1186066E0,2.916009E0,3.2437167E0,4.163046E0,0E0,9.305823E-2,1.2507153E0,2.6602953E1,2.1136246E0,1.9125572E0,2.3722836E1,1.2122726E1,5.201186E0,5.5137177E0,0E0,3.1547546E-1,0E0,0E0,9.633316E1,3.639173E1,1.0455334E1,7.930748E0,1.9362518E1,4.5097492E1,5.6312304E0,3.4945908E0,1.4145813E0,3.8172817E0,0E0,0E0,4.507923E0,3.0444248E0,4.2602777E0,5.103346E0,0E0,0E0,0E0,0E0,0E0,0E0,0E0,0E0,0E0,0E0,0E0,0E0,0E0,0E0,0E0,0E0,0E0,0E0,0E0,0E0,0E0,0E0,0E0,0E0,0E0,0E0,0E0,0E0,0E0,0E0,0E0,0E0,0E0,0E0,0E0,0E0,0E0,0E0,0E0,0E0,0E0,0E0,0E0,0E0,0E0,0E0,0E0,0E0],"parents":[2147483647,0,0,1,1,2,2,3,3,4,4,5,5,6,6,7,7,8,8,9,9,10,10,11,11,12,12,13,13,14,14,15,15,17,17,18,18,19,19,20,20,21,21,22,22,23,23,24,24,25,25,26,26,27,27,28,28,29,29,30,30,32,32,33,33,34,34,35,35,36,36,37,37,38,38,39,39,40,40,42,42,45,45,46,46,47,47,48,48,49,49,50,50,51,51,52,52,53,53,54,54,57,57,58,58,59,59,60,60],"right_children":[2,4,6,8,10,12,14,16,18,20,22,24,26,28,30,32,-1,34,36,38,40,42,44,46,48,50,52,54,56,58,60,-1,62,64,66,68,70,72,74,76,78,-1,80,-1,-1,82,84,86,88,90,92,94,96,98,100,-1,-1,102,104,106,108,-1,-1,-1,-1,-1,-1,-1,-1,-1,-1,-1,-1,-1,-1,-1,-1,-1,-1,-1,-1,-1,-1,-1,-1,-1,-1,-1,-1,-1,-1,-1,-1,-1,-1,-1,-1,-1,-1,-1,-1,-1,-1,-1,-1,-1,-1,-1,-1],"split_conditions":[1.75E2,8.9E1,2E0,6.3E1,2E0,8.79E2,4.77E2,6.3E1,4E0,3E0,9E0,5.14E2,1E1,9E0,6.48E2,3.79E2,-6.047019E-3,2E0,1E1,1E0,1.7E1,5E0,2.85E3,3E0,9.45E2,9E0,9E0,3.79E2,1.169E3,7E0,1E0,-1.019054E-1,2.62E2,1E0,7E0,3E0,1E0,2E0,6.1E1,1.066E3,3E1,1.2739319E-1,2.4E1,2.0798424E-1,1.6252525E-2,2E0,2.8E1,6E0,1E0,3E0,1.7E1,1.241E3,1.76E2,6E0,3.1E1,-2.3242494E-2,1.3802503E-1,2.926E3,5.04E2,1E0,3.1E1,-5.5283654E-2,-8.368729E-3,-1.8074933E-2,-8.603179E-2,-6.0373165E-2,2.7610323E-1,-8.482291E-3,-9.461826E-2,7.1084544E-2,-4.0523395E-2,-6.391858E-3,7.397973E-2,-5.0139625E-2,1.4374541E-1,-6.011344E-2,-8.729693E-4,-2.0302285E-3,-9.091973E-2,-3.0949092E-2,-1.00732625E-1,-8.067179E-3,1.2549461E-1,6.268958E-2,-2.9562065E-2,2.421611E-2,6.384089E-2,-7.966114E-3,8.221587E-2,2.5415558E-2,6.691136E-2,1.4777605E-1,-2.698704E-2,1.465985E-1,3.1147806E-2,9.3422525E-2,1.5564255E-1,-3.1938143E-2,-9.9727884E-2,1.4609014E-2,-6.800703E-2,4.3063845E-2,-6.6293456E-2,-8.691608E-2,-6.399769E-3,6.9688037E-3,1.1842441E-1,7.513496E-2,2.4752133E-2],"split_indices":[6,6,3,6,3,1,6,0,12,2,12,6,12,12,6,13,0,12,12,8,4,12,1,14,6,12,4,6,1,12,11,0,1,11,4,4,11,15,0,1,0,0,0,0,0,14,0,12,14,9,4,1,13,12,0,0,0,1,6,8,0,0,0,0,0,0,0,0,0,0,0,0,0,0,0,0,0,0,0,0,0,0,0,0,0,0,0,0,0,0,0,0,0,0,0,0,0,0,0,0,0,0,0,0,0,0,0,0,0],"split_type":[0,0,0,0,0,0,0,0,0,0,0,0,0,0,0,0,0,0,0,0,0,0,0,0,0,0,0,0,0,0,0,0,0,0,0,0,0,0,0,0,0,0,0,0,0,0,0,0,0,0,0,0,0,0,0,0,0,0,0,0,0,0,0,0,0,0,0,0,0,0,0,0,0,0,0,0,0,0,0,0,0,0,0,0,0,0,0,0,0,0,0,0,0,0,0,0,0,0,0,0,0,0,0,0,0,0,0,0,0],"sum_hessian":[3.2591685E3,9.735829E2,2.2855854E3,3.2435907E2,6.492238E2,1.8941548E3,3.9143076E2,1.7542958E2,1.4892947E2,5.196776E2,1.2954619E2,1.1022223E3,7.919325E2,1.8666594E2,2.0476482E2,1.7439934E2,1.0302446E0,4.5946262E1,1.02983215E2,3.71845E2,1.4783264E2,1.2662064E2,2.9255419E0,7.1306476E2,3.891575E2,7.108887E2,8.104381E1,1.82408E2,4.2579327E0,6.529129E1,1.3947353E2,1.7230426E2,2.0950797E0,3.7493645E1,8.452617E0,9.725463E1,5.728589E0,2.2656094E2,1.4528406E2,6.705281E1,8.077983E1,1.1019505E0,1.2551869E2,1.9250256E0,1.0005162E0,2.3456834E2,4.7849643E2,2.8581244E2,1.0334506E2,5.901487E2,1.20740036E2,2.5088295E1,5.5955513E1,1.456399E2,3.6768112E1,1.1946161E0,3.0633168E0,2.6879757E1,3.8411533E1,1.6769964E1,1.2270357E2,1.0292336E0,1.0658462E0,3.599673E0,3.389397E1,5.7791543E0,2.6734624E0,3.1502028E0,9.410442E1,1.1325915E0,4.595998E0,1.8156465E2,4.4996292E1,1.4292667E2,2.3573854E0,4.5185253E1,2.1867558E1,7.7555747E0,7.3024254E1,1.7449068E0,1.2377378E2,1.5185991E2,8.270843E1,4.6508133E1,4.319883E2,1.7843132E2,1.0738112E2,1.0697638E1,9.264743E1,1.5368575E2,4.3646292E2,1.616691E1,1.0457313E2,4.6333756E0,2.045492E1,3.9086014E1,1.68695E1,4.344772E0,1.4129512E2,6.4240055E0,3.0344105E1,2.3338104E1,3.541652E0,4.4892726E0,3.392226E1,4.846313E0,1.1923652E1,2.503297E1,9.767059E1],"tree_param":{"num_deleted":"0","num_feature":"16","num_nodes":"109","size_leaf_vector":"1"}},{"base_weights":[-1.7245013E-2,-6.429588E-1,1.592864E-1,-9.4806105E-1,-4.8945072E-1,-3.6550973E-2,3.8141346E-1,-9.5499545E-1,-2.912132E-1,-5.57146E-1,4.4549763E-1,9.958719E-2,-8.942196E-1,3.175689E-1,6.2304133E-1,-9.6193075E-1,-2.8990838E-1,-6.9819726E-2,4.2903777E-2,-4.0051663E-1,-8.598348E-1,1.6662075E-1,1.1380211E0,2.768687E-1,-2.3097415E-1,-9.644859E-1,1.0800762E0,2.0080784E-1,5.4496574E-1,3.878639E-1,1.1921434E0,-7.153954E-3,-9.658051E-1,3.944435E-2,-6.978545E-2,-5.085085E-1,2.8856642E0,-9.560595E-1,-3.3716363E-1,-6.769588E-1,4.4948334E-1,1.4284792E0,-6.0563516E-2,6.4399816E-2,6.156771E-1,-2.9437062E-1,8.564643E-1,-1.4994141E-1,-9.898851E-1,1.4241602E0,-2.9236121E-2,1.5933613E-1,8.7323695E-1,8.2225716E-1,5.010173E-1,1.0084769E0,2.791834E-1,-1.6741332E-2,1.2285173E0,-1.011328E-1,-8.5424684E-2,4.4263624E-2,-5.708554E-2,3.3735347E-1,-1.7237322E-2,-9.6191555E-2,-1.3272223E-2,1.2845452E-1,-8.586482E-2,-9.488304E-2,3.7285257E-2,7.842696E-2,-5.702988E-2,2.1671848E-1,4.7523905E-2,8.977921E-2,-8.568003E-3,1.57269E-1,3.014459E-2,-4.1944E-3,-6.257392E-2,4.729276E-3,1.2018116E-1,-6.907993E-2,1.3462192E-1,-9.998148E-2,-6.0089648E-2,3.6143746E-2,1.6384536E-1,3.730765E-3,3.9703693E-2,1.8381557E-1,6.855133E-2,1.6205383E-2,1.01809E-1,4.0007286E-2,6.802448E-2,1.3331181E-1,1.9672243E-2,2.1062428E-2,1.0527625E-1,1.2679121E-1,3.0817434E-2],"categories":[],"categories_nodes":[],"categories_segments":[],"categories_sizes":[],"default_left":[0,0,0,0,0,0,0,0,0,0,0,0,0,0,0,0,0,0,0,0,0,0,0,0,0,0,0,0,0,0,0,0,0,0,0,0,0,0,0,0,0,0,0,0,0,0,0,0,0,0,0,0,0,0,0,0,0,0,0,0,0,0,0,0,0,0,0,0,0,0,0,0,0,0,0,0,0,0,0,0,0,0,0,0,0,0,0,0,0,0,0,0,0,0,0,0,0,0,0,0,0,0,0],"id":12,"left_children":[1,3,5,7,9,11,13,15,17,19,21,23,25,27,29,31,33,-1,-1,35,37,39,41,43,45,47,49,51,53,55,57,-1,59,-1,-1,61,63,65,67,69,71,73,-1,75,77,79,81,83,85,87,-1,89,91,93,95,97,99,-1,101,-1,-1,-1,-1,-1,-1,-1,-1,-1,-1,-1,-1,-1,-1,-1,-1,-1,-1,-1,-1,-1,-1,-1,-1,-1,-1,-1,-1,-1,-1,-1,-1,-1,-1,-1,-1,-1,-1,-1,-1,-1,-1,-1,-1],"loss_changes":[3.5467523E2,3.262787E1,1.0896022E2,7.9426575E-1,3.012941E1,1.5560483E2,1.7906158E1,7.9371643E-1,1.4422424E0,2.054863E1,6.0738754E0,6.747762E1,2.6366806E1,2.459156E1,3.2226257E1,7.2332764E-1,1.3448479E0,0E0,0E0,1.05193214E2,7.1917725E0,6.1008844E0,5.4937725E0,5.3895077E1,2.797417E1,3.5095367E0,3.601893E0,1.7046844E1,3.4273148E0,1.1474886E1,3.7135315E0,0E0,2.9714966E-1,0E0,0E0,1.7084297E1,1.4679253E1,4.780655E-1,2.2054155E1,2.2087216E0,6.8634806E0,4.6962757E0,0E0,5.7810303E1,8.632911E1,3.1818932E1,6.204838E0,6.2101126E0,6.0806274E-2,6.748638E-1,0E0,1.685813E1,5.1843414E0,5.205818E0,4.69413E0,6.481985E0,7.7182827E0,0E0,2.1184464E0,0E0,0E0,0E0,0E0,0E0,0E0,0E0,0E0,0E0,0E0,0E0,0E0,0E0,0E0,0E0,0E0,0E0,0E0,0E0,0E0,0E0,0E0,0E0,0E0,0E0,0E0,0E0,0E0,0E0,0E0,0E0,0E0,0E0,0E0,0E0,0E0,0E0,0E0,0E0,0E0,0E0,0E0,0E0,0E0],"parents":[2147483647,0,0,1,1,2,2,3,3,4,4,5,5,6,6,7,7,8,8,9,9,10,10,11,11,12,12,13,13,14,14,15,15,16,16,19,19,20,20,21,21,22,22,23,23,24,24,25,25,26,26,27,27,28,28,29,29,30,30,32,32,35,35,36,36,37,37,38,38,39,39,40,40,41,41,43,43,44,44,45,45,46,46,47,47,48,48,49,49,51,51,52,52,53,53,54,54,55,55,56,56,58,58],"right_children":[2,4,6,8,10,12,14,16,18,20,22,24,26,28,30,32,34,-1,-1,36,38,40,42,44,46,48,50,52,54,56,58,-1,60,-1,-1,62,64,66,68,70,72,74,-1,76,78,80,82,84,86,88,-1,90,92,94,96,98,100,-1,102,-1,-1,-1,-1,-1,-1,-1,-1,-1,-1,-1,-1,-1,-1,-1,-1,-1,-1,-1,-1,-1,-1,-1,-1,-1,-1,-1,-1,-1,-1,-1,-1,-1,-1,-1,-1,-1,-1,-1,-1,-1,-1,-1,-1],"split_conditions":[1.46E2,7.8E1,3.94E2,6.1E1,1E1,2E0,1.3E1,3.73E2,2.5E1,8E0,1.31E2,1E0,9E0,8E2,2E0,2E0,4.3E2,-6.9819726E-2,4.2903777E-2,7E0,2E0,2.04E2,4E0,6E0,1E1,6E0,5.1E1,6E1,1E0,1.12E2,2E0,-7.153954E-3,6.3E1,3.944435E-2,-6.978545E-2,2.7E1,5E0,1.4922E4,1E2,1.54E2,2E0,1.107E3,-6.0563516E-2,1E0,8E0,8E0,2E0,8E0,3.79E2,6.28E2,-2.9236121E-2,2E0,4.15E2,9E0,2E0,5.4E1,3.71E2,-1.6741332E-2,3E0,-1.011328E-1,-8.5424684E-2,4.4263624E-2,-5.708554E-2,3.3735347E-1,-1.7237322E-2,-9.6191555E-2,-1.3272223E-2,1.2845452E-1,-8.586482E-2,-9.488304E-2,3.7285257E-2,7.842696E-2,-5.702988E-2,2.1671848E-1,4.7523905E-2,8.977921E-2,-8.568003E-3,1.57269E-1,3.014459E-2,-4.1944E-3,-6.257392E-2,4.729276E-3,1.2018116E-1,-6.907993E-2,1.3462192E-1,-9.998148E-2,-6.0089648E-2,3.6143746E-2,1.6384536E-1,3.730765E-3,3.9703693E-2,1.8381557E-1,6.855133E-2,1.6205383E-2,1.01809E-1,4.0007286E-2,6.802448E-2,1.3331181E-1,1.9672243E-2,2.1062428E-2,1.0527625E-1,1.2679121E-1,3.0817434E-2],"split_indices":[6,6,6,0,12,3,13,13,4,12,6,8,12,6,14,4,13,0,0,12,15,1,15,12,12,12,0,0,11,13,4,0,6,0,0,0,2,1,13,13,11,1,0,12,12,12,14,4,6,1,0,11,6,1,11,0,13,0,7,0,0,0,0,0,0,0,0,0,0,0,0,0,0,0,0,0,0,0,0,0,0,0,0,0,0,0,0,0,0,0,0,0,0,0,0,0,0,0,0,0,0,0,0],"split_type":[0,0,0,0,0,0,0,0,0,0,0,0,0,0,0,0,0,0,0,0,0,0,0,0,0,0,0,0,0,0,0,0,0,0,0,0,0,0,0,0,0,0,0,0,0,0,0,0,0,0,0,0,0,0,0,0,0,0,0,0,0,0,0,0,0,0,0,0,0,0,0,0,0,0,0,0,0,0,0,0,0,0,0,0,0,0,0,0,0,0,0,0,0,0,0,0,0,0,0,0,0,0,0],"sum_hessian":[3.2090198E3,7.0555286E2,2.503467E3,2.3443323E2,4.711196E2,1.3309108E3,1.1725563E3,2.31535E2,2.8982265E0,4.3968793E2,3.143169E1,1.1493567E3,1.8155406E2,9.293195E2,2.4323677E2,2.2870383E2,2.8311799E0,1.8713969E0,1.0268295E0,2.9128348E2,1.4840443E2,2.3292484E1,8.139205E0,7.482366E2,4.0112012E2,1.7580843E2,5.745646E0,6.152772E2,3.1404233E2,1.7330234E2,6.993443E1,1.0751712E0,2.2762865E2,1.0697368E0,1.761443E0,2.8283414E2,8.44936E0,1.2463054E2,2.377389E1,5.4991517E0,1.7793333E1,7.131926E0,1.007279E0,4.6058865E2,2.8764792E2,3.7971262E2,2.1407524E1,5.5250597E0,1.7028336E2,4.563774E0,1.1818715E0,5.806998E2,3.457739E1,4.0540943E1,2.7350137E2,2.4592014E1,1.4871033E2,1.7284154E0,6.8206024E1,1.5593268E2,7.169598E1,1.7023844E1,2.6581027E2,7.197863E0,1.2514963E0,1.2358324E2,1.0473E0,5.4286537E0,1.8345236E1,4.4443736E0,1.054778E0,1.3569515E1,4.223818E0,3.3006341E0,3.831292E0,6.952649E1,3.9106216E2,7.011202E1,2.1753587E2,2.161685E2,1.635441E2,6.743649E0,1.4663875E1,4.453439E0,1.0716203E0,1.6451353E2,5.7698317E0,1.2166781E0,3.3470962E0,3.844775E2,1.9622232E2,4.199534E0,3.0377853E1,9.692507E0,3.0848438E1,1.7702798E2,9.647338E1,1.7107872E1,7.4841423E0,1.377724E2,1.09379225E1,6.504419E1,3.1618333E0],"tree_param":{"num_deleted":"0","num_feature":"16","num_nodes":"103","size_leaf_vector":"1"}}]},"name":"gbtree"},"learner_model_param":{"base_score":"[1.1697863E-1]","boost_from_average":"1","num_class":"0","num_feature":"16","num_target":"1"},"objective":{"name":"binary:logistic","reg_loss_param":{"scale_pos_weight":"1"}}},"version":[3,2,0]}