{"learner":{"attributes":{},"feature_names":["x1","x2","x3"],"feature_types":["float","float","int"],"gradient_booster":{"model":{"cats":{"enc":[],"feature_segments":[],"sorted_idx":[]},"gbtree_model_param":{"num_parallel_tree":"1","num_trees":"3"},"iteration_indptr":[0,1,2,3],"tree_info":[0,0,0],"trees":[{"base_weights":[-1.9227306E-8,-1.2550125E0,1.1848972E0,-1.4189905E0,1.2765957E-1,-9.642302E-1,2.422803E0,-4.383252E-1,-1.3953489E-1,-4.0422234E-1,1.7936355E-1,7.633588E-1,7.937095E-1,-1.05263166E-1,4.5614034E-1],"categories":[],"categories_nodes":[],"categories_segments":[],"categories_sizes":[],"default_left":[0,0,0,0,0,0,0,0,0,0,0,0,0,0,0],"id":0,"left_children":[1,3,5,7,-1,9,11,-1,-1,-1,-1,13,-1,-1,-1],"loss_changes":[7.063538E1,6.9605904E0,6.733677E1,1.7354965E-1,0E0,6.578743E0,3.8199005E0,0E0,0E0,0E0,0E0,3.2962809E0,0E0,0E0,0E0],"parents":[2147483647,0,0,1,1,2,2,3,3,5,5,6,6,11,11],"right_children":[2,4,6,8,-1,10,12,-1,-1,-1,-1,14,-1,-1,-1],"split_conditions":[5.031363E-1,9.3075734E-1,3.6636186E-1,4.5606998E-1,1.2765957E-1,8.554606E-1,4.937956E-1,-4.383252E-1,-1.3953489E-1,-4.0422234E-1,1.7936355E-1,8.6310345E-1,7.937095E-1,-1.05263166E-1,4.5614034E-1],"split_indices":[0,1,1,0,0,0,1,0,0,0,0,0,0,0,0],"split_type":[0,0,0,0,0,0,0,0,0,0,0,0,0,0,0],"sum_hessian":[4.55E1,2.20675E1,2.3432499E1,2.02475E1,1.8199999E0,8.6449995E0,1.4787499E1,1.88825E1,1.365E0,7.0525E0,1.5925E0,2.2749999E0,1.25125E1,1.1374999E0,1.1374999E0],"tree_param":{"num_deleted":"0","num_feature":"3","num_nodes":"15","size_leaf_vector":"1"}},{"base_weights":[-2.5424093E-2,-1.0637699E0,8.198181E-1,-1.2269571E0,1.0022134E-1,-9.737997E-1,1.5607396E0,-3.802673E-1,-1.1901016E-1,-3.4640834E-1,5.6001334E-3,6.5574294E-1,5.1423526E-1,-2.4261512E-1,4.6896732E-1],"categories":[],"categories_nodes":[],"categories_segments":[],"categories_sizes":[],"default_left":[0,0,0,0,0,0,0,0,0,0,0,0,0,0,0],"id":1,"left_children":[1,3,5,7,-1,9,11,-1,-1,-1,-1,13,-1,-1,-1],"loss_changes":[3.927211E1,4.9878235E0,3.43232E1,1.1015892E-1,0E0,1.4275908E0,1.3540039E0,0E0,0E0,0E0,0E0,6.8548E0,0E0,0E0,0E0],"parents":[2147483647,0,0,1,1,2,2,3,3,5,5,6,6,11,11],"right_children":[2,4,6,8,-1,10,12,-1,-1,-1,-1,14,-1,-1,-1],"split_conditions":[5.031363E-1,9.3075734E-1,3.2320294E-1,4.5606998E-1,1.0022134E-1,8.554606E-1,4.937956E-1,-3.802673E-1,-1.1901016E-1,-3.4640834E-1,5.6001334E-3,8.3244264E-1,5.1423526E-1,-2.4261512E-1,4.6896732E-1],"split_indices":[0,1,1,0,0,0,1,0,0,0,0,0,0,0,0],"split_type":[0,0,0,0,0,0,0,0,0,0,0,0,0,0,0],"sum_hessian":[4.2753033E1,1.9068998E1,2.3684034E1,1.7185028E1,1.8839704E0,6.8316684E0,1.6852365E1,1.588169E1,1.3033382E0,5.640185E0,1.1914835E0,3.206711E0,1.3645654E1,1.2684946E0,1.9382164E0],"tree_param":{"num_deleted":"0","num_feature":"3","num_nodes":"15","size_leaf_vector":"1"}},{"base_weights":[-3.2639287E-2,-9.3407404E-1,6.599651E-1,-1.104152E0,7.9218924E-2,-8.494111E-1,1.2547376E0,-3.4814447E-1,-1.0158675E-1,-3.1008828E-1,4.6831085E-3,5.177712E-1,4.1660014E-1,-2.1599904E-1,3.7099802E-1],"categories":[],"categories_nodes":[],"categories_segments":[],"categories_sizes":[],"default_left":[0,0,0,0,0,0,0,0,0,0,0,0,0,0,0],"id":2,"left_children":[1,3,5,7,-1,9,11,-1,-1,-1,-1,13,-1,-1,-1],"loss_changes":[2.4509287E1,3.764287E0,2.1020004E1,2.5888443E-1,0E0,1.1123476E0,8.945675E-1,0E0,0E0,0E0,0E0,4.5462856E0,0E0,0E0,0E0],"parents":[2147483647,0,0,1,1,2,2,3,3,5,5,6,6,11,11],"right_children":[2,4,6,8,-1,10,12,-1,-1,-1,-1,14,-1,-1,-1],"split_conditions":[5.031363E-1,9.3075734E-1,3.2320294E-1,7.798755E-1,7.9218924E-2,8.554606E-1,4.937956E-1,-3.4814447E-1,-1.0158675E-1,-3.1008828E-1,4.6831085E-3,8.3244264E-1,4.1660014E-1,-2.1599904E-1,3.7099802E-1],"split_indices":[0,1,1,1,0,0,1,0,0,0,0,0,0,0,0],"split_type":[0,0,0,0,0,0,0,0,0,0,0,0,0,0,0],"sum_hessian":[3.726908E1,1.6041801E1,2.122728E1,1.4116395E1,1.925407E0,5.8792253E0,1.5348055E1,1.2668307E1,1.4480875E0,4.686306E0,1.1929191E0,3.108589E0,1.2239466E1,1.1415503E0,1.9670386E0],"tree_param":{"num_deleted":"0","num_feature":"3","num_nodes":"15","size_leaf_vector":"1"}}]},"name":"gbtree"},"learner_model_param":{"base_score":"[3.5E-1]","boost_from_average":"1","num_class":"0","num_feature":"3","num_target":"1"},"objective":{"name":"binary:logistic","reg_loss_param":{"scale_pos_weight":"1"}}},"version":[3,2,0]}