tree
version=v4
num_class=1
num_tree_per_iteration=1
label_index=0
max_feature_idx=13
objective=binary sigmoid:1
feature_names=age balance campaign contact default duration education housing job loan marital pdays poutcome previous
feature_infos=[18:95] [-8019:102127] [1:63] -1:0:2:1 -1:0:1 [0:4918] -1:1:2:0:3 -1:1:0 -1:1:4:9:0:7:5:6:2:10:3:8 -1:0:1 -1:1:2:0 [-1:871] -1:3:0:1:2 [0:275]
tree_sizes=1750 1747 1789 1766 1793 1806 1800 1811 1814 1758 1824 1833 1715 1785 1837

Tree=0
num_leaves=16
num_cat=4
split_feature=5 12 0 5 5 5 3 5 5 3 5 11 1 10 5
split_gain=4447.26 2730.66 502.225 496.532 393.881 350.764 225.026 163.352 73.6448 57.7355 39.6244 34.8274 31.0937 21.0139 20.9795
threshold=504.50000000000006 0 60.500000000000007 797.50000000000011 205.50000000000003 162.50000000000003 1 205.50000000000003 611.50000000000011 2 79.500000000000014 237.50000000000003 778.50000000000011 3 645.50000000000011
decision_type=2 1 2 2 2 2 1 2 2 1 2 2 2 1 2
left_child=1 5 4 6 -3 10 14 -4 -8 12 -1 -7 -5 -11 -2
right_child=3 2 7 9 -6 11 8 -9 -10 13 -12 -13 -14 -15 -16
leaf_value=-2.0641980946145773 -1.9919831520671527 -2.110305138923005 -1.952736345027519 -1.7512362926749914 -2.0361574382268093 -1.3940135546706967 -1.8082333236011419 -1.6392963884732501 -1.6867067006466356 -1.584442667187866 -1.771055884798507 -1.589459441066809 -1.577212163587475 -1.49987566546951 -1.8841171062180864
leaf_weight=5.6812044233083752 46.275992393493652 2016.4143917709589 35.73994055390358 25.823656469583511 1111.2435851991177 63.732784166932106 99.885903224349022 31.091682389378548 99.57601934671402 65.798676684498787 24.480826333165169 10.639346465468405 17.043613269925117 53.093437701463699 29.542263001203537
leaf_count=55 448 19521 346 250 10758 617 967 301 964 637 237 103 165 514 286
internal_value=-2.02136 -2.06107 -2.07799 -1.7216 -2.08396 -1.58078 -1.80331 -1.80692 -1.74756 -1.58255 -1.82627 -1.42197 -1.68205 -1.54668 -1.94995
internal_weight=3736.06 3299.02 3194.49 437.04 3127.66 104.534 275.28 66.8316 199.462 161.759 30.162 74.3721 42.8673 118.892 75.8183
internal_count=36169 31938 30926 4231 30279 1012 2665 647 1931 1566 292 720 415 1151 734
cat_boundaries=0 1 2 3 4
cat_threshold=4 4 4 2
is_linear=0
shrinkage=1


Tree=1
num_leaves=16
num_cat=6
split_feature=5 12 0 5 5 3 5 7 5 5 3 5 7 5 3
split_gain=2991.46 1546.2 335.095 310.38 265.434 185.888 114.424 106.34 96.0424 66.389 69.7453 17.895 16.9367 11.854 9.4719
threshold=436.50000000000006 0 60.500000000000007 637.50000000000011 201.50000000000003 1 132.50000000000003 2 126.50000000000001 874.50000000000011 3 498.50000000000006 4 79.500000000000014 5
decision_type=2 1 2 2 2 1 2 1 2 2 1 2 1 2 1
left_child=1 6 4 5 -3 11 13 -7 -4 10 -5 -2 -8 -1 -11
right_child=3 2 8 9 -6 7 12 -9 -10 14 -12 -13 -14 -15 -16
leaf_value=-0.03992184231777271 -0.07238476295394608 -0.086625018758663491 -0.051788433335803734 0.25118178446838363 -0.022970903430696483 0.091026746171654127 0.26824036788827454 0.22514937277680169 0.21579865428488759 0.31331627060181477 0.11562827970628431 0.024236815740513118 0.35513047223507582 0.12839600291279646 0.26363757355799761
leaf_weight=5.4967582970857647 31.966033391654491 1851.337761297822 17.628178372979164 128.49711641669273 1013.8391884341836 111.7857419103384 30.424026057124138 125.45897801220417 56.097851395606995 118.93798615038395 53.869951978325844 47.878006644546986 85.409452185034752 17.521603502333164 56.663683950901031
leaf_count=55 313 19202 162 952 9945 970 203 1077 449 821 449 454 556 141 420
internal_value=-0.00105718 -0.0428707 -0.0584855 0.189581 -0.0641011 0.117535 0.272235 0.161953 0.151818 0.253399 0.21114 -0.0144462 0.332309 0.0882019 0.297286
internal_weight=3752.81 3077.75 2938.9 675.057 2865.18 317.089 138.852 237.245 73.726 357.969 182.367 79.844 115.833 23.0184 175.602
internal_count=36169 30713 29758 5456 29147 2814 955 2047 611 2642 1401 767 759 196 1241
cat_boundaries=0 1 2 3 4 5 6
cat_threshold=4 4 2 1 2 1
is_linear=0
shrinkage=0.1


Tree=2
num_leaves=16
num_cat=4
split_feature=5 12 7 5 5 3 11 11 5 5 3 5 5 11 11
split_gain=2219.38 1110.74 298.442 405.589 218.58 177.621 91.6937 83.1867 61.9419 33.6643 38.096 20.8846 11.7417 9.29807 7.48385
threshold=405.50000000000006 0 1 154.50000000000003 637.50000000000011 2 383.50000000000006 8.5000000000000018 132.50000000000003 874.50000000000011 3 498.50000000000006 253.50000000000003 98.500000000000014 316.50000000000006
decision_type=2 1 1 2 2 1 2 2 2 2 1 2 2 2 2
left_child=1 8 6 -4 5 11 -3 -7 13 10 -6 -2 -10 -1 -11
right_child=4 2 3 -5 9 7 -8 -9 12 14 -12 -13 -14 -15 -16
leaf_value=0.15366148892395123 -0.069836143961909888 -0.089300546454587196 -0.078088481477742444 0.037814839011457185 0.19056999207866576 0.095477650941666589 0.2861949831512034 0.20940654690697258 0.22036019432898885 0.22475219139298899 0.095478501313388489 0.021394160030339591 0.27998121553382499 0.026401820914514915 0.13388246708750812
leaf_weight=9.1953079104423541 51.690738961100578 1521.1897816061974 614.94483081251383 593.1371987760067 150.96062132716179 233.27025695890188 6.5311634242534629 88.367835648357868 73.228562533855438 201.07998871803284 58.439930438995361 48.765469416975975 60.175335645675659 15.284657716751097 9.4910980314016324
leaf_count=72 527 16271 6780 5948 952 1882 69 675 405 1187 449 454 320 124 54
internal_value=-0.00153677 -0.0431158 -0.0581122 -0.0211829 0.141346 0.0905255 -0.0876953 0.126779 0.207293 0.192423 0.164032 -0.0255493 0.247254 0.0742038 0.220656
internal_weight=3735.75 2893.69 2735.8 1208.08 842.066 422.094 1527.72 321.638 157.884 419.972 209.401 100.456 133.404 24.48 210.571
internal_count=36169 29989 29068 12728 6180 3538 16340 2557 921 2642 1401 981 725 196 1241
cat_boundaries=0 1 2 3 4
cat_threshold=4 2 4 1
is_linear=0
shrinkage=0.1


Tree=3
num_leaves=16
num_cat=6
split_feature=5 12 7 5 5 3 7 11 5 3 5 5 10 11 5
split_gain=1724.78 802.961 238.152 299.76 190.945 185.333 125.872 51.7203 37.8244 31.6179 29.0449 24.6424 16.2192 11.2666 8.59455
threshold=364.50000000000006 0 1 130.50000000000003 604.50000000000011 2 3 383.50000000000006 132.50000000000003 4 498.50000000000006 854.50000000000011 5 223.50000000000003 69.500000000000014
decision_type=2 1 1 2 2 1 1 2 2 1 2 2 1 2 2
left_child=1 8 7 -4 5 10 -7 -3 14 11 -2 -6 -11 -10 -1
right_child=4 2 3 -5 9 6 -8 -9 13 12 -12 -13 -14 -15 -16
leaf_value=-0.083910533604236615 -0.078291799608303458 -0.088248965095199972 -0.085202247555490829 0.018894211830214894 0.060048987563537742 0.033848440833719226 0.1469460821167019 0.1730495268529465 0.20580536163376684 0.14632280790334509 0.02598427949291256 0.15006092783513206 0.18713210794598403 0.11869400147051384 0.085824578815146532
leaf_weight=3.4433632045984295 80.667621925473213 1359.9268209859729 477.02809848636389 658.50212225317955 59.340728662908077 174.43419395387173 225.77571509033442 7.6175082847475997 121.11969739198685 218.81827422976494 39.935505375266075 62.394574731588364 175.49900755286217 16.921459600329399 22.32205805927515
leaf_count=34 858 15667 5616 6621 455 1446 1679 65 584 1223 366 351 954 88 162
internal_value=-0.00182094 -0.0443715 -0.0584527 -0.024836 0.107622 0.0649048 0.0976517 -0.0867935 0.164334 0.150733 -0.0437627 0.106184 0.164486 0.195127 0.0631407
internal_weight=3703.75 2666.88 2503.07 1135.53 1036.87 520.813 400.21 1367.54 163.807 516.053 120.603 121.735 394.317 138.041 25.7654
internal_count=36169 28837 27969 12237 7332 4349 3125 15732 868 2983 1224 806 2177 672 196
cat_boundaries=0 1 2 3 4 5 6
cat_threshold=4 2 4 2 4 2
is_linear=0
shrinkage=0.1


Tree=4
num_leaves=16
num_cat=4
split_feature=5 12 3 5 12 5 0 5 5 5 5 5 11 7 5
split_gain=1376.98 396.676 333.86 252.003 177.062 152.331 139.989 94.526 35.4066 30.3341 30.2813 18.4568 12.5485 7.18451 5.4181
threshold=259.50000000000006 0 1 498.50000000000006 2 611.50000000000011 60.500000000000007 130.50000000000003 126.50000000000001 738.50000000000011 455.50000000000006 125.50000000000001 199.50000000000003 3 405.50000000000006
decision_type=2 1 1 2 1 2 2 2 2 2 2 2 2 1 2
left_child=1 11 3 14 10 -6 7 -3 -8 -5 -4 13 -13 -1 -2
right_child=2 6 4 9 5 -7 8 -9 -10 -11 -12 12 -14 -15 -16
leaf_value=-0.025614462609710717 -0.1020882152897794 -0.092993049925815016 0.18665849576898624 0.028261346689084373 0.051149470792788559 0.12894763481443958 -0.037635101625760267 -0.048516724534825473 0.14383447051158157 0.113005151601674 0.2906290456797348 0.16001201554721409 0.050805422060155536 0.088870594178675585 -0.062821743203241687
leaf_weight=8.5674747079610825 149.27451647818089 957.39463387429714 77.468005701899529 78.741309955716133 697.74313847720623 393.68719972670078 14.907208085060118 954.02028392255306 38.569643527269363 91.116778984665871 43.879608243703842 82.857596427202225 12.052388265728949 15.218086421489716 45.959159709513187
leaf_count=68 1632 12212 345 657 6055 1996 162 10938 279 515 232 383 60 108 527
internal_value=-0.00198399 -0.0553501 0.0684864 -0.0153507 0.0937245 0.0784927 -0.0659937 -0.0707941 0.093248 0.0737204 0.207181 0.116582 0.146144 0.0476335 -0.0928447
internal_weight=3661.46 2083.59 1577.87 365.092 1212.78 1091.43 1964.89 1911.41 53.4769 169.858 121.348 118.696 94.91 23.7856 195.234
internal_count=36169 24210 11959 3331 8628 8051 23591 23150 441 1172 577 619 443 176 2159
cat_boundaries=0 1 2 3 4
cat_threshold=4 4 4 2
is_linear=0
shrinkage=0.1


Tree=5
num_leaves=16
num_cat=4
split_feature=5 12 3 5 7 11 5 7 5 0 5 5 11 5 5
split_gain=1122.35 328.602 250.099 212.147 130.778 154.793 137.217 126.872 158.15 23.3969 22.6569 15.373 12.2815 7.23532 5.43976
threshold=259.50000000000006 0 1 498.50000000000006 2 8.5000000000000018 541.50000000000011 3 124.50000000000001 61.500000000000007 854.50000000000011 162.50000000000003 226.50000000000003 79.500000000000014 405.50000000000006
decision_type=2 1 1 2 1 2 2 1 2 2 2 2 2 2 2
left_child=1 11 3 14 6 -6 -4 9 -9 -3 -5 13 -13 -1 -2
right_child=2 7 4 10 5 -7 -8 8 -10 -11 -12 12 -14 -15 -16
leaf_value=-0.042311029894933135 -0.10017591874183407 -0.088365524529679385 -0.001412970937708887 0.034272834856635889 0.081318981116323741 0.18853578639855592 0.096634153666605493 -0.082643129861478731 0.0033915828177154442 0.22918738040543196 0.10731773395968024 0.15033704342824128 0.019818324228758965 0.078383078932434583 -0.059664930898272794
leaf_weight=5.6304568499326697 137.51673329621553 994.03719988465309 302.50166642665863 105.88652071356773 515.37319162487984 182.28211560100317 270.26413786411285 387.9074996560812 475.64520264416933 2.3256321102380744 70.895332276821136 68.102625355124474 8.0631134808063489 42.145421117544174 43.672855406999588
leaf_count=55 1632 13224 2776 821 3471 1007 1374 5287 5058 22 351 288 39 237 527
internal_value=-0.00206672 -0.0525678 0.0594583 -0.0143705 0.0802613 0.109332 0.0448514 -0.0629709 -0.0352552 -0.0876243 0.0635662 0.100517 0.13652 0.0641591 -0.0904114
internal_weight=3612.25 1983.86 1628.39 357.971 1270.42 697.655 572.766 1859.92 863.553 996.363 176.782 123.942 76.1657 47.7759 181.19
internal_count=36169 24210 11959 3331 8628 4478 4150 23591 10345 13246 1172 619 327 292 2159
cat_boundaries=0 1 2 3 4
cat_threshold=4 4 2 2
is_linear=0
shrinkage=0.1


Tree=6
num_leaves=16
num_cat=4
split_feature=5 3 5 12 11 7 5 3 5 5 11 11 11 5 5
split_gain=929.746 321.315 239.933 171.777 150.245 150.604 67.3897 78.493 21.0636 18.7696 9.97844 11.3367 4.83598 3.69193 3.10085
threshold=205.50000000000003 0 475.50000000000006 1 383.50000000000006 2 92.500000000000014 3 645.50000000000011 595.50000000000011 85.500000000000014 94.500000000000014 71.500000000000014 379.50000000000006 77.500000000000014
decision_type=2 1 2 1 2 1 2 1 2 2 2 2 2 2 2
left_child=3 2 13 10 5 -3 14 -8 -4 -6 12 -12 -1 -2 -5
right_child=1 4 8 6 9 -7 7 -9 -10 -11 11 -13 -14 -15 -16
leaf_value=0.054134244796354238 -0.10166546301325485 0.023911929683909015 0.0050719712826966896 -0.10325559622590566 0.35744004617547409 0.086269317610028873 -0.1001434175489592 -0.035146888262893194 0.075683263452354557 0.12005284173810525 0.15673734567305883 0.069400951933555763 -0.099879219327704494 -0.07141090244652272 -0.08533800195915979
leaf_weight=4.0263704583048803 208.00532384961843 686.22487401217222 63.293835245072842 388.36429837346077 19.06905655562878 889.16585084795952 259.56201921403408 653.83936600387096 127.0382928699255 4.0356341302394858 20.210979089140892 56.165418289601803 4.1300093978643417 50.036618359386921 128.56101516634226
leaf_count=21 2592 5417 572 5744 124 5800 3606 8618 701 18 97 300 21 639 1899
internal_value=-0.00211744 0.041836 -0.0329734 -0.0615071 0.0628198 0.059107 -0.0694605 -0.053617 0.0522019 0.315976 0.072686 0.0925122 -0.023851 -0.0957988 -0.0987994
internal_weight=3561.73 2046.87 448.374 1514.86 1598.5 1575.39 1430.33 913.401 190.332 23.1047 84.5328 76.3764 8.15638 258.042 516.925
internal_count=36169 15863 4504 20306 11359 11217 19867 12224 1273 142 439 397 42 3231 7643
cat_boundaries=0 1 2 3 4
cat_threshold=4 4 2 4
is_linear=0
shrinkage=0.1


Tree=7
num_leaves=16
num_cat=4
split_feature=5 3 5 12 12 5 5 3 5 5 5 11 5 11 5
split_gain=774.669 251.008 208.751 146.6 145.252 130.624 66.8779 75.394 18.4003 18.3874 8.32223 8.06407 3.77601 3.48227 3.25331
threshold=205.50000000000003 0 475.50000000000006 1 2 611.50000000000011 92.500000000000014 3 1106.5000000000002 436.50000000000006 79.500000000000014 197.50000000000003 405.50000000000006 119.50000000000001 77.500000000000014
decision_type=2 1 2 1 1 2 2 1 2 2 2 2 2 2 2
left_child=3 2 12 10 9 -6 14 -8 -4 -3 13 -12 -2 -1 -5
right_child=1 4 8 6 5 -7 7 -9 -10 -11 11 -13 -14 -15 -16
leaf_value=-0.11482633934812631 -0.098694196127368558 0.12421382670755395 0.030889148026544334 -0.10205127733328367 0.023960978877466923 0.089063228228111579 -0.098572629620805319 -0.032621468579579559 0.10928876816644649 0.19355952836893309 0.090844979916552604 -0.0066222187502841577 -0.061676597897185048 0.041125006941795841 -0.082976055087193815
leaf_weight=3.1906800717115393 206.53390187770128 125.71994186937809 158.29854416102171 355.34360357373953 1032.5396525338292 439.33430455625057 238.41488330811262 635.02840360254049 36.917897596955299 54.949003785848618 71.481076404452324 9.6325174272060377 31.798626467585564 2.5973689556121826 119.47065920382738
leaf_count=29 2805 516 1104 5744 8606 1996 3606 8618 169 241 335 49 426 26 1899
internal_value=-0.00213621 0.0367677 -0.030955 -0.0586854 0.0545349 0.0431003 -0.0665509 -0.0506235 0.0457155 0.137684 0.0636764 0.0792704 -0.0937553 -0.0448437 -0.0972517
internal_weight=3521.25 2086.09 433.549 1435.16 1652.54 1471.87 1348.26 873.443 195.216 180.669 86.9016 81.1136 238.333 5.78805 474.814
internal_count=36169 15863 4504 20306 11359 10602 19867 12224 1273 757 439 384 3231 55 7643
cat_boundaries=0 1 2 3 4
cat_threshold=4 4 4 4
is_linear=0
shrinkage=0.1


Tree=8
num_leaves=16
num_cat=4
split_feature=5 3 5 8 12 5 11 5 7 5 11 5 11 5 5
split_gain=648.969 199.531 182.167 127.451 125.396 115.783 100.601 66.115 73.2021 14.9901 7.72909 8.39126 3.93059 3.89108 3.4156
threshold=205.50000000000003 0 475.50000000000006 1 2 604.50000000000011 8.5000000000000018 92.500000000000014 3 738.50000000000011 85.500000000000014 125.50000000000001 71.500000000000014 379.50000000000006 77.500000000000014
decision_type=2 1 2 9 1 2 2 2 1 2 2 2 2 2 2
left_child=4 2 13 5 10 -3 -5 14 -9 -4 12 -12 -1 -2 -6
right_child=1 3 9 6 7 -7 -8 8 -10 -11 11 -13 -14 -15 -16
leaf_value=0.038448947086036085 -0.098393662167217372 -0.0036670744560949493 0.011082536205407202 0.052617645904652378 -0.10088904047274404 0.075501301039509361 0.12736909752606665 -0.076846516526247577 -0.017691937552694475 0.066006721627385453 0.022706286718581159 0.093267648025337074 -0.099131981283091961 -0.065234064617306742 -0.080582019648483674
leaf_weight=4.221669487655161 175.90571098029613 600.66722598671913 93.725440889596939 551.24012885242701 325.04503989964724 266.77675631642342 267.35670246183872 424.52571247518063 412.4211633503437 105.76564180850983 24.077770940959454 56.172387346625328 4.0866943895816803 44.299587577581406 111.15072232484818
leaf_count=21 2592 4888 758 3763 5744 1184 1524 6813 5411 515 157 240 21 639 1899
internal_value=-0.00210754 0.0326818 -0.029016 0.0480399 -0.0559059 0.020445 0.0761021 -0.0636485 -0.047697 0.0402021 0.0562405 0.0720968 -0.029224 -0.0917228 -0.0957144
internal_weight=3467.44 2105.74 419.696 1686.04 1361.7 867.444 818.597 1273.14 836.947 199.491 88.5585 80.2502 8.30836 220.205 436.196
internal_count=36169 15863 4504 11359 20306 6072 5287 19867 12224 1273 439 397 42 3231 7643
cat_boundaries=0 1 2 3 4
cat_threshold=4 718 4 2
is_linear=0
shrinkage=0.1


Tree=9
num_leaves=16
num_cat=8
split_feature=5 12 5 3 12 5 3 10 7 11 9 8 11 0 5
split_gain=543.612 160.176 199.95 154.183 107.429 65.0522 73.8062 45.2599 36.3596 12.3393 11.9517 7.47002 10.057 5.62016 3.5851
threshold=205.50000000000003 0 470.50000000000006 1 2 92.500000000000014 3 4 5 99.500000000000014 6 7 203.50000000000003 31.500000000000004 77.500000000000014
decision_type=2 1 2 1 1 2 1 1 1 2 1 9 2 2 2
left_child=4 8 3 -3 11 14 -7 -4 9 -2 -10 12 -1 -13 -6
right_child=1 2 7 -5 5 6 -8 -9 10 -11 -12 13 -14 -15 -16
leaf_value=0.10714066020562636 0.12826054832964606 -0.090506018961308721 0.033606096346542429 0.0073950553726364644 -0.099755525653941579 -0.096132672979824599 -0.026940465860468134 0.080402072690569495 0.13383160839926833 0.038200961734537159 0.0095977361647630599 -0.06504225984649091 -0.049700440034071286 0.029347466439948112 -0.078149319565980688
leaf_weight=44.255116403102875 18.478824444115162 201.66305838152766 480.03244903683662 795.15384705364704 297.28633922338486 208.01427370682359 595.48634827882051 362.94696635007858 172.08653258532286 86.095482781529427 8.1085751801729185 7.7917894273996344 4.5044940486550322 33.127953037619591 103.54568956047297
leaf_count=211 89 3202 2524 6861 5744 3606 8618 1854 768 524 41 40 26 162 1899
internal_value=-0.00207539 0.0290458 0.0178086 -0.012411 -0.0531715 -0.0607639 -0.0448533 0.0537542 0.0975932 0.054115 0.128241 0.049991 0.0768835 0.00914038 -0.0941741
internal_weight=3418.58 2124.57 1839.8 996.817 1294.01 1204.33 803.501 842.979 284.769 104.574 180.195 89.6794 48.7596 40.9197 400.832
internal_count=36169 15863 14441 10063 20306 19867 12224 4378 1422 613 809 439 237 202 7643
cat_boundaries=0 1 2 3 4 5 6 7 8
cat_threshold=6 4 4 4 2 2 1 466
is_linear=0
shrinkage=0.1


Tree=10
num_leaves=16
num_cat=3
split_feature=5 3 5 1 12 7 5 0 11 2 5 5 5 0 0
split_gain=465.22 183.107 161.774 130.106 95.731 68.4632 55.1125 48.459 42.6399 17.025 12.3516 4.78279 4.24089 3.79416 0.854638
threshold=168.50000000000003 0 475.50000000000006 790.50000000000011 1 2 88.500000000000014 60.500000000000007 13.500000000000002 3.5000000000000004 1106.5000000000002 379.50000000000006 61.500000000000007 29.500000000000004 61.500000000000007
decision_type=2 1 2 2 1 1 2 2 2 2 2 2 2 2 2
left_child=6 2 11 4 -3 -5 12 8 -8 -9 -4 -2 14 -14 -1
right_child=1 3 10 5 -6 -7 7 9 -10 -11 -12 -13 13 -15 -16
leaf_value=-0.10265354054783744 -0.096465781388442418 0.1003316249113949 0.01763828911587027 0.029071389012970728 0.0030773567123378548 0.088427955797391489 -0.062126257653325537 0.12635813920300429 0.0022618857837420998 -0.098412069891660958 0.079725729504061871 -0.058275809856763665 -0.031035935012414931 -0.084842392042764836 -0.011652462644632695
leaf_weight=186.76106629148126 206.42347371578217 102.76677876710892 168.75110105425119 316.97730681300163 1012.1568446233869 502.17759055644274 473.38099222257733 21.855737537145618 131.39871681854129 3.9841410815715781 39.551612257957458 38.986688166856766 14.390510201454161 146.73948183655739 1.0377568937838066
leaf_count=3929 3612 420 1104 2463 7776 3080 7913 195 1599 34 169 639 278 2942 16
internal_value=-0.0020184 0.0217884 -0.0353859 0.0352008 0.0129692 0.0654595 -0.0600509 -0.0424069 -0.0481368 0.0917018 0.0294272 -0.0903988 -0.0919389 -0.0800369 -0.102151
internal_weight=3367.34 2387.79 453.713 1934.08 1114.92 819.155 979.548 630.62 604.78 25.8399 208.303 245.41 348.929 161.13 187.799
internal_count=36169 19263 5524 13739 8196 5543 16906 9741 9512 229 1273 4251 7165 3220 3945
cat_boundaries=0 1 2 3
cat_threshold=4 4 2
is_linear=0
shrinkage=0.1


Tree=11
num_leaves=16
num_cat=3
split_feature=5 3 5 8 5 11 5 0 7 0 5 5 5 13 0
split_gain=399.884 174.633 154.943 120.839 107.659 68.0725 35.3784 34.1562 40.3722 30.3988 10.9535 4.80689 1.37025 4.45062 0.916772
threshold=146.50000000000003 0 475.50000000000006 1 371.50000000000006 8.5000000000000018 77.500000000000014 27.500000000000004 2 60.500000000000007 645.50000000000011 379.50000000000006 59.500000000000007 4.5000000000000009 61.500000000000007
decision_type=2 1 2 9 2 2 2 2 1 2 2 2 2 2 2
left_child=6 2 11 4 -3 -5 12 8 -8 -9 -4 -2 14 -14 -1
right_child=1 3 10 5 -6 -7 7 9 -10 -11 -12 -13 13 -15 -16
leaf_value=-0.10234355632072285 -0.094173042514382993 -0.025330152462520607 -0.0065487190843576447 0.035752430919335755 0.038372399022208702 0.090194779703516803 0.1474720679437643 -0.062468387560531961 -0.084165985393314463 0.065253995705213869 0.042055126774008779 -0.055337070808751304 -0.090359260359990423 0.038674947063935115 -0.004774460286833742
leaf_weight=162.25080884620547 227.85451048985124 551.19760330021381 68.895157016813755 687.26742748171091 511.48773220181465 344.93517885729671 18.10736507922411 450.58210867270827 12.873710844665768 19.438642807304859 141.80230234563351 37.053908366709948 88.288920797407627 2.756529174745082 0.96877375990152259
leaf_count=3746 4348 5626 572 5115 2692 2055 268 7930 244 186 701 639 1975 57 15
internal_value=-0.00193065 0.0168653 -0.0378378 0.0292846 0.00528122 0.053428 -0.0659011 -0.0504826 0.0512184 -0.0571862 0.0261623 -0.0887409 -0.0962817 -0.0864526 -0.101764
internal_weight=3325.76 2570.49 475.606 2094.89 1062.69 1032.2 755.267 501.002 30.9811 470.021 210.697 264.908 254.265 91.0454 163.22
internal_count=36169 21748 6260 15488 8318 7170 14421 8628 512 8116 1273 4987 5793 2032 3761
cat_boundaries=0 1 2 3
cat_threshold=4 718 1
is_linear=0
shrinkage=0.1


Tree=12
num_leaves=15
num_cat=3
split_feature=5 7 5 11 2 11 5 7 0 5 0 9 11 5
split_gain=341.59 147.707 207.172 138.02 88.5773 74.4678 35.2206 28.8983 44.3024 26.4236 16.153 13.63 1.46427 1.30842
threshold=146.50000000000003 0 522.50000000000011 37.500000000000007 1.5000000000000002 373.50000000000006 77.500000000000014 1 27.500000000000004 835.50000000000011 60.500000000000007 2 374.50000000000006 61.500000000000007
decision_type=2 1 2 2 2 2 2 1 2 2 2 1 2 2
left_child=6 2 5 4 -3 -2 12 10 -9 -4 -8 -5 13 -1
right_child=1 3 9 11 -6 -7 7 8 -10 -11 -12 -13 -14 -15
leaf_value=-0.10109788736351853 -0.046170841365768371 0.0584774115437263 0.022386653149714372 0.099257224761705079 -0.0027277467851327003 0.21988272991706098 -0.076100577791804319 0.11730711144371848 -0.03664881854918333 0.070648028374799096 0.1723621698729994 0.012774920984741662 -0.011459363575693911 -0.085102505311930365
leaf_weight=154.38961155712605 745.59631518647075 373.47353705018759 276.51838944852352 310.2739130705595 644.5011915192008 10.670919578522442 227.23748986795545 20.348459467291832 229.4780040755868 192.37026430666447 2.6470336243510237 19.361055135726929 2.0770274586975566 76.469469048082829
leaf_count=3915 9869 2912 1483 1591 4915 58 4560 268 3779 803 21 117 34 1844
internal_value=-0.0018784 0.0150921 -0.0100375 0.0379383 0.0197271 -0.0424168 -0.0631445 -0.0476531 -0.0241091 0.0421868 -0.0732396 0.0941777 -0.0950476 -0.0957996
internal_weight=3285.41 2572.77 1225.16 1347.61 1017.97 756.267 712.647 479.711 249.826 468.889 229.885 329.635 232.936 230.859
internal_count=36169 21748 12213 9535 7827 9927 14421 8628 4047 2286 4581 1708 5793 5759
cat_boundaries=0 1 2 3
cat_threshold=2 2 1
is_linear=0
shrinkage=0.1


Tree=13
num_leaves=16
num_cat=6
split_feature=5 11 7 0 3 11 5 8 9 5 11 3 11 0 3
split_gain=294.376 172.398 102.922 102.857 68.1919 60.0203 48.2167 69.0604 45.0173 22.1516 20.7317 14.6328 6.78194 9.7134 8.71993
threshold=298.50000000000006 8.5000000000000018 0 60.500000000000007 1 100.50000000000001 835.50000000000011 2 3 125.50000000000001 385.50000000000006 4 106.50000000000001 49.500000000000007 5
decision_type=2 2 1 2 1 2 2 9 1 2 2 1 2 2 1
left_child=1 3 5 4 -1 -3 7 10 -9 -4 -2 -5 14 -14 -8
right_child=6 2 9 11 -6 -7 12 8 -10 -11 -12 -13 13 -15 -16
leaf_value=-0.09428665912344969 -0.016100109202851234 0.11844762012787774 0.0035086266135543535 0.12890797042352217 -0.040865972794348907 -0.046084737456579705 0.041596981022684679 0.045635406728879613 -0.026041167392957407 0.086798144025891796 0.25487669865550261 0.016310646251235652 0.052075509316598906 -0.058899378365448202 0.079285499304733081
leaf_weight=329.18117367848754 399.29114328697324 25.215982165187597 38.843679875135422 33.141033072024584 871.78721425309777 183.63682971149683 86.990092739462852 722.74717692285776 99.713516347110271 179.45236968621612 2.8434894233942023 17.70911131426692 33.723692834377289 10.294924333691595 208.60084766149521
leaf_count=7615 3100 239 527 240 13631 2790 368 4675 714 1085 13 141 137 42 852
internal_value=-0.00181206 -0.0308919 0.0239643 -0.0496101 -0.0555084 -0.0262198 0.0294013 0.0201555 0.0365017 0.0719776 -0.0138399 0.0896947 0.0627408 0.0261211 0.0681941
internal_weight=3243.17 1678.97 427.149 1251.82 1200.97 208.853 1564.2 1224.6 822.461 218.296 402.135 50.8501 339.61 44.0186 295.591
internal_count=36169 26268 4641 21627 21246 3029 9901 8502 5389 1612 3113 381 1399 179 1220
cat_boundaries=0 1 2 3 4 5 6
cat_threshold=2 4 142 1 1 4
is_linear=0
shrinkage=0.1


Tree=14
num_leaves=16
num_cat=3
split_feature=5 3 5 1 5 8 5 2 0 1 10 5 5 13 0
split_gain=263.409 135.393 123.793 99.6531 82.0941 46.0642 24.6447 18.8289 19.1233 18.6848 9.9964 4.77549 1.62781 4.46688 1.41447
threshold=130.50000000000003 0 475.50000000000006 887.50000000000011 548.50000000000011 1 77.500000000000014 1.5000000000000002 25.500000000000004 105.50000000000001 2 405.50000000000006 59.500000000000007 4.5000000000000009 63.500000000000007
decision_type=2 1 2 2 2 9 2 2 2 2 1 2 2 2 2
left_child=6 2 11 4 -3 -5 12 9 -9 -8 -4 -2 14 -14 -1
right_child=1 3 10 5 -6 -7 7 8 -10 -11 -12 -13 13 -15 -16
leaf_value=-0.1006204174458343 -0.090400937226372741 -0.011479270944644758 -0.00020872423571239148 -0.0056768426207818908 0.044541647000418488 0.056992367719181453 -0.082748178424988189 0.10015535222003534 -0.073100552241989428 0.0041074895366043944 0.04359951221707651 -0.043293091814188972 -0.085965556967162335 0.047278271201332947 0.047488170119679339
leaf_weight=128.16786141321063 225.38066583499312 948.32554284110665 128.87956384569407 144.83827341347933 361.22313591837883 743.97563689574599 33.608723413199186 6.5803776867687693 199.93938026204705 94.159241382032633 87.417615689337254 23.791033390909433 71.731067430227995 2.6074545681476584 0.64807244762778182
leaf_count=3750 5099 8925 771 1184 1570 5118 715 110 4176 1780 502 426 1975 57 11
internal_value=-0.00174445 0.01114 -0.0378546 0.0215139 0.00397342 0.0473573 -0.0656063 -0.0489127 -0.0675801 -0.0187395 0.0174966 -0.0859031 -0.0930753 -0.081292 -0.0998753
internal_weight=3201.27 2663.83 465.469 2198.36 1309.55 888.814 537.442 334.288 206.52 127.768 216.297 249.172 203.154 74.3385 128.816
internal_count=36169 23595 6798 16797 10495 6302 12574 6781 4286 2495 1273 5525 5793 2032 3761
cat_boundaries=0 1 2 3
cat_threshold=4 6 2
is_linear=0
shrinkage=0.1


end of trees

feature_importances:
duration=102
pdays=30
contact=24
age=17
housing=16
poutcome=14
job=5
balance=4
marital=4
campaign=3
loan=3
previous=2

parameters:
[boosting: gbdt]
[objective: binary]
[metric: binary_logloss]
[tree_learner: serial]
[device_type: cpu]
[data_sample_strategy: bagging]
[data: ]
[valid: ]
[num_iterations: 15]
[learning_rate: 0.1]
[num_leaves: 31]
[num_threads: 0]
[seed: 42]
[deterministic: 0]
[force_col_wise: 0]
[force_row_wise: 0]
[histogram_pool_size: -1]
[max_depth: 4]
[min_data_in_leaf: 20]
[min_sum_hessian_in_leaf: 0.001]
[bagging_fraction: 1]
[pos_bagging_fraction: 1]
[neg_bagging_fraction: 1]
[bagging_freq: 0]
[bagging_seed: 400]
[bagging_by_query: 0]
[feature_fraction: 1]
[feature_fraction_bynode: 1]
[feature_fraction_seed: 30056]
[extra_trees: 0]
[extra_seed: 12879]
[early_stopping_round: 0]
[early_stopping_min_delta: 0]
[first_metric_only: 0]
[max_delta_step: 0]
[lambda_l1: 0]
[lambda_l2: 0]
[linear_lambda: 0]
[min_gain_to_split: 0]
[drop_rate: 0.1]
[max_drop: 50]
[skip_drop: 0.5]
[xgboost_dart_mode: 0]
[uniform_drop: 0]
[drop_seed: 17869]
[top_rate: 0.2]
[other_rate: 0.1]
[min_data_per_group: 100]
[max_cat_threshold: 32]
[cat_l2: 10]
[cat_smooth: 10]
[max_cat_to_onehot: 4]
[top_k: 20]
[monotone_constraints: ]
[monotone_constraints_method: basic]
[monotone_penalty: 0]
[feature_contri: ]
[forcedsplits_filename: ]
[refit_decay_rate: 0.9]
[cegb_tradeoff: 1]
[cegb_penalty_split: 0]
[cegb_penalty_feature_lazy: ]
[cegb_penalty_feature_coupled: ]
[path_smooth: 0]
[interaction_constraints: ]
[verbosity: -1]
[saved_feature_importance_type: 0]
[use_quantized_grad: 0]
[num_grad_quant_bins: 4]
[quant_train_renew_leaf: 0]
[stochastic_rounding: 1]
[linear_tree: 0]
[max_bin: 255]
[max_bin_by_feature: ]
[min_data_in_bin: 3]
[bin_construct_sample_cnt: 200000]
[data_random_seed: 175]
[is_enable_sparse: 1]
[enable_bundle: 1]
[use_missing: 1]
[zero_as_missing: 0]
[feature_pre_filter: 0]
[pre_partition: 0]
[two_round: 0]
[header: 0]
[label_column: ]
[weight_column: ]
[group_column: ]
[ignore_column: ]
[categorical_feature: 3,4,6,7,8,9,10,12]
[forcedbins_filename: ]
[precise_float_parser: 0]
[parser_config_file: ]
[objective_seed: 16083]
[num_class: 1]
[is_unbalance: 0]
[scale_pos_weight: 1]
[sigmoid: 1]
[boost_from_average: 1]
[reg_sqrt: 0]
[alpha: 0.9]
[fair_c: 1]
[poisson_max_delta_step: 0.7]
[tweedie_variance_power: 1.5]
[lambdarank_truncation_level: 30]
[lambdarank_norm: 1]
[label_gain: ]
[lambdarank_position_bias_regularization: 0]
[eval_at: ]
[multi_error_top_k: 1]
[auc_mu_weights: ]
[num_machines: 1]
[local_listen_port: 12400]
[time_out: 120]
[machine_list_filename: ]
[machines: ]
[gpu_platform_id: -1]
[gpu_device_id: -1]
[gpu_use_dp: 0]
[num_gpu: 1]

end of parameters

pandas_categorical:[["cellular", "telephone", "unknown"], ["no", "yes"], ["primary", "secondary", "tertiary", "unknown"], ["no", "yes"], ["admin.", "blue-collar", "entrepreneur", "housemaid", "management", "retired", "self-employed", "services", "student", "technician", "unemployed", "unknown"], ["no", "yes"], ["divorced", "married", "single"], ["failure", "other", "success", "unknown"]]
