{"learner":{"attributes":{},"feature_names":["age","capital_gain","capital_loss","education","education_num","fnlwgt","hours_per_week","marital_status","native_country","occupation","race","relationship","sex","workclass"],"feature_types":["int","int","int","float","int","int","int","float","float","float","float","float","float","float"],"gradient_booster":{"model":{"cats":{"enc":[],"feature_segments":[],"sorted_idx":[]},"gbtree_model_param":{"num_parallel_tree":"1","num_trees":"100"},"iteration_indptr":[0,1,2,3,4,5,6,7,8,9,10,11,12,13,14,15,16,17,18,19,20,21,22,23,24,25,26,27,28,29,30,31,32,33,34,35,36,37,38,39,40,41,42,43,44,45,46,47,48,49,50,51,52,53,54,55,56,57,58,59,60,61,62,63,64,65,66,67,68,69,70,71,72,73,74,75,76,77,78,79,80,81,82,83,84,85,86,87,88,89,90,91,92,93,94,95,96,97,98,99,100],"tree_info":[0,0,0,0,0,0,0,0,0,0,0,0,0,0,0,0,0,0,0,0,0,0,0,0,0,0,0,0,0,0,0,0,0,0,0,0,0,0,0,0,0,0,0,0,0,0,0,0,0,0,0,0,0,0,0,0,0,0,0,0,0,0,0,0,0,0,0,0,0,0,0,0,0,0,0,0,0,0,0,0,0,0,0,0,0,0,0,0,0,0,0,0,0,0,0,0,0,0,0,0],"trees":[{"base_weights":[4.3395566E-8,1.132046E0,-7.7118987E-1,4.8413634E-1,2.6209898E0,-8.823517E-1,3.9513072E-1,2.8837276E-1,3.995528E-1,2.34613E0,4.0956768E-1,-1.0404152E0,1.0349613E0,-7.9896696E-2,4.8919357E-2,4.144997E-2,2.5024396E-1,-1.1778893E-1,-4.7872018E-2,3.792635E-2,2.1158254E-1],"categories":[],"categories_nodes":[],"categories_segments":[],"categories_sizes":[],"default_left":[0,0,0,0,0,0,0,0,0,0,0,0,0,0,0,0,0,0,0,0,0],"id":0,"left_children":[1,3,5,7,9,11,-1,13,-1,15,-1,17,19,-1,-1,-1,-1,-1,-1,-1,-1],"loss_changes":[4.159397E3,1.8611033E3,1.4911471E3,9.243645E2,2.2755933E2,8.4039136E2,0E0,2.791007E2,0E0,1.4858154E2,0E0,1.9704321E2,1.49042E2,0E0,0E0,0E0,0E0,0E0,0E0,0E0,0E0],"parents":[2147483647,0,0,1,1,2,2,3,3,4,4,5,5,7,7,9,9,11,11,12,12],"right_children":[2,4,6,8,10,12,-1,14,-1,16,-1,18,20,-1,-1,-1,-1,-1,-1,-1,-1],"split_conditions":[1E0,1.3E1,7.298E3,5.06E3,5.06E3,5E0,3.9513072E-1,8E0,3.995528E-1,3.1E1,4.0956768E-1,1.3E1,1.1E1,-7.9896696E-2,4.8919357E-2,4.144997E-2,2.5024396E-1,-1.1778893E-1,-4.7872018E-2,3.792635E-2,2.1158254E-1],"split_indices":[11,4,1,1,1,11,0,4,0,6,0,4,4,0,0,0,0,0,0,0,0],"split_type":[0,0,0,0,0,0,0,0,0,0,0,0,0,0,0,0,0,0,0,0,0],"sum_hessian":[4.7623647E3,1.9295172E3,2.8328472E3,1.3453967E3,5.841205E2,2.7684934E3,6.4353806E1,1.2753755E3,7.002133E1,4.9453708E2,8.958343E1,2.5580637E3,2.1042964E2,1.983633E2,1.0770122E3,3.7295956E1,4.5724112E2,2.054203E3,5.0386105E2,1.3181561E2,7.861403E1],"tree_param":{"num_deleted":"0","num_feature":"14","num_nodes":"21","size_leaf_vector":"1"}},{"base_weights":[-5.1304987E-3,9.58165E-1,-7.275782E-1,4.2302176E-1,2.0734892E0,-8.358721E-1,2.9673357E0,2.5495487E-1,2.9944654E0,1.8778158E0,3.055272E-1,-9.934281E-1,8.824581E-1,6.70053E-2,2.9912493E0,1.6484654E-2,2.4946263E-1,3.027281E-1,1.4233004E-1,1.7126657E-1,3.2599643E-1,-1.06053375E-1,1.808894E-2,4.4567723E-2,1.968102E-1,6.70053E-2,3.015853E-1],"categories":[],"categories_nodes":[],"categories_segments":[],"categories_sizes":[],"default_left":[0,0,0,0,0,0,0,0,0,0,0,0,0,0,0,0,0,0,0,0,0,0,0,0,0,0,0],"id":1,"left_children":[1,3,5,7,9,11,13,15,17,19,-1,21,23,-1,25,-1,-1,-1,-1,-1,-1,-1,-1,-1,-1,-1,-1],"loss_changes":[3.310199E3,1.2157985E3,1.0900669E3,5.9510834E2,1.2118701E2,7.159978E2,2.2595215E0,2.6099365E2,4.7668457E-2,1.2075757E2,0E0,1.9089917E2,1.0457443E2,0E0,2.3496094E0,0E0,0E0,0E0,0E0,0E0,0E0,0E0,0E0,0E0,0E0,0E0,0E0],"parents":[2147483647,0,0,1,1,2,2,3,3,4,4,5,5,6,6,7,7,8,8,9,9,11,11,12,12,14,14],"right_children":[2,4,6,8,10,12,14,16,18,20,-1,22,24,-1,26,-1,-1,-1,-1,-1,-1,-1,-1,-1,-1,-1,-1],"split_conditions":[1E0,1.3E1,7.298E3,5.06E3,5.06E3,5E0,2.3E1,1.741E3,7E1,1.741E3,3.055272E-1,1.4E1,1.3E1,6.70053E-2,2.9312E4,1.6484654E-2,2.4946263E-1,3.027281E-1,1.4233004E-1,1.7126657E-1,3.2599643E-1,-1.06053375E-1,1.808894E-2,4.4567723E-2,1.968102E-1,6.70053E-2,3.015853E-1],"split_indices":[11,4,1,1,1,11,0,2,0,2,0,4,4,0,5,0,0,0,0,0,0,0,0,0,0,0,0],"split_type":[0,0,0,0,0,0,0,0,0,0,0,0,0,0,0,0,0,0,0,0,0,0,0,0,0,0,0],"sum_hessian":[4.7545054E3,2.0374668E3,2.7170386E3,1.3777759E3,6.5969086E2,2.6404243E3,7.661417E1,1.2942821E3,8.349379E1,5.5249005E2,1.0720082E2,2.419041E3,2.2138326E2,1.0882694E0,7.5525894E1,1.2452555E3,4.9026566E1,8.087779E1,2.6159933E0,4.9552042E2,5.696962E1,2.2883704E3,1.3067062E2,1.5887465E2,6.250861E1,1.0882694E0,7.443762E1],"tree_param":{"num_deleted":"0","num_feature":"14","num_nodes":"27","size_leaf_vector":"1"}},{"base_weights":[-7.754424E-3,8.288147E-1,-6.878522E-1,4.173577E-2,1.384274E0,-8.044332E-1,2.1594012E0,-8.712881E-2,2.42295E0,1.2101042E0,2.5107118E-1,-9.6072626E-1,7.562287E-1,7.7739245E-1,2.4447E0,-7.650543E-2,1.1802656E-2,5.174623E-2,2.462058E-1,5.2564133E-2,1.473755E-1,-1.1006663E-1,-4.1561224E-2,2.134988E-3,1.2555106E-1,3.6560023E-1,-2.6417194E-2,6.270793E-2,2.4614535E-1],"categories":[],"categories_nodes":[],"categories_segments":[],"categories_sizes":[],"default_left":[0,0,0,0,0,0,0,0,0,0,0,0,0,0,0,0,0,0,0,0,0,0,0,0,0,0,0,0,0],"id":2,"left_children":[1,3,5,7,9,11,13,15,17,19,-1,21,23,25,27,-1,-1,-1,-1,-1,-1,-1,-1,-1,-1,-1,-1,-1,-1],"loss_changes":[2.681393E3,9.2387415E2,8.6461975E2,2.688314E2,2.4003076E2,6.1004614E2,3.852298E1,1.1572475E2,2.0776672E0,1.9321143E2,0E0,1.727876E2,8.3611725E1,5.7960827E1,1.0300293E0,0E0,0E0,0E0,0E0,0E0,0E0,0E0,0E0,0E0,0E0,0E0,0E0,0E0,0E0],"parents":[2147483647,0,0,1,1,2,2,3,3,4,4,5,5,6,6,7,7,8,8,9,9,11,11,12,12,13,13,14,14],"right_children":[2,4,6,8,10,12,14,16,18,20,-1,22,24,26,28,-1,-1,-1,-1,-1,-1,-1,-1,-1,-1,-1,-1,-1,-1],"split_conditions":[1E0,1E1,4.687E3,5.06E3,5.06E3,5E0,7.298E3,8E0,2.6E1,3.6E1,2.5107118E-1,1.3E1,1E1,4.865E3,2.3E1,-7.650543E-2,1.1802656E-2,5.174623E-2,2.462058E-1,5.2564133E-2,1.473755E-1,-1.1006663E-1,-4.1561224E-2,2.134988E-3,1.2555106E-1,3.6560023E-1,-2.6417194E-2,6.270793E-2,2.4614535E-1],"split_indices":[11,4,1,1,1,11,1,4,6,0,0,4,4,1,0,0,0,0,0,0,0,0,0,0,0,0,0,0,0],"split_type":[0,0,0,0,0,0,0,0,0,0,0,0,0,0,0,0,0,0,0,0,0,0,0,0,0,0,0,0,0],"sum_hessian":[4.710888E3,2.1123398E3,2.5985483E3,8.7440045E2,1.2379395E3,2.497025E3,1.01523384E2,8.3042365E2,4.3976772E1,1.0739584E3,1.6398112E2,2.2700723E3,2.2695277E2,1.800938E1,8.3514E1,1.9228815E2,6.3813556E2,1.1706372E0,4.2806133E1,2.9947803E2,7.744803E2,1.80554E3,4.6453214E2,9.223599E1,1.3471678E2,4.1180544E0,1.3891326E1,1.1137199E0,8.240028E1],"tree_param":{"num_deleted":"0","num_feature":"14","num_nodes":"29","size_leaf_vector":"1"}},{"base_weights":[-9.530608E-3,7.2515386E-1,-6.513396E-1,3.1449983E-1,1.5170591E0,-7.6413804E-1,1.8703011E0,1.8390481E-1,2.131553E0,1.7093518E-1,1.6073624E0,-9.197572E-1,6.59857E-1,6.87481E-1,2.1129014E0,-3.7023704E-2,4.2796865E-2,2.1927825E-1,1.4800195E-1,-1.3518271E-2,1.223264E-1,4.123951E-2,1.667932E-1,-9.425664E-2,2.4979706E-1,2.1814585E-2,1.2879057E-1,2.8771812E-1,-2.430171E-2,4.751334E-2,2.1299194E-1],"categories":[],"categories_nodes":[],"categories_segments":[],"categories_sizes":[],"default_left":[0,0,0,0,0,0,0,0,0,0,0,0,0,0,0,0,0,0,0,0,0,0,0,0,0,0,0,0,0,0,0],"id":3,"left_children":[1,3,5,7,9,11,13,15,17,19,21,23,25,27,29,-1,-1,-1,-1,-1,-1,-1,-1,-1,-1,-1,-1,-1,-1,-1,-1],"loss_changes":[2.192456E3,7.045509E2,7.073175E2,3.3868756E2,8.968787E1,5.2716455E2,2.9121887E1,1.8060365E2,5.730896E-1,1.5513481E1,4.9501465E1,1.6937268E2,6.482146E1,4.0667927E1,1.4387817E0,0E0,0E0,0E0,0E0,0E0,0E0,0E0,0E0,0E0,0E0,0E0,0E0,0E0,0E0,0E0,0E0],"parents":[2147483647,0,0,1,1,2,2,3,3,4,4,5,5,6,6,7,7,8,8,9,9,10,10,11,11,12,12,13,13,14,14],"right_children":[2,4,6,8,10,12,14,16,18,20,22,24,26,28,30,-1,-1,-1,-1,-1,-1,-1,-1,-1,-1,-1,-1,-1,-1,-1,-1],"split_conditions":[1E0,1.3E1,4.687E3,5.06E3,3.1E1,5E0,7.298E3,3.6E1,6.2E1,1.5E1,2.9E1,2.231E3,1.1E1,4.865E3,2.9312E4,-3.7023704E-2,4.2796865E-2,2.1927825E-1,1.4800195E-1,-1.3518271E-2,1.223264E-1,4.123951E-2,1.667932E-1,-9.425664E-2,2.4979706E-1,2.1814585E-2,1.2879057E-1,2.8771812E-1,-2.430171E-2,4.751334E-2,2.1299194E-1],"split_indices":[11,4,1,1,6,11,1,0,0,4,0,2,4,1,5,0,0,0,0,0,0,0,0,0,0,0,0,0,0,0,0],"split_type":[0,0,0,0,0,0,0,0,0,0,0,0,0,0,0,0,0,0,0,0,0,0,0,0,0,0,0,0,0,0,0],"sum_hessian":[4.6476914E3,2.1669893E3,2.480702E3,1.4279183E3,7.390709E2,2.375153E3,1.0554879E2,1.3332001E3,9.471837E1,4.664474E1,6.924262E2,2.141479E3,2.336742E2,1.8616438E1,8.693236E1,4.074886E2,9.257114E2,8.4419304E1,1.0299064E1,3.680877E1,9.835972E0,3.3780704E1,6.5864545E2,2.1280012E3,1.3477595E1,1.3797954E2,9.569466E1,4.9278526E0,1.3688585E1,1.1914172E0,8.574094E1],"tree_param":{"num_deleted":"0","num_feature":"14","num_nodes":"31","size_leaf_vector":"1"}},{"base_weights":[-1.0431444E-2,6.409427E-1,-6.17048E-1,8.117998E-3,1.0614543E0,-7.2571677E-1,1.6655364E0,-9.7316496E-2,1.8724655E0,9.2311275E-1,1.977138E-1,-8.8030773E-1,5.8101195E-1,6.1697024E-1,1.8822932E0,-1.7027708E-2,1.7423818E-1,1.9212042E-1,6.0892012E-2,8.141492E-2,2.1389697E-1,-1.02786176E-1,-2.8046677E-2,-8.669045E-2,7.339943E-2,1.6316979E-1,-9.828712E-2,4.4679385E-2,1.8968914E-1],"categories":[],"categories_nodes":[],"categories_segments":[],"categories_sizes":[],"default_left":[0,0,0,0,0,0,0,0,0,0,0,0,0,0,0,0,0,0,0,0,0,0,0,0,0,0,0,0,0],"id":4,"left_children":[1,3,5,7,9,11,13,15,17,19,-1,21,23,25,27,-1,-1,-1,-1,-1,-1,-1,-1,-1,-1,-1,-1,-1,-1],"loss_changes":[1.8062445E3,5.865772E2,5.883123E2,1.7335823E2,1.659325E2,4.570609E2,2.335495E1,1.1234787E2,1.7372589E0,1.5092712E2,0E0,1.7862036E2,5.3729004E1,3.4016117E1,1.0155029E0,0E0,0E0,0E0,0E0,0E0,0E0,0E0,0E0,0E0,0E0,0E0,0E0,0E0,0E0],"parents":[2147483647,0,0,1,1,2,2,3,3,4,4,5,5,6,6,7,7,8,8,9,9,11,11,12,12,13,13,14,14],"right_children":[2,4,6,8,10,12,14,16,18,20,-1,22,24,26,28,-1,-1,-1,-1,-1,-1,-1,-1,-1,-1,-1,-1,-1,-1],"split_conditions":[1E0,1E1,4.687E3,5.06E3,5.06E3,5E0,7.298E3,1.741E3,6.6E1,1.848E3,1.977138E-1,4.5E1,9E0,5.455E3,2.9312E4,-1.7027708E-2,1.7423818E-1,1.9212042E-1,6.0892012E-2,8.141492E-2,2.1389697E-1,-1.02786176E-1,-2.8046677E-2,-8.669045E-2,7.339943E-2,1.6316979E-1,-9.828712E-2,4.4679385E-2,1.8968914E-1],"split_indices":[11,4,1,1,1,11,1,2,0,2,0,6,4,1,5,0,0,0,0,0,0,0,0,0,0,0,0,0,0],"split_type":[0,0,0,0,0,0,0,0,0,0,0,0,0,0,0,0,0,0,0,0,0,0,0,0,0,0,0,0,0],"sum_hessian":[4.5692153E3,2.203297E3,2.3659182E3,8.8000446E2,1.3232927E3,2.2590518E3,1.0686635E2,8.3379846E2,4.6206024E1,1.1513541E3,1.7193855E2,2.0203617E3,2.3869011E2,1.8965693E1,8.790065E1,8.0286505E2,3.0933374E1,4.3988758E1,2.217267E0,1.0581902E3,9.316402E1,1.6209204E3,3.994412E2,2.2363338E1,2.1632677E2,1.1592827E1,7.372866E0,1.2030859E0,8.669756E1],"tree_param":{"num_deleted":"0","num_feature":"14","num_nodes":"29","size_leaf_vector":"1"}},{"base_weights":[-1.0997716E-2,3.915439E-1,-8.464913E-1,4.6116993E-2,1.1125157E0,-9.161106E-1,1.7356279E0,-5.607595E-2,1.6871454E0,9.852948E-1,1.798213E-1,-9.882732E-1,2.5489345E-1,3.6759358E-2,1.7803971E-1,-8.496686E-2,1.3717042E-2,1.0017607E-1,1.7523232E-1,8.779784E-2,1.9441944E-1,-1.00885086E-1,1.8656404E-1,-7.5201765E-2,7.6629035E-2],"categories":[],"categories_nodes":[],"categories_segments":[],"categories_sizes":[],"default_left":[0,0,0,0,0,0,0,0,0,0,0,0,0,0,0,0,0,0,0,0,0,0,0,0,0],"id":5,"left_children":[1,3,5,7,9,11,13,15,17,19,-1,21,23,-1,-1,-1,-1,-1,-1,-1,-1,-1,-1,-1,-1],"loss_changes":[1.5083279E3,7.53702E2,2.637246E2,3.434246E2,8.3747314E1,1.2029443E2,1.7114487E0,2.958261E2,3.6074524E0,8.36142E1,0E0,8.0477295E1,4.3447227E1,0E0,0E0,0E0,0E0,0E0,0E0,0E0,0E0,0E0,0E0,0E0,0E0],"parents":[2147483647,0,0,1,1,2,2,3,3,4,4,5,5,6,6,7,7,8,8,9,9,11,11,12,12],"right_children":[2,4,6,8,10,12,14,16,18,20,-1,22,24,-1,-1,-1,-1,-1,-1,-1,-1,-1,-1,-1,-1],"split_conditions":[3E0,1.3E1,7.688E3,5.06E3,5.06E3,1.4E1,2.1E1,1E0,1E0,1.755E3,1.798213E-1,2.231E3,3.3E1,3.6759358E-2,1.7803971E-1,-8.496686E-2,1.3717042E-2,1.0017607E-1,1.7523232E-1,8.779784E-2,1.9441944E-1,-1.00885086E-1,1.8656404E-1,-7.5201765E-2,7.6629035E-2],"split_indices":[7,4,1,1,1,4,6,7,7,2,0,2,0,0,0,0,0,0,0,0,0,0,0,0,0],"split_type":[0,0,0,0,0,0,0,0,0,0,0,0,0,0,0,0,0,0,0,0,0,0,0,0,0],"sum_hessian":[4.4828022E3,3.025598E3,1.4572046E3,2.0462683E3,9.793295E2,1.4195751E3,3.7629467E1,1.927219E3,1.1904927E2,8.28121E2,1.5120856E2,1.3373193E3,8.22557E1,1.4842894E0,3.6145176E1,3.7672977E2,1.5504893E3,1.1759587E1,1.0728968E2,7.4649207E2,8.1628914E1,1.3283878E3,8.931604E0,2.754691E1,5.4708794E1],"tree_param":{"num_deleted":"0","num_feature":"14","num_nodes":"25","size_leaf_vector":"1"}},{"base_weights":[-1.1234772E-2,3.5239676E-1,-8.1384677E-1,4.1510563E-2,9.886837E-1,-8.8173354E-1,1.6059371E0,-7.560404E-1,2.1767217E-1,8.696475E-1,1.6575693E-1,-1.038562E0,-3.4206143E-1,2.7775643E-2,1.6436413E-1,-8.144936E-2,1.4629124E-1,1.2265173E-2,1.6179173E-1,7.736815E-2,1.7386392E-1,-1.05423264E-1,1.1929103E-1,-8.527949E-2,2.7525336E-2],"categories":[],"categories_nodes":[],"categories_segments":[],"categories_sizes":[],"default_left":[0,0,0,0,0,0,0,0,0,0,0,0,0,0,0,0,0,0,0,0,0,0,0,0,0],"id":6,"left_children":[1,3,5,7,9,11,13,15,17,19,-1,21,23,-1,-1,-1,-1,-1,-1,-1,-1,-1,-1,-1,-1],"loss_changes":[1.2827501E3,5.9830005E2,2.265326E2,2.8579916E2,7.760419E1,1.1251892E2,1.4339981E0,4.892708E1,2.2146408E2,6.91131E1,0E0,3.7375244E1,9.5381836E1,0E0,0E0,0E0,0E0,0E0,0E0,0E0,0E0,0E0,0E0,0E0,0E0],"parents":[2147483647,0,0,1,1,2,2,3,3,4,4,5,5,6,6,7,7,8,8,9,9,11,11,12,12],"right_children":[2,4,6,8,10,12,14,16,18,20,-1,22,24,-1,-1,-1,-1,-1,-1,-1,-1,-1,-1,-1,-1],"split_conditions":[3E0,1.3E1,7.688E3,1E0,5.06E3,1.3E1,2.3E1,8.614E3,5.06E3,1.755E3,1.6575693E-1,2.231E3,3.3E1,2.7775643E-2,1.6436413E-1,-8.144936E-2,1.4629124E-1,1.2265173E-2,1.6179173E-1,7.736815E-2,1.7386392E-1,-1.05423264E-1,1.1929103E-1,-8.527949E-2,2.7525336E-2],"split_indices":[7,4,1,7,1,4,0,1,1,2,0,2,0,0,0,0,0,0,0,0,0,0,0,0,0],"split_type":[0,0,0,0,0,0,0,0,0,0,0,0,0,0,0,0,0,0,0,0,0,0,0,0,0],"sum_hessian":[4.3931797E3,3.0237842E3,1.3693953E3,2.0320173E3,9.917669E2,1.3326438E3,3.675157E1,3.6703186E2,1.6649855E3,8.4388727E2,1.4787967E2,1.031861E3,3.0078284E2,1.2454541E0,3.5506115E1,3.5822812E2,8.803757E0,1.5601982E3,1.0478725E2,7.616641E2,8.2223145E1,1.0251891E3,6.67184E0,1.6439209E2,1.3639075E2],"tree_param":{"num_deleted":"0","num_feature":"14","num_nodes":"25","size_leaf_vector":"1"}},{"base_weights":[-1.12883635E-2,3.1816897E-1,-7.8276014E-1,3.7470885E-2,8.8505095E-1,-8.567865E-1,1.2654126E0,-7.223071E-1,1.9554928E-1,7.764799E-1,1.5725727E-1,-1.0144982E0,-3.3541292E-1,2.5328535E-1,1.5038786E0,-7.92837E-2,9.7535245E-2,-6.5045744E-2,3.3666402E-2,5.863266E-3,8.816975E-2,-1.0267818E-1,1.6629486E-1,-1.02093056E-1,4.900023E-3,1.8755464E-1,-6.757475E-2,2.7850822E-2,1.5469554E-1],"categories":[],"categories_nodes":[],"categories_segments":[],"categories_sizes":[],"default_left":[0,0,0,0,0,0,0,0,0,0,0,0,0,0,0,0,0,0,0,0,0,0,0,0,0,0,0,0,0],"id":7,"left_children":[1,3,5,7,9,11,13,15,17,19,-1,21,23,25,27,-1,-1,-1,-1,-1,-1,-1,-1,-1,-1,-1,-1,-1,-1],"loss_changes":[1.0936746E3,4.797723E2,1.9632037E2,2.4248346E2,7.331616E1,1.0189691E2,1.0557518E1,4.2408203E1,1.9971425E2,6.523273E1,0E0,3.308661E1,7.6538124E1,1.6104113E1,1.4945526E0,0E0,0E0,0E0,0E0,0E0,0E0,0E0,0E0,0E0,0E0,0E0,0E0,0E0,0E0],"parents":[2147483647,0,0,1,1,2,2,3,3,4,4,5,5,6,6,7,7,8,8,9,9,11,11,12,12,13,13,14,14],"right_children":[2,4,6,8,10,12,14,16,18,20,-1,22,24,26,28,-1,-1,-1,-1,-1,-1,-1,-1,-1,-1,-1,-1,-1,-1],"split_conditions":[3E0,1.3E1,4.687E3,1E0,7.298E3,1.3E1,7.688E3,4.687E3,9E0,1E0,1.5725727E-1,2.352E3,2.8E1,4.865E3,2.1E1,-7.92837E-2,9.7535245E-2,-6.5045744E-2,3.3666402E-2,5.863266E-3,8.816975E-2,-1.0267818E-1,1.6629486E-1,-1.02093056E-1,4.900023E-3,1.8755464E-1,-6.757475E-2,2.7850822E-2,1.5469554E-1],"split_indices":[7,4,1,7,1,4,1,1,4,7,0,2,0,1,6,0,0,0,0,0,0,0,0,0,0,0,0,0,0],"split_type":[0,0,0,0,0,0,0,0,0,0,0,0,0,0,0,0,0,0,0,0,0,0,0,0,0,0,0,0,0],"sum_hessian":[4.300996E3,3.0143179E3,1.2866781E3,2.0167616E3,9.975564E2,1.2423577E3,4.432038E1,3.4672333E2,1.6700382E3,8.633487E2,1.3420767E2,9.5310455E2,2.8925317E2,8.844326E0,3.5476055E1,3.3340488E2,1.3318445E1,2.3822566E2,1.4318125E3,1.1056645E2,7.527822E2,9.4936554E2,3.7389767E0,1.03330246E2,1.8592294E2,2.8495955E0,5.9947305E0,1.4583005E0,3.4017754E1],"tree_param":{"num_deleted":"0","num_feature":"14","num_nodes":"29","size_leaf_vector":"1"}},{"base_weights":[-1.1434439E-2,2.8699586E-1,-7.527968E-1,-1.6715068E-1,5.8657646E-1,-8.248703E-1,1.1913908E0,-2.530152E-1,1.2672005E0,-1.8731816E-1,7.167799E-1,-9.8892426E-1,-3.1048086E-1,2.421888E-1,1.4204558E0,-3.112687E-2,1.353697E-1,5.160938E-2,1.4292678E-1,-5.9761744E-2,5.9191357E-2,-4.7193017E-2,7.9555914E-2,-1.0061637E-1,9.8011464E-2,-6.4985104E-2,4.174517E-2,1.697477E-1,-6.4052366E-2,2.0468278E-2,1.4592487E-1],"categories":[],"categories_nodes":[],"categories_segments":[],"categories_sizes":[],"default_left":[0,0,0,0,0,0,0,0,0,0,0,0,0,0,0,0,0,0,0,0,0,0,0,0,0,0,0,0,0,0,0],"id":8,"left_children":[1,3,5,7,9,11,13,15,17,19,21,23,25,27,29,-1,-1,-1,-1,-1,-1,-1,-1,-1,-1,-1,-1,-1,-1,-1,-1],"loss_changes":[9.3264984E2,4.0902203E2,1.705152E2,1.4754657E2,1.8263818E2,9.819153E1,9.14835E0,1.060658E2,7.5016556E0,8.4002655E1,1.4557996E2,3.101117E1,7.035646E1,1.353878E1,1.3503494E0,0E0,0E0,0E0,0E0,0E0,0E0,0E0,0E0,0E0,0E0,0E0,0E0,0E0,0E0,0E0,0E0],"parents":[2147483647,0,0,1,1,2,2,3,3,4,4,5,5,6,6,7,7,8,8,9,9,10,10,11,11,12,12,13,13,14,14],"right_children":[2,4,6,8,10,12,14,16,18,20,22,24,26,28,30,-1,-1,-1,-1,-1,-1,-1,-1,-1,-1,-1,-1,-1,-1,-1,-1],"split_conditions":[3E0,1E1,4.687E3,4.386E3,1E0,1.3E1,7.688E3,1.816E3,5.06E3,4.4E1,2.8E1,2.231E3,4.4E1,4.865E3,2.3E1,-3.112687E-2,1.353697E-1,5.160938E-2,1.4292678E-1,-5.9761744E-2,5.9191357E-2,-4.7193017E-2,7.9555914E-2,-1.0061637E-1,9.8011464E-2,-6.4985104E-2,4.174517E-2,1.697477E-1,-6.4052366E-2,2.0468278E-2,1.4592487E-1],"split_indices":[7,4,1,1,7,4,1,2,1,6,0,2,6,1,0,0,0,0,0,0,0,0,0,0,0,0,0,0,0,0,0],"split_type":[0,0,0,0,0,0,0,0,0,0,0,0,0,0,0,0,0,0,0,0,0,0,0,0,0,0,0,0,0,0,0],"sum_hessian":[4.213485E3,3.0046118E3,1.2088728E3,1.1944055E3,1.8102064E3,1.1662156E3,4.265731E1,1.1277205E3,6.6685074E1,2.606332E2,1.5495732E3,8.835142E2,2.8270132E2,8.692897E0,3.3964413E1,1.089042E3,3.867842E1,1.2577708E1,5.4107365E1,1.7088692E2,8.97463E1,9.600164E1,1.4535715E3,8.763307E2,7.183524E0,1.9288397E2,8.981736E1,2.9335167E0,5.75938E0,1.2442942E0,3.272012E1],"tree_param":{"num_deleted":"0","num_feature":"14","num_nodes":"31","size_leaf_vector":"1"}},{"base_weights":[-1.1479463E-2,-8.268299E-1,2.3245707E-1,-8.6508614E-1,1.2090687E0,-1.7446393E-2,7.049496E-1,-1.0513786E0,-5.823129E-1,2.2995397E-3,1.289803E0,2.622655E-1,-4.7502074E-1,4.2664164E-1,1.0023032E0,-1.0609585E-1,1.8867565E-2,-7.433901E-2,-2.6731938E-2,5.6782078E-2,1.3960354E-1,-8.459772E-2,3.584906E-2,-6.804994E-2,4.2906735E-2,3.1677585E-2,1.4436738E-1,8.886942E-2,1.5005025E-1],"categories":[],"categories_nodes":[],"categories_segments":[],"categories_sizes":[],"default_left":[0,0,0,0,0,0,0,0,0,0,0,0,0,0,0,0,0,0,0,0,0,0,0,0,0,0,0,0,0],"id":9,"left_children":[1,3,5,7,9,11,13,15,17,-1,19,21,23,25,27,-1,-1,-1,-1,-1,-1,-1,-1,-1,-1,-1,-1,-1,-1],"loss_changes":[8.219314E2,7.516583E1,3.7560513E2,4.8625183E1,1.691042E0,2.665318E2,9.0638245E1,6.8792114E0,1.8749733E1,0E0,4.9629974E-1,1.3813162E2,1.4705653E2,6.3249817E1,2.87359E1,0E0,0E0,0E0,0E0,0E0,0E0,0E0,0E0,0E0,0E0,0E0,0E0,0E0,0E0],"parents":[2147483647,0,0,1,1,2,2,3,3,4,4,5,5,6,6,7,7,8,8,10,10,11,11,12,12,13,13,14,14],"right_children":[2,4,6,8,10,12,14,16,18,-1,20,22,24,26,28,-1,-1,-1,-1,-1,-1,-1,-1,-1,-1,-1,-1,-1,-1],"split_conditions":[3E1,5.178E3,1.3E1,2.6E1,3.3E1,1E0,4.1E1,1.887E3,4.1E1,2.2995397E-3,7.298E3,3.5E1,5E0,7.298E3,1.5E1,-1.0609585E-1,1.8867565E-2,-7.433901E-2,-2.6731938E-2,5.6782078E-2,1.3960354E-1,-8.459772E-2,3.584906E-2,-6.804994E-2,4.2906735E-2,3.1677585E-2,1.4436738E-1,8.886942E-2,1.5005025E-1],"split_indices":[0,1,4,0,6,11,6,2,6,0,1,6,11,1,4,0,0,0,0,0,0,0,0,0,0,0,0,0,0],"split_type":[0,0,0,0,0,0,0,0,0,0,0,0,0,0,0,0,0,0,0,0,0,0,0,0,0,0,0,0,0],"sum_hessian":[4.1305483E3,9.506477E2,3.1799006E3,9.3367816E2,1.6969513E1,2.0804854E3,1.0994152E3,5.612234E2,3.724548E2,1.1633584E0,1.5806155E1,1.2914551E3,7.8903033E2,5.691522E2,5.3026294E2,5.570643E2,4.1591053E0,2.4553589E2,1.2691892E2,2.8412664E0,1.2964889E1,1.0255204E2,1.1889031E3,6.4311273E2,1.4591759E2,5.1484686E2,5.4305332E1,4.3406332E2,9.619963E1],"tree_param":{"num_deleted":"0","num_feature":"14","num_nodes":"29","size_leaf_vector":"1"}},{"base_weights":[-1.1405729E-2,-8.528699E-1,1.9451155E-1,-8.862343E-1,1.0955607E0,9.555854E-2,1.3449602E0,-5.816373E-1,-1.0292648E0,1.1429007E-2,1.1913306E0,-2.7988386E-1,3.4983355E-1,8.5641474E-1,1.3959886E-1,-7.816292E-2,-1.5865777E-2,-1.0395073E-1,1.3655257E-1,5.2822214E-2,1.3050756E-1,-3.179827E-3,-6.802743E-2,2.7263204E-2,1.4743881E-1,1.3054235E-1,-8.598371E-2],"categories":[],"categories_nodes":[],"categories_segments":[],"categories_sizes":[],"default_left":[0,0,0,0,0,0,0,0,0,0,0,0,0,0,0,0,0,0,0,0,0,0,0,0,0,0,0],"id":10,"left_children":[1,3,5,7,9,11,13,15,17,-1,19,21,23,25,-1,-1,-1,-1,-1,-1,-1,-1,-1,-1,-1,-1,-1],"loss_changes":[7.0394696E2,5.2894714E1,3.7144476E2,3.363745E1,1.1695576E0,2.8712042E2,5.247101E0,2.1311432E1,1.4503784E1,0E0,2.5740623E-1,1.20623764E2,1.5525931E2,2.1950203E1,0E0,0E0,0E0,0E0,0E0,0E0,0E0,0E0,0E0,0E0,0E0,0E0,0E0],"parents":[2147483647,0,0,1,1,2,2,3,3,4,4,5,5,6,6,7,7,8,8,10,10,11,11,12,12,13,13],"right_children":[2,4,6,8,10,12,14,16,18,-1,20,22,24,26,-1,-1,-1,-1,-1,-1,-1,-1,-1,-1,-1,-1,-1],"split_conditions":[2.9E1,5.178E3,5.06E3,3E0,3.6E1,1E1,7.298E3,4.2E1,2.206E3,1.1429007E-2,7.298E3,1E0,1.848E3,6.497E3,1.3959886E-1,-7.816292E-2,-1.5865777E-2,-1.0395073E-1,1.3655257E-1,5.2822214E-2,1.3050756E-1,-3.179827E-3,-6.802743E-2,2.7263204E-2,1.4743881E-1,1.3054235E-1,-8.598371E-2],"split_indices":[0,1,1,7,6,4,1,6,2,0,1,11,2,1,0,0,0,0,0,0,0,0,0,0,0,0,0],"split_type":[0,0,0,0,0,0,0,0,0,0,0,0,0,0,0,0,0,0,0,0,0,0,0,0,0,0,0],"sum_hessian":[4.0607122E3,7.977264E2,3.2629856E3,7.848323E2,1.2894094E1,3.0055535E3,2.5743222E2,2.5239662E2,5.3243567E2,1.3415703E0,1.1552524E1,1.2135785E3,1.791975E3,2.6027548E1,2.3140468E2,1.707943E2,8.160234E1,5.307317E2,1.7039784E0,2.5178604E0,9.034663E0,7.499697E2,4.636088E2,1.67802E3,1.139549E2,2.0819967E1,5.2075806E0],"tree_param":{"num_deleted":"0","num_feature":"14","num_nodes":"27","size_leaf_vector":"1"}},{"base_weights":[-1.0952775E-2,2.2355528E-1,-6.816887E-1,1.3469315E-1,1.3064686E0,-7.48807E-1,1.0507146E0,6.655815E-2,1.3018229E0,8.638411E-1,1.3569837E0,-9.000856E-1,-1.6603458E-1,2.2769402E-1,1.2677488E0,-2.5529752E-2,2.9169926E-2,1.7627129E-1,7.2065875E-4,-1.0265999E-1,1.21014275E-1,1.3950601E-1,1.0098671E-1,-9.234606E-2,7.281872E-2,-5.960905E-2,3.0159129E-2,1.5037236E-1,-5.975161E-2,1.4017752E-2,1.3157463E-1],"categories":[],"categories_nodes":[],"categories_segments":[],"categories_sizes":[],"default_left":[0,0,0,0,0,0,0,0,0,0,0,0,0,0,0,0,0,0,0,0,0,0,0,0,0,0,0,0,0,0,0],"id":11,"left_children":[1,3,5,7,9,11,13,15,17,19,21,23,25,27,29,-1,-1,-1,-1,-1,-1,-1,-1,-1,-1,-1,-1,-1,-1,-1,-1],"loss_changes":[6.2741693E2,2.842364E2,1.20937744E2,2.1721046E2,3.8367004E0,8.760327E1,6.6699715E0,1.872361E2,8.988687E1,1.8066668E1,1.2256165E0,3.0740845E1,4.1679672E1,1.0742182E1,1.4721222E0,0E0,0E0,0E0,0E0,0E0,0E0,0E0,0E0,0E0,0E0,0E0,0E0,0E0,0E0,0E0,0E0],"parents":[2147483647,0,0,1,1,2,2,3,3,4,4,5,5,6,6,7,7,8,8,9,9,10,10,11,11,12,12,13,13,14,14],"right_children":[2,4,6,8,10,12,14,16,18,20,22,24,26,28,30,-1,-1,-1,-1,-1,-1,-1,-1,-1,-1,-1,-1,-1,-1,-1,-1],"split_conditions":[3E0,5.06E3,4.687E3,1.755E3,1E0,4.5E1,7.688E3,1E1,1.98E3,7.298E3,6.2E1,1.5E1,3.3E1,4.865E3,2.1E1,-2.5529752E-2,2.9169926E-2,1.7627129E-1,7.2065875E-4,-1.0265999E-1,1.21014275E-1,1.3950601E-1,1.0098671E-1,-9.234606E-2,7.281872E-2,-5.960905E-2,3.0159129E-2,1.5037236E-1,-5.975161E-2,1.4017752E-2,1.3157463E-1],"split_indices":[7,1,1,2,7,6,1,4,2,1,0,4,0,1,6,0,0,0,0,0,0,0,0,0,0,0,0,0,0,0,0],"split_type":[0,0,0,0,0,0,0,0,0,0,0,0,0,0,0,0,0,0,0,0,0,0,0,0,0,0,0,0,0,0,0],"sum_hessian":[3.9868735E3,2.9545476E3,1.0323258E3,2.7315273E3,2.2302037E2,9.943689E2,3.795695E1,2.5818599E3,1.4966745E2,2.469924E1,1.9832114E2,7.890098E2,2.0535909E2,8.348293E0,2.9608658E1,1.0626252E3,1.5192345E3,1.1010717E2,3.9560287E1,3.5198898E0,2.117935E1,1.7599649E2,2.2324638E1,7.782701E2,1.0739729E1,1.068338E2,9.852528E1,2.9556758E0,5.3926177E0,1.3689691E0,2.8239689E1],"tree_param":{"num_deleted":"0","num_feature":"14","num_nodes":"31","size_leaf_vector":"1"}},{"base_weights":[-1.0398812E-2,-8.788696E-1,1.5363972E-1,-9.0310115E-1,8.876458E-1,7.100031E-2,1.2301544E0,-9.955151E-1,-5.366032E-1,5.895873E-3,1.0081061E-1,-1.4716794E-1,4.525179E-1,7.469309E-1,1.2835834E0,-1.0106923E-1,3.6545157E-2,-2.058213E-2,-8.390512E-2,8.16574E-3,-4.6514455E-2,3.890737E-2,1.3140607E-1,1.160813E-1,-8.2535125E-2,6.004833E-2,1.2902024E-1],"categories":[],"categories_nodes":[],"categories_segments":[],"categories_sizes":[],"default_left":[0,0,0,0,0,0,0,0,0,0,0,0,0,0,0,0,0,0,0,0,0,0,0,0,0,0,0],"id":12,"left_children":[1,3,5,7,9,11,13,15,17,-1,-1,19,21,23,25,-1,-1,-1,-1,-1,-1,-1,-1,-1,-1,-1,-1],"loss_changes":[5.5704846E2,2.7393097E1,2.9250803E2,2.023819E1,8.3002853E-1,2.5439565E2,5.0934753E0,1.046228E1,1.2400314E1,0E0,0E0,1.415354E2,6.0263367E1,1.7701935E1,1.7337036E-1,0E0,0E0,0E0,0E0,0E0,0E0,0E0,0E0,0E0,0E0,0E0,0E0],"parents":[2147483647,0,0,1,1,2,2,3,3,4,4,5,5,6,6,7,7,8,8,11,11,12,12,13,13,14,14],"right_children":[2,4,6,8,10,12,14,16,18,-1,-1,20,22,24,26,-1,-1,-1,-1,-1,-1,-1,-1,-1,-1,-1,-1],"split_conditions":[2.8E1,5.178E3,5.06E3,4.2E1,2.3E1,4.2E1,7.298E3,1.887E3,3E0,5.895873E-3,1.0081061E-1,1E0,1.848E3,6.497E3,2.6145E4,-1.0106923E-1,3.6545157E-2,-2.058213E-2,-8.390512E-2,8.16574E-3,-4.6514455E-2,3.890737E-2,1.3140607E-1,1.160813E-1,-8.2535125E-2,6.004833E-2,1.2902024E-1],"split_indices":[0,1,1,6,0,6,1,2,7,0,0,11,2,1,5,0,0,0,0,0,0,0,0,0,0,0,0],"split_type":[0,0,0,0,0,0,0,0,0,0,0,0,0,0,0,0,0,0,0,0,0,0,0,0,0,0,0],"sum_hessian":[3.9081885E3,6.202159E2,3.2879727E3,6.1230554E2,7.9103365E0,3.0545535E3,2.33419E2,4.8763113E2,1.2467442E2,1.1929663E0,6.71737E0,1.9436848E3,1.1108688E3,2.4730509E1,2.086885E2,4.8250772E2,5.123414E0,6.0350594E1,6.432383E1,1.130725E3,8.1295984E2,1.0360271E3,7.484164E1,1.9784267E1,4.9462404E0,2.882948E0,2.0580556E2],"tree_param":{"num_deleted":"0","num_feature":"14","num_nodes":"27","size_leaf_vector":"1"}},{"base_weights":[-9.923615E-3,-7.204238E-1,1.6774896E-1,-1.0078728E0,-4.672962E-1,9.184457E-2,1.1837336E0,-1.0215995E0,5.68133E-1,-5.1257986E-1,1.0461754E0,-1.1077524E-1,4.386201E-1,7.1006477E-1,1.236886E0,-1.0309142E-1,7.1135536E-2,8.244275E-2,-1.5255677E-3,-3.2413233E-2,-7.877801E-2,4.515498E-2,1.1589193E-1,-1.6555429E-2,1.0716367E-1,3.3459418E-2,9.381001E-2,1.3361917E-1,-2.5429463E-2,1.2658511E-1,9.496322E-2],"categories":[],"categories_nodes":[],"categories_segments":[],"categories_sizes":[],"default_left":[0,0,0,0,0,0,0,0,0,0,0,0,0,0,0,0,0,0,0,0,0,0,0,0,0,0,0,0,0,0,0],"id":13,"left_children":[1,3,5,7,9,11,13,15,17,19,21,23,25,27,29,-1,-1,-1,-1,-1,-1,-1,-1,-1,-1,-1,-1,-1,-1,-1,-1],"loss_changes":[4.8554538E2,5.551346E1,2.3717744E2,8.355988E0,2.8704544E1,2.0129207E2,4.5048523E0,6.490753E0,5.726938E-1,2.0475182E1,2.9920483E-1,1.173241E2,5.4580902E1,1.478302E1,3.8623047E-1,0E0,0E0,0E0,0E0,0E0,0E0,0E0,0E0,0E0,0E0,0E0,0E0,0E0,0E0,0E0,0E0],"parents":[2147483647,0,0,1,1,2,2,3,3,4,4,5,5,6,6,7,7,8,8,9,9,10,10,11,11,12,12,13,13,14,14],"right_children":[2,4,6,8,10,12,14,16,18,20,22,24,26,28,30,-1,-1,-1,-1,-1,-1,-1,-1,-1,-1,-1,-1,-1,-1,-1,-1],"split_conditions":[3E1,2.5E1,5.06E3,7.298E3,5.06E3,4.2E1,7.298E3,2.206E3,1.502E4,4E0,7.298E3,1.825E3,1.4E1,5.455E3,6.2E1,-1.0309142E-1,7.1135536E-2,8.244275E-2,-1.5255677E-3,-3.2413233E-2,-7.877801E-2,4.515498E-2,1.1589193E-1,-1.6555429E-2,1.0716367E-1,3.3459418E-2,9.381001E-2,1.3361917E-1,-2.5429463E-2,1.2658511E-1,9.496322E-2],"split_indices":[0,0,1,1,1,6,1,2,1,7,1,2,4,1,0,0,0,0,0,0,0,0,0,0,0,0,0,0,0,0,0],"split_type":[0,0,0,0,0,0,0,0,0,0,0,0,0,0,0,0,0,0,0,0,0,0,0,0,0,0,0,0,0,0,0],"sum_hessian":[3.8443616E3,7.684258E2,3.0759358E3,3.584229E2,4.1000287E2,2.8631218E3,2.1281392E2,3.556768E2,2.7461162E0,3.9873392E2,1.126895E1,1.8076173E3,1.0555044E3,2.292011E1,1.8989381E2,3.541782E2,1.4985931E0,1.6208663E0,1.1252499E0,2.3796297E2,1.6077094E2,2.5938354E0,8.675116E0,1.7284034E3,7.921388E1,8.749498E2,1.8055458E2,1.36633625E1,9.256747E0,1.6940524E2,2.0488562E1],"tree_param":{"num_deleted":"0","num_feature":"14","num_nodes":"31","size_leaf_vector":"1"}},{"base_weights":[-9.245777E-3,1.7965828E-1,-6.194878E-1,-1.1440583E-3,5.498103E-1,-8.412587E-1,-9.878833E-2,-6.3325703E-1,1.0994057E-1,-1.7154314E-1,6.223179E-1,-8.7270176E-1,1.023242E0,-8.001099E-1,1.4153376E-1,-6.769092E-2,1.0397668E-1,-6.3860565E-2,2.1437222E-2,-4.5227487E-2,7.161959E-2,5.532968E-2,1.2214847E-1,-8.950492E-2,8.323998E-2,-8.115362E-3,1.1532322E-1,-8.501922E-2,7.8888446E-2,-1.1365649E-2,7.22222E-2],"categories":[],"categories_nodes":[],"categories_segments":[],"categories_sizes":[],"default_left":[0,0,0,0,0,0,0,0,0,0,0,0,0,0,0,0,0,0,0,0,0,0,0,0,0,0,0,0,0,0,0],"id":14,"left_children":[1,3,5,7,9,11,13,15,17,19,21,23,25,27,29,-1,-1,-1,-1,-1,-1,-1,-1,-1,-1,-1,-1,-1,-1,-1,-1],"loss_changes":[4.3661996E2,1.9356525E2,1.0330368E2,1.3658386E2,4.9750305E1,3.7695465E1,4.5376526E1,2.1936623E1,1.2946538E2,2.2123938E1,3.499991E1,2.4289276E1,1.6542673E0,6.1370964E0,2.9847637E1,0E0,0E0,0E0,0E0,0E0,0E0,0E0,0E0,0E0,0E0,0E0,0E0,0E0,0E0,0E0,0E0],"parents":[2147483647,0,0,1,1,2,2,3,3,4,4,5,5,6,6,7,7,8,8,9,9,10,10,11,11,12,12,13,13,14,14],"right_children":[2,4,6,8,10,12,14,16,18,20,22,24,26,28,30,-1,-1,-1,-1,-1,-1,-1,-1,-1,-1,-1,-1,-1,-1,-1,-1],"split_conditions":[3E0,1.3E1,1.3E1,1E0,3.5E1,7.688E3,2.8E1,8.614E3,8E0,5E0,7.298E3,2.231E3,3.1E1,7.298E3,4.9E1,-6.769092E-2,1.0397668E-1,-6.3860565E-2,2.1437222E-2,-4.5227487E-2,7.161959E-2,5.532968E-2,1.2214847E-1,-8.950492E-2,8.323998E-2,-8.115362E-3,1.1532322E-1,-8.501922E-2,7.8888446E-2,-1.1365649E-2,7.22222E-2],"split_indices":[7,4,4,7,6,1,0,1,4,11,1,2,6,1,6,0,0,0,0,0,0,0,0,0,0,0,0,0,0,0,0],"split_type":[0,0,0,0,0,0,0,0,0,0,0,0,0,0,0,0,0,0,0,0,0,0,0,0,0,0,0,0,0,0,0],"sum_hessian":[3.7856003E3,2.89129E3,8.9431036E2,1.9431478E3,9.48142E2,6.267542E2,2.6755618E2,2.897368E2,1.6534111E3,8.647423E1,8.6166785E2,6.16883E2,9.871217E0,6.769002E1,1.9986618E2,2.8294955E2,6.7872477E0,2.018039E2,1.4516072E3,6.6070984E1,2.0403246E1,7.743858E2,8.7282036E1,6.0937146E2,7.5114846E0,1.0790774E0,8.792139E0,6.607248E1,1.6175416E0,1.3940659E2,6.0459583E1],"tree_param":{"num_deleted":"0","num_feature":"14","num_nodes":"31","size_leaf_vector":"1"}},{"base_weights":[-9.0885805E-3,-5.039256E-1,2.0321088E-1,-2.3213354E-1,-8.416779E-1,-5.518127E-1,2.9490384E-1,-4.2910814E-1,2.8782874E-1,-9.738306E-1,-3.8530993E-1,-7.145889E-1,2.576518E-1,-4.7666678E-1,3.666957E-1,-4.7451086E-2,1.1989081E-1,5.392068E-3,5.368943E-2,-9.9043354E-2,6.271695E-2,-6.778028E-2,3.636888E-3,-7.937604E-2,1.06097355E-1,-1.4218107E-2,7.024261E-2,-5.480787E-2,1.0256926E-1,-2.4536198E-2,4.583331E-2],"categories":[],"categories_nodes":[],"categories_segments":[],"categories_sizes":[],"default_left":[0,0,0,0,0,0,0,0,0,0,0,0,0,0,0,0,0,0,0,0,0,0,0,0,0,0,0,0,0,0,0],"id":15,"left_children":[1,3,5,7,9,11,13,15,17,19,21,23,25,27,29,-1,-1,-1,-1,-1,-1,-1,-1,-1,-1,-1,-1,-1,-1,-1,-1],"loss_changes":[3.908445E2,1.0233954E2,1.8040375E2,6.3653603E1,2.9638977E1,3.7378716E1,1.2880774E2,3.385141E1,9.934464E0,1.0861786E1,1.4011841E1,3.3917892E1,8.635361E0,2.1817158E1,1.19303406E2,0E0,0E0,0E0,0E0,0E0,0E0,0E0,0E0,0E0,0E0,0E0,0E0,0E0,0E0,0E0,0E0],"parents":[2147483647,0,0,1,1,2,2,3,3,4,4,5,5,6,6,7,7,8,8,9,9,10,10,11,11,12,12,13,13,14,14],"right_children":[2,4,6,8,10,12,14,16,18,20,22,24,26,28,30,-1,-1,-1,-1,-1,-1,-1,-1,-1,-1,-1,-1,-1,-1,-1,-1],"split_conditions":[3.4E1,3E0,3.5E1,1.3E1,4.1E1,5E0,9E0,5.06E3,4.2E1,7.298E3,1.3E1,4.064E3,1.1E1,4.386E3,1E0,-4.7451086E-2,1.1989081E-1,5.392068E-3,5.368943E-2,-9.9043354E-2,6.271695E-2,-6.778028E-2,3.636888E-3,-7.937604E-2,1.06097355E-1,-1.4218107E-2,7.024261E-2,-5.480787E-2,1.0256926E-1,-2.4536198E-2,4.583331E-2],"split_indices":[0,7,6,4,6,11,4,1,6,1,4,1,4,1,7,0,0,0,0,0,0,0,0,0,0,0,0,0,0,0,0],"split_type":[0,0,0,0,0,0,0,0,0,0,0,0,0,0,0,0,0,0,0,0,0,0,0,0,0,0,0,0,0,0,0],"sum_hessian":[3.7184539E3,1.1159573E3,2.6024966E3,6.1929376E2,4.9666348E2,2.8128723E2,2.3212092E3,4.492728E2,1.7002095E2,3.8425815E2,1.1240534E2,2.3429065E2,4.6996574E1,1.971146E2,2.1240947E3,4.3777258E2,1.1500222E1,8.830575E1,8.17152E1,3.8069162E2,3.5665455E0,6.60105E1,4.639484E1,2.2481903E2,9.471626E0,2.5106892E1,2.188968E1,1.8877663E2,8.337968E0,2.763878E2,1.8477069E3],"tree_param":{"num_deleted":"0","num_feature":"14","num_nodes":"31","size_leaf_vector":"1"}},{"base_weights":[-9.009012E-3,-7.871974E-1,1.10522605E-1,-9.0844506E-1,-3.710098E-1,4.6120305E-2,1.1065685E0,-9.269896E-1,4.2451876E-1,-1.0338188E-1,-6.66203E-1,-6.281622E-3,1.0156269E0,6.2093365E-1,1.1663408E0,-9.417497E-2,5.2315574E-2,-2.5611801E-2,8.764874E-2,-3.148777E-2,3.5668552E-2,-7.3453E-2,8.299933E-2,-2.762021E-2,1.7020678E-2,1.452691E-1,1.4121964E-2,1.2591115E-1,-2.9108798E-2,1.1988317E-1,8.4791824E-2],"categories":[],"categories_nodes":[],"categories_segments":[],"categories_sizes":[],"default_left":[0,0,0,0,0,0,0,0,0,0,0,0,0,0,0,0,0,0,0,0,0,0,0,0,0,0,0,0,0,0,0],"id":16,"left_children":[1,3,5,7,9,11,13,15,17,19,21,23,25,27,29,-1,-1,-1,-1,-1,-1,-1,-1,-1,-1,-1,-1,-1,-1,-1,-1],"loss_changes":[3.4124203E2,2.431186E1,2.0394818E2,9.726929E0,8.770702E0,1.5181186E2,4.880783E0,8.470306E0,2.0292554E0,5.937706E0,6.0300827E0,1.3513985E2,5.8354828E1,1.392772E1,7.5042725E-1,0E0,0E0,0E0,0E0,0E0,0E0,0E0,0E0,0E0,0E0,0E0,0E0,0E0,0E0,0E0,0E0],"parents":[2147483647,0,0,1,1,2,2,3,3,4,4,5,5,6,6,7,7,8,8,9,9,10,10,11,11,12,12,13,13,14,14],"right_children":[2,4,6,8,10,12,14,16,18,20,22,24,26,28,30,-1,-1,-1,-1,-1,-1,-1,-1,-1,-1,-1,-1,-1,-1,-1,-1],"split_conditions":[2.8E1,4.2E1,5.06E3,1.887E3,3E0,1.825E3,7.298E3,5.178E3,1E0,1.1E1,7.298E3,1E1,1.98E3,5.455E3,6.2E1,-9.417497E-2,5.2315574E-2,-2.5611801E-2,8.764874E-2,-3.148777E-2,3.5668552E-2,-7.3453E-2,8.299933E-2,-2.762021E-2,1.7020678E-2,1.452691E-1,1.4121964E-2,1.2591115E-1,-2.9108798E-2,1.1988317E-1,8.4791824E-2],"split_indices":[0,6,1,2,7,2,1,1,11,4,1,4,2,1,0,0,0,0,0,0,0,0,0,0,0,0,0,0,0,0,0],"split_type":[0,0,0,0,0,0,0,0,0,0,0,0,0,0,0,0,0,0,0,0,0,0,0,0,0,0,0,0,0,0,0],"sum_hessian":[3.666619E3,4.8746735E2,3.1791516E3,3.7657678E2,1.1089059E2,2.9870605E3,1.9209097E2,3.7171002E2,4.8667617E0,5.886901E1,5.202158E1,2.8348313E3,1.5222937E2,2.2299765E1,1.697912E2,3.6831177E2,3.398245E0,2.1150122E0,2.7517495E0,4.0545555E1,1.8323456E1,5.023649E1,1.7850887E0,1.1205312E3,1.7142999E3,1.01056114E2,5.1173264E1,1.2895617E1,9.404147E0,1.5156148E2,1.8229723E1],"tree_param":{"num_deleted":"0","num_feature":"14","num_nodes":"31","size_leaf_vector":"1"}},{"base_weights":[-8.301783E-3,1.468843E-1,-5.623035E-1,8.883335E-2,1.0976434E0,-7.9197735E-1,-8.565122E-2,-4.4883266E-1,1.7669663E-1,5.952095E-1,1.1601666E0,-8.219179E-1,9.30446E-1,-2.1491621E-1,9.4843906E-1,-7.025105E-2,8.551186E-3,-6.0191523E-2,2.4320148E-2,-7.279903E-2,1.0907078E-1,1.21043585E-1,7.620063E-2,-8.46534E-2,7.24165E-2,-1.6225291E-2,1.0805776E-1,-4.6647895E-2,1.7447866E-2,-3.349986E-2,1.3385834E-1],"categories":[],"categories_nodes":[],"categories_segments":[],"categories_sizes":[],"default_left":[0,0,0,0,0,0,0,0,0,0,0,0,0,0,0,0,0,0,0,0,0,0,0,0,0,0,0,0,0,0,0],"id":17,"left_children":[1,3,5,7,9,11,13,15,17,19,21,23,25,27,29,-1,-1,-1,-1,-1,-1,-1,-1,-1,-1,-1,-1,-1,-1,-1,-1],"loss_changes":[3.1051575E2,1.5562663E2,8.645343E1,1.2575023E2,4.407028E0,2.8263123E1,3.4705963E1,5.0748245E1,1.1858419E2,1.3914698E1,1.9449768E0,2.0580078E1,1.7468395E0,2.2635704E1,1.4901613E1,0E0,0E0,0E0,0E0,0E0,0E0,0E0,0E0,0E0,0E0,0E0,0E0,0E0,0E0,0E0,0E0],"parents":[2147483647,0,0,1,1,2,2,3,3,4,4,5,5,6,6,7,7,8,8,9,9,10,10,11,11,12,12,13,13,14,14],"right_children":[2,4,6,8,10,12,14,16,18,20,22,24,26,28,30,-1,-1,-1,-1,-1,-1,-1,-1,-1,-1,-1,-1,-1,-1,-1,-1],"split_conditions":[3E0,5.06E3,1.3E1,1E0,1E0,7.688E3,1.5E1,4.5E1,8E0,8.614E3,6.2E1,2.231E3,3.1E1,4.4E1,3.2E1,-7.025105E-2,8.551186E-3,-6.0191523E-2,2.4320148E-2,-7.279903E-2,1.0907078E-1,1.21043585E-1,7.620063E-2,-8.46534E-2,7.24165E-2,-1.6225291E-2,1.0805776E-1,-4.6647895E-2,1.7447866E-2,-3.349986E-2,1.3385834E-1],"split_indices":[7,1,4,7,7,1,4,6,4,1,0,2,6,6,0,0,0,0,0,0,0,0,0,0,0,0,0,0,0,0,0],"split_type":[0,0,0,0,0,0,0,0,0,0,0,0,0,0,0,0,0,0,0,0,0,0,0,0,0,0,0,0,0,0,0],"sum_hessian":[3.609806E3,2.820474E3,7.893319E2,2.6592031E3,1.6127086E2,5.322209E2,2.57111E2,3.7294077E2,2.2862625E3,1.9011908E1,1.4225894E2,5.2364136E2,8.579549E0,2.2924654E2,2.786447E1,2.5267137E2,1.2026939E2,1.7927953E2,2.106983E3,5.0518975E0,1.3960011E1,1.2450023E2,1.7758722E1,5.158802E2,7.761162E0,1.02664E0,7.5529084E0,1.391517E2,9.009483E1,6.528697E0,2.1335772E1],"tree_param":{"num_deleted":"0","num_feature":"14","num_nodes":"31","size_leaf_vector":"1"}},{"base_weights":[-8.032447E-3,-3.969606E-1,1.9714323E-1,-9.427318E-1,-2.5232458E-1,-5.151735E-1,2.8313738E-1,-9.549123E-1,6.64454E-2,-4.2785683E-1,1.03250474E-1,-6.6514605E-1,2.4056685E-1,-1.5634084E-1,3.8755712E-1,-9.697457E-2,4.2392854E-2,-5.442775E-2,-4.3186494E-3,-1.749388E-2,3.9797146E-2,-7.357234E-2,9.408028E-2,4.913182E-2,-4.883128E-2,-4.8257247E-2,6.2252697E-2,-3.4714624E-2,4.4868898E-2],"categories":[],"categories_nodes":[],"categories_segments":[],"categories_sizes":[],"default_left":[0,0,0,0,0,0,0,0,0,0,0,0,0,0,0,0,0,0,0,0,0,0,0,0,0,0,0,0,0],"id":18,"left_children":[1,3,5,7,9,11,13,15,-1,17,19,21,23,25,27,-1,-1,-1,-1,-1,-1,-1,-1,-1,-1,-1,-1,-1,-1],"loss_changes":[2.8344687E2,9.659538E1,1.4258536E2,5.6581726E0,6.065389E1,2.8590492E1,9.530611E1,5.6286163E0,0E0,2.9100533E1,2.6449255E1,2.444577E1,7.9655094E0,1.0172785E2,7.549106E1,0E0,0E0,0E0,0E0,0E0,0E0,0E0,0E0,0E0,0E0,0E0,0E0,0E0,0E0],"parents":[2147483647,0,0,1,1,2,2,3,3,4,4,5,5,6,6,7,7,9,9,10,10,11,11,12,12,13,13,14,14],"right_children":[2,4,6,8,10,12,14,16,-1,18,20,22,24,26,28,-1,-1,-1,-1,-1,-1,-1,-1,-1,-1,-1,-1,-1,-1],"split_conditions":[3.6E1,2.5E1,3.5E1,2.206E3,1.3E1,5E0,1E0,7.298E3,6.64454E-2,4.9E1,4.2E1,4.064E3,5.3E1,5E0,8E0,-9.697457E-2,4.2392854E-2,-5.442775E-2,-4.3186494E-3,-1.749388E-2,3.9797146E-2,-7.357234E-2,9.408028E-2,4.913182E-2,-4.883128E-2,-4.8257247E-2,6.2252697E-2,-3.4714624E-2,4.4868898E-2],"split_indices":[0,0,6,2,4,11,12,1,0,6,6,1,0,11,4,0,0,0,0,0,0,0,0,0,0,0,0,0,0],"split_type":[0,0,0,0,0,0,0,0,0,0,0,0,0,0,0,0,0,0,0,0,0,0,0,0,0,0,0,0,0],"sum_hessian":[3.550048E3,1.2256978E3,2.3243503E3,2.5562004E2,9.700777E2,2.4984174E2,2.0745085E3,2.5410013E2,1.5199188E0,6.4932855E2,3.207491E2,2.0857169E2,4.1270046E1,3.9817712E2,1.6763314E3,2.516892E2,2.4109325E0,4.981487E2,1.5117987E2,1.6521135E2,1.5553777E2,2.0031044E2,8.261251E0,3.0948854E1,1.0321191E1,2.809011E2,1.1727603E2,1.2840752E2,1.5479238E3],"tree_param":{"num_deleted":"0","num_feature":"14","num_nodes":"29","size_leaf_vector":"1"}},{"base_weights":[-7.944093E-3,-7.2213644E-1,8.8339426E-2,-9.762605E-1,-5.0347793E-1,3.479557E-2,1.0374656E0,-9.9249804E-1,6.1637074E-2,-6.713989E-1,-1.7544554E-1,-1.18374145E-2,9.130768E-1,5.4588974E-1,1.1017416E0,-1.0332755E-1,-5.9141368E-2,-7.529006E-2,-3.6022502E-3,-2.2407047E-2,6.872244E-2,-4.974295E-2,6.812397E-3,1.3343064E-1,1.0799593E-2,9.532122E-2,-8.024245E-2,1.13981925E-1,7.5148515E-2],"categories":[],"categories_nodes":[],"categories_segments":[],"categories_sizes":[],"default_left":[0,0,0,0,0,0,0,0,0,0,0,0,0,0,0,0,0,0,0,0,0,0,0,0,0,0,0,0,0],"id":19,"left_children":[1,3,5,7,9,11,13,15,-1,17,19,21,23,25,27,-1,-1,-1,-1,-1,-1,-1,-1,-1,-1,-1,-1,-1,-1],"loss_changes":[2.4117384E2,2.2660309E1,1.5702983E2,5.5674896E0,1.23321E1,1.1987648E2,4.6122894E0,2.4977417E0,0E0,7.695923E0,3.420823E0,1.07979805E2,4.990033E1,1.2332624E1,1.0765991E0,0E0,0E0,0E0,0E0,0E0,0E0,0E0,0E0,0E0,0E0,0E0,0E0,0E0,0E0],"parents":[2147483647,0,0,1,1,2,2,3,3,4,4,5,5,6,6,7,7,9,9,10,10,11,11,12,12,13,13,14,14],"right_children":[2,4,6,8,10,12,14,16,-1,18,20,22,24,26,28,-1,-1,-1,-1,-1,-1,-1,-1,-1,-1,-1,-1,-1,-1],"split_conditions":[2.8E1,2.4E1,5.06E3,2.206E3,4.2E1,1.825E3,7.298E3,4.6E1,6.1637074E-2,5E0,7.8E1,3.8E1,1.98E3,6.497E3,6.2E1,-1.0332755E-1,-5.9141368E-2,-7.529006E-2,-3.6022502E-3,-2.2407047E-2,6.872244E-2,-4.974295E-2,6.812397E-3,1.3343064E-1,1.0799593E-2,9.532122E-2,-8.024245E-2,1.13981925E-1,7.5148515E-2],"split_indices":[0,0,1,2,6,2,1,6,0,11,6,6,2,1,0,0,0,0,0,0,0,0,0,0,0,0,0,0,0],"split_type":[0,0,0,0,0,0,0,0,0,0,0,0,0,0,0,0,0,0,0,0,0,0,0,0,0,0,0,0,0],"sum_hessian":[3.5052925E3,4.1565216E2,3.0896404E3,1.9063367E2,2.2501851E2,2.9256309E3,1.6400943E2,1.890827E2,1.550956E0,1.4813892E2,7.687959E1,2.7790613E3,1.4656976E2,2.0062952E1,1.4394647E2,1.7020236E2,1.8880337E1,1.311331E2,1.7005816E1,7.347821E1,3.401387E0,3.921824E2,2.386879E3,9.579245E1,5.0777313E1,1.5633226E1,4.4297256E0,1.2779874E2,1.6147734E1],"tree_param":{"num_deleted":"0","num_feature":"14","num_nodes":"29","size_leaf_vector":"1"}},{"base_weights":[-7.3288325E-3,1.187677E-1,-5.019824E-1,7.083064E-2,1.0314974E0,-7.554094E-1,-8.9759216E-2,5.422177E-4,6.1740077E-1,5.063072E-1,1.1005249E0,-7.828799E-1,8.4511435E-1,-2.0142011E-1,8.3196914E-1,-4.886903E-2,7.657613E-3,6.609552E-2,-6.0800977E-2,-7.1705654E-2,1.02125585E-1,1.1610162E-1,6.597095E-2,-8.863207E-2,-3.9198916E-2,-9.929589E-3,1.0167809E-1,-2.79537E-2,9.413648E-2,-3.2092974E-2,1.1674692E-1],"categories":[],"categories_nodes":[],"categories_segments":[],"categories_sizes":[],"default_left":[0,0,0,0,0,0,0,0,0,0,0,0,0,0,0,0,0,0,0,0,0,0,0,0,0,0,0,0,0,0,0],"id":20,"left_children":[1,3,5,7,9,11,13,15,17,19,21,23,25,27,29,-1,-1,-1,-1,-1,-1,-1,-1,-1,-1,-1,-1,-1,-1,-1,-1],"loss_changes":[2.1611794E2,1.2073387E2,7.3460815E1,1.00821625E2,4.434906E0,1.9819672E1,2.7863602E1,8.65731E1,1.6361992E1,1.1976257E1,2.4567108E0,1.6994843E1,1.3709416E0,2.1762035E1,1.1697008E1,0E0,0E0,0E0,0E0,0E0,0E0,0E0,0E0,0E0,0E0,0E0,0E0,0E0,0E0,0E0,0E0],"parents":[2147483647,0,0,1,1,2,2,3,3,4,4,5,5,6,6,7,7,8,8,9,9,10,10,11,11,12,12,13,13,14,14],"right_children":[2,4,6,8,10,12,14,16,18,20,22,24,26,28,30,-1,-1,-1,-1,-1,-1,-1,-1,-1,-1,-1,-1,-1,-1,-1,-1],"split_conditions":[3E0,5.06E3,1.2E1,1.4E1,1E0,7.688E3,1.5E1,1E0,1.14E2,8.614E3,6.2E1,4.1E1,3.6E1,4.687E3,3.2E1,-4.886903E-2,7.657613E-3,6.609552E-2,-6.0800977E-2,-7.1705654E-2,1.02125585E-1,1.1610162E-1,6.597095E-2,-8.863207E-2,-3.9198916E-2,-9.929589E-3,1.0167809E-1,-2.79537E-2,9.413648E-2,-3.2092974E-2,1.1674692E-1],"split_indices":[7,1,4,4,7,1,4,7,1,1,0,6,6,1,0,0,0,0,0,0,0,0,0,0,0,0,0,0,0,0,0],"split_type":[0,0,0,0,0,0,0,0,0,0,0,0,0,0,0,0,0,0,0,0,0,0,0,0,0,0,0,0,0,0,0],"sum_hessian":[3.462911E3,2.7600754E3,7.0283545E2,2.623372E3,1.3670332E2,4.3473566E2,2.6809982E2,2.325337E3,2.9803525E2,1.6848417E1,1.19854904E2,4.2790225E2,6.8334E0,2.3982784E2,2.8271976E1,3.1205072E2,2.0132861E3,2.8825067E2,9.784588E0,4.874821E0,1.1973597E1,1.039557E2,1.5899201E1,3.373598E2,9.0542435E1,1.115906E0,5.717494E0,2.2519002E2,1.4637831E1,6.382577E0,2.18894E1],"tree_param":{"num_deleted":"0","num_feature":"14","num_nodes":"31","size_leaf_vector":"1"}},{"base_weights":[-6.880516E-3,-3.5068664E-1,1.6555208E-1,-8.95871E-1,-2.2816384E-1,-4.5301053E-1,2.3632331E-1,-9.68185E-1,-5.213133E-1,-3.871284E-1,8.516579E-2,-6.004455E-1,2.4188825E-1,1.9514376E-1,1.0421641E0,-9.8665215E-2,8.143611E-2,5.6087826E-3,-7.8297414E-2,-2.7838388E-2,-7.668587E-2,-1.5715344E-2,3.3827797E-2,-6.890805E-2,6.0752273E-2,4.6929132E-2,-4.356372E-2,-1.8639542E-2,2.8364226E-2,1.1013806E-1,5.553199E-2],"categories":[],"categories_nodes":[],"categories_segments":[],"categories_sizes":[],"default_left":[0,0,0,0,0,0,0,0,0,0,0,0,0,0,0,0,0,0,0,0,0,0,0,0,0,0,0,0,0,0,0],"id":21,"left_children":[1,3,5,7,9,11,13,15,17,19,21,23,25,27,29,-1,-1,-1,-1,-1,-1,-1,-1,-1,-1,-1,-1,-1,-1,-1,-1],"loss_changes":[2.023355E2,7.594487E1,9.961272E1,5.1520233E0,4.6462063E1,2.4089096E1,6.750343E1,6.527481E0,5.477269E0,2.5330376E1,1.9346622E1,2.1092255E1,6.6167316E0,6.5638245E1,2.2414398E0,0E0,0E0,0E0,0E0,0E0,0E0,0E0,0E0,0E0,0E0,0E0,0E0,0E0,0E0,0E0,0E0],"parents":[2147483647,0,0,1,1,2,2,3,3,4,4,5,5,6,6,7,7,8,8,9,9,10,10,11,11,12,12,13,13,14,14],"right_children":[2,4,6,8,10,12,14,16,18,20,22,24,26,28,30,-1,-1,-1,-1,-1,-1,-1,-1,-1,-1,-1,-1,-1,-1,-1,-1],"split_conditions":[3.6E1,2.5E1,3.5E1,4.4E1,1.3E1,5E0,7.298E3,2.206E3,1E0,3E0,4.2E1,1.5E1,5.3E1,1E0,6.2E1,-9.8665215E-2,8.143611E-2,5.6087826E-3,-7.8297414E-2,-2.7838388E-2,-7.668587E-2,-1.5715344E-2,3.3827797E-2,-6.890805E-2,6.0752273E-2,4.6929132E-2,-4.356372E-2,-1.8639542E-2,2.8364226E-2,1.1013806E-1,5.553199E-2],"split_indices":[0,0,6,6,4,11,1,2,11,7,6,4,0,12,0,0,0,0,0,0,0,0,0,0,0,0,0,0,0,0,0],"split_type":[0,0,0,0,0,0,0,0,0,0,0,0,0,0,0,0,0,0,0,0,0,0,0,0,0,0,0,0,0,0,0],"sum_hessian":[3.411043E3,1.1390016E3,2.2720413E3,2.0784608E2,9.311555E2,2.327072E2,2.0393341E3,1.7288344E2,3.4962646E1,6.175914E2,3.1356415E2,1.9208824E2,4.0618965E1,1.9413696E3,9.796447E1,1.7155264E2,1.3307837E0,1.114808E1,2.3814568E1,4.8145013E2,1.3614124E2,1.6039127E2,1.531729E2,1.7935739E2,1.2730846E1,3.0641777E1,9.977189E0,3.6531207E2,1.5760576E3,8.6215515E1,1.1748959E1],"tree_param":{"num_deleted":"0","num_feature":"14","num_nodes":"31","size_leaf_vector":"1"}},{"base_weights":[-6.6249515E-3,-3.0471355E-1,1.6225305E-1,-1.2981384E-1,-6.6908723E-1,-4.2600635E-1,2.2938164E-1,-1.6915876E-1,1.12137295E-1,-8.6072195E-1,-2.0832106E-1,-5.644296E-1,2.2123064E-1,-6.0370374E-1,2.668324E-1,-3.05287E-2,1.6707094E-2,-8.88301E-2,6.910229E-2,-7.505036E-2,-4.7726315E-3,-6.312507E-2,8.9353524E-2,-1.3714439E-2,6.594439E-2,-6.478139E-2,6.629523E-2,-1.0123127E-2,3.4986373E-2],"categories":[],"categories_nodes":[],"categories_segments":[],"categories_sizes":[],"default_left":[0,0,0,0,0,0,0,0,0,0,0,0,0,0,0,0,0,0,0,0,0,0,0,0,0,0,0,0,0],"id":22,"left_children":[1,3,5,7,9,11,13,15,-1,17,19,21,23,25,27,-1,-1,-1,-1,-1,-1,-1,-1,-1,-1,-1,-1,-1,-1],"loss_changes":[1.6984904E2,7.7674736E1,8.514995E1,4.083693E1,3.4742752E1,1.9920944E1,6.0497E1,3.673099E1,0E0,1.2554108E1,1.0194418E1,1.8325043E1,6.316963E0,5.094921E0,5.6614532E1,0E0,0E0,0E0,0E0,0E0,0E0,0E0,0E0,0E0,0E0,0E0,0E0,0E0,0E0],"parents":[2147483647,0,0,1,1,2,2,3,3,4,4,5,5,6,6,7,7,9,9,10,10,11,11,12,12,13,13,14,14],"right_children":[2,4,6,8,10,12,14,16,-1,18,20,22,24,26,28,-1,-1,-1,-1,-1,-1,-1,-1,-1,-1,-1,-1,-1,-1],"split_conditions":[3.7E1,3E0,3.5E1,5.06E3,4.1E1,5E0,6E0,1.3E1,1.12137295E-1,7.688E3,2.6E1,4.064E3,1.1E1,4.101E3,1E0,-3.05287E-2,1.6707094E-2,-8.88301E-2,6.910229E-2,-7.505036E-2,-4.7726315E-3,-6.312507E-2,8.9353524E-2,-1.3714439E-2,6.594439E-2,-6.478139E-2,6.629523E-2,-1.0123127E-2,3.4986373E-2],"split_indices":[0,7,6,1,6,11,4,4,0,1,0,1,4,1,12,0,0,0,0,0,0,0,0,0,0,0,0,0,0],"split_type":[0,0,0,0,0,0,0,0,0,0,0,0,0,0,0,0,0,0,0,0,0,0,0,0,0,0,0,0,0],"sum_hessian":[3.3720142E3,1.2191947E3,2.1528196E3,8.246961E2,3.9449863E2,2.199565E2,1.932863E3,8.003917E2,2.430438E1,2.7800647E2,1.1649214E2,1.813084E2,3.86481E1,8.250197E1,1.8503611E3,5.6979333E2,2.305984E2,2.7357184E2,4.434629E0,2.5780739E1,9.07114E1,1.7390506E2,7.403341E0,2.1638756E1,1.7009346E1,8.0197716E1,2.3042467E0,3.4054855E2,1.5098125E3],"tree_param":{"num_deleted":"0","num_feature":"14","num_nodes":"29","size_leaf_vector":"1"}},{"base_weights":[-6.432418E-3,-6.324811E-1,6.529058E-2,-9.291645E-1,-4.1664147E-1,2.7276948E-2,1.0279865E0,-9.4997424E-1,5.82434E-2,-5.826774E-1,-1.24498926E-1,-1.4077086E-2,8.2803696E-1,1.0753696E0,6.439967E-1,-1.0039605E-1,-4.925513E-2,-6.298345E-2,4.913224E-2,-4.2431526E-2,2.8663648E-3,-7.7028493E-3,4.409E-2,1.2264613E-1,9.253342E-3,1.5316769E-2,1.09128825E-1,8.688455E-2,-5.645288E-2],"categories":[],"categories_nodes":[],"categories_segments":[],"categories_sizes":[],"default_left":[0,0,0,0,0,0,0,0,0,0,0,0,0,0,0,0,0,0,0,0,0,0,0,0,0,0,0,0,0],"id":23,"left_children":[1,3,5,7,9,11,13,15,-1,17,19,21,23,25,27,-1,-1,-1,-1,-1,-1,-1,-1,-1,-1,-1,-1,-1,-1],"loss_changes":[1.4977089E2,2.1567657E1,1.0949261E2,5.069504E0,9.642185E0,9.538428E1,1.3753967E0,3.0121765E0,0E0,6.763321E0,3.4033601E0,7.8500725E1,4.133725E1,1.2961502E0,4.560325E0,0E0,0E0,0E0,0E0,0E0,0E0,0E0,0E0,0E0,0E0,0E0,0E0,0E0,0E0],"parents":[2147483647,0,0,1,1,2,2,3,3,4,4,5,5,6,6,7,7,9,9,10,10,11,11,12,12,13,13,14,14],"right_children":[2,4,6,8,10,12,14,16,-1,18,20,22,24,26,28,-1,-1,-1,-1,-1,-1,-1,-1,-1,-1,-1,-1,-1,-1],"split_conditions":[2.8E1,2.4E1,7.298E3,2.206E3,4.2E1,1.755E3,6.2E1,4.6E1,5.82434E-2,2.936E3,1.46399E5,1.4E1,1.98E3,2.6145E4,2.56019E5,-1.0039605E-1,-4.925513E-2,-6.298345E-2,4.913224E-2,-4.2431526E-2,2.8663648E-3,-7.7028493E-3,4.409E-2,1.2264613E-1,9.253342E-3,1.5316769E-2,1.09128825E-1,8.688455E-2,-5.645288E-2],"split_indices":[0,0,1,2,6,2,0,6,0,1,5,4,2,5,5,0,0,0,0,0,0,0,0,0,0,0,0,0,0],"split_type":[0,0,0,0,0,0,0,0,0,0,0,0,0,0,0,0,0,0,0,0,0,0,0,0,0,0,0,0,0],"sum_hessian":[3.3335798E3,3.418505E2,2.9917295E3,1.4257222E2,1.9927827E2,2.8790728E3,1.1265658E2,1.4100262E2,1.5695964E0,1.2642918E2,7.2849106E1,2.7386233E3,1.4044962E2,9.867938E1,1.3977198E1,1.2504918E2,1.5953443E1,1.2150759E2,4.921584E0,2.4033358E1,4.8815746E1,2.406488E3,3.321351E2,9.066734E1,4.9782272E1,1.8546923E0,9.682469E1,1.2021619E1,1.9555787E0],"tree_param":{"num_deleted":"0","num_feature":"14","num_nodes":"29","size_leaf_vector":"1"}},{"base_weights":[-5.829269E-3,8.906165E-2,-4.24321E-1,5.226341E-2,9.538243E-1,-6.833712E-1,-5.80265E-2,1.3813491E-2,8.0222017E-1,3.6194023E-1,1.0372614E0,-8.083828E-1,-2.7805614E-1,-1.0367426E-1,1.6887759E0,-5.87173E-2,6.181372E-3,1.2450599E-1,-2.2275219E-2,-7.485456E-2,9.3205534E-2,1.11367166E-1,5.5673625E-2,-9.421103E-2,-5.487923E-2,-3.6250852E-2,1.24180414E-1,-4.392374E-2,1.0803451E-2,5.4087877E-2,1.84816E-1],"categories":[],"categories_nodes":[],"categories_segments":[],"categories_sizes":[],"default_left":[0,0,0,0,0,0,0,0,0,0,0,0,0,0,0,0,0,0,0,0,0,0,0,0,0,0,0,0,0,0,0],"id":24,"left_children":[1,3,5,7,9,11,13,15,17,19,21,23,25,27,29,-1,-1,-1,-1,-1,-1,-1,-1,-1,-1,-1,-1,-1,-1,-1,-1],"loss_changes":[1.3101575E2,8.553361E1,5.7824272E1,7.440682E1,5.042885E0,1.7869232E1,2.0405087E1,7.0882996E1,5.739746E1,1.0252189E1,2.8910065E0,8.939148E0,1.1450556E1,1.7679157E1,1.9304657E-1,0E0,0E0,0E0,0E0,0E0,0E0,0E0,0E0,0E0,0E0,0E0,0E0,0E0,0E0,0E0,0E0],"parents":[2147483647,0,0,1,1,2,2,3,3,4,4,5,5,6,6,7,7,8,8,9,9,10,10,11,11,12,12,13,13,14,14],"right_children":[2,4,6,8,10,12,14,16,18,20,22,24,26,28,30,-1,-1,-1,-1,-1,-1,-1,-1,-1,-1,-1,-1,-1,-1,-1,-1],"split_conditions":[3E0,5.06E3,1.2E1,1.755E3,1E0,4.1E1,2.231E3,8E0,1.98E3,8.614E3,6.2E1,3.8E1,2.002E3,3.3E1,1.06023E5,-5.87173E-2,6.181372E-3,1.2450599E-1,-2.2275219E-2,-7.485456E-2,9.3205534E-2,1.11367166E-1,5.5673625E-2,-9.421103E-2,-5.487923E-2,-3.6250852E-2,1.24180414E-1,-4.392374E-2,1.0803451E-2,5.4087877E-2,1.84816E-1],"split_indices":[7,1,4,2,7,6,2,4,2,1,0,0,2,0,5,0,0,0,0,0,0,0,0,0,0,0,0,0,0,0,0],"split_type":[0,0,0,0,0,0,0,0,0,0,0,0,0,0,0,0,0,0,0,0,0,0,0,0,0,0,0,0,0,0,0],"sum_hessian":[3.2972734E3,2.6884646E3,6.088088E2,2.579749E3,1.08715614E2,3.5610162E2,2.5270718E2,2.4549058E3,1.248434E2,1.4091504E1,9.462411E1,2.7139926E2,8.4702354E1,2.4718826E2,5.5189195E0,1.8073845E2,2.2741672E3,8.702814E1,3.781526E1,4.674131E0,9.417373E0,8.050506E1,1.4119051E1,1.7738869E2,9.4010574E1,8.096495E1,3.7374015E0,9.520751E1,1.5198074E2,1.2085315E0,4.310388E0],"tree_param":{"num_deleted":"0","num_feature":"14","num_nodes":"31","size_leaf_vector":"1"}},{"base_weights":[-5.3445324E-3,-2.6520807E-1,1.3498607E-1,-8.2867974E-1,-1.7300792E-1,-4.0058324E-1,1.9439825E-1,-8.5637325E-1,3.7405273E-1,-2.9754835E-1,1.4039916E-1,-5.3156626E-1,1.9404028E-1,2.7374157E-1,-1.5596256E-1,-8.7392755E-2,5.1711347E-2,7.986339E-2,-2.1898063E-2,-3.7657082E-2,3.1015435E-2,3.8879268E-2,-1.4535161E-3,-6.175039E-2,5.509862E-2,7.632231E-2,-6.855464E-3,-1.0694244E-2,3.625478E-2,-2.3329126E-2,6.428138E-2],"categories":[],"categories_nodes":[],"categories_segments":[],"categories_sizes":[],"default_left":[0,0,0,0,0,0,0,0,0,0,0,0,0,0,0,0,0,0,0,0,0,0,0,0,0,0,0,0,0,0,0],"id":25,"left_children":[1,3,5,7,9,11,13,15,17,19,21,23,25,27,29,-1,-1,-1,-1,-1,-1,-1,-1,-1,-1,-1,-1,-1,-1,-1,-1],"loss_changes":[1.1891033E2,5.925911E1,6.745195E1,5.6669617E0,3.8444664E1,1.6596214E1,5.30448E1,4.2423935E0,1.2598245E0,3.394437E1,1.0799448E1,1.6509335E1,5.8752375E0,5.2606926E1,2.193504E1,0E0,0E0,0E0,0E0,0E0,0E0,0E0,0E0,0E0,0E0,0E0,0E0,0E0,0E0,0E0,0E0],"parents":[2147483647,0,0,1,1,2,2,3,3,4,4,5,5,6,6,7,7,8,8,9,9,10,10,11,11,12,12,13,13,14,14],"right_children":[2,4,6,8,10,12,14,16,18,20,22,24,26,28,30,-1,-1,-1,-1,-1,-1,-1,-1,-1,-1,-1,-1,-1,-1,-1,-1],"split_conditions":[3.7E1,2.5E1,3.5E1,4.386E3,4.9E1,5E0,5E0,2.206E3,2E0,5E0,4E0,1.5E1,4E0,1E0,1.5E1,-8.7392755E-2,5.1711347E-2,7.986339E-2,-2.1898063E-2,-3.7657082E-2,3.1015435E-2,3.8879268E-2,-1.4535161E-3,-6.175039E-2,5.509862E-2,7.632231E-2,-6.855464E-3,-1.0694244E-2,3.625478E-2,-2.3329126E-2,6.428138E-2],"split_indices":[0,0,6,1,6,11,13,2,11,11,9,4,9,12,4,0,0,0,0,0,0,0,0,0,0,0,0,0,0,0,0],"split_type":[0,0,0,0,0,0,0,0,0,0,0,0,0,0,0,0,0,0,0,0,0,0,0,0,0,0,0,0,0,0,0],"sum_hessian":[3.258801E3,1.1424072E3,2.1163938E3,1.595213E2,9.8288586E2,2.1076016E2,1.9056337E3,1.562124E2,3.3088908E0,7.034159E2,2.7946997E2,1.7280164E2,3.7958515E1,1.5539436E3,3.5169006E2,1.546002E2,1.6122013E0,1.7262746E0,1.5826162E0,6.228094E2,8.060653E1,1.0677574E2,1.7269423E2,1.604908E2,1.2310851E1,1.1381749E1,2.6576767E1,2.9389688E2,1.2600468E3,3.2129385E2,3.0396183E1],"tree_param":{"num_deleted":"0","num_feature":"14","num_nodes":"31","size_leaf_vector":"1"}},{"base_weights":[-5.119012E-3,-3.7342448E-2,9.8584884E-1,4.6081904E-2,-4.246481E-1,1.0371078E0,5.858855E-1,-3.759477E-1,1.0993713E-1,-6.7180145E-1,-9.18703E-2,9.932081E-3,1.054379E0,8.217595E-1,-5.6189474E-2,-6.189009E-2,6.730786E-3,-4.473121E-2,1.57603E-2,-7.967829E-2,-2.8967176E-2,-1.9113995E-2,6.567551E-2,6.0272003E-3,1.0669152E-1,-2.5596518E-2,1.0469206E-1],"categories":[],"categories_nodes":[],"categories_segments":[],"categories_sizes":[],"default_left":[0,0,0,0,0,0,0,0,0,0,0,0,0,0,0,0,0,0,0,0,0,0,0,0,0,0,0],"id":26,"left_children":[1,3,5,7,9,11,13,15,17,19,21,-1,23,25,-1,-1,-1,-1,-1,-1,-1,-1,-1,-1,-1,-1,-1],"loss_changes":[1.033721E2,1.01317406E2,1.482521E0,6.958005E1,4.5644142E1,1.3379211E0,4.2194977E0,3.658572E1,5.9623524E1,1.4991089E1,1.7812E1,0E0,1.0243454E0,3.16049E0,0E0,0E0,0E0,0E0,0E0,0E0,0E0,0E0,0E0,0E0,0E0,0E0,0E0],"parents":[2147483647,0,0,1,1,2,2,3,3,4,4,5,5,6,6,7,7,8,8,9,9,10,10,12,12,13,13],"right_children":[2,4,6,8,10,12,14,16,18,20,22,-1,24,26,-1,-1,-1,-1,-1,-1,-1,-1,-1,-1,-1,-1,-1],"split_conditions":[7.298E3,3E0,6.2E1,1E0,1.2E1,2.6145E4,2.56019E5,4.5E1,9E0,4.1E1,1.5E1,9.932081E-3,2.3E1,3E0,-5.6189474E-2,-6.189009E-2,6.730786E-3,-4.473121E-2,1.57603E-2,-7.967829E-2,-2.8967176E-2,-1.9113995E-2,6.567551E-2,6.0272003E-3,1.0669152E-1,-2.5596518E-2,1.0469206E-1],"split_indices":[1,7,0,7,4,5,5,6,4,6,4,0,0,9,0,0,0,0,0,0,0,0,0,0,0,0,0],"split_type":[0,0,0,0,0,0,0,0,0,0,0,0,0,0,0,0,0,0,0,0,0,0,0,0,0,0,0],"sum_hessian":[3.2350652E3,3.134115E3,1.0095013E2,2.5794016E3,5.547135E2,8.807012E1,1.2880005E1,3.3834393E2,2.2410576E3,3.1772275E2,2.3699077E2,1.7147251E0,8.635539E1,1.09199505E1,1.960054E0,2.1829681E2,1.2004711E2,1.7592934E2,2.0651282E3,2.3859988E2,7.912286E1,2.099019E2,2.7088856E1,1.147755E0,8.520764E1,1.863512E0,9.056438E0],"tree_param":{"num_deleted":"0","num_feature":"14","num_nodes":"27","size_leaf_vector":"1"}},{"base_weights":[-4.9113305E-3,-7.0108604E-1,3.868463E-2,-8.2183605E-1,-2.6077852E-1,9.451436E-3,9.717752E-1,-8.491502E-1,4.527737E-1,1.0410949E-1,-6.4574677E-1,-1.8790704E-1,1.3144158E-1,1.029728E0,5.5431414E-1,-8.72105E-2,2.3622064E-2,-1.556281E-2,9.7427085E-2,-3.3367374E-3,1.0882731E-1,-7.356073E-2,4.4320002E-2,3.3342857E-3,-3.2965608E-2,9.525925E-3,8.9464605E-2,9.340368E-3,1.04913846E-1,7.9188265E-2,-5.1095437E-2],"categories":[],"categories_nodes":[],"categories_segments":[],"categories_sizes":[],"default_left":[0,0,0,0,0,0,0,0,0,0,0,0,0,0,0,0,0,0,0,0,0,0,0,0,0,0,0,0,0,0,0],"id":27,"left_children":[1,3,5,7,9,11,13,15,17,19,21,23,25,27,29,-1,-1,-1,-1,-1,-1,-1,-1,-1,-1,-1,-1,-1,-1,-1,-1],"loss_changes":[9.709399E1,9.809174E0,8.211374E1,5.519264E0,5.9725347E0,7.033155E1,1.6416016E0,3.8121948E0,1.3403149E0,3.0729544E0,2.341381E0,3.5008743E1,4.9767265E1,1.3402176E0,3.7739005E0,0E0,0E0,0E0,0E0,0E0,0E0,0E0,0E0,0E0,0E0,0E0,0E0,0E0,0E0,0E0,0E0],"parents":[2147483647,0,0,1,1,2,2,3,3,4,4,5,5,6,6,7,7,8,8,9,9,10,10,11,11,12,12,13,13,14,14],"right_children":[2,4,6,8,10,12,14,16,18,20,22,24,26,28,30,-1,-1,-1,-1,-1,-1,-1,-1,-1,-1,-1,-1,-1,-1,-1,-1],"split_conditions":[2.6E1,4.4E1,7.298E3,1.887E3,3E0,1E1,6.2E1,4.386E3,1.2E1,6.6E1,4.386E3,4E0,1.887E3,2.6145E4,2.56019E5,-8.72105E-2,2.3622064E-2,-1.556281E-2,9.7427085E-2,-3.3367374E-3,1.0882731E-1,-7.356073E-2,4.4320002E-2,3.3342857E-3,-3.2965608E-2,9.525925E-3,8.9464605E-2,9.340368E-3,1.04913846E-1,7.9188265E-2,-5.1095437E-2],"split_indices":[0,6,1,2,7,4,0,1,4,6,1,9,2,5,5,0,0,0,0,0,0,0,0,0,0,0,0,0,0,0,0],"split_type":[0,0,0,0,0,0,0,0,0,0,0,0,0,0,0,0,0,0,0,0,0,0,0,0,0,0,0,0,0,0,0],"sum_hessian":[3.1972063E3,1.8752809E2,3.0096782E3,1.4648856E2,4.103954E1,2.9192305E3,9.044769E1,1.4374205E2,2.746507E0,2.1443813E1,1.9595724E1,1.1149302E3,1.8043003E3,7.813427E1,1.2313426E1,1.4095738E2,2.784665E0,1.5914385E0,1.1550685E0,1.966318E1,1.780635E0,1.8401686E1,1.1940393E0,4.356726E2,6.792576E2,1.7237069E3,8.059343E1,1.7048893E0,7.642938E1,1.0277948E1,2.0354784E0],"tree_param":{"num_deleted":"0","num_feature":"14","num_nodes":"31","size_leaf_vector":"1"}},{"base_weights":[-4.443863E-3,-5.117032E-1,5.112498E-2,-6.4187646E-1,2.7135804E-2,-1.7609544E-1,1.6976674E-1,-7.0938385E-1,4.1761857E-1,-1.03174224E-1,1.2545446E-1,-3.3364612E-1,4.214233E-2,2.4172483E-1,-1.5096296E-1,-7.551558E-2,6.0905337E-2,-6.593134E-3,8.748514E-2,6.1118096E-2,-7.790921E-3,-2.2012314E-2,-7.339332E-2,9.2522346E-4,9.521184E-2,1.1249452E-2,4.4105068E-2,-2.5465682E-2,3.099661E-2],"categories":[],"categories_nodes":[],"categories_segments":[],"categories_sizes":[],"default_left":[0,0,0,0,0,0,0,0,0,0,0,0,0,0,0,0,0,0,0,0,0,0,0,0,0,0,0,0,0],"id":28,"left_children":[1,3,5,7,9,11,13,15,17,-1,19,21,23,25,27,-1,-1,-1,-1,-1,-1,-1,-1,-1,-1,-1,-1,-1,-1],"loss_changes":[8.936091E1,2.1971825E1,7.705573E1,1.8329979E1,6.569628E0,3.3731434E1,4.3370853E1,1.4786667E1,3.5360322E0,0E0,5.727091E0,2.5722412E1,1.2322588E1,3.9463593E1,1.6553324E1,0E0,0E0,0E0,0E0,0E0,0E0,0E0,0E0,0E0,0E0,0E0,0E0,0E0,0E0],"parents":[2147483647,0,0,1,1,2,2,3,3,4,4,5,5,6,6,7,7,8,8,10,10,11,11,12,12,13,13,14,14],"right_children":[2,4,6,8,10,12,14,16,18,-1,20,22,24,26,28,-1,-1,-1,-1,-1,-1,-1,-1,-1,-1,-1,-1,-1,-1],"split_conditions":[3.5E1,5E0,3.7E1,1.5E1,2.8E1,1.1E1,5E0,4.064E3,2.4E1,-1.03174224E-1,4E0,3E0,5.06E3,4.4E1,1.4E1,-7.551558E-2,6.0905337E-2,-6.593134E-3,8.748514E-2,6.1118096E-2,-7.790921E-3,-2.2012314E-2,-7.339332E-2,9.2522346E-4,9.521184E-2,1.1249452E-2,4.4105068E-2,-2.5465682E-2,3.099661E-2],"split_indices":[6,11,0,4,0,4,13,1,6,0,9,7,1,6,4,0,0,0,0,0,0,0,0,0,0,0,0,0,0],"split_type":[0,0,0,0,0,0,0,0,0,0,0,0,0,0,0,0,0,0,0,0,0,0,0,0,0,0,0,0,0],"sum_hessian":[3.1682688E3,3.1199734E2,2.8562715E3,2.5113634E2,6.0860996E1,9.7962604E2,1.8766453E3,2.3640395E2,1.4732394E1,4.3642945E0,5.64967E1,5.686071E2,4.1101892E2,1.5329604E3,3.436848E2,2.2888501E2,7.5189266E0,7.5760703E0,7.1563244E0,1.6081434E1,4.0415268E1,4.4418457E2,1.2442258E2,3.9765625E2,1.3362686E1,9.3095337E2,6.0200714E2,2.8093192E2,6.2752907E1],"tree_param":{"num_deleted":"0","num_feature":"14","num_nodes":"29","size_leaf_vector":"1"}},{"base_weights":[-4.2758444E-3,-3.328721E-2,8.5080355E-1,-7.8749216E-1,-8.2888955E-4,2.160417E-1,9.290649E-1,-8.842102E-1,-3.908493E-1,-3.2744233E-2,6.7835253E-1,-7.7604085E-1,8.442301E-1,1.4040174E-1,9.6182024E-1,-9.135147E-2,6.94882E-2,1.6382102E-2,-7.460548E-2,-1.6894777E-3,-1.3515861E-1,1.0890645E-1,2.0075976E-3,-9.544673E-2,-2.33688E-2,9.494128E-2,5.400427E-3,-4.2445887E-2,4.5972176E-2,1.012133E-1,6.1017197E-2],"categories":[],"categories_nodes":[],"categories_segments":[],"categories_sizes":[],"default_left":[0,0,0,0,0,0,0,0,0,0,0,0,0,0,0,0,0,0,0,0,0,0,0,0,0,0,0,0,0,0,0],"id":29,"left_children":[1,3,5,7,9,11,13,15,17,19,21,23,25,27,29,-1,-1,-1,-1,-1,-1,-1,-1,-1,-1,-1,-1,-1,-1,-1,-1],"loss_changes":[7.808847E1,7.452693E1,4.9307632E0,4.4732437E0,6.3312405E1,8.533077E0,2.2326813E0,5.2713013E0,5.3270106E0,5.8289944E1,3.5420288E1,3.0163455E-1,6.318612E-1,1.0655735E0,9.3634033E-1,0E0,0E0,0E0,0E0,0E0,0E0,0E0,0E0,0E0,0E0,0E0,0E0,0E0,0E0,0E0,0E0],"parents":[2147483647,0,0,1,1,2,2,3,3,4,4,5,5,6,6,7,7,8,8,9,9,10,10,11,11,12,12,13,13,14,14],"right_children":[2,4,6,8,10,12,14,16,18,20,22,24,26,28,30,-1,-1,-1,-1,-1,-1,-1,-1,-1,-1,-1,-1,-1,-1,-1,-1],"split_conditions":[5.178E3,2.5E1,1E0,4.4E1,1.848E3,8.614E3,2.1E1,2.206E3,1E0,1.573E3,1.98E3,1.93995E5,5.7E1,1E1,6.2E1,-9.135147E-2,6.94882E-2,1.6382102E-2,-7.460548E-2,-1.6894777E-3,-1.3515861E-1,1.0890645E-1,2.0075976E-3,-9.544673E-2,-2.33688E-2,9.494128E-2,5.400427E-3,-4.2445887E-2,4.5972176E-2,1.012133E-1,6.1017197E-2],"split_indices":[1,0,7,6,2,1,6,2,11,2,2,5,6,4,0,0,0,0,0,0,0,0,0,0,0,0,0,0,0,0,0],"split_type":[0,0,0,0,0,0,0,0,0,0,0,0,0,0,0,0,0,0,0,0,0,0,0,0,0,0,0,0,0,0,0],"sum_hessian":[3.1456958E3,3.0433994E3,1.0229621E2,1.2461317E2,2.9187864E3,1.164078E1,9.065543E1,9.919585E1,2.5417318E1,2.7886948E3,1.3009146E2,4.421946E0,7.218834E0,3.8258262E0,8.6829605E1,9.7802345E1,1.3935027E0,1.0132983E1,1.5284336E1,2.7565798E3,3.211496E1,7.970654E1,5.038493E1,2.755546E0,1.6663998E0,6.193064E0,1.0257696E0,1.2627782E0,2.563048E0,7.4318146E1,1.2511462E1],"tree_param":{"num_deleted":"0","num_feature":"14","num_nodes":"31","size_leaf_vector":"1"}},{"base_weights":[-3.8661067E-3,-1.2554245E-1,1.8793792E-1,-3.9736066E-2,-5.297815E-1,4.29927E-1,2.8461754E-2,-5.544362E-1,3.6169343E-2,-2.7263787E-1,-7.9624057E-1,4.8662E-2,7.3787737E-1,-5.530393E-1,2.0382637E-1,-5.8479488E-2,1.5690492E-1,8.2014985E-2,-1.09064684E-4,-6.9346376E-2,-9.022187E-3,-9.025618E-2,-4.280568E-2,-1.9044071E-2,2.7937943E-2,8.183505E-2,2.178069E-2,-5.895404E-2,7.565721E-2,1.3657364E-2,7.0770904E-2],"categories":[],"categories_nodes":[],"categories_segments":[],"categories_sizes":[],"default_left":[0,0,0,0,0,0,0,0,0,0,0,0,0,0,0,0,0,0,0,0,0,0,0,0,0,0,0,0,0,0,0],"id":30,"left_children":[1,3,5,7,9,11,13,15,17,19,21,23,25,27,29,-1,-1,-1,-1,-1,-1,-1,-1,-1,-1,-1,-1,-1,-1,-1,-1],"loss_changes":[7.294416E1,6.631163E1,4.680619E1,6.1693207E1,2.272084E1,5.653811E1,7.479219E1,1.4000572E1,4.0214233E1,1.3132185E1,6.0291214E0,1.19890785E1,1.0974426E1,8.5700035E0,1.8994987E1,0E0,0E0,0E0,0E0,0E0,0E0,0E0,0E0,0E0,0E0,0E0,0E0,0E0,0E0,0E0,0E0],"parents":[2147483647,0,0,1,1,2,2,3,3,4,4,5,5,6,6,7,7,8,8,9,9,10,10,11,11,12,12,13,13,14,14],"right_children":[2,4,6,8,10,12,14,16,18,20,22,24,26,28,30,-1,-1,-1,-1,-1,-1,-1,-1,-1,-1,-1,-1,-1,-1,-1,-1],"split_conditions":[4.2E1,3E0,4E0,1E0,2E0,3E0,9E0,2.231E3,1E0,1E1,4.3E1,3.9E1,5E0,1.755E3,1.5E1,-5.8479488E-2,1.5690492E-1,8.2014985E-2,-1.09064684E-4,-6.9346376E-2,-9.022187E-3,-9.025618E-2,-4.280568E-2,-1.9044071E-2,2.7937943E-2,8.183505E-2,2.178069E-2,-5.895404E-2,7.565721E-2,1.3657364E-2,7.0770904E-2],"split_indices":[6,7,9,7,11,9,9,2,13,4,0,0,13,2,4,0,0,0,0,0,0,0,0,0,0,0,0,0,0,0,0],"split_type":[0,0,0,0,0,0,0,0,0,0,0,0,0,0,0,0,0,0,0,0,0,0,0,0,0,0,0,0,0,0,0],"sum_hessian":[3.1235405E3,1.9113604E3,1.2121803E3,1.5775894E3,3.3377097E2,4.8084714E2,7.313332E2,2.0194363E2,1.3756458E3,1.7088414E2,1.6288683E2,2.1536617E2,2.65481E2,1.6894977E2,5.623834E2,1.9981161E2,2.1320226E0,6.1460262E1,1.3141854E3,5.082696E1,1.2005717E2,1.2526299E2,3.762383E1,1.0584689E2,1.09519264E2,2.2940974E2,3.607125E1,1.6490346E2,4.0463004E0,4.9728265E2,6.510077E1],"tree_param":{"num_deleted":"0","num_feature":"14","num_nodes":"31","size_leaf_vector":"1"}},{"base_weights":[-3.7668403E-3,-2.7699655E-2,9.186414E-1,-4.895301E-1,2.0572642E-2,9.841831E-1,4.755461E-1,-6.1610496E-1,-1.380806E-3,-1.13623574E-1,1.8142177E-1,5.516007E-3,1.0055895E0,7.3142153E-1,-5.4507673E-2,-6.849067E-2,3.764195E-2,-9.921269E-2,8.67996E-3,-2.4869395E-2,5.3544347E-3,2.3717958E-2,-2.8809343E-2,2.3604557E-3,1.0222031E-1,-3.3157934E-2,9.924848E-2],"categories":[],"categories_nodes":[],"categories_segments":[],"categories_sizes":[],"default_left":[0,0,0,0,0,0,0,0,0,0,0,0,0,0,0,0,0,0,0,0,0,0,0,0,0,0,0],"id":31,"left_children":[1,3,5,7,9,11,13,15,17,19,21,-1,23,25,-1,-1,-1,-1,-1,-1,-1,-1,-1,-1,-1,-1,-1],"loss_changes":[6.841584E1,6.735017E1,1.8081284E0,1.7663391E1,5.907192E1,1.2837677E0,3.5414798E0,1.5760376E1,5.31644E0,3.3702656E1,3.265288E1,0E0,1.0488205E0,3.1178083E0,0E0,0E0,0E0,0E0,0E0,0E0,0E0,0E0,0E0,0E0,0E0,0E0,0E0],"parents":[2147483647,0,0,1,1,2,2,3,3,4,4,5,5,6,6,7,7,8,8,9,9,10,10,12,12,13,13],"right_children":[2,4,6,8,10,12,14,16,18,20,22,-1,24,26,-1,-1,-1,-1,-1,-1,-1,-1,-1,-1,-1,-1,-1],"split_conditions":[7.298E3,3.5E1,6.2E1,5E0,4.3E1,2.6145E4,2.56019E5,1.5E1,2.8E1,4.2E1,6.2E1,5.516007E-3,2.3E1,3E0,-5.4507673E-2,-6.849067E-2,3.764195E-2,-9.921269E-2,8.67996E-3,-2.4869395E-2,5.3544347E-3,2.3717958E-2,-2.8809343E-2,2.3604557E-3,1.0222031E-1,-3.3157934E-2,9.924848E-2],"split_indices":[1,6,0,11,0,5,5,4,0,6,0,0,0,9,0,0,0,0,0,0,0,0,0,0,0,0,0],"split_type":[0,0,0,0,0,0,0,0,0,0,0,0,0,0,0,0,0,0,0,0,0,0,0,0,0,0,0],"sum_hessian":[3.0969768E3,3.0196E3,7.737661E1,2.848873E2,2.734713E3,6.6342255E1,1.1034354E1,2.2601938E2,5.886791E1,1.4910366E3,1.2436763E3,1.5747813E0,6.476748E1,9.049065E0,1.9852898E0,2.1165724E2,1.4362131E1,3.9734402E0,5.489447E1,8.2442224E2,6.666144E2,1.1121022E3,1.3157411E2,1.1178037E0,6.3649673E1,1.7309296E0,7.318135E0],"tree_param":{"num_deleted":"0","num_feature":"14","num_nodes":"27","size_leaf_vector":"1"}},{"base_weights":[-3.5008013E-3,-1.2482968E-1,1.645655E-1,-5.374305E-2,-5.689646E-1,-2.3825684E-1,2.2891162E-1,-5.039157E-1,6.90694E-3,-3.2860142E-1,-7.8111005E-1,-1.2522393E-1,-8.104843E-1,6.241459E-1,8.168681E-2,-7.058676E-2,-2.5611818E-2,1.8864974E-2,-1.2479487E-2,-3.75886E-2,1.2326616E-1,-9.188824E-2,-4.6149727E-2,-3.3714205E-2,1.2048649E-2,-1.071018E-1,-1.3991936E-2,-3.3071742E-3,6.763335E-2,-6.7633115E-2,1.7841004E-2],"categories":[],"categories_nodes":[],"categories_segments":[],"categories_sizes":[],"default_left":[0,0,0,0,0,0,0,0,0,0,0,0,0,0,0,0,0,0,0,0,0,0,0,0,0,0,0,0,0,0,0],"id":32,"left_children":[1,3,5,7,9,11,13,15,17,19,21,23,25,27,29,-1,-1,-1,-1,-1,-1,-1,-1,-1,-1,-1,-1,-1,-1,-1,-1],"loss_changes":[6.2800205E1,5.6437687E1,3.3522396E1,4.212881E1,1.2321388E1,1.1433291E1,6.476271E1,8.987133E0,3.2592686E1,9.127953E0,5.3134613E0,7.8564715E0,4.9573517E0,1.03858185E1,5.970667E1,0E0,0E0,0E0,0E0,0E0,0E0,0E0,0E0,0E0,0E0,0E0,0E0,0E0,0E0,0E0,0E0],"parents":[2147483647,0,0,1,1,2,2,3,3,4,4,5,5,6,6,7,7,8,8,9,9,10,10,11,11,12,12,13,13,14,14],"right_children":[2,4,6,8,10,12,14,16,18,20,22,24,26,28,30,-1,-1,-1,-1,-1,-1,-1,-1,-1,-1,-1,-1,-1,-1,-1,-1],"split_conditions":[1.1E1,3E0,3E0,1E0,2E0,4E0,4E0,1E0,4E0,2.352E3,3.9E1,1E0,4.9E1,2.9E1,9E0,-7.058676E-2,-2.5611818E-2,1.8864974E-2,-1.2479487E-2,-3.75886E-2,1.2326616E-1,-9.188824E-2,-4.6149727E-2,-3.3714205E-2,1.2048649E-2,-1.071018E-1,-1.3991936E-2,-3.3071742E-3,6.763335E-2,-6.7633115E-2,1.7841004E-2],"split_indices":[4,7,9,7,11,13,9,12,9,2,0,9,0,0,9,0,0,0,0,0,0,0,0,0,0,0,0,0,0,0,0],"split_type":[0,0,0,0,0,0,0,0,0,0,0,0,0,0,0,0,0,0,0,0,0,0,0,0,0,0,0,0,0,0,0],"sum_hessian":[3.0777478E3,1.787552E3,1.2901958E3,1.5418845E3,2.4566748E2,1.773347E2,1.1128612E3,1.8220024E2,1.3596843E3,1.16369026E2,1.2929845E2,1.4910133E2,2.8233364E1,3.011542E2,8.11707E2,9.9368E1,8.283225E1,5.711246E2,7.885597E2,1.1368519E2,2.683839E0,8.904131E1,4.0257145E1,7.985586E1,6.9245476E1,1.990321E1,8.330154E0,2.2181408E1,2.789728E2,9.117534E1,7.205316E2],"tree_param":{"num_deleted":"0","num_feature":"14","num_nodes":"31","size_leaf_vector":"1"}},{"base_weights":[-3.5144142E-3,-2.5219833E-2,8.98392E-1,-7.325402E-1,5.3169107E-4,9.690971E-1,4.4374546E-1,-8.3952296E-1,-3.575589E-1,-2.5775129E-2,6.444659E-1,5.783391E-3,9.9196637E-1,7.016902E-1,-5.036938E-1,-8.749791E-2,6.902805E-2,6.7200637E-3,-7.922124E-2,-4.932755E-2,8.13913E-4,1.156252E-1,-8.036542E-4,4.371643E-2,1.03630535E-1,-3.0210538E-2,9.7222924E-2,1.1918354E-2,-8.874951E-2],"categories":[],"categories_nodes":[],"categories_segments":[],"categories_sizes":[],"default_left":[0,0,0,0,0,0,0,0,0,0,0,0,0,0,0,0,0,0,0,0,0,0,0,0,0,0,0,0,0],"id":33,"left_children":[1,3,5,7,9,11,13,15,17,19,21,-1,23,25,27,-1,-1,-1,-1,-1,-1,-1,-1,-1,-1,-1,-1,-1,-1],"loss_changes":[5.9840504E1,5.4367188E1,1.8792114E0,3.9060936E0,4.881942E1,1.2206154E0,3.1670291E0,4.988575E0,4.671771E0,4.390361E1,3.7783085E1,0E0,1.0170212E0,2.8646436E0,8.3390963E-1,0E0,0E0,0E0,0E0,0E0,0E0,0E0,0E0,0E0,0E0,0E0,0E0,0E0,0E0],"parents":[2147483647,0,0,1,1,2,2,3,3,4,4,5,5,6,6,7,7,8,8,9,9,10,10,12,12,13,13,14,14],"right_children":[2,4,6,8,10,12,14,16,18,20,22,-1,24,26,28,-1,-1,-1,-1,-1,-1,-1,-1,-1,-1,-1,-1,-1,-1],"split_conditions":[7.298E3,2.5E1,6.2E1,4.4E1,1.887E3,2.6145E4,2.56019E5,2.206E3,3E0,8E0,1.98E3,5.783391E-3,3.6E1,3E0,1.2E1,-8.749791E-2,6.902805E-2,6.7200637E-3,-7.922124E-2,-4.932755E-2,8.13913E-4,1.156252E-1,-8.036542E-4,4.371643E-2,1.03630535E-1,-3.0210538E-2,9.7222924E-2,1.1918354E-2,-8.874951E-2],"split_indices":[1,0,0,6,2,5,5,2,7,4,2,0,6,9,3,0,0,0,0,0,0,0,0,0,0,0,0,0,0],"split_type":[0,0,0,0,0,0,0,0,0,0,0,0,0,0,0,0,0,0,0,0,0,0,0,0,0,0,0,0,0],"sum_hessian":[3.0546326E3,2.9837961E3,7.0836464E1,1.03851364E2,2.8799448E3,6.0323605E1,1.0512859E1,7.983536E1,2.4016E1,2.7678298E3,1.1211493E2,1.5632299E0,5.8760372E1,8.467049E0,2.0458107E0,7.844528E1,1.3900788E0,1.2573804E1,1.1442197E1,1.86292E2,2.5815378E3,6.239992E1,4.9715004E1,5.152162E0,5.360821E1,1.7727693E0,6.6942797E0,1.0428379E0,1.0029728E0],"tree_param":{"num_deleted":"0","num_feature":"14","num_nodes":"29","size_leaf_vector":"1"}},{"base_weights":[-3.143039E-3,-1.9024089E-1,9.071081E-2,-6.3102424E-1,-1.19579054E-1,1.6066594E-1,-1.8076149E-1,-8.159041E-1,-6.419013E-3,-1.4208592E-1,9.0956527E-1,-2.1035661E-1,2.1505249E-1,-2.7575535E-1,2.4324861E-1,-5.697739E-2,-9.44893E-2,-3.4622002E-2,4.4611547E-2,-1.8315539E-2,3.7261892E-2,4.6061344E-2,1.01719454E-1,-4.7999628E-2,1.4077497E-2,-5.2057642E-2,2.4573801E-2,-3.0393748E-2,6.908228E-2,4.3321025E-2,-4.6353262E-2],"categories":[],"categories_nodes":[],"categories_segments":[],"categories_sizes":[],"default_left":[0,0,0,0,0,0,0,0,0,0,0,0,0,0,0,0,0,0,0,0,0,0,0,0,0,0,0,0,0,0,0],"id":34,"left_children":[1,3,5,7,9,11,13,15,17,19,21,23,25,27,29,-1,-1,-1,-1,-1,-1,-1,-1,-1,-1,-1,-1,-1,-1,-1,-1],"loss_changes":[5.3297005E1,3.1504398E1,3.8414703E1,1.6144123E1,2.0398146E1,3.248561E1,1.6766827E1,2.8872757E0,5.220981E0,1.8188282E1,4.4291782E-1,1.9574963E1,3.1789543E1,9.449602E0,1.0460729E1,0E0,0E0,0E0,0E0,0E0,0E0,0E0,0E0,0E0,0E0,0E0,0E0,0E0,0E0,0E0,0E0],"parents":[2147483647,0,0,1,1,2,2,3,3,4,4,5,5,6,6,7,7,8,8,9,9,10,10,11,11,12,12,13,13,14,14],"right_children":[2,4,6,8,10,12,14,16,18,20,22,24,26,28,30,-1,-1,-1,-1,-1,-1,-1,-1,-1,-1,-1,-1,-1,-1,-1,-1],"split_conditions":[3.7E1,4E1,5E0,5E0,5.06E3,2E0,1.4E1,1E0,1.2E1,5E0,7.298E3,1E0,6E0,5.06E3,1E1,-5.697739E-2,-9.44893E-2,-3.4622002E-2,4.4611547E-2,-1.8315539E-2,3.7261892E-2,4.6061344E-2,1.01719454E-1,-4.7999628E-2,1.4077497E-2,-5.2057642E-2,2.4573801E-2,-3.0393748E-2,6.908228E-2,4.3321025E-2,-4.6353262E-2],"split_indices":[0,6,13,11,1,7,4,11,4,11,1,12,4,1,9,0,0,0,0,0,0,0,0,0,0,0,0,0,0,0,0],"split_type":[0,0,0,0,0,0,0,0,0,0,0,0,0,0,0,0,0,0,0,0,0,0,0,0,0,0,0,0,0,0,0],"sum_hessian":[3.0331792E3,1.0129114E3,2.020268E3,1.388493E2,8.740621E2,1.6066594E3,4.1360858E2,1.0690093E2,3.1948378E1,8.5619934E2,1.7862715E1,2.0503716E2,1.4016222E3,3.38191E2,7.5417564E1,3.8621872E1,6.827906E1,1.8381174E1,1.3567203E1,7.9352625E2,6.267308E1,4.475166E0,1.3387549E1,1.1576915E2,8.926801E1,5.5485878E1,1.3461364E3,3.29276E2,8.9150095E0,5.974655E1,1.5671016E1],"tree_param":{"num_deleted":"0","num_feature":"14","num_nodes":"31","size_leaf_vector":"1"}},{"base_weights":[-3.0279094E-3,-2.2096518E-2,8.699443E-1,-4.3279186E-1,1.8117156E-2,9.4789076E-1,3.9852974E-1,-5.531208E-1,-8.044884E-3,-8.999196E-2,1.6460922E-1,3.6842835E-3,9.731706E-1,-2.673678E-1,8.150247E-1,-6.2096763E-2,3.23038E-2,1.2872027E-2,-5.709665E-2,-1.3099097E-2,4.1035827E-2,2.1891851E-2,-2.6176313E-2,8.148211E-4,9.926876E-2,-7.073134E-2,6.063053E-2,9.342443E-2,7.6067494E-3],"categories":[],"categories_nodes":[],"categories_segments":[],"categories_sizes":[],"default_left":[0,0,0,0,0,0,0,0,0,0,0,0,0,0,0,0,0,0,0,0,0,0,0,0,0,0,0,0,0],"id":35,"left_children":[1,3,5,7,9,11,13,15,17,19,21,-1,23,25,27,-1,-1,-1,-1,-1,-1,-1,-1,-1,-1,-1,-1,-1,-1],"loss_changes":[5.0211945E1,4.8757782E1,1.9915466E0,1.3452042E1,4.260826E1,1.2217674E0,3.2337885E0,1.2395714E1,4.626362E0,3.1811451E1,2.6509745E1,0E0,9.918556E-1,2.3265805E0,5.400634E-1,0E0,0E0,0E0,0E0,0E0,0E0,0E0,0E0,0E0,0E0,0E0,0E0,0E0,0E0],"parents":[2147483647,0,0,1,1,2,2,3,3,4,4,5,5,6,6,7,7,8,8,9,9,10,10,12,12,13,13,14,14],"right_children":[2,4,6,8,10,12,14,16,18,20,22,-1,24,26,28,-1,-1,-1,-1,-1,-1,-1,-1,-1,-1,-1,-1,-1,-1],"split_conditions":[7.298E3,3.5E1,6.2E1,5E0,4.4E1,2.6145E4,1.0605E4,1.5E1,1.3E1,5E0,6.2E1,3.6842835E-3,2.3E1,4.6E1,2.5236E4,-6.2096763E-2,3.23038E-2,1.2872027E-2,-5.709665E-2,-1.3099097E-2,4.1035827E-2,2.1891851E-2,-2.6176313E-2,8.148211E-4,9.926876E-2,-7.073134E-2,6.063053E-2,9.342443E-2,7.6067494E-3],"split_indices":[1,6,0,11,0,5,1,4,9,11,0,0,0,6,1,0,0,0,0,0,0,0,0,0,0,0,0,0,0],"split_type":[0,0,0,0,0,0,0,0,0,0,0,0,0,0,0,0,0,0,0,0,0,0,0,0,0,0,0,0,0],"sum_hessian":[3.014236E3,2.9507566E3,6.3479626E1,2.6228833E2,2.688468E3,5.3605442E1,9.87418E0,2.0415103E2,5.8137314E1,1.5471089E3,1.1413593E3,1.513635E0,5.209181E1,3.9372718E0,5.9369087E0,1.8974878E2,1.4402256E1,4.7393993E1,1.0743318E1,1.4306211E3,1.1648781E2,1.0128356E3,1.2852362E2,1.0607363E0,5.103107E1,2.7452776E0,1.1919942E0,4.884581E0,1.0523275E0],"tree_param":{"num_deleted":"0","num_feature":"14","num_nodes":"29","size_leaf_vector":"1"}},{"base_weights":[-2.739941E-3,-5.0016455E-2,3.372002E-1,4.934009E-3,-3.6618736E-1,2.0445225E-1,5.717954E-1,-3.5283113E-1,5.3572986E-2,-5.011308E-1,9.94413E-2,5.4092836E-1,2.1234656E-2,6.464668E-1,-2.5673535E-1,-5.6813534E-2,-1.0876088E-2,2.0572742E-2,-5.770008E-3,-6.928811E-2,-2.1123964E-2,4.7152922E-3,1.4649071E-1,-3.477515E-2,7.1249165E-2,-4.5638746E-3,1.13147736E-1,-7.285698E-3,7.111948E-2,4.3520924E-2,-1.03713945E-1],"categories":[],"categories_nodes":[],"categories_segments":[],"categories_sizes":[],"default_left":[0,0,0,0,0,0,0,0,0,0,0,0,0,0,0,0,0,0,0,0,0,0,0,0,0,0,0,0,0,0,0],"id":36,"left_children":[1,3,5,7,9,11,13,15,17,19,21,23,25,27,29,-1,-1,-1,-1,-1,-1,-1,-1,-1,-1,-1,-1,-1,-1,-1,-1],"loss_changes":[4.8238026E1,4.5781723E1,1.12956085E1,3.9099483E1,2.456548E1,1.4512367E1,8.324718E0,1.4069607E1,3.3499454E1,1.6677872E1,6.2497816E0,1.29049225E1,1.1453926E1,5.6975555E0,6.7252398E0,0E0,0E0,0E0,0E0,0E0,0E0,0E0,0E0,0E0,0E0,0E0,0E0,0E0,0E0,0E0,0E0],"parents":[2147483647,0,0,1,1,2,2,3,3,4,4,5,5,6,6,7,7,8,8,9,9,10,10,11,11,12,12,13,13,14,14],"right_children":[2,4,6,8,10,12,14,16,18,20,22,24,26,28,30,-1,-1,-1,-1,-1,-1,-1,-1,-1,-1,-1,-1,-1,-1,-1,-1],"split_conditions":[1.4E1,3E0,1.5E1,1E0,5E1,4E0,1.1E1,1E0,4E0,3.9E1,2.267E3,3E0,3.49368E5,3.1E1,1.86191E5,-5.6813534E-2,-1.0876088E-2,2.0572742E-2,-5.770008E-3,-6.928811E-2,-2.1123964E-2,4.7152922E-3,1.4649071E-1,-3.477515E-2,7.1249165E-2,-4.5638746E-3,1.13147736E-1,-7.285698E-3,7.111948E-2,4.3520924E-2,-1.03713945E-1],"split_indices":[4,7,4,7,6,9,9,12,9,0,2,9,5,0,5,0,0,0,0,0,0,0,0,0,0,0,0,0,0,0,0],"split_type":[0,0,0,0,0,0,0,0,0,0,0,0,0,0,0,0,0,0,0,0,0,0,0,0,0,0,0,0,0,0,0],"sum_hessian":[2.9994734E3,2.6340068E3,3.654665E2,2.2448386E3,3.8916824E2,2.3459192E2,1.3087457E2,2.6791675E2,1.9769218E3,3.0166635E2,8.75019E1,8.201687E1,1.5257506E2,1.20256226E2,1.0618349E1,1.416414E2,1.2627534E2,8.347029E2,1.1422189E3,1.8073073E2,1.2093561E2,8.527111E1,2.230791E0,1.3105385E1,6.891148E1,1.448115E2,7.763558E0,9.917475E0,1.1033875E2,5.8626046E0,4.755745E0],"tree_param":{"num_deleted":"0","num_feature":"14","num_nodes":"31","size_leaf_vector":"1"}},{"base_weights":[-2.5977197E-3,-2.2349656E-2,7.514931E-1,-4.821662E-2,5.583305E-1,7.823819E-2,8.437279E-1,-3.3485483E-2,-1.4073537E-1,9.391784E-1,9.855077E-3,-7.5291777E-1,7.385792E-1,8.3706394E-2,8.825025E-1,-3.9294153E-3,4.0346432E-1,1.0548925E-1,-1.0187619E-1,-1.442614E-1,8.7571E-2,-1.8396812E-2,-8.9853756E-2,8.620238E-2,7.7016028E-3,-3.8005333E-2,3.8692523E-2,9.458683E-2,5.196766E-2],"categories":[],"categories_nodes":[],"categories_segments":[],"categories_sizes":[],"default_left":[0,0,0,0,0,0,0,0,0,0,0,0,0,0,0,0,0,0,0,0,0,0,0,0,0,0,0,0,0],"id":37,"left_children":[1,3,5,7,9,11,13,15,-1,17,19,21,23,25,27,-1,-1,-1,-1,-1,-1,-1,-1,-1,-1,-1,-1,-1,-1],"loss_changes":[4.4404057E1,4.3660786E1,4.6591988E0,5.565308E1,2.5885353E1,6.1931767E0,1.895359E0,6.521768E1,0E0,1.7648148E1,6.642494E1,2.5246668E-1,4.422562E-1,7.585333E-1,9.6777344E-1,0E0,0E0,0E0,0E0,0E0,0E0,0E0,0E0,0E0,0E0,0E0,0E0,0E0,0E0],"parents":[2147483647,0,0,1,1,2,2,3,3,4,4,5,5,6,6,7,7,9,9,10,10,11,11,12,12,13,13,14,14],"right_children":[2,4,6,8,10,12,14,16,-1,18,20,22,24,26,28,-1,-1,-1,-1,-1,-1,-1,-1,-1,-1,-1,-1,-1,-1],"split_conditions":[5.178E3,1.755E3,1E0,1.573E3,1.98E3,8.614E3,2.1E1,1.564E3,-1.4073537E-1,3E0,2.231E3,2E0,5E0,1E1,6.2E1,-3.9294153E-3,4.0346432E-1,1.0548925E-1,-1.0187619E-1,-1.442614E-1,8.7571E-2,-1.8396812E-2,-8.9853756E-2,8.620238E-2,7.7016028E-3,-3.8005333E-2,3.8692523E-2,9.458683E-2,5.196766E-2],"split_indices":[1,2,7,2,2,1,6,2,0,7,2,13,13,4,0,0,0,0,0,0,0,0,0,0,0,0,0,0,0],"split_type":[0,0,0,0,0,0,0,0,0,0,0,0,0,0,0,0,0,0,0,0,0,0,0,0,0,0,0,0,0],"sum_hessian":[2.9790603E3,2.9039668E3,7.5093376E1,2.7810015E3,1.22965454E2,9.270793E0,6.5822586E1,2.752196E3,2.8805298E1,7.215231E1,5.0813145E1,4.0424542E0,5.2283387E0,3.3484435E0,6.247414E1,2.749261E3,2.9351842E0,6.856156E1,3.5907545E0,1.872907E1,3.2084072E1,1.2850385E0,2.7574158E0,4.150807E0,1.0775319E0,1.223602E0,2.1248415E0,5.1817516E1,1.0656624E1],"tree_param":{"num_deleted":"0","num_feature":"14","num_nodes":"29","size_leaf_vector":"1"}},{"base_weights":[-2.2065374E-3,-1.5569803E-1,9.0171084E-2,-9.551119E-2,-5.8222973E-1,1.4989112E-1,-1.7076872E-1,-4.9002743E-1,-4.156544E-2,-7.30485E-1,-1.5798739E-1,-1.0117194E-1,2.203123E-1,-2.50261E-1,3.9012024E-1,-5.3864535E-2,7.967376E-2,-4.719725E-2,6.423381E-4,-8.026826E-2,1.9472612E-2,-2.718657E-2,9.2750266E-2,2.925E-3,-3.913926E-2,-8.472218E-3,2.9741764E-2,-2.8860835E-2,7.5188704E-2,-7.2947495E-2,4.4099066E-2],"categories":[],"categories_nodes":[],"categories_segments":[],"categories_sizes":[],"default_left":[0,0,0,0,0,0,0,0,0,0,0,0,0,0,0,0,0,0,0,0,0,0,0,0,0,0,0,0,0,0,0],"id":38,"left_children":[1,3,5,7,9,11,13,15,17,19,21,23,25,27,29,-1,-1,-1,-1,-1,-1,-1,-1,-1,-1,-1,-1,-1,-1,-1,-1],"loss_changes":[4.2074158E1,2.8564945E1,2.8893064E1,2.079826E1,8.543327E0,2.668372E1,1.5500931E1,7.7847023E0,1.7799742E1,6.9523582E0,4.816785E0,1.2540551E1,2.7730953E1,1.1868736E1,2.7863927E0,0E0,0E0,0E0,0E0,0E0,0E0,0E0,0E0,0E0,0E0,0E0,0E0,0E0,0E0,0E0,0E0],"parents":[2147483647,0,0,1,1,2,2,3,3,4,4,5,5,6,6,7,7,8,8,9,9,10,10,11,11,12,12,13,13,14,14],"right_children":[2,4,6,8,10,12,14,16,18,20,22,24,26,28,30,-1,-1,-1,-1,-1,-1,-1,-1,-1,-1,-1,-1,-1,-1,-1,-1],"split_conditions":[1E1,3E0,5E0,3.9E1,4.5E1,3.3E1,1.5E1,4.101E3,1E0,6.6E1,1.485E3,3E0,3E0,4.386E3,3E0,-5.3864535E-2,7.967376E-2,-4.719725E-2,6.423381E-4,-8.026826E-2,1.9472612E-2,-2.718657E-2,9.2750266E-2,2.925E-3,-3.913926E-2,-8.472218E-3,2.9741764E-2,-2.8860835E-2,7.5188704E-2,-7.2947495E-2,4.4099066E-2],"split_indices":[4,7,13,6,6,0,4,1,7,0,2,7,9,1,9,0,0,0,0,0,0,0,0,0,0,0,0,0,0,0,0],"split_type":[0,0,0,0,0,0,0,0,0,0,0,0,0,0,0,0,0,0,0,0,0,0,0,0,0,0,0,0,0,0,0],"sum_hessian":[2.9653296E3,1.1138722E3,1.8514574E3,9.7720514E2,1.3666708E2,1.5069862E3,3.444711E2,1.1657617E2,8.6062897E2,1.0074055E2,3.592654E1,3.3000992E2,1.1769763E3,3.02196E2,4.227509E1,1.1289216E2,3.6840146E0,8.544511E1,7.7518384E2,9.357128E1,7.1692657E0,3.3193745E1,2.7327962E0,2.2830942E2,1.017005E2,2.3746169E2,9.3951465E2,2.917444E2,1.0451629E1,1.2575738E0,4.1017517E1],"tree_param":{"num_deleted":"0","num_feature":"14","num_nodes":"31","size_leaf_vector":"1"}},{"base_weights":[-2.1899852E-3,-1.7822048E-2,8.264347E-1,-7.84964E-1,-7.7477423E-4,9.173569E-1,3.2694012E-1,-8.242489E-1,4.2036917E-2,-2.1977726E-2,5.6003875E-1,2.0831903E-3,9.456842E-1,6.1758626E-1,-5.8862787E-2,-9.212769E-2,-3.1166142E-2,5.4946702E-2,-4.4208406E-3,1.0618093E-1,-1.4826028E-3,3.427927E-2,1.0025986E-1,-3.551256E-2,9.278734E-2],"categories":[],"categories_nodes":[],"categories_segments":[],"categories_sizes":[],"default_left":[0,0,0,0,0,0,0,0,0,0,0,0,0,0,0,0,0,0,0,0,0,0,0,0,0],"id":39,"left_children":[1,3,5,7,9,11,13,15,-1,17,19,-1,21,23,-1,-1,-1,-1,-1,-1,-1,-1,-1,-1,-1],"loss_changes":[3.8193604E1,3.7844517E1,2.179554E0,3.3252754E0,3.3686905E1,1.1392326E0,3.014296E0,2.7596703E0,0E0,3.470204E1,2.9785717E1,0E0,1.1734428E0,2.7588773E0,0E0,0E0,0E0,0E0,0E0,0E0,0E0,0E0,0E0,0E0,0E0],"parents":[2147483647,0,0,1,1,2,2,3,3,4,4,5,5,6,6,7,7,9,9,10,10,12,12,13,13],"right_children":[2,4,6,8,10,12,14,16,-1,18,20,-1,22,24,-1,-1,-1,-1,-1,-1,-1,-1,-1,-1,-1],"split_conditions":[7.298E3,2.4E1,6.2E1,2.206E3,1.887E3,2.6145E4,2.56019E5,4.6E1,4.2036917E-2,1E0,1.98E3,2.0831903E-3,3.6E1,3E0,-5.8862787E-2,-9.212769E-2,-3.1166142E-2,5.4946702E-2,-4.4208406E-3,1.0618093E-1,-1.4826028E-3,3.427927E-2,1.0025986E-1,-3.551256E-2,9.278734E-2],"split_indices":[1,0,0,2,2,5,5,6,0,13,2,0,6,9,0,0,0,0,0,0,0,0,0,0,0],"split_type":[0,0,0,0,0,0,0,0,0,0,0,0,0,0,0,0,0,0,0,0,0,0,0,0,0],"sum_hessian":[2.9464673E3,2.8928716E3,5.3595734E1,6.1908085E1,2.8309634E3,4.4634422E1,8.96131E0,6.0260216E1,1.6478682E0,2.7287568E3,1.0220664E2,1.4202584E0,4.3214165E1,7.049056E0,1.9122546E0,4.999864E1,1.0261577E1,1.012925E2,2.6274644E3,5.4120506E1,4.8086132E1,4.3334246E0,3.888074E1,1.669832E0,5.3792243E0],"tree_param":{"num_deleted":"0","num_feature":"14","num_nodes":"25","size_leaf_vector":"1"}},{"base_weights":[-1.8679905E-3,-9.193695E-2,1.3520846E-1,-2.1909821E-1,9.928747E-2,3.290286E-1,6.5322914E-3,-1.1732062E-2,-6.3293576E-1,2.7010626E-1,-4.0977904E-1,3.1780265E-2,5.7465875E-1,-4.8643768E-1,1.5088889E-1,-1.998627E-2,4.036626E-2,-6.6101424E-2,5.386908E-2,-5.743544E-3,3.929705E-2,-6.4818196E-2,-2.0811481E-2,-2.5608659E-2,1.8417085E-2,6.445563E-2,1.3227503E-2,-5.1664002E-2,6.1622735E-2,9.357401E-3,6.1142426E-2],"categories":[],"categories_nodes":[],"categories_segments":[],"categories_sizes":[],"default_left":[0,0,0,0,0,0,0,0,0,0,0,0,0,0,0,0,0,0,0,0,0,0,0,0,0,0,0,0,0,0,0],"id":40,"left_children":[1,3,5,7,9,11,13,15,17,19,21,23,25,27,29,-1,-1,-1,-1,-1,-1,-1,-1,-1,-1,-1,-1,-1,-1,-1,-1],"loss_changes":[3.6232964E1,4.3086308E1,2.9020437E1,9.1300095E1,6.167875E1,3.388134E1,4.9916313E1,5.555333E1,1.2039856E1,2.1381023E1,8.436558E0,9.309173E0,7.7738113E0,5.6095505E0,1.4262902E1,0E0,0E0,0E0,0E0,0E0,0E0,0E0,0E0,0E0,0E0,0E0,0E0,0E0,0E0,0E0,0E0],"parents":[2147483647,0,0,1,1,2,2,3,3,4,4,5,5,6,6,7,7,8,8,9,9,10,10,11,11,12,12,13,13,14,14],"right_children":[2,4,6,8,10,12,14,16,18,20,22,24,26,28,30,-1,-1,-1,-1,-1,-1,-1,-1,-1,-1,-1,-1,-1,-1,-1,-1],"split_conditions":[4.2E1,9E0,4E0,4E0,1.3E1,3E0,9E0,3E0,4.386E3,1E0,4.6E1,1.43437E5,5E0,1.755E3,3.20451E5,-1.998627E-2,4.036626E-2,-6.6101424E-2,5.386908E-2,-5.743544E-3,3.929705E-2,-6.4818196E-2,-2.0811481E-2,-2.5608659E-2,1.8417085E-2,6.445563E-2,1.3227503E-2,-5.1664002E-2,6.1622735E-2,9.357401E-3,6.1142426E-2],"split_indices":[6,9,9,9,9,9,9,9,1,12,0,5,13,2,5,0,0,0,0,0,0,0,0,0,0,0,0,0,0,0,0],"split_type":[0,0,0,0,0,0,0,0,0,0,0,0,0,0,0,0,0,0,0,0,0,0,0,0,0,0,0,0,0,0,0],"sum_hessian":[2.9327078E3,1.7700128E3,1.1626948E3,1.0629932E3,7.0701965E2,4.632945E2,6.994003E2,7.0883685E2,3.5415637E2,5.297349E2,1.7728473E2,2.1013268E2,2.5316182E2,1.5787978E2,5.4152057E2,4.8823566E2,2.2060118E2,3.4629312E2,7.8632345E0,1.4464929E2,3.8508563E2,8.022747E1,9.705727E1,7.2499725E1,1.3763295E2,2.1822485E2,3.4936974E1,1.5418797E2,3.691795E0,4.8265594E2,5.886465E1],"tree_param":{"num_deleted":"0","num_feature":"14","num_nodes":"31","size_leaf_vector":"1"}},{"base_weights":[-1.9139592E-3,-1.592416E-2,8.007572E-1,-3.669106E-1,1.6428784E-2,8.9813846E-1,2.961239E-1,-4.9162138E-1,4.136179E-2,-7.584726E-2,1.3961856E-1,3.1632715E-1,9.55497E-1,-3.3407804E-1,7.485718E-1,-5.249081E-2,9.086327E-2,1.1735928E-2,-9.927087E-2,-1.1334487E-2,3.7030723E-2,1.8780163E-2,-2.425132E-2,7.614822E-2,-3.9625656E-2,2.7937773E-3,9.91472E-2,-1.0099292E-1,2.2988113E-2,8.780494E-2,1.0935996E-2],"categories":[],"categories_nodes":[],"categories_segments":[],"categories_sizes":[],"default_left":[0,0,0,0,0,0,0,0,0,0,0,0,0,0,0,0,0,0,0,0,0,0,0,0,0,0,0,0,0,0,0],"id":41,"left_children":[1,3,5,7,9,11,13,15,17,19,21,23,25,27,29,-1,-1,-1,-1,-1,-1,-1,-1,-1,-1,-1,-1,-1,-1,-1,-1],"loss_changes":[3.278774E1,3.2544586E1,2.191986E0,1.233593E1,2.9845388E1,1.0805092E0,2.9824185E0,9.116634E0,4.636752E0,2.515691E1,2.0747604E1,1.9554307E0,1.2143478E0,2.0220914E0,3.911698E-1,0E0,0E0,0E0,0E0,0E0,0E0,0E0,0E0,0E0,0E0,0E0,0E0,0E0,0E0,0E0,0E0],"parents":[2147483647,0,0,1,1,2,2,3,3,4,4,5,5,6,6,7,7,8,8,9,9,10,10,11,11,12,12,13,13,14,14],"right_children":[2,4,6,8,10,12,14,16,18,20,22,24,26,28,30,-1,-1,-1,-1,-1,-1,-1,-1,-1,-1,-1,-1,-1,-1,-1,-1],"split_conditions":[7.298E3,3.5E1,6.2E1,5E0,4.4E1,3.6E1,1.0605E4,2.174E3,1.14E2,5E0,6.2E1,4E0,2.6145E4,4E0,2.5124E4,-5.249081E-2,9.086327E-2,1.1735928E-2,-9.927087E-2,-1.1334487E-2,3.7030723E-2,1.8780163E-2,-2.425132E-2,7.614822E-2,-3.9625656E-2,2.7937773E-3,9.91472E-2,-1.0099292E-1,2.2988113E-2,8.780494E-2,1.0935996E-2],"split_indices":[1,6,0,11,0,6,1,2,1,11,0,7,5,9,1,0,0,0,0,0,0,0,0,0,0,0,0,0,0,0,0],"split_type":[0,0,0,0,0,0,0,0,0,0,0,0,0,0,0,0,0,0,0,0,0,0,0,0,0,0,0,0,0,0,0],"sum_hessian":[2.913476E3,2.8644587E3,4.9017452E1,2.4088084E2,2.623578E3,4.0434795E1,8.582657E0,1.8436163E2,5.6519203E1,1.5002162E3,1.1233617E3,4.213226E0,3.622157E1,3.6960938E0,4.8865633E0,1.8069139E2,3.6702497E0,5.34756E1,3.0436032E0,1.3845924E3,1.1562383E2,9.980286E2,1.2533307E2,2.5509882E0,1.6622378E0,1.4187196E0,3.480285E1,1.3215537E0,2.37454E0,3.752766E0,1.1337974E0],"tree_param":{"num_deleted":"0","num_feature":"14","num_nodes":"31","size_leaf_vector":"1"}},{"base_weights":[-1.7148703E-3,-7.3290336E-1,1.3015502E-2,-7.740112E-1,4.0705275E-2,-2.5920263E-1,5.0117284E-2,-8.925589E-1,-2.2739527E-1,-3.443157E-1,1.0745913E-1,-3.4333527E-1,7.7945076E-2,-1.0051134E-2,-9.317531E-2,4.2731665E-2,-5.618168E-2,-5.1687736E-2,-2.1866541E-2,-2.1865068E-2,7.121659E-2,-1.3839607E-2,-6.433909E-2,-1.1289413E-2,1.4825485E-2],"categories":[],"categories_nodes":[],"categories_segments":[],"categories_sizes":[],"default_left":[0,0,0,0,0,0,0,0,0,0,0,0,0,0,0,0,0,0,0,0,0,0,0,0,0],"id":42,"left_children":[1,3,5,7,-1,9,11,13,15,17,19,21,23,-1,-1,-1,-1,-1,-1,-1,-1,-1,-1,-1,-1],"loss_changes":[3.1277334E1,3.0023956E0,2.876404E1,3.4061012E0,0E0,1.0697971E1,2.7465706E1,1.3165779E0,2.707217E0,5.903679E0,1.2997653E1,1.0101931E1,3.1432808E1,0E0,0E0,0E0,0E0,0E0,0E0,0E0,0E0,0E0,0E0,0E0,0E0],"parents":[2147483647,0,0,1,1,2,2,3,3,5,5,6,6,7,7,8,8,9,9,10,10,11,11,12,12],"right_children":[2,4,6,8,-1,10,12,14,16,18,20,22,24,-1,-1,-1,-1,-1,-1,-1,-1,-1,-1,-1,-1],"split_conditions":[2.4E1,2.206E3,4E0,4.6E1,4.0705275E-2,5E1,9E0,2.6E1,1E0,1E1,2.18956E5,1.98559E5,1.17059E5,-1.0051134E-2,-9.317531E-2,4.2731665E-2,-5.618168E-2,-5.1687736E-2,-2.1866541E-2,-2.1865068E-2,7.121659E-2,-1.3839607E-2,-6.433909E-2,-1.1289413E-2,1.4825485E-2],"split_indices":[0,2,10,6,0,6,4,8,11,4,5,5,5,0,0,0,0,0,0,0,0,0,0,0,0],"split_type":[0,0,0,0,0,0,0,0,0,0,0,0,0,0,0,0,0,0,0,0,0,0,0,0,0],"sum_hessian":[2.902048E3,5.634671E1,2.8457012E3,5.4695366E1,1.6513468E0,3.4061334E2,2.505088E3,4.4427284E1,1.0268079E1,2.7649222E2,6.412112E1,1.6472536E2,2.3403625E3,2.2628756E0,4.216441E1,3.3776755E0,6.8904037E0,1.15186874E2,1.6130534E2,4.207116E1,2.2049961E1,9.874401E1,6.598134E1,6.2993835E2,1.7104242E3],"tree_param":{"num_deleted":"0","num_feature":"14","num_nodes":"25","size_leaf_vector":"1"}},{"base_weights":[-1.7628616E-3,-2.3201462E-2,4.7048536E-1,1.0212627E-1,-1.11961454E-1,5.4113954E-1,-2.8342134E-1,-1.1922746E-1,4.3227777E-1,-5.4521394E-1,7.5218014E-2,6.020537E-1,-2.3695026E-1,3.6679208E-1,-1.0079432E0,-1.800059E-2,5.043387E-2,5.1133186E-2,4.1529918E-4,-5.702081E-2,3.9774243E-2,1.6988555E-2,-2.2645622E-2,-7.4900873E-3,6.702324E-2,4.1031424E-2,-5.8910508E-2,-8.066601E-3,6.1089274E-2,-1.2099443E-1,-4.767539E-2],"categories":[],"categories_nodes":[],"categories_segments":[],"categories_sizes":[],"default_left":[0,0,0,0,0,0,0,0,0,0,0,0,0,0,0,0,0,0,0,0,0,0,0,0,0,0,0,0,0,0,0],"id":43,"left_children":[1,3,5,7,9,11,13,15,17,19,21,23,25,27,29,-1,-1,-1,-1,-1,-1,-1,-1,-1,-1,-1,-1,-1,-1,-1,-1],"loss_changes":[2.932629E1,3.0833471E1,6.853628E0,8.40401E1,1.316178E2,5.609974E0,5.756473E0,2.619497E1,1.5616974E1,1.1766144E1,3.2420414E1,5.0006676E0,2.3142378E0,7.8758615E-1,3.2094E-2,0E0,0E0,0E0,0E0,0E0,0E0,0E0,0E0,0E0,0E0,0E0,0E0,0E0,0E0,0E0,0E0],"parents":[2147483647,0,0,1,1,2,2,3,3,4,4,5,5,6,6,7,7,8,8,9,9,10,10,11,11,12,12,13,13,14,14],"right_children":[2,4,6,8,10,12,14,16,18,20,22,24,26,28,30,-1,-1,-1,-1,-1,-1,-1,-1,-1,-1,-1,-1,-1,-1,-1,-1],"split_conditions":[1.5E1,4E0,1.1E1,3E0,9E0,6.5E1,1.86191E5,5E0,5E0,4.386E3,1.3E1,3.1E1,2.6E1,2.6E1,5.1E1,-1.800059E-2,5.043387E-2,5.1133186E-2,4.1529918E-4,-5.702081E-2,3.9774243E-2,1.6988555E-2,-2.2645622E-2,-7.4900873E-3,6.702324E-2,4.1031424E-2,-5.8910508E-2,-8.066601E-3,6.1089274E-2,-1.2099443E-1,-4.767539E-2],"split_indices":[4,9,9,9,9,0,5,11,13,1,9,0,6,6,0,0,0,0,0,0,0,0,0,0,0,0,0,0,0,0,0],"split_type":[0,0,0,0,0,0,0,0,0,0,0,0,0,0,0,0,0,0,0,0,0,0,0,0,0,0,0,0,0,0,0],"sum_hessian":[2.8945342E3,2.769747E3,1.24787025E2,1.1482646E3,1.6214824E3,1.1435243E2,1.0434596E1,6.877763E2,4.6048837E2,4.886115E2,1.132871E3,1.0625993E2,8.0925E0,5.7595253E0,4.6750712E0,6.2734125E2,6.0435047E1,3.8854785E2,7.1940506E1,4.7637982E2,1.2231683E1,8.626135E2,2.7025745E2,9.71363E0,9.65463E1,2.7932754E0,5.299225E0,2.269277E0,3.4902482E0,2.4612875E0,2.2137837E0],"tree_param":{"num_deleted":"0","num_feature":"14","num_nodes":"31","size_leaf_vector":"1"}},{"base_weights":[-1.7770379E-3,-1.4321985E-2,7.756101E-1,2.7765239E-2,-2.544894E-1,8.807297E-1,2.6682657E-1,-2.7856368E-1,7.0017554E-2,-6.8031944E-2,-5.820912E-1,2.9740414E-1,9.4138384E-1,5.727164E-1,-6.1251607E-2,-4.552486E-2,9.955492E-3,9.3024215E-3,-6.1084498E-2,-1.0551273E-2,1.4598219E-1,-6.730939E-2,3.0409254E-3,7.378944E-2,-3.654338E-2,3.7396033E-3,9.8044544E-2,-3.1140689E-2,8.9530766E-2],"categories":[],"categories_nodes":[],"categories_segments":[],"categories_sizes":[],"default_left":[0,0,0,0,0,0,0,0,0,0,0,0,0,0,0,0,0,0,0,0,0,0,0,0,0,0,0,0,0],"id":44,"left_children":[1,3,5,7,9,11,13,15,17,19,21,23,25,27,-1,-1,-1,-1,-1,-1,-1,-1,-1,-1,-1,-1,-1,-1,-1],"loss_changes":[2.8071936E1,2.8639408E1,2.2099056E0,3.1227543E1,2.576689E1,1.045105E0,2.8421783E0,1.9584236E1,3.3260696E1,1.5636817E1,8.554504E0,1.726377E0,1.1449203E0,2.3861117E0,0E0,0E0,0E0,0E0,0E0,0E0,0E0,0E0,0E0,0E0,0E0,0E0,0E0,0E0,0E0],"parents":[2147483647,0,0,1,1,2,2,3,3,4,4,5,5,6,6,7,7,8,8,9,9,10,10,11,11,12,12,13,13],"right_children":[2,4,6,8,10,12,14,16,18,20,22,24,26,28,-1,-1,-1,-1,-1,-1,-1,-1,-1,-1,-1,-1,-1,-1,-1],"split_conditions":[7.298E3,3E0,6.2E1,1E0,2E0,3.6E1,2.56019E5,4.6E1,3.137E3,2.352E3,6E0,4E0,2.6145E4,3E0,-6.1251607E-2,-4.552486E-2,9.955492E-3,9.3024215E-3,-6.1084498E-2,-1.0551273E-2,1.4598219E-1,-6.730939E-2,3.0409254E-3,7.378944E-2,-3.654338E-2,3.7396033E-3,9.8044544E-2,-3.1140689E-2,8.9530766E-2],"split_indices":[1,7,0,7,11,6,5,6,1,2,7,7,5,9,0,0,0,0,0,0,0,0,0,0,0,0,0,0,0],"split_type":[0,0,0,0,0,0,0,0,0,0,0,0,0,0,0,0,0,0,0,0,0,0,0,0,0,0,0,0,0],"sum_hessian":[2.876361E3,2.8316475E3,4.4713634E1,2.4101707E3,4.214768E2,3.6451378E1,8.262257E0,2.914643E2,2.1187065E3,2.6937012E2,1.5210669E2,3.9892354E0,3.246214E1,6.3886037E0,1.8736529E0,1.9850441E2,9.295989E1,2.0502896E3,6.841687E1,2.638289E2,5.541219E0,1.3234459E2,1.976211E1,2.3285546E0,1.6606808E0,1.425674E0,3.1036467E1,1.7171352E0,4.6714687E0],"tree_param":{"num_deleted":"0","num_feature":"14","num_nodes":"29","size_leaf_vector":"1"}},{"base_weights":[-1.6649682E-3,-3.4718028E-1,2.448249E-2,-9.4643307E-1,-2.607564E-1,-2.4020953E-1,5.98783E-2,-5.7000257E-3,-9.846466E-2,-3.3066177E-1,2.7780774E-1,-1.9532578E-1,-7.921861E-1,5.793418E-1,4.083509E-2,-4.0062692E-2,1.375139E-2,-2.957094E-2,4.0510617E-2,-5.6913745E-2,-1.2529999E-2,1.33348275E-2,-9.456597E-2,1.9224055E-2,7.971684E-2,3.133256E-3,1.1243091E-1],"categories":[],"categories_nodes":[],"categories_segments":[],"categories_sizes":[],"default_left":[0,0,0,0,0,0,0,0,0,0,0,0,0,0,0,0,0,0,0,0,0,0,0,0,0,0,0],"id":45,"left_children":[1,3,5,7,9,11,13,-1,-1,15,17,19,21,23,25,-1,-1,-1,-1,-1,-1,-1,-1,-1,-1,-1,-1],"loss_changes":[2.5863619E1,1.0183971E1,2.4949602E1,7.937641E-1,6.770732E0,7.627594E0,2.3206717E1,0E0,0E0,5.2133827E0,1.6474458E0,7.5677223E0,3.4350042E0,6.8427334E0,2.3298748E1,0E0,0E0,0E0,0E0,0E0,0E0,0E0,0E0,0E0,0E0,0E0,0E0],"parents":[2147483647,0,0,1,1,2,2,3,3,4,4,5,5,6,6,9,9,10,10,11,11,12,12,13,13,14,14],"right_children":[2,4,6,8,10,12,14,-1,-1,16,18,20,22,24,26,-1,-1,-1,-1,-1,-1,-1,-1,-1,-1,-1,-1],"split_conditions":[2.8E1,3.1E1,4E0,2E0,5E0,3.9E1,1E0,-5.7000257E-3,-9.846466E-2,5.8E1,8E0,3.3E1,9E0,1E1,2.377E3,-4.0062692E-2,1.375139E-2,-2.957094E-2,4.0510617E-2,-5.6913745E-2,-1.2529999E-2,1.33348275E-2,-9.456597E-2,1.9224055E-2,7.971684E-2,3.133256E-3,1.1243091E-1],"split_indices":[0,6,10,10,11,8,13,0,0,6,3,0,3,3,2,0,0,0,0,0,0,0,0,0,0,0,0],"split_type":[0,0,0,0,0,0,0,0,0,0,0,0,0,0,0,0,0,0,0,0,0,0,0,0,0,0,0],"sum_hessian":[2.860869E3,2.0040591E2,2.6604631E3,2.400526E1,1.7640067E2,3.131231E2,2.3473398E3,1.0915143E0,2.2913746E1,1.5647617E2,1.99245E1,2.9082837E2,2.229473E1,8.196851E1,2.2653713E3,1.3625778E2,2.0218372E1,3.3788438E0,1.6545656E1,4.4760475E1,2.460679E2,3.1897619E0,1.9104967E1,3.0193665E1,5.177485E1,2.2466958E3,1.8675562E1],"tree_param":{"num_deleted":"0","num_feature":"14","num_nodes":"27","size_leaf_vector":"1"}},{"base_weights":[-1.6082178E-3,-1.5322834E-2,6.5130603E-1,-7.1480884E-3,-1.7426522E-1,-9.884679E-2,7.6146585E-1,-1.7918156E-2,1.1473998E0,-7.706018E-1,6.0927755E-1,2.649588E-1,8.375497E-1,1.5110633E-4,-1.4791475E-1,1.7504913E-1,4.1510407E-2,-2.4230272E-2,-8.7901555E-2,3.7050701E-3,7.5920545E-2,-1.424995E-2,6.968688E-2,9.0929404E-2,4.610921E-2],"categories":[],"categories_nodes":[],"categories_segments":[],"categories_sizes":[],"default_left":[0,0,0,0,0,0,0,0,0,0,0,0,0,0,0,0,0,0,0,0,0,0,0,0,0],"id":46,"left_children":[1,3,5,7,-1,9,11,13,15,17,19,21,23,-1,-1,-1,-1,-1,-1,-1,-1,-1,-1,-1,-1],"loss_changes":[2.5583677E1,3.9499348E1,4.932583E0,3.4663433E1,0E0,4.470768E0,1.7185516E0,7.839567E1,1.0651901E1,5.953622E-2,3.7109756E-1,1.5579193E0,7.712574E-1,0E0,0E0,0E0,0E0,0E0,0E0,0E0,0E0,0E0,0E0,0E0,0E0],"parents":[2147483647,0,0,1,1,2,2,3,3,5,5,6,6,7,7,8,8,9,9,10,10,11,11,12,12],"right_children":[2,4,6,8,-1,10,12,14,16,18,20,22,24,-1,-1,-1,-1,-1,-1,-1,-1,-1,-1,-1,-1],"split_conditions":[5.178E3,5.013E3,1E0,4.386E3,-1.7426522E-1,8.614E3,3.6E1,3.137E3,4.416E3,2E0,1E1,1.1E1,6.2E1,1.5110633E-4,-1.4791475E-1,1.7504913E-1,4.1510407E-2,-2.4230272E-2,-8.7901555E-2,3.7050701E-3,7.5920545E-2,-1.424995E-2,6.968688E-2,9.0929404E-2,4.610921E-2],"split_indices":[1,1,7,1,0,1,6,1,1,13,4,4,0,0,0,0,0,0,0,0,0,0,0,0,0],"split_type":[0,0,0,0,0,0,0,0,0,0,0,0,0,0,0,0,0,0,0,0,0,0,0,0,0],"sum_hessian":[2.8549707E3,2.7971914E3,5.7779133E1,2.7850154E3,1.2176204E1,7.4115524E0,5.036758E1,2.7602512E3,2.4764206E1,3.7581713E0,3.6533809E0,7.28828E0,4.30793E1,2.7250168E3,3.5234188E1,1.2817651E1,1.1946556E1,1.1907315E0,2.5674398E0,1.0174029E0,2.635978E0,4.0950937E0,3.1931865E0,3.49947E1,8.084599E0],"tree_param":{"num_deleted":"0","num_feature":"14","num_nodes":"25","size_leaf_vector":"1"}},{"base_weights":[-1.4656623E-3,-1.9939447E-2,4.4841516E-1,-6.3296435E-3,-1.37569E-1,8.383468E-1,-6.316027E-2,-1.1644945E-2,3.2091054E-1,-9.3671185E-1,9.6197104E-1,-1.6748154E-1,5.7098037E-1,2.9417186E-3,-2.5334794E-2,-1.2616424E-1,1.2205019E-2,1.0948099E-1,-1.0015775E-1,5.8426037E-3,1.1584355E-1],"categories":[],"categories_nodes":[],"categories_segments":[],"categories_sizes":[],"default_left":[0,0,0,0,0,0,0,0,0,0,0,0,0,0,0,0,0,0,0,0,0],"id":47,"left_children":[1,3,5,7,-1,9,11,13,-1,15,17,-1,19,-1,-1,-1,-1,-1,-1,-1,-1],"loss_changes":[2.3703722E1,5.053946E1,2.2493986E1,4.6410275E1,0E0,1.4925285E1,5.1637077E1,2.6901897E1,0E0,1.759819E0,1.6809578E1,0E0,1.0872111E1,0E0,0E0,0E0,0E0,0E0,0E0,0E0,0E0],"parents":[2147483647,0,0,1,1,2,2,3,3,5,5,6,6,7,7,9,9,10,10,12,12],"right_children":[2,4,6,8,-1,10,12,14,-1,16,18,-1,20,-1,-1,-1,-1,-1,-1,-1,-1],"split_conditions":[1.755E3,1.573E3,1.98E3,1.564E3,-1.37569E-1,1E0,2.174E3,3E0,3.2091054E-1,2E0,3E0,-1.6748154E-1,1.2E1,2.9417186E-3,-2.5334794E-2,-1.2616424E-1,1.2205019E-2,1.0948099E-1,-1.0015775E-1,5.8426037E-3,1.1584355E-1],"split_indices":[2,2,2,2,0,7,2,7,0,11,7,0,4,0,0,0,0,0,0,0,0],"split_type":[0,0,0,0,0,0,0,0,0,0,0,0,0,0,0,0,0,0,0,0,0],"sum_hessian":[2.850014E3,2.7385159E3,1.1149799E2,2.712293E3,2.6222889E1,6.290895E1,4.858904E1,2.7088115E3,3.481445E0,3.667797E0,5.9241154E1,1.32565975E1,3.5332443E1,2.3161985E3,3.9261307E2,2.6598709E0,1.0079263E0,5.59017E1,3.339454E0,1.9456291E1,1.5876152E1],"tree_param":{"num_deleted":"0","num_feature":"14","num_nodes":"21","size_leaf_vector":"1"}},{"base_weights":[-1.358873E-3,-3.0462876E-1,2.553472E-2,-8.069155E-1,-2.1858063E-1,-5.418436E-2,1.301352E-1,-3.959195E-2,-8.547315E-1,-3.3376282E-1,1.3188542E-1,-8.5658066E-2,3.0957302E-1,1.7425406E-1,-2.113166E-1,5.096938E-2,-5.677098E-2,-4.1282484E-3,-8.947184E-2,-3.821658E-2,8.066178E-2,2.76025E-2,-5.1115382E-2,-2.986038E-3,-5.6521732E-2,-1.03805335E-2,4.054832E-2,-1.1547432E-2,2.3449643E-2,-4.9345987E-3,-4.9657155E-2],"categories":[],"categories_nodes":[],"categories_segments":[],"categories_sizes":[],"default_left":[0,0,0,0,0,0,0,0,0,0,0,0,0,0,0,0,0,0,0,0,0,0,0,0,0,0,0,0,0,0,0],"id":48,"left_children":[1,3,5,7,9,11,13,15,17,19,21,23,25,27,29,-1,-1,-1,-1,-1,-1,-1,-1,-1,-1,-1,-1,-1,-1,-1,-1],"loss_changes":[2.3166046E1,9.823303E0,2.1762987E1,1.1940689E0,8.0729265E0,1.698593E1,1.7040373E1,1.1630249E0,9.862175E-1,8.586842E0,4.767615E0,3.648538E1,4.7276077E0,1.7482979E1,5.963647E0,0E0,0E0,0E0,0E0,0E0,0E0,0E0,0E0,0E0,0E0,0E0,0E0,0E0,0E0,0E0,0E0],"parents":[2147483647,0,0,1,1,2,2,3,3,4,4,5,5,6,6,7,7,8,8,9,9,10,10,11,11,12,12,13,13,14,14],"right_children":[2,4,6,8,10,12,14,16,18,20,22,24,26,28,30,-1,-1,-1,-1,-1,-1,-1,-1,-1,-1,-1,-1,-1,-1,-1,-1],"split_conditions":[3.5E1,3E1,4.4E1,2E0,5E0,5E0,6.2E1,1.4855E5,2E0,4.064E3,5.4E1,3E0,4E0,1E0,5E0,5.096938E-2,-5.677098E-2,-4.1282484E-3,-8.947184E-2,-3.821658E-2,8.066178E-2,2.76025E-2,-5.1115382E-2,-2.986038E-3,-5.6521732E-2,-1.03805335E-2,4.054832E-2,-1.1547432E-2,2.3449643E-2,-4.9345987E-3,-4.9657155E-2],"split_indices":[6,0,0,10,11,11,0,5,13,1,0,11,10,12,13,0,0,0,0,0,0,0,0,0,0,0,0,0,0,0,0],"split_type":[0,0,0,0,0,0,0,0,0,0,0,0,0,0,0,0,0,0,0,0,0,0,0,0,0,0,0,0,0,0,0],"sum_hessian":[2.8384092E3,2.3036249E2,2.6080466E3,3.2466873E1,1.9789561E2,1.4803276E3,1.127719E3,2.0117338E0,3.045514E1,1.4898027E2,4.891535E1,1.3631473E3,1.171803E2,9.991136E2,1.2860545E2,1.003205E0,1.0085288E0,1.5221729E0,2.8932966E1,1.4355214E2,5.4281297E0,4.0424747E1,8.490604E0,1.2220245E3,1.4112276E2,2.2052109E1,9.512818E1,1.71825E2,8.272886E2,8.27769E1,4.582856E1],"tree_param":{"num_deleted":"0","num_feature":"14","num_nodes":"31","size_leaf_vector":"1"}},{"base_weights":[-1.4185677E-3,-2.0607622E-2,4.2724743E-1,8.932082E-2,-9.9210285E-2,4.952044E-1,-2.8082493E-1,-1.0951707E-1,3.8415137E-1,-5.054347E-1,7.10062E-2,5.518678E-1,-2.0982414E-1,3.2643127E-1,-9.4593525E-1,-1.6332446E-2,4.2278077E-2,4.562598E-2,-6.2205346E-4,-5.297745E-2,3.8461942E-2,1.5645193E-2,-2.039336E-2,6.6567413E-3,6.32379E-2,2.3573807E-2,-7.2082065E-2,-4.5491118E-4,6.9067664E-2,-1.22616164E-1,-5.1012356E-2],"categories":[],"categories_nodes":[],"categories_segments":[],"categories_sizes":[],"default_left":[0,0,0,0,0,0,0,0,0,0,0,0,0,0,0,0,0,0,0,0,0,0,0,0,0,0,0,0,0,0,0],"id":49,"left_children":[1,3,5,7,9,11,13,15,17,19,21,23,25,27,29,-1,-1,-1,-1,-1,-1,-1,-1,-1,-1,-1,-1,-1,-1,-1,-1],"loss_changes":[2.327018E1,2.340503E1,5.971571E0,6.625238E1,1.0923583E2,4.548527E0,4.8536325E0,1.9410473E1,1.2814163E1,1.0309067E1,2.6197819E1,3.9815483E0,2.2142525E0,8.019097E-1,6.1713696E-2,0E0,0E0,0E0,0E0,0E0,0E0,0E0,0E0,0E0,0E0,0E0,0E0,0E0,0E0,0E0,0E0],"parents":[2147483647,0,0,1,1,2,2,3,3,4,4,5,5,6,6,7,7,8,8,9,9,10,10,11,11,12,12,13,13,14,14],"right_children":[2,4,6,8,10,12,14,16,18,20,22,24,26,28,30,-1,-1,-1,-1,-1,-1,-1,-1,-1,-1,-1,-1,-1,-1,-1,-1],"split_conditions":[1.5E1,4E0,1.1E1,3E0,9E0,6.5E1,1.86191E5,5E0,5E0,1.816E3,1.3E1,9.244E4,1.82771E5,6E1,4.2E1,-1.6332446E-2,4.2278077E-2,4.562598E-2,-6.2205346E-4,-5.297745E-2,3.8461942E-2,1.5645193E-2,-2.039336E-2,6.6567413E-3,6.32379E-2,2.3573807E-2,-7.2082065E-2,