tree
version=v4
num_class=1
num_tree_per_iteration=1
label_index=0
max_feature_idx=9
objective=binary sigmoid:1
feature_names=age bmi bp s1 s2 s3 s4 s5 s6 sex
feature_infos=[-0.10722563160735379:0.1107266754538114] [-0.090275295898509397:0.17055522598064399] [-0.11239880254408439:0.13204361674121301] [-0.12678066991651321:0.15391371315651539] [-0.1156130659793989:0.15588665039212779] [-0.1023070505174159:0.18117906039727849] [-0.076394503750003298:0.15534453535071149] [-0.1260971208333046:0.1335972819219135] [-0.13776722569000299:0.13561183068907101] -1:1:0
tree_sizes=1399 1404 1402 1286 1308 1293 1292 1406 1084 1293 1295 1204

Tree=0
num_leaves=12
num_cat=1
split_feature=7 1 7 2 8 1 9 5 0 5 1
split_gain=82.9319 18.6195 11.9385 6.39587 6.19873 5.25278 5.17406 8.59138 3.38734 2.70129 0.528852
threshold=-0.0028496157453082997 0.019122629600391652 0.027040445212758255 0.016140038639247605 0.017561783616289055 0.0061888847138220513 0 0.024709453723583453 0.028994560305874405 -0.023151837729546695 0.022356065822034001
decision_type=2 2 2 2 2 2 1 2 2 2 2
left_child=1 6 5 4 -4 9 7 -1 -8 -2 -5
right_child=2 -3 3 10 -6 -7 8 -9 -10 -11 -12
leaf_value=-0.0057564142028489786 0.058779138424345075 0.057725043861768958 0.031965607988814683 0.17530929231713668 0.1789459185580243 0.12834937955436992 -0.18471670553074179 -0.1336491881055108 -0.084709483906331096 -0.03925165589523532 0.21531218096690094
leaf_weight=9.4993137121200579 5.7495846152305612 8.2494040131568891 5.9995665550231951 4.9996387958526602 5.4996026754379272 5.7495846152305594 10.499241471290587 11.749151170253752 4.9996387958526602 5.4996026754379281 9.7492956519126874
leaf_count=38 23 33 24 20 22 23 42 47 20 22 39
internal_value=0.0169976 -0.0780423 0.115883 0.158165 0.102261 0.0505944 -0.108521 -0.0764736 -0.152456 0.010853 0.201752
internal_weight=88.2436 44.9967 43.2469 26.2481 11.4992 16.9988 36.7473 21.2485 15.4989 11.2492 14.7489
internal_count=353 180 173 105 46 68 147 85 62 45 59
cat_boundaries=0 1
cat_threshold=1
is_linear=0
shrinkage=1


Tree=1
num_leaves=12
num_cat=1
split_feature=7 1 7 3 2 8 5 9 2 1 4
split_gain=67.6073 15.2424 10.4685 5.53575 5.31429 5.09118 4.17764 7.50198 3.93058 1.56455 0.519385
threshold=-0.0046818518699106989 0.020200441674272453 0.027040445212758255 0.025262120914710553 0.016140038639247605 0.017561783616289055 0.024709453723583453 0 -0.0073918477806819488 -0.023989853354840197 0.036733660681209757
decision_type=2 2 2 2 2 2 2 1 2 2 2
left_child=1 6 3 8 5 -4 7 -1 -2 -8 -6
right_child=2 -3 4 -5 10 -7 9 -9 -10 -11 -12
leaf_value=-0.020477163415797695 -0.0063522548303405176 0.039423214557265107 0.013473820804882972 -0.060642635373305581 0.18155973766912509 0.14695959600268582 -0.1773742285880282 -0.14133765693127379 0.10678545416970575 -0.11007036975440659 0.14171852714922359
leaf_weight=9.4999212920665759 4.9904928505420694 7.7435476779937735 5.9984675645828265 4.9936686456203452 9.6484722495079023 5.4562041461467743 10.19997291266918 11.179667338728903 7.9824986904859552 5.2222537249326697 4.9511731415987006
leaf_count=38 20 31 24 20 39 22 41 45 32 21 20
internal_value=6.87314e-06 -0.087886 0.0875491 0.0288248 0.128044 0.0770571 -0.115193 -0.085816 0.0632633 -0.154584 0.168048
internal_weight=87.8663 43.8454 44.021 17.9667 26.0543 11.4547 36.1018 20.6796 12.973 15.4222 14.5996
internal_count=353 176 177 72 105 46 145 83 52 62 59
cat_boundaries=0 1
cat_threshold=1
is_linear=0
shrinkage=0.1


Tree=2
num_leaves=12
num_cat=1
split_feature=7 1 7 2 1 8 5 9 0 4 7
split_gain=55.7636 12.286 10.234 4.57321 4.4328 4.261 3.85459 2.47804 1.56171 1.15416 0.486938
threshold=-0.010411008110272098 0.0078056028246432504 0.027040445212758255 0.016140038639247605 0.0061888847138220513 0.017561783616289055 0.024709453723583453 0 0.010831868050777302 -0.026052605907591946 0.041506906554768554
decision_type=2 2 2 2 2 2 2 1 2 2 2
left_child=1 6 4 5 8 -4 7 -1 -2 -8 -5
right_child=2 -3 3 10 -6 -7 9 -9 -10 -11 -12
leaf_value=-0.11963214209094422 0.024084464570581578 0.018056716942078069 0.012129764201364385 0.13025723073579293 0.091490164236063057 0.13484953436011882 -0.11542576710589654 -0.044443260835420037 -0.042301890649862887 -0.17479584104338294 0.16884870409481353
leaf_weight=9.0521508157253265 7.2135133594274539 8.9587132632732374 5.9969040155410784 5.0799942463636389 6.4456969648599616 5.3565022349357605 5.1296484023332587 8.4985378384590184 6.9652011841535568 9.0535326451063138 9.1743054687976819
leaf_count=37 29 36 24 21 26 22 21 34 28 37 38
internal_value=1.34519e-05 -0.085359 0.0751566 0.11738 0.0227308 0.0700286 -0.114554 -0.0832236 -0.0085274 -0.153323 0.155095
internal_weight=86.9247 40.6926 46.2321 25.6077 20.6244 11.3534 31.7339 17.5507 14.1787 14.1832 14.2543
internal_count=353 165 188 105 83 46 129 71 57 58 59
cat_boundaries=0 1
cat_threshold=2
is_linear=0
shrinkage=0.1


Tree=3
num_leaves=11
num_cat=0
split_feature=7 1 7 2 1 8 0 2 3 3
split_gain=45.9701 10.4504 8.71574 4.03658 3.63432 3.61501 2.9969 2.98805 1.43377 0.513566
threshold=-0.010411008110272098 0.020200441674272453 0.027040445212758255 0.016140038639247605 0.0061888847138220513 0.017561783616289055 -0.061818900969610992 -0.0073918477806819488 0.023886168056509453 0.050029272362330755
decision_type=2 2 2 2 2 2 2 2 2 2
left_child=1 6 4 5 8 -4 -1 -8 -2 -5
right_child=2 -3 3 9 -6 -7 7 -9 -10 -11
leaf_value=-0.035973727952061919 0.015715825950781005 0.028586870295438778 0.010920380563368408 0.15858472750995831 0.083194782829218716 0.12475274137213366 -0.14166463519085981 -0.072687842415805184 -0.050912001217965824 0.11784597633094994
leaf_weight=5.6076860427856436 9.1991420239210147 7.4751694500446311 5.9950314760208148 9.0811418741941434 6.3827824294567099 5.2181201875209808 17.084215447306633 9.9310904443264025 4.9771764427423468 4.693886697292327
leaf_count=23 37 30 24 39 26 22 71 41 20 20
internal_value=2.07931e-05 -0.0780618 0.0687619 0.10844 0.0205353 0.0638931 -0.102499 -0.116308 -0.0076766 0.144703
internal_weight=85.6454 40.0982 45.5473 24.9882 20.5591 11.2132 32.623 27.0153 14.1763 13.775
internal_count=353 165 188 105 83 46 135 112 57 59
is_linear=0
shrinkage=0.1


Tree=4
num_leaves=11
num_cat=1
split_feature=7 1 2 1 7 9 1 0 5 2
split_gain=38.1797 8.69585 6.21333 6.9113 4.61427 3.84318 5.07316 3.18826 2.37853 1.2894
threshold=-0.0028496157453082997 0.019122629600391652 -0.018288471119244896 0.0078056028246432504 0.019551977668674152 0 -0.023989853354840197 0.028994560305874405 -0.037878388945894438 0.023593811001961302
decision_type=2 2 2 2 2 1 2 2 2 2
left_child=1 5 8 4 -4 6 -1 -7 -2 -5
right_child=2 -3 3 9 -6 7 -8 -9 -10 -11
leaf_value=-0.095617387331804027 0.054061560908818307 0.027030811859488219 -0.029646818771024194 0.094383846482609252 0.088365399428657176 -0.1593486936510676 0.0093238495158474259 -0.059566054472966756 -0.041507230879181886 0.15345234101687696
leaf_weight=13.347431242465971 4.8400914818048477 8.1965813636779767 5.7141341120004672 5.443661421537402 7.8853548169136047 9.7834977805614454 7.0345141589641598 4.7601821720600119 5.6374161392450315 11.507705092430113
leaf_count=56 20 33 23 23 33 42 29 20 23 51
internal_value=3.68818e-05 -0.0656652 0.0690921 0.0918817 0.0387799 -0.0874198 -0.0593985 -0.12669 0.00264083 0.134483
internal_weight=84.1506 43.1222 41.0284 30.5509 13.5995 34.9256 20.3819 14.5437 10.4775 16.9514
internal_count=353 180 173 130 56 147 85 62 43 74
cat_boundaries=0 1
cat_threshold=1
is_linear=0
shrinkage=0.1


Tree=5
num_leaves=11
num_cat=0
split_feature=7 1 7 4 5 3 2 0 2 4
split_gain=32.1153 7.51946 6.35718 3.91605 3.60954 2.78962 2.99862 2.16822 1.52344 1.08269
threshold=-0.010411008110272098 0.0078056028246432504 0.027040445212758255 0.053017380694265502 0.024709453723583453 -0.018768370547725195 -0.011988053833440747 -0.043656208714513887 0.016140038639247605 -0.026052605907591946
decision_type=2 2 2 2 2 2 2 2 2 2
left_child=1 4 5 8 7 -2 -7 -1 -4 -6
right_child=2 -3 3 -5 9 6 -8 -9 -10 -11
leaf_value=-0.0081582396611142079 0.083694831128321823 0.014411379436354552 0.085040419425158831 0.022180437392258751 -0.091935843482623125 -0.061052379981329244 0.030390854968265962 -0.084795744326698425 0.14382433006764311 -0.15172362445390067
leaf_weight=5.4885147213935879 4.8650382757186916 8.8832856267690641 8.0591304153204018 5.7358916401863089 4.7777982950210562 5.662519797682763 9.7792391926050151 11.276064470410349 9.7330299913883191 8.2743328958749753
leaf_count=23 20 36 34 25 21 23 40 48 46 37
internal_value=4.25206e-05 -0.0663458 0.058654 0.0940334 -0.0904057 0.0176624 -0.00314154 -0.0597056 0.117198 -0.129838
internal_weight=82.5348 38.7 43.8348 23.5281 29.8167 20.3068 15.4418 16.7646 17.7922 13.0521
internal_count=353 165 188 105 129 83 63 71 80 58
is_linear=0
shrinkage=0.1


Tree=6
num_leaves=11
num_cat=0
split_feature=7 5 7 0 1 4 1 2 2 3
split_gain=26.6475 6.40315 5.49808 4.15459 3.57895 3.46537 2.35247 2.25735 1.53255 1.40119
threshold=-0.010411008110272098 -0.015788562121372796 0.027040445212758255 -0.036391131812475046 -0.038001410315290592 0.053017380694265502 0.0061888847138220513 -0.0073918477806819488 0.016140038639247605 -0.0063847948239151488
decision_type=2 2 2 2 2 2 2 2 2 2
left_child=1 -1 6 4 -3 8 9 -5 -4 -2
right_child=2 3 5 7 -6 -7 -8 -9 -10 -11
leaf_value=0.022660286000321633 -0.042226693479948993 -0.093524937625414833 0.077904090793335143 -0.13688119597590334 0.024850477544605946 0.020082400397725256 0.067534826866554362 -0.069542337678430918 0.13795974838874336 0.021328168980650028
leaf_weight=7.3530749678611746 6.1844308376312265 4.724105641245842 7.9247566312551561 11.43735307455063 5.5601461380720156 5.7033991515636435 6.154344990849494 8.81481686234474 9.1614920794963819 7.9005077779293069
leaf_count=31 25 21 34 52 23 25 26 38 46 32
internal_value=3.9865e-05 -0.0611142 0.0538896 -0.0812869 -0.0295257 0.087576 0.0159585 -0.107572 0.110105 -0.00657757
internal_weight=80.9184 37.8895 43.0289 30.5364 10.2843 22.7896 20.2393 20.2522 17.0862 14.0849
internal_count=353 165 188 134 44 105 83 90 80 57
is_linear=0
shrinkage=0.1


Tree=7
num_leaves=12
num_cat=1
split_feature=7 5 1 2 1 9 7 4 3 2 5
split_gain=22.1477 5.85024 5.38773 7.58951 4.24935 3.01361 5.17556 1.64448 1.51727 1.35155 0.570547
threshold=-0.011400050993452997 0.021027815919496505 0.0078056028246432504 -0.018288471119244896 -0.030456725798124997 0 0.014068942698781752 -0.03466418860680414 -0.035279804846138636 0.020150960026112053 0.05048091835219206
decision_type=2 2 2 2 2 1 2 2 2 2 2
left_child=1 4 5 -4 -1 6 -2 -3 -6 -5 -9
right_child=2 7 3 9 8 -7 -8 10 -10 -11 -12
leaf_value=-0.078486949094917366 -0.092553154441596966 -0.062338532033785622 -0.017939396484705761 0.074776448373430587 -0.02867523633258014 0.062638824642217358 0.032273824395513954 -0.15888214978338427 0.041728083173816773 0.13855836675440694 -0.10920345924052961
leaf_weight=8.702289476990698 5.2715818881988534 5.2613091915845862 5.4172306060791042 4.7618162184953681 5.2488850802183133 8.0497498512268066 8.979238346219061 4.3212076723575574 7.3441018611192739 10.989699214696882 4.9715156853199005
leaf_count=38 22 24 23 21 22 34 38 20 31 56 24
internal_value=4.0327e-05 -0.0581469 0.0480275 0.084162 -0.0247507 0.013727 -0.0139015 -0.107012 0.0123833 0.119277 -0.132305
internal_weight=79.3186 35.8493 43.4693 21.1687 21.2953 22.3006 14.2508 14.554 12.593 15.7515 9.29272
internal_count=353 159 194 100 91 94 60 68 53 77 44
cat_boundaries=0 1
cat_threshold=2
is_linear=0
shrinkage=0.1


Tree=8
num_leaves=9
num_cat=0
split_feature=7 1 8 3 2 1 4 5
split_gain=18.4326 5.46153 4.66166 6.11208 7.24464 2.43247 4.15631 1.03255
threshold=-0.010411008110272098 0.020200441674272453 0.038272318190461306 -0.03252789912973645 -0.018288471119244896 -0.055246403497383391 -0.023390843982380848 -0.034196751141807487
decision_type=2 2 2 2 2 2 2 2
left_child=1 5 3 -2 -5 -1 -7 -4
right_child=2 -3 7 4 -6 6 -8 -9
leaf_value=-0.12019382400776352 0.1293697952521177 0.024653069511793569 0.13211439128979449 -0.07456879449111678 0.041420867166776648 0.00063078004910700541 -0.08958502269011881 0.071660638556904507
leaf_weight=7.5578953474760082 4.7360950559377697 7.4356477111577979 5.3944393396377563 7.7952129095792797 17.415449813008308 8.4007740616798419 13.023615643382071 5.9323076009750348
leaf_count=36 21 30 27 32 80 38 61 28
internal_value=5.23147e-05 -0.051802 0.0458063 0.0251376 0.00555651 -0.0714172 -0.0542103 0.100452
internal_weight=77.6914 36.4179 41.2735 29.9468 25.2107 28.9823 21.4244 11.3267
internal_count=353 165 188 133 112 135 99 55
is_linear=0
shrinkage=0.1


Tree=9
num_leaves=11
num_cat=0
split_feature=7 5 2 1 0 2 0 1 1 0
split_gain=15.8013 6.17935 5.52344 5.26322 3.9692 3.98116 3.30258 3.24365 0.911123 0.00641554
threshold=0.016671447243926003 -0.015788562121372796 0.016140038639247605 0.0061888847138220513 -0.061818900969610992 -0.0073918477806819488 -0.010963362655339098 -0.023989853354840197 0.014811381304868452 0.018096944952816153
decision_type=2 2 2 2 2 2 2 2 2 2
left_child=1 3 6 7 -3 -6 -2 -1 -4 -10
right_child=2 4 8 -5 5 -7 -8 -9 9 -11
leaf_value=0.035355542253754667 -0.044296146969311778 0.021318693358606481 0.072168663752449763 0.10014062220889758 -0.10432641089458872 -0.030379989026794375 0.056346452307178101 -0.081735380171263361 0.13330885263153067 0.12771882489533415
leaf_weight=4.6763396114110938 5.1262765228748313 5.5675014257431021 4.0112160593271247 5.3591626286506644 16.044628888368607 13.329343408346178 8.9586473107337969 4.7883801460266104 3.6532972007989866 4.6871697306632996
leaf_count=20 22 24 20 23 78 59 39 20 20 28
internal_value=4.39201e-05 -0.0331457 0.0625214 0.0209543 -0.0560976 -0.0707709 0.0197171 -0.023883 0.111332 0.130167
internal_weight=76.202 49.7654 26.4366 14.8239 34.9415 29.374 14.0849 9.46472 12.3517 8.34047
internal_count=353 224 129 63 161 137 61 40 68 48
is_linear=0
shrinkage=0.1


Tree=10
num_leaves=11
num_cat=0
split_feature=7 5 8 4 2 1 0 4 1 5
split_gain=13.3522 4.78217 4.03913 5.39215 5.78518 3.16643 2.40878 1.47748 1.30417 0.541129
threshold=-0.011400050993452997 0.021027815919496505 0.038272318190461306 -0.032315575143382645 -0.018288471119244896 -0.039079222389171393 -0.025493516459416797 -0.03466418860680414 0.0061888847138220513 0.05048091835219206
decision_type=2 2 2 2 2 2 2 2 2 2
left_child=1 5 3 -2 -5 -1 -7 -3 -4 -9
right_child=2 7 8 4 -6 6 -8 9 -10 -11
leaf_value=-0.079016031144959892 0.11700418222922307 -0.050245121784673712 0.046622888959542051 -0.068278219842600282 0.03406521603608656 0.063004134813457194 -0.021530825480551834 -0.14668149619355003 0.11906863388199776 -0.095368236031959541
leaf_weight=5.7852233648300162 4.8139193505048778 4.9547763168811789 3.9924473315477353 8.0879043340683001 17.418386235833168 5.2050608694553366 9.5647382736206072 3.8541078418493253 6.5807252824306488 4.4029262065887451
leaf_count=27 23 24 18 34 82 22 42 20 37 24
internal_value=6.40071e-05 -0.0464746 0.0384923 0.0199333 0.00161268 -0.0163036 0.00826035 -0.0934148 0.091713 -0.11932
internal_weight=74.6602 33.7668 40.8934 30.3202 25.5063 20.555 14.7698 13.2118 10.5732 8.25703
internal_count=353 159 194 139 116 91 64 68 55 44
is_linear=0
shrinkage=0.1


Tree=11
num_leaves=10
num_cat=1
split_feature=7 1 2 5 9 4 4 2 0
split_gain=11.6156 5.50856 3.97943 3.61788 4.6011 3.2174 1.45101 2.5911 0.751298
threshold=0.027040445212758255 0.0061888847138220513 -0.018288471119244896 0.054162556156279011 0 0.053017380694265502 -0.0028796197351663492 0.016140038639247605 0.010831868050777302
decision_type=2 2 2 2 1 2 2 2 2
left_child=1 3 -3 4 -1 6 7 -2 -5
right_child=5 2 -4 8 -6 -7 -8 -9 -10
leaf_value=-0.06155016136100222 0.004476856303609225 -0.036825601455867558 0.071098348720713522 -0.1385423853586347 0.015176946252047227 -0.00095614117040721675 0.12447883039981592 0.12254886814812625 -0.075290652836797645
leaf_weight=18.139945566654205 3.9157754033803949 5.5924723893403998 8.7809494286775571 3.6038020700216284 13.732147112488748 5.2014907002449027 6.7675946950912484 3.5378571003675461 3.9210832267999649
leaf_count=84 18 23 39 20 62 25 38 24 20
internal_value=5.87451e-05 -0.0238838 0.0291068 -0.0432166 -0.0284922 0.0663419 0.0909565 0.0605196 -0.105583
internal_weight=73.1931 53.7704 14.3734 39.397 31.8721 19.4227 14.2212 7.45363 7.52489
internal_count=353 248 62 186 146 105 80 42 40
cat_boundaries=0 1
cat_threshold=2
is_linear=0
shrinkage=0.1


end of trees

feature_importances:
bmi=25
s5=21
bp=20
s3=14
age=11
s2=11
s1=7
s6=6
sex=6

parameters:
[boosting: gbdt]
[objective: binary]
[metric: binary_logloss]
[tree_learner: serial]
[device_type: cpu]
[data_sample_strategy: bagging]
[data: ]
[valid: ]
[num_iterations: 12]
[learning_rate: 0.1]
[num_leaves: 31]
[num_threads: 0]
[seed: 42]
[deterministic: 0]
[force_col_wise: 0]
[force_row_wise: 0]
[histogram_pool_size: -1]
[max_depth: 4]
[min_data_in_leaf: 20]
[min_sum_hessian_in_leaf: 0.001]
[bagging_fraction: 1]
[pos_bagging_fraction: 1]
[neg_bagging_fraction: 1]
[bagging_freq: 0]
[bagging_seed: 400]
[bagging_by_query: 0]
[feature_fraction: 1]
[feature_fraction_bynode: 1]
[feature_fraction_seed: 30056]
[extra_trees: 0]
[extra_seed: 12879]
[early_stopping_round: 0]
[early_stopping_min_delta: 0]
[first_metric_only: 0]
[max_delta_step: 0]
[lambda_l1: 0]
[lambda_l2: 0]
[linear_lambda: 0]
[min_gain_to_split: 0]
[drop_rate: 0.1]
[max_drop: 50]
[skip_drop: 0.5]
[xgboost_dart_mode: 0]
[uniform_drop: 0]
[drop_seed: 17869]
[top_rate: 0.2]
[other_rate: 0.1]
[min_data_per_group: 100]
[max_cat_threshold: 32]
[cat_l2: 10]
[cat_smooth: 10]
[max_cat_to_onehot: 4]
[top_k: 20]
[monotone_constraints: ]
[monotone_constraints_method: basic]
[monotone_penalty: 0]
[feature_contri: ]
[forcedsplits_filename: ]
[refit_decay_rate: 0.9]
[cegb_tradeoff: 1]
[cegb_penalty_split: 0]
[cegb_penalty_feature_lazy: ]
[cegb_penalty_feature_coupled: ]
[path_smooth: 0]
[interaction_constraints: ]
[verbosity: -1]
[saved_feature_importance_type: 0]
[use_quantized_grad: 0]
[num_grad_quant_bins: 4]
[quant_train_renew_leaf: 0]
[stochastic_rounding: 1]
[linear_tree: 0]
[max_bin: 255]
[max_bin_by_feature: ]
[min_data_in_bin: 3]
[bin_construct_sample_cnt: 200000]
[data_random_seed: 175]
[is_enable_sparse: 1]
[enable_bundle: 1]
[use_missing: 1]
[zero_as_missing: 0]
[feature_pre_filter: 0]
[pre_partition: 0]
[two_round: 0]
[header: 0]
[label_column: ]
[weight_column: ]
[group_column: ]
[ignore_column: ]
[categorical_feature: 9]
[forcedbins_filename: ]
[precise_float_parser: 0]
[parser_config_file: ]
[objective_seed: 16083]
[num_class: 1]
[is_unbalance: 0]
[scale_pos_weight: 1]
[sigmoid: 1]
[boost_from_average: 1]
[reg_sqrt: 0]
[alpha: 0.9]
[fair_c: 1]
[poisson_max_delta_step: 0.7]
[tweedie_variance_power: 1.5]
[lambdarank_truncation_level: 30]
[lambdarank_norm: 1]
[label_gain: ]
[lambdarank_position_bias_regularization: 0]
[eval_at: ]
[multi_error_top_k: 1]
[auc_mu_weights: ]
[num_machines: 1]
[local_listen_port: 12400]
[time_out: 120]
[machine_list_filename: ]
[machines: ]
[gpu_platform_id: -1]
[gpu_device_id: -1]
[gpu_use_dp: 0]
[num_gpu: 1]

end of parameters

pandas_categorical:[["-0.0446416365069891", "0.0506801187398186"]]
