tree
version=v4
num_class=1
num_tree_per_iteration=1
label_index=0
max_feature_idx=29
objective=binary sigmoid:1
feature_names=mean_radius mean_texture mean_perimeter mean_area mean_smoothness mean_compactness mean_concavity mean_concave_points mean_symmetry mean_fractal_dimension radius_error texture_error perimeter_error area_error smoothness_error compactness_error concavity_error concave_points_error symmetry_error fractal_dimension_error worst_radius worst_texture worst_perimeter worst_area worst_smoothness worst_compactness worst_concavity worst_concave_points worst_symmetry worst_fractal_dimension
feature_infos=[6.9809999999999999:28.109999999999999] [9.7100000000000009:39.280000000000001] [43.789999999999999:188.5] [143.5:2499] [0.062509999999999996:0.1447] [0.019380000000000001:0.34539999999999998] [0:0.42680000000000001] [0:0.20119999999999999] [0.106:0.30399999999999999] [0.049959999999999997:0.097439999999999999] [0.1115:2.8730000000000002] [0.36020000000000002:4.8849999999999998] [0.75700000000000001:21.98] [6.8019999999999996:525.60000000000002] [0.0017129999999999999:0.031130000000000001] [0.0022520000000000001:0.13539999999999999] [0:0.39600000000000002] [0:0.052789999999999997] [0.0078820000000000001:0.078950000000000006] [0.00089479999999999996:0.029839999999999998] [7.9299999999999997:33.130000000000003] [12.02:49.539999999999999] [50.409999999999997:229.30000000000001] [185.19999999999999:3432] [0.071169999999999997:0.21840000000000001] [0.027289999999999998:1.0580000000000001] [0:1.252] [0:0.29099999999999998] [0.1565:0.66379999999999995] [0.055039999999999999:0.20749999999999999]
tree_sizes=954 1067 966 968 975 979 969 1087 978 978 1085 979 1088 982 1193 977 978 1083 1083 981 1076 1087 1068 1089 1090

Tree=0
num_leaves=8
num_cat=0
split_feature=20 27 1 12 21 4 0
split_gain=313.731 52.7853 11.4288 1.59556 0.465753 0.181277 2.84217e-14
threshold=16.765000000000004 0.13595000000000002 17.195000000000004 3.1740000000000008 30.200000000000003 0.090515000000000026 20.390000000000004
decision_type=2 2 2 2 2 2 2
left_child=1 3 -2 4 -1 -4 -7
right_child=2 -3 5 -5 -6 6 -8
leaf_value=0.59651530495701388 0.46832644869370477 0.45408324244222603 0.39354961587344128 0.56446809089118655 0.5831622990962525 0.38286721118483213 0.38286721118483208
leaf_weight=51.018476843833923 4.6805942058563224 7.7229804396629325 4.6805942058563259 4.6805942058563224 7.4889507293701163 20.36058479547501 5.8507427573204032
leaf_count=218 20 33 20 20 32 87 25
internal_value=0.516691 0.577477 0.395517 0.592559 0.594806 0.384486 0.382867
internal_weight=106.484 70.911 35.5725 63.188 58.5074 30.8919 26.2113
internal_count=455 303 152 270 250 132 112
is_linear=0
shrinkage=1


Tree=1
num_leaves=9
num_cat=0
split_feature=22 7 26 22 1 2 11 1
split_gain=281.377 30.3593 13.872 5.61649 0.680948 1.00658 0.196182 0.0221141
threshold=104.95 0.046735000000000006 0.36235000000000006 115.35000000000001 21.570000000000004 79.840000000000018 1.9640000000000002 18.040000000000003
decision_type=2 2 2 2 2 2 2 2
left_child=2 -2 4 -3 6 -6 -1 -5
right_child=1 3 -4 7 5 -7 -8 -9
leaf_value=0.077625723848088538 0.0028000871997087271 -0.071850874264530101 -0.015026078642648872 -0.12722105178683099 0.077869131126724375 0.045169725536641364 0.066761674317002959 -0.12351762507387694
leaf_weight=44.236751556396484 6.3730702102184287 6.1772830039262763 4.7047437131404868 4.7697947621345547 4.8257947266101819 4.5938187837600708 4.5862394571304312 26.020777136087418
leaf_count=193 27 26 20 20 21 20 20 108
internal_value=5.49645e-05 -0.0979869 0.0675594 -0.115362 0.0742305 0.0619221 0.0766052 -0.124091
internal_weight=106.288 43.3409 62.9473 36.9679 58.2426 9.41961 48.823 30.7906
internal_count=455 181 274 154 254 41 213 128
is_linear=0
shrinkage=0.05


Tree=2
num_leaves=8
num_cat=0
split_feature=22 7 27 21 28 21 22
split_gain=253.614 26.4134 13.1617 5.43016 0.675327 0.449602 0.056778
threshold=104.95 0.046735000000000006 0.12850000000000003 23.795000000000005 0.21010000000000004 30.200000000000003 118.40000000000002
decision_type=2 2 2 2 2 2 2
left_child=2 -2 4 -3 -1 -6 -5
right_child=1 3 -4 6 5 -7 -8
leaf_value=0.0535940709069768 0.0026618604884694353 -0.065087446716070571 -0.014806764808732048 -0.1209107395861439 0.075608891081046362 0.061996204996393904 -0.11502626904822877
leaf_weight=4.4925615042448035 6.3689199090003958 6.3054173439741126 4.7057536691427222 4.8481274098157909 45.4632827937603 6.9995811730623236 26.538381040096283
leaf_count=20 27 26 20 20 203 31 108
internal_value=9.66835e-05 -0.0915155 0.0655595 -0.107429 0.0721995 0.0737927 -0.115935
internal_weight=105.722 44.0608 61.6612 37.6919 56.9554 52.4629 31.3865
internal_count=455 181 274 154 254 234 128
is_linear=0
shrinkage=0.05


Tree=3
num_leaves=8
num_cat=0
split_feature=22 21 26 24 10 21 22
split_gain=229.697 23.3987 12.5258 8.97507 0.668542 0.508348 0.116166
threshold=104.95 21.185000000000006 0.36235000000000006 0.12275000000000001 0.42160000000000003 30.200000000000003 118.40000000000002
decision_type=2 2 2 2 2 2 2
left_child=2 -2 4 -3 5 -1 -5
right_child=1 3 -4 6 -6 -7 -8
leaf_value=0.073808781769230392 0.015271653772537089 -0.046522845152529649 -0.014583135982558738 -0.11574226544556182 0.051660075041493503 0.05853094475727192 -0.10832470233718283
leaf_weight=44.999933376908302 5.0545446574687949 6.7558879703283301 4.7084262967109671 6.6169711202383033 4.4046828746795645 6.1942039132118216 26.091013744473457
leaf_count=206 21 28 20 27 20 28 105
internal_value=0.000129254 -0.0860156 0.0637208 -0.0989885 0.070352 0.0719602 -0.109825
internal_weight=104.826 44.5184 60.3072 39.4639 55.5988 51.1941 32.708
internal_count=455 181 274 160 254 234 132
is_linear=0
shrinkage=0.05


Tree=4
num_leaves=8
num_cat=0
split_feature=20 27 1 13 21 11 7
split_gain=210.132 39.5667 7.28805 1.37716 0.419971 0.1402 0.0942693
threshold=16.765000000000004 0.13595000000000002 17.195000000000004 33.45000000000001 30.200000000000003 1.6080000000000003 0.058265000000000004
decision_type=2 2 2 2 2 2 2
left_child=1 3 -2 4 -1 6 -4
right_child=2 -3 5 -5 -6 -7 -8
leaf_value=0.072391365036246741 -0.036708789514894022 -0.05006919309147248 -0.10999426313599657 0.041668108367438901 0.059223271728955577 -0.094811346947075714 -0.10237637240982554
leaf_weight=46.499618142843246 4.8574253171682349 8.0161176621913892 4.9442793726921108 4.4304496943950644 6.9614866226911536 5.2307750582694998 22.734337404370308
leaf_count=218 20 33 20 20 32 21 91
internal_value=0.000155799 0.0540408 -0.09388 0.0684566 0.0706767 -0.102318 -0.103737
internal_weight=103.674 65.9077 37.7668 57.8916 53.4611 32.9094 27.6786
internal_count=455 303 152 270 250 132 111
is_linear=0
shrinkage=0.05


Tree=5
num_leaves=8
num_cat=0
split_feature=20 27 6 13 21 18 1
split_gain=191.142 36.7533 6.79224 1.34927 0.417574 0.151222 0.0952405
threshold=16.765000000000004 0.13595000000000002 0.074405000000000013 33.45000000000001 30.200000000000003 0.013260000000000003 18.515000000000004
decision_type=2 2 2 2 2 2 2
left_child=1 3 -2 4 -1 -4 -7
right_child=2 -3 5 -5 -6 6 -8
leaf_value=0.070830135388869661 -0.035625889954536659 -0.047225569541093415 -0.089427332535420595 0.040159328091782111 0.057548380782883379 -0.10497022787106712 -0.097472271319960224
leaf_weight=45.181733623147011 5.1430364400148383 8.0723256915807706 4.987716317176818 4.3686485588550559 6.8097628206014624 5.2184319198131588 22.47855544090271
leaf_count=218 21 33 20 20 32 21 90
internal_value=0.000178581 0.0525564 -0.0890373 0.066848 0.0690905 -0.0974417 -0.098885
internal_weight=102.26 64.4325 37.8277 56.3601 51.9915 32.6847 27.697
internal_count=455 303 152 270 250 131 111
is_linear=0
shrinkage=0.05


Tree=6
num_leaves=8
num_cat=0
split_feature=22 21 26 7 28 21 6
split_gain=174.854 19.5263 10.5073 7.04057 0.707537 0.46391 0.201224
threshold=104.95 21.185000000000006 0.36235000000000006 0.04821000000000001 0.21010000000000004 30.200000000000003 0.24325000000000002
decision_type=2 2 2 2 2 2 2
left_child=2 -2 4 -3 -1 -6 -5
right_child=1 3 -4 6 5 -7 -8
leaf_value=0.045706354739321144 0.018597549009721392 -0.028431040214935061 -0.012287443144854436 -0.094773689442768191 0.069317665482046556 0.054658437627082147 -0.083907770663236125
leaf_weight=4.0901571363210669 5.0920758843421927 4.7668837904930106 4.7224510461091986 29.848715350031853 40.94043180346489 6.2164807915687552 4.9702268540859214
leaf_count=20 21 20 20 120 204 30 20
internal_value=0.00019729 -0.0735652 0.0590785 -0.0854205 0.065655 0.0673852 -0.0932226
internal_weight=100.647 44.6779 55.9695 39.5858 51.2471 47.1569 34.8189
internal_count=455 181 274 160 254 234 140
is_linear=0
shrinkage=0.05


Tree=7
num_leaves=9
num_cat=0
split_feature=20 27 1 1 20 10 15 17
split_gain=161.221 32.3301 6.06997 3.53506 7.33339 0.538495 0.174296 0.140775
threshold=16.765000000000004 0.15645000000000003 17.195000000000004 21.420000000000005 14.465000000000002 0.41330000000000006 0.016435000000000002 0.011535000000000002
decision_type=2 2 2 2 2 2 2 2
left_child=1 3 -2 5 -5 -1 -4 -8
right_child=2 -3 6 4 -6 -7 7 -9
leaf_value=0.068892449415576665 -0.029720746577339627 -0.069362193218190565 -0.097306968887656206 0.06922058978782536 -0.015049555484462818 0.050134741712977639 -0.080040573450122526 -0.089394496713935998
leaf_weight=41.308790385723114 4.9092062264680854 5.1891440749168387 5.6975295543670645 6.4046745300292951 4.3250156193971634 4.2167129069566718 4.9259556680917767 21.927196130156517
leaf_count=210 20 21 23 32 20 20 20 89
internal_value=0.00021052 0.0500548 -0.0815475 0.0610702 0.0352523 0.0671551 -0.0893639 -0.0876786
internal_weight=98.9042 61.4443 37.4599 56.2552 10.7297 45.5255 32.5507 26.8532
internal_count=455 303 152 282 52 230 132 109
is_linear=0
shrinkage=0.05


Tree=8
num_leaves=8
num_cat=0
split_feature=7 20 22 22 13 21 21
split_gain=149.375 14.9809 14.4136 3.32349 2.50784 0.42519 0.144217
threshold=0.050200000000000009 16.850000000000005 104.00000000000001 115.35000000000001 32.985000000000007 30.200000000000003 24.150000000000002
decision_type=2 2 2 2 2 2 2
left_child=1 4 -2 -4 5 -1 -5
right_child=2 -3 3 6 -6 -7 -8
leaf_value=0.067423355039986962 0.013267331939280367 -0.036161364962408404 -0.048588517706273864 -0.095415573626679864 0.025072555520898376 0.053532145982313734 -0.086095660106783808
leaf_weight=40.060805127024651 4.5774542391300193 4.1938109695911399 6.6353248655796042 4.93813528120518 4.1784359216690055 6.3868504464626303 26.034135162830353
leaf_count=211 21 17 27 20 20 32 107
internal_value=0.000224471 0.0546525 -0.0705053 -0.0807018 0.0621754 0.0655132 -0.0875816
internal_weight=97.005 54.8199 42.185 37.6076 50.6261 46.4477 30.9723
internal_count=455 280 175 154 263 243 127
is_linear=0
shrinkage=0.05


Tree=9
num_leaves=8
num_cat=0
split_feature=27 20 13 20 21 1 2
split_gain=138.192 32.0576 5.4484 3.72179 2.33451 0.0893952 0.0216005
threshold=0.14575000000000002 17.510000000000002 35.080000000000005 16.275000000000002 30.200000000000003 18.105000000000004 102.25000000000001
decision_type=2 2 2 2 2 2 2
left_child=1 2 4 -2 -1 -5 -7
right_child=3 -3 -4 5 -6 6 -8
leaf_value=0.067020638081603912 -0.037958435246835863 -0.072948581721775582 0.0067747167648370748 -0.090997920795498052 0.035833074068788828 -0.086622687867736067 -0.08291500044488033
leaf_weight=42.880301579833031 4.9263147860765448 5.1309058964252463 4.7800141870975486 4.90045899152756 6.9765229076147071 4.8550266772508648 20.578177601099014
leaf_count=231 20 21 22 20 35 20 86
internal_value=0.000233874 0.0465459 0.0577676 -0.0782678 0.0626565 -0.0848142 -0.0836228
internal_weight=95.0277 59.7677 54.6368 35.26 49.8568 30.3337 25.4332
internal_count=455 309 288 146 266 126 106
is_linear=0
shrinkage=0.05


Tree=10
num_leaves=9
num_cat=0
split_feature=22 27 1 28 28 28 23 21
split_gain=127.832 21.5116 16.4182 2.23202 0.882363 0.813574 0.186854 0.176687
threshold=101.65000000000002 0.14065000000000003 17.035000000000004 0.33830000000000005 0.27115000000000006 0.21165000000000003 906.55000000000007 31.935000000000006
decision_type=2 2 2 2 2 2 2 2
left_child=3 2 -2 5 -3 -1 -6 -7
right_child=1 4 -4 -5 6 7 -8 -9
leaf_value=0.040354070254538292 0.076434287988907404 -0.062873207922022542 -0.043097033978892148 0.022209236047265525 -0.092295628996397205 0.065541153351633019 -0.081495733084396005 0.054209294647368324
leaf_weight=3.8600460886955252 4.2835633754730216 6.4550713598728171 8.7225466519594175 3.7912383824586859 4.887223660945895 34.928301841020584 22.186729535460472 3.8156554549932471
leaf_count=21 20 27 38 19 20 196 94 20
internal_value=0.000242173 -0.0583118 -0.00372938 0.0589727 -0.0794847 0.0622442 -0.0834453 0.0644251
internal_weight=92.9304 46.5351 13.0061 46.3952 33.529 42.604 27.074 38.744
internal_count=455 199 58 256 141 237 114 216
is_linear=0
shrinkage=0.05


Tree=11
num_leaves=8
num_cat=0
split_feature=7 20 21 20 13 21 20
split_gain=118.52 12.8572 11.2277 3.74756 2.51048 0.423378 0.0369863
threshold=0.050200000000000009 16.850000000000005 21.185000000000006 15.870000000000003 33.45000000000001 30.200000000000003 17.510000000000002
decision_type=2 2 2 2 2 2 2
left_child=1 4 -2 -4 5 -1 -5
right_child=2 -3 3 6 -6 -7 -8
leaf_value=0.064490329438918845 0.011217240679768422 -0.032817502411206234 -0.03202907006355956 -0.083282954051055513 0.020358375469298643 0.050143946821728985 -0.078492371436245156
leaf_weight=36.41452369093895 4.4664445370435706 4.1601954400539389 4.8642409741878501 4.7572146803140667 3.8625251948833457 5.9883028119802466 26.323101714253426
leaf_count=212 20 17 21 20 19 32 114
internal_value=0.000250073 0.0513781 -0.0635484 -0.0728387 0.058949 0.0624643 -0.0792256
internal_weight=90.8365 50.4255 40.411 35.9446 46.2654 42.4028 31.0803
internal_count=455 280 175 155 263 244 134
is_linear=0
shrinkage=0.05


Tree=12
num_leaves=9
num_cat=0
split_feature=22 27 1 28 28 28 21 20
split_gain=110.179 18.8835 14.7436 2.15528 0.837608 0.831388 0.186508 0.147043
threshold=101.65000000000002 0.14065000000000003 17.035000000000004 0.33830000000000005 0.21165000000000003 0.27115000000000006 31.935000000000006 17.265000000000004
decision_type=2 2 2 2 2 2 2 2
left_child=3 2 -2 4 -1 -3 -6 -7
right_child=1 5 -4 -5 6 7 -8 -9
leaf_value=0.037540616725240443 0.074536247518141904 -0.058552143097161606 -0.040267751674399763 0.020403622756575673 0.063815311310996506 -0.086751568346425265 0.051860464794135766 -0.07704385795030258
leaf_weight=3.6663774251937857 4.1372599601745597 6.2763136476278296 8.6302845329046232 3.6959995329380027 32.607649639248848 4.7770855426788357 3.6252039521932593 21.264443531632423
leaf_count=21 20 27 38 19 196 20 20 94
internal_value=0.000254504 -0.0545488 -0.00306608 0.056931 0.0603147 -0.0748876 0.0626192 -0.0788247
internal_weight=88.6806 45.0854 12.7675 43.5952 39.8992 32.3178 36.2329 26.0415
internal_count=455 199 58 256 237 141 216 114
is_linear=0
shrinkage=0.05


Tree=13
num_leaves=8
num_cat=0
split_feature=27 20 13 20 21 21 3
split_gain=102.272 25.4384 5.03129 3.10618 2.27734 0.0673274 0.0104004
threshold=0.14575000000000002 17.510000000000002 35.080000000000005 16.275000000000002 30.200000000000003 24.225000000000005 729.75000000000011
decision_type=2 2 2 2 2 2 2
left_child=1 2 4 -2 -1 -5 -7
right_child=3 -3 -4 5 -6 6 -8
leaf_value=0.063678376212092422 -0.032395542519786852 -0.065155321011632614 0.0039916819844263984 -0.08112114728651855 0.031498966390299456 -0.076686372855885088 -0.074011069169590438
leaf_weight=37.659273937344551 4.8812469393014899 4.9519487470388404 4.5930889248847953 4.6404286026954678 6.4379952102899543 4.5006428360939053 18.839811220765114
leaf_count=231 20 21 22 20 35 20 86
internal_value=0.000260101 0.0428125 0.0537931 -0.0692 0.0589803 -0.0756205 -0.0745269
internal_weight=86.5044 53.6423 48.6904 32.8621 44.0973 27.9809 23.3405
internal_count=455 309 288 146 266 126 106
is_linear=0
shrinkage=0.05


Tree=14
num_leaves=10
num_cat=0
split_feature=22 27 1 24 28 28 24 21 22
split_gain=95.4721 16.363 12.9717 3.93455 2.69229 0.870519 0.468893 0.174927 0.118713
threshold=101.65000000000002 0.14575000000000002 17.035000000000004 0.11785000000000002 0.34255000000000008 0.21165000000000003 0.13265000000000002 31.935000000000006 118.40000000000002
decision_type=2 2 2 2 2 2 2 2 2
left_child=4 2 -2 -4 5 -1 -3 -7 -8
right_child=1 6 3 -5 -6 7 8 -9 -10
leaf_value=0.034857975271442125 0.064315404856837954 -0.058838955938627396 -0.0058658209218704011 -0.072080314896620257 0.0090876049998440522 0.062322370011849496 -0.081940794641786732 0.05073982996453244 -0.073202398642410058
leaf_weight=3.4807888567447653 4.4461075067520133 5.5506097376346615 4.3388783633708936 4.6456460952758789 2.9487242102622977 30.787517234683037 4.8509531319141415 3.6458006948232642 19.551399201154709
leaf_count=21 22 25 20 20 15 199 21 21 91
internal_value=0.000263733 -0.0513938 -0.00553641 -0.0401035 0.055108 0.0586872 -0.0719559 0.061096 -0.0749395
internal_weight=84.2464 43.3836 13.4306 8.98452 40.8628 37.9141 29.953 34.4333 24.4024
internal_count=455 199 62 40 256 241 137 220 112
is_linear=0
shrinkage=0.05


Tree=15
num_leaves=8
num_cat=0
split_feature=7 20 23 21 13 21 23
split_gain=89.2036 10.8593 10.7177 4.3758 1.39784 0.448026 0.206396
threshold=0.04821000000000001 16.850000000000005 727.10000000000002 22.300000000000004 33.45000000000001 30.200000000000003 892.80000000000007
decision_type=2 2 2 2 2 2 2
left_child=1 4 -2 -4 5 -1 -5
right_child=2 -3 3 6 -6 -7 -8
leaf_value=0.061564065240757131 0.02038343119296341 -0.029456116624576641 -0.022921218240326724 -0.082665384820310578 0.025843307257874398 0.046040425555604864 -0.07112557414924936
leaf_weight=31.238540515303612 4.0869296938180915 4.0547844171524039 5.1495108455419532 4.6218666136264828 3.4224636107683173 5.4603186249732962 23.970579326152802
leaf_count=210 20 17 23 20 18 32 115
internal_value=0.000266563 0.0485234 -0.0560872 -0.0653496 0.0564043 0.0592543 -0.0729909
internal_weight=82.005 44.1761 37.8289 33.742 40.1213 36.6989 28.5924
internal_count=455 277 178 158 260 242 135
is_linear=0
shrinkage=0.05


Tree=16
num_leaves=8
num_cat=0
split_feature=7 20 23 21 13 21 23
split_gain=82.8239 10.2429 9.99624 4.27129 1.39656 0.460915 0.167551
threshold=0.04821000000000001 16.850000000000005 727.10000000000002 22.300000000000004 33.45000000000001 30.200000000000003 892.80000000000007
decision_type=2 2 2 2 2 2 2
left_child=1 4 -2 -4 5 -1 -5
right_child=2 -3 3 6 -6 -7 -8
leaf_value=0.060886692572608661 0.019482493925790982 -0.028004920035864769 -0.021794963703206941 -0.080189295037231434 0.024852425432635748 0.044919707772504119 -0.069677391253952586
leaf_weight=30.037194430828094 4.0627572238445273 4.0517294555902472 5.1449470221996298 4.5287020504474667 3.3820232003927222 5.3203093111515036 23.263278797268867
leaf_count=210 20 17 23 20 18 32 115
internal_value=0.0002679 0.0476367 -0.0545156 -0.0636432 0.055548 0.0584841 -0.0713903
internal_weight=79.7909 42.7913 36.9997 32.9369 38.7395 35.3575 27.792
internal_count=455 277 178 158 260 242 135
is_linear=0
shrinkage=0.05


Tree=17
num_leaves=9
num_cat=0
split_feature=27 20 1 23 20 10 21 3
split_gain=77.8084 20.1578 4.77277 8.11204 2.67718 0.555054 0.0632952 0.0044149
threshold=0.14575000000000002 17.510000000000002 21.420000000000005 650.95000000000016 16.275000000000002 0.42475000000000002 24.225000000000005 729.75000000000011
decision_type=2 2 2 2 2 2 2 2
left_child=1 2 5 -4 -2 -1 -6 -8
right_child=4 -3 3 -5 6 -7 7 -9
leaf_value=0.061333236671258062 -0.028673332653193162 -0.058638891875489776 0.06167155992689094 -0.032717298217824882 -0.075066903846452149 0.039549209083772449 -0.069901097761371433 -0.068056917957903168
leaf_weight=30.639064818620682 4.7638835906982449 4.68346382677555 4.9884361773729307 4.1867864429950714 4.3183710575103786 3.2326651364564887 4.0250229090452221 16.752429887652397
leaf_count=216 20 21 33 21 20 18 20 86
internal_value=0.000268566 0.0398713 0.0505891 0.0186006 -0.063036 0.0592542 -0.0695589 -0.0684142
internal_weight=77.5901 47.7304 43.047 9.17522 29.8597 33.8717 25.0958 20.7775
internal_count=455 309 288 54 146 234 126 106
is_linear=0
shrinkage=0.05


Tree=18
num_leaves=9
num_cat=0
split_feature=27 20 1 23 21 13 9 19
split_gain=72.3885 18.7829 4.6353 7.56921 2.7358 0.612968 0.255459 0.0983033
threshold=0.14575000000000002 17.510000000000002 21.420000000000005 650.95000000000016 23.795000000000005 35.080000000000005 0.069155000000000008 0.0045260000000000014
decision_type=2 2 2 2 2 2 2 2
left_child=1 2 5 -4 -2 -1 7 -6
right_child=4 -3 3 -5 6 -7 -8 -9
leaf_value=0.060569347959381403 -0.029224478800269071 -0.056676998796576575 0.060978134775118313 -0.030818189666045482 -0.06785375886872741 0.035702776347143132 -0.078225431727787065 -0.058825324082318609
leaf_weight=29.917931348085403 5.3440832197666195 4.605302780866622 4.7977347373962385 4.2216202169656754 14.379043862223631 2.7020821571350089 5.5379852503538123 3.8148651570081702
leaf_count=220 24 21 33 21 75 14 27 20
internal_value=0.000272817 0.0391401 0.0497374 0.0180117 -0.0615447 0.0585095 -0.0688227 -0.0659607
internal_weight=75.3206 46.2447 41.6394 9.01935 29.076 32.62 23.7319 18.1939
internal_count=455 309 288 54 146 234 122 95
is_linear=0
shrinkage=0.05


Tree=19
num_leaves=8
num_cat=0
split_feature=7 21 20 13 27 21 20
split_gain=67.5569 8.87972 8.62522 1.56377 0.752229 0.475721 0.278116
threshold=0.04821000000000001 23.795000000000005 16.850000000000005 34.065000000000005 0.14575000000000002 30.200000000000003 17.085000000000004
decision_type=2 2 2 2 2 2 2
left_child=2 -2 3 5 -3 -1 -6
right_child=1 4 -4 -5 6 -7 -8
leaf_value=0.059317333766006335 -0.004933505778567081 -0.044775826871114227 -0.02451321616919282 0.019184820999477711 -0.079948842848090187 0.042476429441928081 -0.065772896874995712
leaf_weight=26.834922082722191 8.0582499355077726 3.9324211776256588 3.9543540477752677 3.0461518317461005 4.281409531831744 4.969986990094184 18.031226187944412
leaf_count=211 39 20 17 17 20 32 99
internal_value=0.000277624 -0.0508433 0.0454676 0.0534079 -0.0649394 0.0566857 -0.068493
internal_weight=73.1087 34.3033 38.8054 34.8511 26.2451 31.8049 22.3126
internal_count=455 178 277 260 139 243 119
is_linear=0
shrinkage=0.05


Tree=20
num_leaves=9
num_cat=0
split_feature=22 27 1 23 13 19 21 5
split_gain=63.8366 16.9895 6.75548 9.19712 1.41524 0.497848 0.0810149 0.0120324
threshold=115.35000000000001 0.16135000000000002 21.420000000000005 650.95000000000016 31.285 0.0021885000000000003 24.225000000000005 0.11675000000000001
decision_type=2 2 2 2 2 2 2 2
left_child=1 2 4 -4 -1 -2 -7 -8
right_child=5 -3 3 -5 -6 6 7 -9
leaf_value=0.059898213877045095 -0.04761008290284624 -0.061121426716837374 0.059951290055413081 -0.038447707411449011 0.029636795307294211 -0.073243592766689944 -0.067859746497631684 -0.064717470044670197
leaf_weight=27.864170089364052 3.9318931847810772 4.1618240028619757 4.4814429059624654 5.0514863729476929 4.4855681955814353 4.1560521870851543 3.9800988286733654 12.987996131181715
leaf_count=218 20 19 33 25 25 20 21 74
internal_value=0.000278265 0.0352274 0.0448014 0.00780979 0.0557022 -0.0639463 -0.066987 -0.0654545
internal_weight=71.1005 46.0445 41.8827 9.53293 32.3497 25.056 21.1241 16.9681
internal_count=455 320 301 58 243 135 115 95
is_linear=0
shrinkage=0.05


Tree=21
num_leaves=9
num_cat=0
split_feature=23 27 22 28 6 28 21 26
split_gain=59.7382 17.4679 4.35299 6.55012 3.1164 0.911915 0.0720931 0.0100718
threshold=874.85000000000014 0.17660000000000001 101.65000000000002 0.26925000000000004 0.080560000000000007 0.21850000000000003 24.150000000000002 0.34405000000000002
decision_type=2 2 2 2 2 2 2 2
left_child=1 2 5 -4 -2 -1 -6 -8
right_child=4 -3 3 -5 6 -7 7 -9
leaf_value=0.030283842474190567 -0.020388359516028146 -0.079580865293632119 0.06374614231857445 -0.027058605653097884 -0.071753435262667489 0.057748988908684989 -0.06672977354012577 -0.063794889571846314
leaf_weight=3.3918703496456173 4.5673324614763287 2.9652209877967826 3.587520018219946 4.4486268162727356 4.0579753965139416 27.734121821820736 3.6575021147727993 14.561012357473372
leaf_count=26 21 14 21 21 20 226 20 86
internal_value=0.000281304 0.0374265 0.0462859 0.0134787 -0.0580125 0.054756 -0.0657265 -0.0643841
internal_weight=68.9712 42.1274 39.1621 8.03615 26.8438 31.126 22.2765 18.2185
internal_count=455 308 294 42 147 252 126 106
is_linear=0
shrinkage=0.05


Tree=22
num_leaves=9
num_cat=0
split_feature=22 27 1 23 13 28 27 1
split_gain=55.791 14.7779 6.51186 8.37385 1.41715 0.512144 0.0475617 0.0185204
threshold=115.35000000000001 0.16135000000000002 21.420000000000005 650.95000000000016 31.285 0.25740000000000002 0.15555000000000002 18.825000000000003
decision_type=2 2 2 2 2 2 2 2
left_child=1 2 4 -4 -1 -2 -7 -8
right_child=5 -3 3 -5 -6 6 7 -9
leaf_value=0.058883753282406075 -0.045698758869274873 -0.05739679068633901 0.058877492918587751 -0.03725933176853035 0.028044885373408684 -0.069973271642816762 -0.066989026125584092 -0.06290563306450267
leaf_weight=25.841347478330139 4.104129150509837 4.0203740298748007 4.1394713968038541 5.0023290812969208 4.3527780547738066 4.0320125669240978 3.6377173364162436 11.733528822660444
leaf_count=218 22 19 33 25 25 21 20 72
internal_value=0.000281341 0.0339118 0.0432441 0.0062721 0.054438 -0.0617456 -0.0651398 -0.063872
internal_weight=66.8637 43.3563 39.3359 9.1418 30.1941 23.5074 19.4033 15.3712
internal_count=455 320 301 58 243 135 113 92
is_linear=0
shrinkage=0.05


Tree=23
num_leaves=9
num_cat=0
split_feature=23 27 1 27 6 24 21 26
split_gain=52.2592 15.4247 4.2071 6.29999 3.03654 0.624959 0.0507884 0.00834158
threshold=874.85000000000014 0.17660000000000001 21.420000000000005 0.093205000000000024 0.080560000000000007 0.14295000000000005 24.150000000000002 0.34405000000000002
decision_type=2 2 2 2 2 2 2 2
left_child=1 2 5 -4 -2 -1 -6 -8
right_child=4 -3 3 -5 6 -7 7 -9
leaf_value=0.057700032374876288 -0.018493811790237902 -0.076168978629370887 0.050058444662281203 -0.038468876992136081 -0.069122115134991891 0.039170337505983505 -0.064947815134288364 -0.062188861263226348
leaf_weight=22.732078664004806 4.4690650701522854 2.8364665359258643 4.867796026170252 3.4227637350559235 3.8297505080699947 5.6893335655331603 3.4351098388433483 13.53269876539707
leaf_count=195 21 14 37 18 20 44 20 86
internal_value=0.00028376 0.0361695 0.0448491 0.0135099 -0.0558862 0.0539908 -0.0639213 -0.0627474
internal_weight=64.8151 39.5484 36.712 8.29056 25.2666 28.4214 20.7976 16.9678
internal_count=455 308 294 55 147 239 126 106
is_linear=0
shrinkage=0.05


Tree=24
num_leaves=9
num_cat=0
split_feature=27 23 3 21 15 27 24 2
split_gain=48.9113 12.3869 6.89093 5.70046 0.357894 1.40455 0.273615 0.0545197
threshold=0.11065000000000001 711.30000000000007 691.95000000000016 21.970000000000002 0.012025000000000003 0.069535000000000013 0.12500000000000003 91.250000000000014
decision_type=2 2 2 2 2 2 2 2
left_child=2 -2 4 -3 5 -1 -5 -6
right_child=1 3 -4 6 7 -7 -8 -9
leaf_value=0.056781682564385483 0.036332538354817583 -0.00056710797301074757 -0.030693720070420795 -0.050306731818790834 0.057179877510221071 0.0096840818737527808 -0.065246989896690782 0.065328173807432333
leaf_weight=6.9423762783408218 4.4144336655735961 4.2973401397466686 2.6208650767803183 3.5966029614210155 15.820213906466963 2.050562784075737 20.715040490031242 2.3589665964245787
leaf_count=67 26 21 13 21 149 18 126 14
internal_value=0.000282435 -0.0416243 0.0467331 -0.0536532 0.0542012 0.0460425 -0.0630368 0.0582372
internal_weight=62.8164 33.0234 29.793 28.609 27.1721 8.99294 24.3116 18.1792
internal_count=455 194 261 168 248 85 147 163
is_linear=0
shrinkage=0.05


end of trees

feature_importances:
worst_texture=31
worst_radius=21
worst_concave_points=21
mean_texture=17
worst_perimeter=16
worst_symmetry=13
area_error=12
worst_area=12
mean_concave_points=9
worst_smoothness=5
worst_concavity=5
mean_concavity=4
mean_perimeter=3
mean_area=3
radius_error=3
texture_error=2
compactness_error=2
fractal_dimension_error=2
mean_radius=1
mean_smoothness=1
mean_compactness=1
mean_fractal_dimension=1
perimeter_error=1
concave_points_error=1
symmetry_error=1

parameters:
[boosting: gbdt]
[objective: binary]
[metric: binary_logloss]
[tree_learner: serial]
[device_type: cpu]
[data_sample_strategy: bagging]
[data: ]
[valid: ]
[num_iterations: 25]
[learning_rate: 0.05]
[num_leaves: 15]
[num_threads: 8]
[seed: 42]
[deterministic: 0]
[force_col_wise: 0]
[force_row_wise: 0]
[histogram_pool_size: -1]
[max_depth: 4]
[min_data_in_leaf: 20]
[min_sum_hessian_in_leaf: 0.001]
[bagging_fraction: 1]
[pos_bagging_fraction: 1]
[neg_bagging_fraction: 1]
[bagging_freq: 0]
[bagging_seed: 400]
[bagging_by_query: 0]
[feature_fraction: 1]
[feature_fraction_bynode: 1]
[feature_fraction_seed: 30056]
[extra_trees: 0]
[extra_seed: 12879]
[early_stopping_round: 0]
[early_stopping_min_delta: 0]
[first_metric_only: 0]
[max_delta_step: 0]
[lambda_l1: 0]
[lambda_l2: 0]
[linear_lambda: 0]
[min_gain_to_split: 0]
[drop_rate: 0.1]
[max_drop: 50]
[skip_drop: 0.5]
[xgboost_dart_mode: 0]
[uniform_drop: 0]
[drop_seed: 17869]
[top_rate: 0.2]
[other_rate: 0.1]
[min_data_per_group: 100]
[max_cat_threshold: 32]
[cat_l2: 10]
[cat_smooth: 10]
[max_cat_to_onehot: 4]
[top_k: 20]
[monotone_constraints: ]
[monotone_constraints_method: basic]
[monotone_penalty: 0]
[feature_contri: ]
[forcedsplits_filename: ]
[refit_decay_rate: 0.9]
[cegb_tradeoff: 1]
[cegb_penalty_split: 0]
[cegb_penalty_feature_lazy: ]
[cegb_penalty_feature_coupled: ]
[path_smooth: 0]
[interaction_constraints: ]
[verbosity: 1]
[saved_feature_importance_type: 0]
[use_quantized_grad: 0]
[num_grad_quant_bins: 4]
[quant_train_renew_leaf: 0]
[stochastic_rounding: 1]
[linear_tree: 0]
[max_bin: 255]
[max_bin_by_feature: ]
[min_data_in_bin: 3]
[bin_construct_sample_cnt: 200000]
[data_random_seed: 175]
[is_enable_sparse: 1]
[enable_bundle: 1]
[use_missing: 1]
[zero_as_missing: 0]
[feature_pre_filter: 1]
[pre_partition: 0]
[two_round: 0]
[header: 0]
[label_column: ]
[weight_column: ]
[group_column: ]
[ignore_column: ]
[categorical_feature: ]
[forcedbins_filename: ]
[precise_float_parser: 0]
[parser_config_file: ]
[objective_seed: 16083]
[num_class: 1]
[is_unbalance: 0]
[scale_pos_weight: 1]
[sigmoid: 1]
[boost_from_average: 1]
[reg_sqrt: 0]
[alpha: 0.9]
[fair_c: 1]
[poisson_max_delta_step: 0.7]
[tweedie_variance_power: 1.5]
[lambdarank_truncation_level: 30]
[lambdarank_norm: 1]
[label_gain: ]
[lambdarank_position_bias_regularization: 0]
[eval_at: ]
[multi_error_top_k: 1]
[auc_mu_weights: ]
[num_machines: 1]
[local_listen_port: 12400]
[time_out: 120]
[machine_list_filename: ]
[machines: ]
[gpu_platform_id: -1]
[gpu_device_id: -1]
[gpu_use_dp: 0]
[num_gpu: 1]

end of parameters

pandas_categorical:[]
