tree
version=v4
num_class=1
num_tree_per_iteration=1
label_index=0
max_feature_idx=12
objective=binary sigmoid:1
feature_names=alcalinity_of_ash alcohol ash color_intensity flavanoids hue magnesium malic_acid nonflavanoid_phenols od280/od315_of_diluted_wines proanthocyanins proline total_phenols
feature_infos=[10.6:30] [11.029999999999999:14.83] [1.3600000000000001:3.23] [1.28:13] [0.46999999999999997:5.0800000000000001] [0.54000000000000004:1.71] [78:162] [0.73999999999999999:5.7999999999999998] [0.13:0.66000000000000003] [1.27:3.9199999999999999] [0.41999999999999998:3.2799999999999998] [312:1547] [1.1000000000000001:3.8799999999999999]
tree_sizes=456 657 766 760 857 764 864 762 860 860 763 767 865 764 763 771 765 864 763 868 873 870 868 872 770

Tree=0
num_leaves=3
num_cat=0
split_feature=11 11
split_gain=100.507 12.3528
threshold=953.50000000000011 719.00000000000011
decision_type=2 2
left_child=1 -1
right_child=-2 -3
leaf_value=-0.85320297126758349 -0.41318114183435994 -0.67648939903524774
leaf_weight=17.714738845825202 8.6359351873397809 5.0929874181747428
leaf_count=80 39 23
internal_value=-0.703729 -0.813743
internal_weight=31.4437 22.8077
internal_count=142 103
is_linear=0
shrinkage=1


Tree=1
num_leaves=5
num_cat=0
split_feature=11 1 4 11
split_gain=80.891 11.5873 0.186084 0.00120008
threshold=755.00000000000011 13.485000000000001 2.1800000000000002 627.50000000000011
decision_type=2 2 2 2
left_child=2 -2 3 -1
right_child=1 -3 -4 -5
leaf_value=-0.14260481339676834 0.060244500882508524 0.25711484827978626 -0.11925566162432294 -0.14457123142990111
leaf_weight=9.21813309192658 4.5983610749244681 8.5456501990556699 4.2040032297372809 4.6787802129983893
leaf_count=44 20 36 20 22
internal_value=-0.000578617 0.188241 -0.13769 -0.143267
internal_weight=31.2449 13.144 18.1009 13.8969
internal_count=142 56 86 66
is_linear=0
shrinkage=0.1


Tree=2
num_leaves=6
num_cat=0
split_feature=11 11 2 11 9
split_gain=66.0193 8.71923 0.186517 0.000472104 5.10811e-05
threshold=755.00000000000011 987.50000000000011 2.5700000000000007 627.50000000000011 2.7750000000000004
decision_type=2 2 2 2 2
left_child=2 -2 3 4 -1
right_child=1 -3 -4 -5 -6
leaf_value=-0.1369424862919236 0.053001618216594798 0.22173737764193688 -0.11285489207138216 -0.13844395292243966 -0.13742478890720103
leaf_weight=4.9248129129409843 4.6682367473840705 8.9026470184326154 3.9823093563318244 4.2014374285936347 3.9630375951528549
leaf_count=25 20 36 20 21 20
internal_value=-0.000934935 0.163694 -0.131805 -0.13757 -0.137158
internal_weight=30.6425 13.5709 17.0716 13.0893 8.88785
internal_count=142 56 86 66 45
is_linear=0
shrinkage=0.1


Tree=3
num_leaves=6
num_cat=0
split_feature=11 1 4 2 4
split_gain=54.8695 8.00366 0.193032 0.00056114 2.33511e-05
threshold=755.00000000000011 13.485000000000001 2.1800000000000002 2.4250000000000003 1.4000000000000001
decision_type=2 2 2 2 2
left_child=2 -2 3 4 -1
right_child=1 -3 -4 -5 -6
leaf_value=-0.1321740987932046 0.040959992047800958 0.20143889322808217 -0.10695373109690452 -0.13374215709904189 -0.1325215724672654
leaf_weight=4.0516847968101555 4.7610566765069953 8.9498375654220563 3.7583748251199713 4.5169750899076462 3.7003599107265472
leaf_count=22 20 36 20 24 20
internal_value=-0.00114765 0.145713 -0.126782 -0.132856 -0.13234
internal_weight=29.7383 13.7109 16.0274 12.269 7.75204
internal_count=142 56 86 66 42
is_linear=0
shrinkage=0.1


Tree=4
num_leaves=7
num_cat=0
split_feature=4 1 1 9 11 2
split_gain=46.7115 12.062 0.212821 0.198124 0.0709007 3.41215e-05
threshold=2.3100000000000005 13.135000000000002 13.835000000000003 2.7600000000000002 676.50000000000011 2.3650000000000007
decision_type=2 2 2 2 2 2
left_child=3 -2 -3 4 5 -1
right_child=1 2 -4 -5 -6 -7
leaf_value=-0.12819988056496698 -0.020835979251702233 0.20035783653160358 0.1714628629938223 -0.10707227126821495 -0.1454707146599086 -0.12863462096989034
leaf_weight=3.7748017609119433 3.9341086447238913 4.8694088757038099 5.3491255640983582 3.591883420944213 3.6707903742790222 3.4603654593229294
leaf_count=22 20 20 22 20 18 20
internal_value=-0.00128465 0.12795 0.185232 -0.127442 -0.134151 -0.128408
internal_weight=28.6505 14.1526 10.2185 14.4978 10.906 7.23517
internal_count=142 62 42 80 60 42
is_linear=0
shrinkage=0.1


Tree=5
num_leaves=6
num_cat=0
split_feature=11 11 6 4 6
split_gain=40.6481 5.63436 0.204477 0.00285334 4.04886e-05
threshold=755.00000000000011 987.50000000000011 101.50000000000001 2.1200000000000006 88.500000000000014
decision_type=2 2 2 2 2
left_child=2 -2 3 4 -1
right_child=1 -3 -4 -5 -6
leaf_value=-0.12494399984417717 0.035868207876599979 0.17179584519827967 -0.098382251877320456 -0.1286619034082713 -0.12541841576958385
leaf_weight=3.8343375027179736 4.7138608843088141 8.636909291148184 3.4794820547103873 3.4514593780040741 3.3888527303934097
leaf_count=24 20 36 21 20 21
internal_value=-0.00136811 0.123803 -0.119435 -0.126297 -0.125167
internal_weight=27.5049 13.3508 14.1541 10.6746 7.22319
internal_count=142 56 86 65 45
is_linear=0
shrinkage=0.1


Tree=6
num_leaves=7
num_cat=0
split_feature=4 1 5 9 11 2
split_gain=35.8627 8.56834 0.203819 0.198288 0.0672255 3.22995e-05
threshold=2.3100000000000005 13.135000000000002 1.0450000000000002 2.7600000000000002 676.50000000000011 2.3550000000000004
decision_type=2 2 2 2 2 2
left_child=3 -2 -3 4 5 -1
right_child=1 2 -4 -5 -6 -7
leaf_value=-0.12197390038157388 -0.015887554236286419 0.17731728377059239 0.14830179671278074 -0.099583456299415687 -0.13973181232679449 -0.12242883027645479
leaf_weight=3.1014805436134356 3.7389804124832144 4.6802371740341169 5.0150962173938751 3.1931716352701178 3.3683128356933594 3.1413955688476562
leaf_count=21 20 20 22 20 18 21
internal_value=-0.00142207 0.112714 0.162308 -0.121173 -0.128346 -0.122203
internal_weight=26.2387 13.4343 9.69533 12.8044 9.61119 6.24288
internal_count=142 62 42 80 60 42
is_linear=0
shrinkage=0.1


Tree=7
num_leaves=6
num_cat=0
split_feature=11 0 6 4 6
split_gain=31.0346 4.81981 0.255106 0.00490373 2.61653e-05
threshold=755.00000000000011 18.850000000000005 102.50000000000001 2.1200000000000006 88.500000000000014
decision_type=2 2 2 2 2
left_child=2 -2 3 4 -1
right_child=1 -3 -4 -5 -6
leaf_value=-0.11959475547235217 0.15487654269993359 0.02528454127180671 -0.087019893198424944 -0.12455158405547251 -0.12000145473482374
leaf_weight=3.2864040136337298 8.1476729065179807 4.4305684715509406 2.7791148722171775 3.2847476452589035 3.0500196218490601
leaf_count=24 36 20 19 21 22
internal_value=-0.001445 0.109229 -0.113707 -0.121416 -0.119791
internal_weight=24.9785 12.5782 12.4003 9.62117 6.33642
internal_count=142 56 86 67 46
is_linear=0
shrinkage=0.1


Tree=8
num_leaves=7
num_cat=0
split_feature=4 1 1 1 11 6
split_gain=28.1769 6.46126 0.216336 0.171721 0.076936 5.43857e-05
threshold=2.3100000000000005 13.135000000000002 13.280000000000001 13.835000000000003 676.50000000000011 90.500000000000014
decision_type=2 2 2 2 2 2
left_child=2 -2 4 -3 5 -1
right_child=1 3 -4 -5 -6 -7
leaf_value=-0.11754047409638294 -0.012236355499501191 0.16133706131115458 -0.092250190249606442 0.13362398116772761 -0.13837201500935994 -0.11815414456735487
leaf_weight=2.9186241701245326 3.5559149831533423 4.3537390977144224 2.7983498722314826 4.596466988325119 2.6693158373236656 2.8586256355047226
leaf_count=23 20 20 20 22 15 22
internal_value=-0.0014827 0.101799 -0.116348 0.147105 -0.124331 -0.117844
internal_weight=23.751 12.5061 11.2449 8.95021 8.44657 5.77725
internal_count=142 62 80 42 60 45
is_linear=0
shrinkage=0.1


Tree=9
num_leaves=7
num_cat=0
split_feature=4 1 0 7 11 6
split_gain=24.3275 5.68074 0.235934 0.151087 0.0496464 2.91494e-05
threshold=2.3100000000000005 13.135000000000002 18.850000000000005 1.7800000000000002 676.50000000000011 90.500000000000014
decision_type=2 2 2 2 2 2
left_child=2 -2 -1 -3 5 -4
right_child=1 3 4 -5 -6 -7
leaf_value=-0.086149687295617394 -0.01106840014742656 0.12610943528216179 -0.11569629377457136 0.1527709303320989 -0.13267138802059245 -0.11616489941523243
leaf_weight=2.4772154241800326 3.5389643460512152 4.1696240454912168 2.8128916993737221 4.3355281800031662 2.647950254380703 2.5136721506714821
leaf_count=19 20 21 24 21 16 21
internal_value=-0.00147402 0.0953994 -0.113107 0.1397 -0.121481 -0.115917
internal_weight=22.4958 12.0441 10.4517 8.50515 7.97451 5.32656
internal_count=142 62 80 42 61 45
is_linear=0
shrinkage=0.1


Tree=10
num_leaves=6
num_cat=0
split_feature=11 4 12 4 6
split_gain=22.0353 6.04844 0.313994 0.0126931 6.20882e-05
threshold=719.00000000000011 2.5150000000000001 2.9250000000000003 2.1800000000000002 96.500000000000014
decision_type=2 2 2 2 2
left_child=3 -2 -3 4 -1
right_child=1 2 -4 -5 -6
leaf_value=-0.1138942811877405 -0.017133940355452491 0.15669431965605038 0.11755654985786324 -0.12225796401224359 -0.11451928142063361
leaf_weight=3.9599856510758418 3.7217432036995879 3.9847828000783903 4.2215945571660995 2.7220889180898666 2.6551964953541756
leaf_count=37 20 20 22 19 24
internal_value=-0.00145716 0.0886058 0.136561 -0.11651 -0.114145
internal_weight=21.2654 11.9281 8.20638 9.33727 6.61518
internal_count=142 62 42 80 61
is_linear=0
shrinkage=0.1


Tree=11
num_leaves=6
num_cat=0
split_feature=11 0 6 4 6
split_gain=19.2326 3.67142 0.291139 0.00787985 3.75649e-05
threshold=755.00000000000011 18.850000000000005 103.50000000000001 2.1800000000000002 88.500000000000014
decision_type=2 2 2 2 2
left_child=2 -2 3 4 -1
right_child=1 -3 -4 -5 -6
leaf_value=-0.11238235397994197 0.13552988641371783 0.013594679666531169 -0.072440494469589042 -0.11966970129662698 -0.11293213739859143
leaf_weight=2.4485761895775813 6.7219712883234006 3.9031178802251816 2.0675549358129501 2.3685382679104805 2.5237398892641068
leaf_count=25 36 20 18 18 25
internal_value=-0.00146332 0.0907371 -0.105587 -0.114923 -0.112661
internal_weight=20.0335 10.6251 9.40841 7.34085 4.97232
internal_count=142 56 86 68 50
is_linear=0
shrinkage=0.1


Tree=12
num_leaves=7
num_cat=0
split_feature=4 1 9 1 11 6
split_gain=17.7205 3.80485 0.266918 0.127907 0.0604783 6.76723e-05
threshold=2.3100000000000005 13.135000000000002 2.7600000000000002 13.835000000000003 719.00000000000011 94.500000000000014
decision_type=2 2 2 2 2 2
left_child=2 -2 4 -3 5 -1
right_child=1 3 -4 -5 -6 -7
leaf_value=-0.11096518126723298 -0.0040447747972635539 0.14035472809466196 -0.077354684288760953 0.11364081864655927 -0.13192165000169775 -0.11176225564855498
leaf_weight=2.3136200010776538 3.2159590423107129 3.5497938245534897 2.1326997354626656 3.620224341750145 2.1380099058151245 1.9739203304052351
leaf_count=26 20 20 20 22 13 21
internal_value=-0.00146416 0.0863306 -0.108009 0.126867 -0.118183 -0.111332
internal_weight=18.9442 10.386 8.55825 7.17002 6.42555 4.28754
internal_count=142 62 80 42 60 47
is_linear=0
shrinkage=0.1


Tree=13
num_leaves=6
num_cat=0
split_feature=11 4 7 4 6
split_gain=15.7872 3.90411 0.274029 0.00918176 5.68516e-05
threshold=719.00000000000011 2.5400000000000005 1.7800000000000002 2.1800000000000002 97.500000000000014
decision_type=2 2 2 2 2
left_child=3 -2 -3 4 -1
right_child=1 2 -4 -5 -6
leaf_value=-0.11003182449944504 -0.0032277669324418689 0.10439652213001432 0.14502364076410856 -0.11789034004212173 -0.11071906192886583
leaf_weight=3.2267760559916523 3.7702754661440832 3.4114617556333542 3.2341408133506775 2.2981595769524574 1.9199614748358724
leaf_count=39 22 21 19 19 22
internal_value=-0.00143069 0.0780541 0.124168 -0.112635 -0.110288
internal_weight=17.8608 10.4159 6.6456 7.4449 5.14674
internal_count=142 62 40 80 61
is_linear=0
shrinkage=0.1


Tree=14
num_leaves=6
num_cat=0
split_feature=4 1 12 11 6
split_gain=14.3477 4.66684 0.258466 0.052189 4.08017e-05
threshold=2.1800000000000002 13.060000000000002 2.8550000000000004 719.00000000000011 97.500000000000014
decision_type=2 2 2 2 2
left_child=3 -2 -3 4 -1
right_child=1 2 -4 -5 -6
leaf_value=-0.10898684216479011 -0.025560940092535858 0.14054486480369086 0.10177120691282358 -0.12850938934249129 -0.10959601227684652
leaf_weight=2.9462681487202671 3.2267501056194288 3.2680105790495872 3.6276021078228951 1.997476279735565 1.7541423887014387
leaf_count=39 23 20 25 13 22
internal_value=-0.00142906 0.0736991 0.120147 -0.114968 -0.109214
internal_weight=16.8202 10.1224 6.89561 6.69789 4.70041
internal_count=142 68 45 74 61
is_linear=0
shrinkage=0.1


Tree=15
num_leaves=6
num_cat=0
split_feature=11 11 4 8 9
split_gain=12.8296 3.40398 0.0104639 3.16826e-05 7.26661e-06
threshold=719.00000000000011 987.50000000000011 2.4200000000000004 0.34500000000000003 2.0850000000000004
decision_type=2 2 2 2 2
left_child=2 -2 3 -1 -5
right_child=1 -3 -4 4 -6
leaf_value=-0.10870881721713516 0.0084692882896061136 0.12894610781002538 -0.11736459203173695 -0.10800353974382614 -0.10831190671520606
leaf_weight=1.5430755168199546 4.3958846107125265 5.0272019505500793 1.7820166423916814 1.5761096924543383 1.4834199845790861
leaf_count=21 26 36 15 23 21
internal_value=-0.00141203 0.0727435 -0.110858 -0.108339 -0.108153
internal_weight=15.8077 9.42309 6.38462 4.60261 3.05953
internal_count=142 62 80 65 44
is_linear=0
shrinkage=0.1


Tree=16
num_leaves=6
num_cat=0
split_feature=4 1 12 11 6
split_gain=11.7899 3.66024 0.226036 0.0449085 2.52607e-05
threshold=2.1800000000000002 13.060000000000002 2.9250000000000003 745.00000000000011 88.500000000000014
decision_type=2 2 2 2 2
left_child=3 -2 -3 4 -1
right_child=1 2 -4 -5 -6
leaf_value=-0.10722689199627317 -0.02034138244151442 0.13302158950786855 0.094448752423564653 -0.12692430911895705 -0.10773836683446816
leaf_weight=1.5683145187795169 3.0297775119543058 3.1130277514457703 2.9672563374042511 1.6906026974320409 2.5125764831900597
leaf_count=25 23 22 23 11 38
internal_value=-0.00139241 0.0694533 0.114198 -0.113219 -0.107542
internal_weight=14.8816 9.11006 6.08028 5.77149 4.08089
internal_count=142 68 45 74 63
is_linear=0
shrinkage=0.1


Tree=17
num_leaves=7
num_cat=0
split_feature=11 9 12 4 9 2
split_gain=10.5203 3.8239 0.859567 0.00952043 2.33636e-05 7.55025e-06
threshold=719.00000000000011 2.7600000000000002 2.8550000000000004 2.4200000000000004 2.4900000000000007 2.3350000000000004
decision_type=2 2 2 2 2 2
left_child=3 -2 -3 4 5 -1
right_child=1 2 -4 -5 -6 -7
leaf_value=-0.10640304654700979 -0.029378258229868295 0.15144322826780979 0.07427557283339585 -0.11589021890457721 -0.10711026142338581 -0.10675288612185702
leaf_weight=1.1298168301582352 2.7284625768661481 2.994867205619812 2.786535806953907 1.6331797465682028 1.353803291916847 1.3589226491749284
leaf_count=20 20 20 22 15 22 23
internal_value=-0.00137243 0.0681992 0.11425 -0.109494 -0.106776 -0.106594
internal_weight=13.9856 8.50987 5.7814 5.47572 3.84254 2.48874
internal_count=142 62 42 80 65 43
is_linear=0
shrinkage=0.1


Tree=18
num_leaves=6
num_cat=0
split_feature=4 1 12 11 6
split_gain=9.60039 2.95496 0.183295 0.0320599 1.77934e-05
threshold=2.1800000000000002 13.060000000000002 2.9250000000000003 745.00000000000011 88.500000000000014
decision_type=2 2 2 2 2
left_child=3 -2 -3 4 -1
right_child=1 2 -4 -5 -6
leaf_value=-0.1058350661741979 -0.017366633626827371 0.12687526189143911 0.089952249839623119 -0.12349171532582442 -0.10630607690917182
leaf_weight=1.2997505366802227 2.8620982319116575 2.6879971846938133 2.689936101436615 1.5478558167815206 2.0945126041769981
leaf_count=25 23 22 23 11 38
internal_value=-0.0013704 0.0647208 0.108407 -0.111565 -0.106126
internal_weight=13.1822 8.24003 5.37793 4.94212 3.39426
internal_count=142 68 45 74 63
is_linear=0
shrinkage=0.1


Tree=19
num_leaves=7
num_cat=0
split_feature=11 9 12 4 4 6
split_gain=8.68216 2.95971 0.790835 0.00853909 2.37497e-05 6.08357e-06
threshold=719.00000000000011 2.7600000000000002 2.8550000000000004 2.4200000000000004 1.7550000000000001 94.500000000000014
decision_type=2 2 2 2 2 2
left_child=3 -2 -3 4 5 -1
right_child=1 2 -4 -5 -6 -7
leaf_value=-0.10519496171157422 -0.02434242799760716 0.14570603892277501 0.067354988338117497 -0.11468139850565676 -0.10594051034287442 -0.10552727243829992
leaf_weight=1.1717001348733909 2.5380702763795853 2.6467169523239136 2.5098685547709465 1.4977482780814169 0.9900335706770419 1.0397576130926607
leaf_count=25 20 20 22 15 19 21
internal_value=-0.00134875 0.064059 0.10757 -0.108449 -0.105533 -0.105351
internal_weight=12.3939 7.69466 5.15659 4.69924 3.20149 2.21146
internal_count=142 62 42 80 65 46
is_linear=0
shrinkage=0.1


Tree=20
num_leaves=7
num_cat=0
split_feature=11 9 2 11 4 11
split_gain=7.95684 3.2137 0.225727 0.0233526 0.00108975 1.07334e-05
threshold=987.50000000000011 3.1750000000000003 2.5700000000000007 745.00000000000011 2.1200000000000006 555.00000000000011
decision_type=2 2 2 2 2 2
left_child=1 2 3 4 5 -1
right_child=-2 -3 -4 -5 -6 -7
leaf_value=-0.10478695591419623 0.1213425139508541 0.034995927199952641 -0.063640366712864258 -0.12227962372553339 -0.10924736866757295 -0.10526055409928675
leaf_weight=1.0004853010177597 3.6400947496294984 2.5866702161729336 1.2841274328529833 1.3704137504100797 0.89006661251187313 0.91728436574339856
leaf_count=23 36 23 18 10 12 20
internal_value=-0.00134346 -0.0568269 -0.100309 -0.111578 -0.106356 -0.105013
internal_weight=11.6891 8.04905 5.46238 4.17825 2.80784 1.91777
internal_count=142 106 83 65 55 43
is_linear=0
shrinkage=0.1


Tree=21
num_leaves=7
num_cat=0
split_feature=4 11 10 1 11 4
split_gain=7.14949 1.90616 0.377853 0.205384 0.0201481 3.56191e-05
threshold=2.3100000000000005 787.50000000000011 1.9550000000000003 13.280000000000001 787.50000000000011 1.7550000000000001
decision_type=2 2 2 2 2 2
left_child=3 -2 -3 4 5 -1
right_child=1 2 -4 -5 -6 -7
leaf_value=-0.10451512661961637 -0.012755367521415704 0.13129406852151657 0.072525034872912952 -0.061476269692657119 -0.12119124860939488 -0.10534045607282552
leaf_weight=1.3855559304356582 2.0800234153866768 2.3105399422347546 2.0778803080320358 1.1547342985868452 1.1366032361984251 0.83988467976450909
leaf_count=34 19 20 23 20 8 18
internal_value=-0.00131936 0.0660943 0.103467 -0.0978619 -0.110359 -0.104827
internal_weight=10.9852 6.46844 4.38842 4.51678 3.36204 2.22544
internal_count=142 62 43 80 60 52
is_linear=0
shrinkage=0.1


Tree=22
num_leaves=7
num_cat=0
split_feature=11 4 10 4 4 6
split_gain=6.66954 2.35757 0.346402 0.00578479 1.60453e-05 2.78143e-06
threshold=719.00000000000011 2.4200000000000004 1.9550000000000003 2.4200000000000004 1.7550000000000001 94.500000000000014
decision_type=2 2 2 2 2 2
left_child=3 -2 -3 4 5 -1
right_child=1 2 -4 -5 -6 -7
leaf_value=-0.10390939669970876 -0.024098765268144792 0.13076145328354083 0.07431544558171356 -0.11243210978862167 -0.1045777695436344 -0.10416537975874261
leaf_weight=0.90038105100393362 2.2261521518230438 2.1666688583791256 2.1822257898747921 1.3017678856849668 0.7797507308423518 0.80305482447147369
leaf_count=25 18 20 24 15 19 21
internal_value=-0.00128102 0.0595954 0.102437 -0.107033 -0.104202 -0.10403
internal_weight=10.36 6.57505 4.34889 3.78495 2.48319 1.70344
internal_count=142 62 44 80 65 46
is_linear=0
shrinkage=0.1


Tree=23
num_leaves=7
num_cat=0
split_feature=4 1 12 11 11 8
split_gain=5.9269 3.36743 0.181387 0.0132997 7.99073e-05 1.56837e-06
threshold=2.1800000000000002 13.040000000000001 2.9250000000000003 755.00000000000011 640.00000000000011 0.40500000000000008
decision_type=2 2 2 2 2 2
left_child=3 -2 -3 4 5 -1
right_child=1 2 -4 -5 -6 -7
leaf_value=-0.10378703056286401 -0.055988278454023377 0.12164473997526731 0.081082042035792834 -0.11776764496974108 -0.10493836881052401 -0.10359083274862078
leaf_weight=0.76857981458306379 1.8922436386346815 2.4342170692980289 2.0150121487677097 1.0116828009486196 0.73487125895917405 0.86709750071167946
leaf_count=22 20 25 23 8 18 26
internal_value=-0.00126537 0.0557516 0.103274 -0.108169 -0.104072 -0.103683
internal_weight=9.7237 6.34147 4.44923 3.38223 2.37055 1.63568
internal_count=142 68 48 74 66 48
is_linear=0
shrinkage=0.1


Tree=24
num_leaves=6
num_cat=0
split_feature=11 0 4 4 8
split_gain=5.52014 2.17888 0.00496227 0.000494099 2.32145e-06
threshold=719.00000000000011 18.850000000000005 2.7850000000000006 2.1200000000000006 0.38000000000000006
decision_type=2 2 2 2 2
left_child=2 -2 3 4 -1
right_child=1 -3 -4 -5 -6
leaf_value=-0.10346103274511412 0.11122049020401943 -0.011099071728412433 -0.11339600881099321 -0.106486289060018 -0.10322359482165176
leaf_weight=0.64334406703710634 3.2470842860639095 2.6404881663620472 0.76589760184288014 0.67404547333717335 1.1439910959452388
leaf_count=20 37 25 9 13 38
internal_value=-0.00125497 0.056362 -0.106366 -0.104179 -0.103309
internal_weight=9.11485 5.88757 3.22728 2.46138 1.78734
internal_count=142 62 80 71 58
is_linear=0
shrinkage=0.1


end of trees

feature_importances:
proline=35
flavanoids=31
alcohol=16
magnesium=16
od280/od315_of_diluted_wines=9
total_phenols=7
ash=6
alcalinity_of_ash=4
nonflavanoid_phenols=3
malic_acid=2
proanthocyanins=2
hue=1

parameters:
[boosting: gbdt]
[objective: binary]
[metric: binary_logloss]
[tree_learner: serial]
[device_type: cpu]
[data_sample_strategy: bagging]
[data: ]
[valid: ]
[num_iterations: 25]
[learning_rate: 0.1]
[num_leaves: 31]
[num_threads: 0]
[seed: 42]
[deterministic: 0]
[force_col_wise: 0]
[force_row_wise: 0]
[histogram_pool_size: -1]
[max_depth: -1]
[min_data_in_leaf: 20]
[min_sum_hessian_in_leaf: 0.001]
[bagging_fraction: 1]
[pos_bagging_fraction: 1]
[neg_bagging_fraction: 1]
[bagging_freq: 0]
[bagging_seed: 400]
[bagging_by_query: 0]
[feature_fraction: 1]
[feature_fraction_bynode: 1]
[feature_fraction_seed: 30056]
[extra_trees: 0]
[extra_seed: 12879]
[early_stopping_round: 0]
[early_stopping_min_delta: 0]
[first_metric_only: 0]
[max_delta_step: 0]
[lambda_l1: 0]
[lambda_l2: 0]
[linear_lambda: 0]
[min_gain_to_split: 0]
[drop_rate: 0.1]
[max_drop: 50]
[skip_drop: 0.5]
[xgboost_dart_mode: 0]
[uniform_drop: 0]
[drop_seed: 17869]
[top_rate: 0.2]
[other_rate: 0.1]
[min_data_per_group: 100]
[max_cat_threshold: 32]
[cat_l2: 10]
[cat_smooth: 10]
[max_cat_to_onehot: 4]
[top_k: 20]
[monotone_constraints: ]
[monotone_constraints_method: basic]
[monotone_penalty: 0]
[feature_contri: ]
[forcedsplits_filename: ]
[refit_decay_rate: 0.9]
[cegb_tradeoff: 1]
[cegb_penalty_split: 0]
[cegb_penalty_feature_lazy: ]
[cegb_penalty_feature_coupled: ]
[path_smooth: 0]
[interaction_constraints: ]
[verbosity: -1]
[saved_feature_importance_type: 0]
[use_quantized_grad: 0]
[num_grad_quant_bins: 4]
[quant_train_renew_leaf: 0]
[stochastic_rounding: 1]
[linear_tree: 0]
[max_bin: 255]
[max_bin_by_feature: ]
[min_data_in_bin: 3]
[bin_construct_sample_cnt: 200000]
[data_random_seed: 175]
[is_enable_sparse: 1]
[enable_bundle: 1]
[use_missing: 1]
[zero_as_missing: 0]
[feature_pre_filter: 0]
[pre_partition: 0]
[two_round: 0]
[header: 0]
[label_column: ]
[weight_column: ]
[group_column: ]
[ignore_column: ]
[categorical_feature: ]
[forcedbins_filename: ]
[precise_float_parser: 0]
[parser_config_file: ]
[objective_seed: 16083]
[num_class: 1]
[is_unbalance: 0]
[scale_pos_weight: 1]
[sigmoid: 1]
[boost_from_average: 1]
[reg_sqrt: 0]
[alpha: 0.9]
[fair_c: 1]
[poisson_max_delta_step: 0.7]
[tweedie_variance_power: 1.5]
[lambdarank_truncation_level: 30]
[lambdarank_norm: 1]
[label_gain: ]
[lambdarank_position_bias_regularization: 0]
[eval_at: ]
[multi_error_top_k: 1]
[auc_mu_weights: ]
[num_machines: 1]
[local_listen_port: 12400]
[time_out: 120]
[machine_list_filename: ]
[machines: ]
[gpu_platform_id: -1]
[gpu_device_id: -1]
[gpu_use_dp: 0]
[num_gpu: 1]

end of parameters

pandas_categorical:[]
