tree
version=v4
num_class=1
num_tree_per_iteration=1
label_index=0
max_feature_idx=29
objective=binary sigmoid:1
feature_names=area_error compactness_error concave_points_error concavity_error fractal_dimension_error mean_area mean_compactness mean_concave_points mean_concavity mean_fractal_dimension mean_perimeter mean_radius mean_smoothness mean_symmetry mean_texture perimeter_error radius_error smoothness_error symmetry_error texture_error worst_area worst_compactness worst_concave_points worst_concavity worst_fractal_dimension worst_perimeter worst_radius worst_smoothness worst_symmetry worst_texture
feature_infos=[7.2279999999999998:525.60000000000002] [0.0022520000000000001:0.13539999999999999] [0:0.052789999999999997] [0:0.39600000000000002] [0.00089479999999999996:0.029839999999999998] [143.5:2499] [0.019380000000000001:0.34539999999999998] [0:0.20119999999999999] [0:0.42680000000000001] [0.049959999999999997:0.095750000000000002] [43.789999999999999:188.5] [6.9809999999999999:28.109999999999999] [0.052630000000000003:0.16339999999999999] [0.1203:0.30399999999999999] [9.7100000000000009:39.280000000000001] [0.75700000000000001:21.98] [0.1115:2.8730000000000002] [0.0017129999999999999:0.031130000000000001] [0.0078820000000000001:0.078950000000000006] [0.36020000000000002:4.8849999999999998] [185.19999999999999:3432] [0.027289999999999998:1.0580000000000001] [0:0.29099999999999998] [0:1.252] [0.055039999999999999:0.20749999999999999] [50.409999999999997:220.80000000000001] [7.9299999999999997:33.119999999999997] [0.071169999999999997:0.22259999999999999] [0.1565:0.57740000000000002] [12.02:49.539999999999999]
tree_sizes=954 1281 1389 1495 1493 1386 1387 1497 1385 1497 1502 1494 1605 1597 1501 1606 1603 1605 1501 1609 1503 1819 1488 1713 1921 1825 1503 1933 1378 2248

Tree=0
num_leaves=8
num_cat=0
split_feature=25 22 0 23 0 29 0
split_gain=338.563 37.5594 8.60599 1.67823 0.736553 0.195944 2.84217e-14
threshold=114.25000000000001 0.14910000000000004 32.850000000000009 0.34670000000000006 34.935000000000009 31.985000000000003 26.050000000000004
decision_type=2 2 2 2 2 2 2
left_child=1 2 3 5 -2 6 -1
right_child=4 -3 -4 -5 -6 -7 -8
leaf_value=0.67963393802322425 0.29472566683861978 0.37415118311480799 0.55935010327803536 0.61548255949245689 0.25195808115144153 0.65825014517963509 0.67963393802322425
leaf_weight=44.426169246435165 4.676438868045806 4.9102608114480963 7.4823021888732901 4.676438868045806 28.993920981884003 4.676438868045806 6.7808363586664191
leaf_count=190 20 21 32 20 124 20 29
internal_value=0.520193 0.641253 0.660528 0.673029 0.257898 0.677844 0.679634
internal_weight=106.623 72.9524 68.0422 60.5599 33.6704 55.8834 51.207
internal_count=456 312 291 259 144 239 219
is_linear=0
shrinkage=1


Tree=1
num_leaves=11
num_cat=0
split_feature=20 22 22 29 15 29 20 0 16 0
split_gain=269.551 34.529 6.11566 3.77804 1.50983 0.174848 0.0651225 0.00365521 0.000785882 1.42109e-14
threshold=888.50000000000011 0.15125000000000002 0.13270000000000001 23.010000000000002 3.2050000000000005 31.985000000000003 1047.0000000000002 28.565000000000005 0.43860000000000005 104.95000000000002
decision_type=2 2 2 2 2 2 2 2 2 2
left_child=1 2 4 -2 5 7 -5 -1 -8 -10
right_child=3 -3 -4 6 -6 -7 8 -9 9 -11
leaf_value=0.1508320041428024 -0.13612257642112455 -0.14084868501678935 0.02490743988006466 -0.24125420171934914 0.089614786692010007 0.13100463043624147 -0.23005348053759545 0.15368277350740148 -0.2286541960023355 -0.22865419600233552
leaf_weight=45.353658512234688 4.8472050428390494 4.835412621498107 4.5812277644872657 5.0846161544322994 4.5770677626132956 4.7296270728111258 4.9143524467945126 4.9928138554096213 15.994805544614794 5.9057743549346915
leaf_count=203 20 20 20 21 20 21 20 22 65 24
internal_value=0.000436523 0.116852 0.136251 -0.218379 0.144802 0.149388 -0.230878 0.151115 -0.228911 -0.228654
internal_weight=105.817 69.0698 64.2344 36.7468 59.6532 55.0761 31.8995 50.3465 26.8149 21.9006
internal_count=456 306 286 150 266 246 130 225 109 89
is_linear=0
shrinkage=0.1


Tree=2
num_leaves=12
num_cat=0
split_feature=25 22 0 14 29 0 22 0 14 25 0
split_gain=220.175 24.877 5.60253 2.86381 2.14576 0.0390605 0.00797606 0.00240159 0.00150312 3.03178e-05 6.54591e-07
threshold=113.75000000000001 0.14545000000000005 34.935000000000009 17.320000000000004 31.635000000000002 39.885000000000012 0.11415000000000002 28.565000000000005 19.525000000000002 134.20000000000002 68.760000000000005
decision_type=2 2 2 2 2 2 2 2 2 2 2
left_child=1 2 4 -2 6 -5 7 -1 -7 -10 -11
right_child=3 -3 -4 5 -6 8 -8 -9 9 10 -12
leaf_value=0.14380595438232949 -0.12209149323294155 -0.091261495350141775 0.021999675384752403 -0.21207718016495403 0.082362732056687274 -0.20420188643094894 0.14825247099845398 0.14623441379679214 -0.20206563030206445 -0.20231481602362278 -0.20235775536100342
leaf_weight=40.234311699867249 4.8938110917806616 5.6080130934715262 4.5366074740886679 5.2200899571180335 6.2611479908227912 4.996167421340945 5.0276766419410697 4.5308688730001441 4.9994480311870602 4.9993448853492763 12.248336702585219
leaf_count=190 20 23 20 21 29 20 23 21 20 20 49
internal_value=0.000700839 0.110237 0.128887 -0.193403 0.137538 -0.204153 0.144476 0.144052 -0.202634 -0.202282 -0.202345
internal_weight=103.556 66.1986 60.5906 37.3572 56.054 32.4634 49.7929 44.7652 27.2433 22.2471 17.2477
internal_count=456 306 283 150 263 130 234 211 109 89 69
is_linear=0
shrinkage=0.1


Tree=3
num_leaves=13
num_cat=0
split_feature=20 22 29 16 19 29 20 0 14 23 16 14
split_gain=183.906 26.5645 19.6108 2.92086 1.48149 0.173118 0.0576566 0.0284427 0.0175074 0.000450408 1.29737e-06 4.76759e-07
threshold=888.50000000000011 0.13270000000000001 26.835000000000004 0.33335000000000009 2.0845000000000007 31.725000000000005 1111.5000000000002 32.355000000000011 18.760000000000002 0.21185000000000001 0.50055000000000016 20.725000000000005
decision_type=2 2 2 2 2 2 2 2 2 2 2 2
left_child=1 4 -3 -2 5 7 -5 9 -8 -1 -10 -12
right_child=3 2 -4 6 -6 -7 8 -9 10 -11 11 -13
leaf_value=0.13779493593721087 -0.10369428283400861 0.097841199731709003 -0.19037945914800045 -0.19649729566341312 0.077567560703421995 0.1174271356750692 -0.19014312307462294 0.14650715612690232 -0.18353999283114997 0.13862326183073906 -0.18357178217465567 -0.18360846579462911
leaf_weight=32.443967789411545 4.8963786214590064 4.6048406362533552 4.8441001176834106 4.9640863835811606 4.5893345177173606 4.1465403586626044 4.9787851721048382 4.3083488494157782 4.9597856104373959 8.2296787202358228 4.959954813122752 12.400376200675963
leaf_count=163 20 20 20 20 22 20 20 20 20 41 20 50
internal_value=0.000861097 0.104705 -0.0499182 -0.175662 0.131903 0.136979 -0.186584 0.138781 -0.184781 0.137963 -0.183585 -0.183598
internal_weight=100.326 63.1668 9.44894 37.1594 53.7179 49.1285 32.263 44.982 27.2989 40.6736 22.3201 17.3603
internal_count=456 306 40 150 266 244 130 224 110 204 90 70
is_linear=0
shrinkage=0.1


Tree=4
num_leaves=13
num_cat=0
split_feature=20 22 14 8 15 29 14 0 0 23 23 14
split_gain=154.463 23.347 16.7485 2.67531 1.45909 0.141157 0.0232017 0.0150509 0.00319977 0.000523141 0.000419864 2.698e-05
threshold=888.50000000000011 0.13270000000000001 19.595000000000002 0.086155000000000009 3.2050000000000005 31.985000000000003 17.885000000000002 45.07500000000001 28.565000000000005 0.29185000000000005 0.34025000000000005 20.725000000000005
decision_type=2 2 2 2 2 2 2 2 2 2 2 2
left_child=1 4 -3 -2 5 8 -5 -8 9 -1 -9 -12
right_child=3 2 -4 6 -6 -7 7 10 -10 -11 11 -13
leaf_value=0.13301727761202831 -0.092289830243599588 0.094240623930796019 -0.1729949182405649 -0.17831742285765387 0.069744507858099755 0.11418556615588318 -0.17586015220141063 -0.17053833898328002 0.13603099999640209 0.13425466909378253 -0.16928309326751989 -0.16956255862596598
leaf_weight=34.143764212727547 4.8573917448520652 4.5000689923763257 4.8977116346359253 4.9188267737627056 4.141192138195037 4.1884682476520529 4.8835704475641277 4.8466593027114895 4.2617210596799842 3.7965961545705786 4.8352701961994198 12.09720830619335
leaf_count=183 20 20 20 20 20 21 20 20 22 20 20 50
internal_value=0.000980772 0.0997012 -0.0450308 -0.16138 0.126618 0.131695 -0.172007 -0.170843 0.133433 0.133141 -0.169718 -0.169483
internal_weight=96.3684 59.9295 9.39778 36.4389 50.5317 46.3905 31.5815 26.6627 42.2021 37.9404 21.7791 16.9325
internal_count=456 306 40 150 266 246 130 110 225 203 90 70
is_linear=0
shrinkage=0.1


Tree=5
num_leaves=12
num_cat=0
split_feature=25 29 22 26 28 29 20 16 16 14 6
split_gain=131.6 15.8445 7.23109 3.67347 0.794438 0.156201 0.0980823 0.0105575 0.0095443 0.000954738 0.000360917
threshold=105.95000000000002 21.185000000000006 0.13495000000000004 16.765000000000004 0.21320000000000003 31.985000000000003 991.55000000000007 0.4129000000000001 0.43210000000000004 20.295000000000005 0.11120000000000001
decision_type=2 2 2 2 2 2 2 2 2 2 2
left_child=2 -2 4 -3 -1 7 -5 10 -8 -10 -6
right_child=1 3 -4 6 5 -7 8 -9 9 -11 -12
leaf_value=0.080059879588131558 0.035827011793084916 -0.064959813570514696 -0.013458332241772406 -0.17543481303451042 0.12893766699627915 0.10835466089560503 -0.16394950118949739 0.13461885085247227 -0.16003208629889515 -0.158669784959455 0.13000492517290949
leaf_weight=3.8313816636800757 5.1830598711967459 4.4008254855871192 4.2057197988033286 4.8104479014873496 30.27946612238884 3.8075025230646125 4.9861557483673122 3.784393996000289 7.7299552857875851 15.380396470427511 3.5389393568038932
leaf_count=21 23 20 18 20 174 20 21 20 33 66 20
internal_value=0.00105904 -0.128005 0.111965 -0.150765 0.123625 0.127656 -0.162241 0.12961 -0.159982 -0.159125 0.129049
internal_weight=91.9382 42.4908 49.4474 37.3078 45.2417 41.4103 32.907 37.6028 28.0965 23.1104 33.8184
internal_count=456 183 273 160 255 234 140 214 120 99 194
is_linear=0
shrinkage=0.1


Tree=6
num_leaves=12
num_cat=0
split_feature=25 22 0 29 14 4 22 14 0 21 29
split_gain=113.947 18.0321 6.93293 1.57265 0.169335 0.164637 0.14141 0.042005 0.00589936 0.000610017 1.82856e-05
threshold=115.80000000000003 0.15125000000000002 31.245000000000001 32.125000000000007 21.790000000000003 0.0020775000000000004 0.11415000000000002 17.970000000000002 45.07500000000001 0.25585000000000008 28.200000000000003
decision_type=2 2 2 2 2 2 2 2 2 2 2
left_child=1 2 3 4 6 -2 -1 -7 -9 -10 -11
right_child=5 -3 -4 -5 -6 7 -8 8 9 10 -12
leaf_value=0.1259280184337955 -0.1323705839421484 -0.092429008183956274 0.014574927792662144 0.059812573605255229 0.10510105518785869 -0.16159149555404362 0.14456260923214964 -0.15439246505527449 -0.15137390933727568 -0.14986098460348191 -0.15010844804038947
leaf_weight=31.418036326766014 4.5297536253929165 5.076767534017562 7.2286813259124747 3.9061637520790091 3.4327335208654395 4.6704154163599041 4.6787657886743537 4.5460934489965465 4.4751036912202862 4.4400917440652838 9.1176830828189832
leaf_count=193 20 21 36 21 20 20 24 20 20 20 41
internal_value=0.00109328 0.0872484 0.105253 0.120344 0.126325 -0.150024 0.128343 -0.152959 -0.151173 -0.150362 -0.150027
internal_weight=87.5203 55.7411 50.6644 43.4357 39.5295 31.7791 36.0968 27.2494 22.579 18.0329 13.5578
internal_count=456 315 294 258 237 141 217 121 101 81 61
is_linear=0
shrinkage=0.1


Tree=7
num_leaves=13
num_cat=0
split_feature=25 22 29 0 29 10 29 16 16 6 20 14
split_gain=98.2652 16.9803 17.5378 2.44205 0.182933 0.0510678 0.0296061 0.00696921 0.00229058 0.000471822 5.30654e-05 1.46008e-06
threshold=117.15000000000002 0.11575000000000002 26.005000000000003 34.935000000000009 31.985000000000003 90.795000000000002 23.880000000000006 0.4018500000000001 0.39685000000000009 0.11095000000000001 1346.5000000000002 21.495000000000005
decision_type=2 2 2 2 2 2 2 2 2 2 2 2
left_child=1 3 -3 4 5 8 -2 -8 -1 -9 -11 -12
right_child=6 2 -4 -5 -6 -7 7 9 -10 10 11 -13
leaf_value=0.12258511612049153 -0.15289293883905192 0.12865102515081203 -0.10752351027015346 0.033801738338051043 0.1000322873325375 0.13619107100020841 -0.14758955933874315 -0.14413032803223302 0.12541365505117616 -0.14269958992899981 -0.14306906402226308 -0.14314328714221766
leaf_weight=26.886261656880382 4.4759828895330456 5.1274365931749335 8.1289574652910215 3.4424177706241599 3.4694098383188239 3.1908348351716986 4.5772999823093441 4.8833638727664974 3.2042040526866904 4.1930603235959998 4.2082510590553266 7.1589344292879105
leaf_count=179 20 26 37 17 20 19 21 23 20 20 20 34
internal_value=0.00111346 0.0819704 -0.0161736 0.11434 0.121884 0.124162 -0.145402 -0.144062 0.122886 -0.143273 -0.143004 -0.143116
internal_weight=82.9464 53.4495 13.2564 40.1931 36.7507 33.2813 29.4969 25.0209 30.0905 20.4436 15.5602 11.3672
internal_count=456 318 63 255 238 218 138 118 199 97 74 54
is_linear=0
shrinkage=0.1


Tree=8
num_leaves=12
num_cat=0
split_feature=25 14 22 12 28 25 29 0 16 29 14
split_gain=85.6513 11.7259 5.67411 2.73269 0.892934 0.587476 0.167551 0.0123739 0.00175322 0.00114894 0.00034138
threshold=105.95000000000002 17.035000000000004 0.13495000000000004 0.089975000000000013 0.21320000000000003 117.15000000000002 31.985000000000003 29.485000000000003 0.43210000000000004 28.805000000000003 19.665000000000003
decision_type=2 2 2 2 2 2 2 2 2 2 2
left_child=2 -2 4 -3 -1 -5 7 9 -7 -6 -10
right_child=1 3 -4 5 6 8 -8 -9 10 -11 -12
leaf_value=0.06362436782746568 0.022677346868139034 -0.063348481781325669 -0.01065831621603979 -0.17738969043216646 0.11983804674848 -0.1399315228550578 0.097158564544544967 0.1264882233370426 -0.13842365575790103 0.12189415567606228 -0.13739462747291706
leaf_weight=3.2599886655807486 5.7792365849018088 4.8691884875297573 4.0835448652505866 4.5835126787424114 23.74770116806031 4.0690570473670986 3.3303973376750937 3.3867309093475333 4.2006027251482037 3.0689484179019919 13.865573063492773
leaf_count=21 28 24 18 20 172 20 20 21 21 21 70
internal_value=0.0011431 -0.108287 0.101176 -0.132248 0.113588 -0.144804 0.118445 0.120793 -0.138056 0.120073 -0.137634
internal_weight=78.2445 37.3672 40.8773 31.5879 36.7938 26.7187 33.5338 30.2034 22.1352 26.8166 18.0662
internal_count=456 183 273 155 255 131 234 214 111 193 91
is_linear=0
shrinkage=0.1


Tree=9
num_leaves=13
num_cat=0
split_feature=25 22 29 0 29 20 14 16 9 16 29 9
split_gain=76.0996 13.1245 13.5963 2.79774 0.213742 0.0563325 0.0396688 0.00358346 0.00163101 0.00101978 4.84539e-05 1.8513e-05
threshold=117.15000000000002 0.11575000000000002 26.005000000000003 36.600000000000009 32.125000000000007 773.20000000000016 17.805000000000003 0.4018500000000001 0.055760000000000011 0.39685000000000009 28.470000000000002 0.061295000000000009
decision_type=2 2 2 2 2 2 2 2 2 2 2 2
left_child=1 3 -3 4 5 9 -2 -8 -9 -1 -10 -12
right_child=6 2 -4 -5 -6 -7 7 8 10 -11 11 -13
leaf_value=0.11788079532239626 -0.14425372812575485 0.12233760422602916 -0.091072588129917781 0.014587519764838897 0.091397656616081083 0.13384789635336886 -0.13628732512871924 -0.13484248625096168 -0.1322782688126449 0.11991717432275258 -0.13282926279260351 -0.13253693005794251
leaf_weight=23.763766743242751 4.1608620136976269 4.7974751219153386 7.9032156020402908 2.9219217598438254 2.9992248713970175 2.4814861342310897 4.0851662009954479 3.82177306711674 5.3491572439670554 2.7430290207266799 3.7202805280685407 5.1862950176000595
leaf_count=185 20 26 37 15 19 16 21 20 29 20 20 28
internal_value=0.00114741 0.0765858 -0.0104604 0.108255 0.116811 0.11944 -0.135294 -0.133612 -0.133008 0.118092 -0.132516 -0.132659
internal_weight=73.9337 47.6101 12.7007 34.9094 31.9875 28.9883 26.3235 22.1627 18.0775 26.5068 14.2557 8.90658
internal_count=456 318 63 255 240 221 138 118 97 205 77 48
is_linear=0
shrinkage=0.1


Tree=10
num_leaves=13
num_cat=0
split_feature=25 22 14 0 29 20 14 12 29 16 9 14
split_gain=66.3434 12.0195 13.5792 5.16917 0.239611 0.0644145 0.0266769 0.00246692 0.00187526 0.000537786 0.000124146 1.64557e-05
threshold=117.15000000000002 0.12230000000000001 20.255000000000006 38.415000000000013 32.125000000000007 784.1500000000002 17.805000000000003 0.091440000000000007 29.130000000000003 0.43520000000000003 0.059280000000000006 20.900000000000002
decision_type=2 2 2 2 2 2 2 2 2 2 2 2
left_child=1 3 -3 4 5 8 -2 -8 -1 -9 -11 -12
right_child=6 2 -4 -5 -6 -7 7 9 -10 10 11 -13
leaf_value=0.1160792119645393 -0.13841446713916658 0.089001337602672551 -0.13430087585138104 -0.023337192726771039 0.087306479186200867 0.13365398033806458 -0.13177340147179056 -0.12997031192470004 0.11890587070378709 -0.12907527938353963 -0.12823552231435445 -0.12851113229996808
leaf_weight=23.152744688093673 3.9153855592012432 5.6988416835665685 5.2155530154705048 2.9585255533456793 2.8344331085681906 2.3519114553928366 3.6448240280151394 3.7169137746095684 2.6117714419960967 4.0055310428142539 3.433608338236807 5.8696129620075226
leaf_count=195 20 30 24 15 19 15 20 21 20 23 20 34
internal_value=0.00116209 0.0735686 -0.0177059 0.102947 0.115018 0.117812 -0.130846 -0.129412 0.116366 -0.128907 -0.12861 -0.128409
internal_weight=69.4097 44.8238 10.9144 33.9094 30.9509 28.1164 24.5859 20.6705 25.7645 17.0257 13.3088 9.30322
internal_count=456 318 54 264 249 230 138 118 215 98 77 54
is_linear=0
shrinkage=0.1


Tree=11
num_leaves=13
num_cat=0
split_feature=20 22 14 12 16 0 22 26 29 0 12 9
split_gain=58.1058 11.9712 3.96963 7.23014 1.88143 0.86143 0.192776 0.0361707 0.00607026 0.000713954 0.000468378 1.39404e-05
threshold=888.50000000000011 0.16480000000000003 21.295000000000005 0.090515000000000026 0.33335000000000009 35.490000000000009 0.13270000000000001 19.025000000000002 25.100000000000005 28.565000000000005 0.09394000000000001 0.059280000000000006
decision_type=2 2 2 2 2 2 2 2 2 2 2 2
left_child=1 2 5 -4 -2 6 9 -6 -9 -1 -10 -12
right_child=4 -3 3 -5 7 -7 -8 8 10 -11 11 -13
leaf_value=0.11430126675509084 -0.051342933848863972 -0.10781024939175619 0.10703228130540095 -0.079719537943225866 -0.13721791220408175 0.05552635529754784 0.14356786164182397 -0.12996110106475284 -0.12643672729464331 0.11614088268378966 -0.12525456727306841 -0.12500739862138416
leaf_weight=20.258748024702083 3.7386247515678432 3.2217949032783499 5.339634567499159 3.3887481763958931 3.662687316536906 2.4690575003623954 2.53615678846836 3.644559875130656 3.3007062971591941 2.3549093529582015 3.218476325273512 7.8409818112850189
leaf_count=186 20 15 38 20 20 13 14 21 20 20 20 49
internal_value=0.00116202 0.0769372 0.0933131 0.0345269 -0.116855 0.111891 0.117425 -0.128159 -0.126316 0.114493 -0.125391 -0.125079
internal_weight=64.9751 39.569 36.3473 8.72838 25.406 27.6189 25.1498 21.6674 18.0047 22.6137 14.3602 11.0595
internal_count=456 306 291 58 150 233 220 130 110 206 89 69
is_linear=0
shrinkage=0.1


Tree=12
num_leaves=14
num_cat=0
split_feature=25 23 29 7 0 29 25 14 16 14 9 29 18
split_gain=51.4456 10.0407 9.18673 7.40037 2.57912 0.300777 0.130381 0.0132474 0.00308245 0.00229584 0.000529982 2.088e-05 5.92145e-06
threshold=117.15000000000002 0.26145000000000002 26.005000000000003 0.044700000000000011 39.885000000000012 32.125000000000007 104.55000000000001 17.805000000000003 0.4018500000000001 21.495000000000005 0.055760000000000011 28.470000000000002 0.017015000000000006
decision_type=2 2 2 2 2 2 2 2 2 2 2 2 2
left_child=1 4 -3 -4 5 6 9 -2 -9 -1 -10 -12 -13
right_child=7 2 3 -5 -6 -7 -8 8 10 -11 11 12 -14
leaf_value=0.11286892144046437 -0.12979815597476876 0.10838081661387161 0.052037284730054194 -0.14384380951215214 -0.0052815047432936552 0.078096436825778784 0.13871785207860746 -0.12572856552713133 -0.12354546283001477 0.11629241571458347 -0.12189134295249633 -0.12227848702754059 -0.12209370191649112
leaf_weight=18.031252533197417 3.4337639957666424 4.6092849746346465 3.1395057588815671 5.0010495334863663 2.0203614681959143 2.3398998677730551 2.2301721945404998 3.3944353908300426 3.075065702199935 2.1975974887609473 4.2720864564180356 2.9791302233934402 4.1498452574014664
leaf_count=180 20 32 21 24 11 17 14 21 20 19 29 20 28
internal_value=0.00117712 0.0686324 -0.00442677 -0.0682998 0.103365 0.112216 0.115771 -0.124109 -0.123016 0.113241 -0.12238 -0.122066 -0.122171
internal_weight=60.8735 39.5691 12.7498 8.14056 26.8193 24.7989 22.459 21.3043 17.8706 20.2289 14.4761 11.4011 7.12898
internal_count=456 318 77 45 241 230 213 138 118 199 97 77 48
is_linear=0
shrinkage=0.1


Tree=13
num_leaves=14
num_cat=0
split_feature=25 23 29 7 0 29 25 29 0 14 9 29 24
split_gain=45.2591 9.02 7.88317 6.31415 2.45879 0.31816 0.100286 0.009271 0.00246799 0.00165914 0.000273555 8.1211e-06 4.29745e-06
threshold=117.15000000000002 0.26145000000000002 26.005000000000003 0.044700000000000011 39.885000000000012 32.125000000000007 105.65000000000002 23.880000000000006 41.210000000000008 21.495000000000005 0.055760000000000011 28.095000000000002 0.086320000000000022
decision_type=2 2 2 2 2 2 2 2 2 2 2 2 2
left_child=1 4 -3 -4 5 6 9 -2 -9 -1 -10 -12 -13
right_child=7 2 3 -5 -6 -7 -8 8 10 -11 11 12 -14
leaf_value=0.11149304599442099 -0.12624193452058813 0.10420817824759188 0.047733352757040499 -0.13582028837593726 -0.0047414813238940146 0.074268424817432482 0.13541383809212035 -0.12294036795241646 -0.12064892157937385 0.1145301278649775 -0.11942617662348397 -0.11970498605509312 -0.11954341491818631
leaf_weight=16.589893653988852 3.1896381378173855 4.3290604054927808 3.0833839550614357 4.778401255607605 2.025152936577796 2.2207414507865897 1.9950883090496052 3.0133396387100246 2.8311512768268576 2.0174910202622405 3.8131375014781934 2.7494615912437439 4.1025398969650269
leaf_count=181 20 32 21 24 11 17 13 20 20 19 28 20 30
internal_value=0.00116086 0.0662949 -0.00415887 -0.0638307 0.10086 0.110231 0.114107 -0.121306 -0.120353 0.111822 -0.119775 -0.119543 -0.119608
internal_weight=56.7385 37.0392 12.1908 7.86179 24.8484 22.8232 20.6025 19.6993 16.5096 18.6074 13.4963 10.6651 6.852
internal_count=456 318 77 45 241 230 213 138 118 200 98 78 50
is_linear=0
shrinkage=0.1


Tree=14
num_leaves=13
num_cat=0
split_feature=26 7 29 29 0 29 22 10 16 14 12 20
split_gain=40.1102 7.73196 7.90548 3.20691 2.00647 0.287682 0.100701 0.0829538 0.00111013 0.000927283 0.000147065 3.81329e-06
threshold=16.765000000000004 0.048770000000000008 26.005000000000003 22.830000000000002 33.695000000000007 32.125000000000007 0.12035000000000001 100.80000000000003 0.42025000000000007 21.595000000000002 0.092605000000000007 1419.0000000000002
decision_type=2 2 2 2 2 2 2 2 2 2 2 2
left_child=1 4 -3 -2 5 6 9 -5 -9 -1 -10 -12
right_child=3 2 -4 7 -6 -7 -8 8 10 -11 11 -13
leaf_value=0.11019794666578374 -0.018719592518656906 0.094884597358280587 -0.12222912534596693 -0.13559041201548674 0.011142845568474289 0.076092333630712009 0.13362041066096444 -0.11976292426646856 -0.11819250682981093 0.11263131974457137 -0.11723646162796275 -0.1173806991182629
leaf_weight=15.964629642665402 3.6854500547051456 3.1352913677692404 3.6058762967586517 3.2560923695564297 2.3169989287853232 2.379922203719615 2.0953408777713767 2.7302073538303366 2.5994846224784842 1.7363320514559735 2.5077680051326734 6.8112468644976616
leaf_count=191 23 23 19 20 15 19 14 20 20 18 20 54
internal_value=0.00114079 0.0735879 -0.0212504 -0.103668 0.0996899 0.108941 0.112891 -0.121153 -0.117944 0.110437 -0.117527 -0.117342
internal_weight=52.8246 31.2344 6.74117 21.5902 24.4932 22.1762 19.7963 17.9048 14.6487 17.701 11.9185 9.31901
internal_count=456 299 42 157 257 242 223 134 114 209 94 74
is_linear=0
shrinkage=0.1


Tree=15
num_leaves=14
num_cat=0
split_feature=25 23 20 27 0 29 25 29 0 0 9 17 2
split_gain=35.802 7.33625 6.33601 3.41187 2.57587 0.365335 0.0767269 0.00982845 0.00268369 0.0011746 0.000140442 3.73669e-06 1.84801e-06
threshold=117.15000000000002 0.26145000000000002 696.05000000000007 0.14440000000000003 41.210000000000008 32.125000000000007 105.65000000000002 23.880000000000006 30.385000000000002 41.210000000000008 0.055760000000000011 0.0081350000000000016 0.014620000000000003
decision_type=2 2 2 2 2 2 2 2 2 2 2 2 2
left_child=1 4 -3 -4 5 6 8 -2 -1 -9 -11 12 -12
right_child=7 2 3 -5 -6 -7 -8 9 -10 10 11 -13 -14
leaf_value=0.10926966938228266 -0.12244645401453458 0.092287036388387908 0.0087709238251828161 -0.13317251396458071 -0.016576663956889625 0.066876248586542703 0.13142553106837501 -0.11795571831928503 0.11374126161819154 -0.11626540817714737 -0.11539342023655315 -0.11529482582188369 -0.11549853556549856
leaf_weight=14.278948359191427 2.8676297068595913 4.2286610603332502 3.3165771588683128 3.4601076245307922 1.8355415165424336 2.0052405670285216 1.8106616809964169 2.5599576607346526 1.4814181625843037 2.4011012688279143 3.5831929668784124 2.3005693703889847 3.1365930587053299
leaf_count=186 20 36 20 21 10 17 13 20 15 20 31 20 27
internal_value=0.00113051 0.0625887 -0.00376646 -0.063704 0.0966942 0.107315 0.11193 -0.117113 0.10969 -0.11602 -0.115586 -0.115405 -0.115442
internal_weight=49.2662 32.4172 11.0053 6.77668 21.4118 19.5763 17.571 16.849 15.7604 13.9814 11.4215 9.02036 6.71979
internal_count=456 318 77 41 241 231 214 138 201 118 98 78 58
is_linear=0
shrinkage=0.1


Tree=16
num_leaves=14
num_cat=0
split_feature=25 23 29 7 0 29 25 29 0 0 9 29 24
split_gain=31.6105 6.63507 5.62414 2.70217 2.43337 0.38317 0.056302 0.00697686 0.00194923 0.000830338 9.93614e-05 2.65971e-06 1.71417e-06
threshold=117.15000000000002 0.26145000000000002 26.005000000000003 0.053935000000000004 41.210000000000008 32.125000000000007 105.65000000000002 23.880000000000006 30.385000000000002 41.210000000000008 0.055760000000000011 28.095000000000002 0.089935000000000015
decision_type=2 2 2 2 2 2 2 2 2 2 2 2 2
left_child=1 4 -3 -4 5 6 8 -2 -1 -9 -11 -12 -13
right_child=7 2 3 -5 -6 -7 -8 9 -10 10 11 12 -14
leaf_value=0.10831298676077644 -0.11990461459417608 0.09552898757271007 -0.0047592432485125983 -0.13204883824173752 -0.01480677274786747 0.063339443274159565 0.12803744884696469 -0.11596310044738814 0.11229574728518354 -0.11448132590305121 -0.11364985403613015 -0.11382946702714924 -0.1137155785874525
leaf_weight=13.028402552008641 2.6469011306762686 3.7212650403380376 4.0610035583376884 2.8298793733119965 1.8487157225608815 1.9105132073163975 1.6794654950499524 2.354096218943595 1.3568115755915631 2.2047212421894065 2.9584340006113035 2.4543058648705482 2.863513246178627
leaf_count=186 20 32 27 18 10 17 13 20 15 20 28 23 27
internal_value=0.00110355 0.0602792 -0.00353566 -0.0570333 0.0944406 0.105676 0.110711 -0.11523 0.108689 -0.114266 -0.113885 -0.113726 -0.113768
internal_weight=45.918 30.4361 10.6121 6.89088 19.8239 17.9752 16.0647 15.482 14.3852 12.8351 10.481 8.27625 5.31782
internal_count=456 318 77 45 241 231 214 138 201 118 98 78 50
is_linear=0
shrinkage=0.1


Tree=17
num_leaves=14
num_cat=0
split_feature=25 29 20 0 24 14 22 29 23 0 9 17 2
split_gain=27.9591 6.11035 8.1094 1.71969 1.02573 0.166954 0.118428 0.00497841 0.00106642 0.000590088 7.06601e-05 1.91119e-06 9.51598e-07
threshold=117.15000000000002 27.990000000000006 650.95000000000016 35.490000000000009 0.10235000000000001 22.645000000000003 0.11140000000000001 23.880000000000006 0.23140000000000002 41.210000000000008 0.055760000000000011 0.0081350000000000016 0.014620000000000003
decision_type=2 2 2 2 2 2 2 2 2 2 2 2 2
left_child=1 3 5 4 6 -3 8 -2 -1 -9 -11 12 -12
right_child=7 2 -4 -5 -6 -7 -8 9 -10 10 11 -13 -14
leaf_value=0.10733064856705228 -0.11769173878471972 0.075379823001831547 -0.088455683780887945 0.017366342894955453 0.033841380362130274 0.11550036780278861 0.13002424664743209 -0.11421946361208704 0.110351271336752 -0.11291585409698246 -0.11224138937631796 -0.11216460320757043 -0.11232365856552468
leaf_weight=10.066495016217241 2.4377238750457755 1.9015425443649272 5.3680389374494553 2.7213878259062758 1.8826641812920559 2.2818293571472168 2.9965108670294276 2.160917915403842 1.3223223239183415 2.0211500674486143 3.0117461085319519 1.9332608878612516 2.6370310410857201
leaf_count=159 20 23 38 17 17 22 24 20 18 20 31 20 27
internal_value=0.00107588 0.0581277 -0.00711345 0.0909432 0.103251 0.0972637 0.112335 -0.113579 0.107681 -0.112726 -0.11239 -0.11225 -0.11228
internal_weight=42.7426 28.5408 9.55141 18.9894 16.268 4.18337 14.3853 14.2018 11.3888 11.7641 9.60319 7.58204 5.64878
internal_count=456 318 83 235 218 45 201 138 177 118 98 78 58
is_linear=0
shrinkage=0.1


Tree=18
num_leaves=13
num_cat=0
split_feature=20 22 14 19 15 29 0 20 22 29 12 27
split_gain=24.8059 6.4204 5.15747 2.02728 1.22836 0.543295 0.0372474 0.0216851 0.00921812 0.000969024 4.26709e-05 3.16939e-07
threshold=888.50000000000011 0.13270000000000001 20.770000000000007 2.0845000000000007 2.4525000000000006 31.985000000000003 36.600000000000009 1111.5000000000002 0.11575000000000002 25.100000000000005 0.09394000000000001 0.14065000000000003
decision_type=2 2 2 2 2 2 2 2 2 2 2 2
left_child=1 3 -3 5 -2 6 8 -6 -1 -9 -11 -12
right_child=4 2 -4 -5 7 -7 -8 9 -10 10 11 -13
leaf_value=0.10697387939411683 -0.039759310017000449 0.053583299827551438 -0.1330769181461833 0.0049427697950169859 -0.12208971209495965 0.045767376758846554 0.12507239006525822 -0.11356669720501765 0.11585974581949923 -0.11151452344028606 -0.11094187538129317 -0.11099062347978617
leaf_weight=12.297964680939922 2.7470712661743155 3.4126665294170371 2.6141116991639137 2.3794010467827311 2.4714638963341704 1.4735989347100247 1.3778930157423008 2.0158966928720456 1.2899154983460892 1.9399827495217321 2.0445618107914925 3.8360192775726318
leaf_count=206 22 23 17 22 21 15 9 20 14 21 23 43
internal_value=0.00107035 0.0624472 -0.0273805 0.0912148 -0.100221 0.103702 0.109406 -0.113716 0.107817 -0.111612 -0.111108 -0.110974
internal_weight=39.9005 24.8456 6.02678 18.8188 15.055 16.4394 14.9658 12.3079 13.5879 9.83646 7.82056 5.88058
internal_count=456 306 40 266 150 244 229 128 220 107 87 66
is_linear=0
shrinkage=0.1


Tree=19
num_leaves=14
num_cat=0
split_feature=25 22 29 0 22 29 0 29 29 0 9 17 2
split_gain=22.1302 5.15843 3.96686 2.99805 0.430537 1.25693 0.00968665 0.00447375 0.00273576 0.00056852 3.71401e-05 1.46854e-06 5.03467e-07
threshold=117.15000000000002 0.11575000000000002 26.375000000000004 45.07500000000001 0.092875000000000013 26.495000000000005 32.850000000000009 32.125000000000007 23.880000000000006 41.210000000000008 0.055760000000000011 0.0081350000000000016 0.014620000000000003
decision_type=2 2 2 2 2 2 2 2 2 2 2 2 2
left_child=1 3 -3 4 6 -6 7 -1 -2 -10 -11 12 -12
right_child=8 2 -4 -5 5 -7 -8 -9 9 10 11 -13 -14
leaf_value=0.10609003156397945 -0.11426808032971177 0.077991249579550614 -0.063656389966770185 -0.05162894918942882 0.11339934258558058 -0.013535172819131079 0.11596138405574115 0.1121322710436435 -0.11183906327417266 -0.11031976007667062 -0.10978991059975454 -0.10970994262802672 -0.10985535992460145
leaf_weight=9.2789778374135548 2.0686069130897513 3.1872231103479844 5.2072809413075447 1.4451037049293507 2.1564492471516128 1.222258113324642 1.3221203237771977 1.4118427336215962 1.8712822645902623 1.6916260048747043 2.5173434242606163 1.6127244532108305 2.2046881839632988
leaf_count=173 20 28 35 8 32 14 13 15 20 20 31 20 27
internal_value=0.00104135 0.0541599 -0.00987565 0.0860868 0.0990168 0.0674804 0.107887 0.106888 -0.110961 -0.110269 -0.109903 -0.109792 -0.10982
internal_weight=37.1975 25.2313 8.3945 16.8368 15.3916 3.37871 12.0129 10.6908 11.9663 9.89766 8.02638 6.33476 4.72203
internal_count=456 318 63 255 247 46 201 188 138 118 98 78 58
is_linear=0
shrinkage=0.1


Tree=20
num_leaves=13
num_cat=0
split_feature=25 0 18 23 29 22 14 5 16 9 29 19
split_gain=19.6147 4.96537 4.68976 4.02267 0.694909 0.0535403 0.00197757 0.00155545 0.000343695 4.28117e-05 1.9681e-06 5.34792e-07
threshold=117.15000000000002 31.245000000000001 0.020650000000000005 0.36070000000000008 33.350000000000001 0.11140000000000001 17.805000000000003 613.85000000000014 0.4018500000000001 0.055760000000000011 28.470000000000002 1.2510000000000001
decision_type=2 2 2 2 2 2 2 2 2 2 2 2
left_child=1 3 -3 4 5 7 -2 -1 -8 -10 -11 -12
right_child=6 2 -4 -5 -6 -7 8 -9 9 10 11 -13
leaf_value=0.10557916468682149 -0.11274738005760752 -0.13014184903417506 0.05314046880337836 -0.011341480959189144 0.030967014514930891 0.12191207029663931 -0.11044337999232774 0.10980646377419745 -0.10935710458106525 -0.10868914864106585 -0.10885248311803331 -0.10877484139998109
leaf_weight=9.3245304785668885 1.8987553864717472 2.5561774075031272 3.0761256478726864 3.9849231988191596 1.243250399827956 2.6509004384279242 1.7777905985712985 0.96003761887550432 1.555032894015312 2.1319499537348747 1.6432629600167277 1.9280218854546545
leaf_count=189 20 20 25 29 14 25 21 16 20 29 22 26
internal_value=0.00104763 0.0519911 -0.0300408 0.0774281 0.102377 0.10924 -0.109814 0.105974 -0.109197 -0.108892 -0.108765 -0.108811
internal_weight=34.7308 23.7959 5.6323 18.1636 14.1787 12.9355 10.9348 10.2846 9.03606 7.25827 5.70323 3.57128
internal_count=456 318 45 273 244 230 138 205 118 97 77 48
is_linear=0
shrinkage=0.1


Tree=21
num_leaves=16
num_cat=0
split_feature=25 20 27 14 7 15 29 22 7 14 29 0 9 17 2
split_gain=17.3708 4.55876 7.11554 3.41536 0.814197 0.644124 0.190893 0.048241 0.0195481 0.00289618 0.00143789 0.000295121 1.90294e-05 7.54596e-07 2.5749e-07
threshold=117.15000000000002 650.95000000000016 0.13995000000000005 21.445000000000004 0.056080000000000012 3.2815000000000003 23.880000000000006 0.11825000000000001 0.044700000000000011 21.295000000000005 23.880000000000006 41.210000000000008 0.055760000000000011 0.0081350000000000016 0.014620000000000003
decision_type=2 2 2 2 2 2 2 2 2 2 2 2 2 2 2
left_child=1 4 3 6 5 7 8 9 -3 -1 -2 -12 -13 14 -14
right_child=10 2 -4 -5 -6 -7 -8 -9 -10 -11 11 12 13 -15 -16
leaf_value=0.10507247316824185 -0.11141265470615691 0.10874115885620646 -0.12278525957648377 -0.040044660792319109 0.013887079250510932 0.026389676231660764 0.070519470193277811 0.12952356760282363 0.12341924727807639 0.10937589400086377 -0.10948281026868943 -0.10828302266320376 -0.10786750835171309 -0.10780462442995967 -0.10791880517642752
leaf_weight=6.7560904696583748 1.7356272339820851 1.8158477582037433 3.2017429545521736 2.4613005109131336 1.2104237675666798 1.0616108924150456 1.2320687957108019 0.97405408695340234 1.8134690783917902 2.0348831675946712 1.5633220300078372 1.4091852679848669 2.0957574099302296 1.3424752727150915 1.8356167301535604
leaf_count=150 20 32 27 18 8 11 18 9 15 30 20 20 31 20 27
internal_value=0.00104166 0.0496379 0.00156497 0.0559354 0.0916697 0.100366 0.10453 0.108408 0.116075 0.106069 -0.108797 -0.108246 -0.107957 -0.107869 -0.107891
internal_weight=32.5435 22.5615 10.5244 7.32269 12.0371 10.8266 4.86139 9.76503 3.62932 8.79097 9.98198 8.24636 6.68303 5.27385 3.93137
internal_count=456 318 110 83 208 200 65 189 47 180 138 118 98 78 58
is_linear=0
shrinkage=0.1


Tree=22
num_leaves=13
num_cat=0
split_feature=20 22 29 28 29 29 3 0 8 16 20 19
split_gain=15.5145 4.50139 3.5792 2.36642 0.951827 0.579683 0.409921 0.0290634 0.0268717 9.66245e-05 1.57538e-06 4.19329e-07
threshold=888.50000000000011 0.13270000000000001 27.430000000000003 0.20750000000000002 24.120000000000001 33.350000000000001 0.053120000000000007 39.055000000000007 0.09406500000000001 0.43520000000000003 1346.5000000000002 1.151
decision_type=2 2 2 2 2 2 2 2 2 2 2 2
left_child=1 3 -3 -1 -2 6 7 -5 -6 -10 -11 -12
right_child=4 2 -4 5 8 -7 -8 -9 9 10 11 -13
leaf_value=-0.055315399511398057 -0.038694233750320009 0.043497223620465424 -0.12497043900123761 0.10632702282208369 -0.1206682429157733 0.03088146808838968 0.041208023679379417 0.12302596253370933 -0.10800673784540644 -0.10697650925245723 -0.10714840511433801 -0.10708096580675773
leaf_weight=1.1278992332518161 2.3721039332449427 3.1099372357130042 2.1213274002075195 9.6768079660832829 1.9439617656171302 1.250253953039645 0.99981482699513513 1.1680489256978042 1.425254240632057 1.2179851047694681 1.4939031898975375 2.4083744548261166
leaf_count=15 26 23 17 214 20 15 14 8 21 20 24 39
internal_value=0.00104376 0.0544974 -0.024818 0.0836702 -0.0946966 0.0956414 0.102477 0.108126 -0.110345 -0.107279 -0.107076 -0.107107
internal_weight=30.3157 19.4541 5.23126 14.2228 10.8616 13.0949 11.8447 10.8449 8.48948 6.54552 5.12026 3.90228
internal_count=456 306 40 266 150 251 236 222 124 104 83 63
is_linear=0
shrinkage=0.1


Tree=23
num_leaves=15
num_cat=0
split_feature=0 22 22 28 18 10 7 20 2 9 23 23 29 9
split_gain=13.9722 4.6422 3.38191 1.68456 2.81332 0.689114 0.419493 0.347774 0.0333363 0.0267321 0.0114339 0.00719196 0.00061023 8.08413e-06
threshold=31.245000000000001 0.18165000000000001 0.11140000000000001 0.28265000000000007 0.016775000000000002 88.565000000000012 0.052865000000000002 1086.0000000000002 0.012630000000000001 0.064970000000000014 0.22745000000000001 0.28045000000000003 24.945000000000004 0.056180000000000008
decision_type=2 2 2 2 2 2 2 2 2 2 2 2 2 2
left_child=1 3 -2 8 -5 11 -4 -8 9 10 -1 -6 -9 -14
right_child=2 -3 6 4 5 -7 7 12 -10 -11 -12 -13 13 -15
leaf_value=0.10473568279321299 0.016427162729183802 -0.12369799563011917 -0.15449195706473046 -0.061528959342333267 0.10431892747374785 0.0097590266829311201 -0.05568257968176285 -0.10874917740278489 0.11802427379463575 0.087611086598152255 0.11621113788706133 0.1148826001046509 -0.10667374414570359 -0.10637419459709381
leaf_weight=3.590068783611061 2.971740946173667 1.2123362943530072 1.4797803089022625 1.8837107978761185 2.3868744596838956 0.93355599790811528 1.6548001766204814 1.4790371879935262 2.8284646309912205 0.78726708143949498 1.1452494002878664 0.88288348168134678 1.1678383238613603 3.9421496950089931
leaf_count=91 30 12 11 22 63 11 21 21 39 20 13 12 20 70
internal_value=0.00101825 0.0642519 -0.0769341 0.0800337 0.0400248 0.085536 -0.105467 -0.0966673 0.109196 0.104674 0.107511 0.107171 -0.10696 -0.106443
internal_weight=28.3458 15.6504 12.6953 14.4381 6.08702 4.20331 9.72361 8.24383 8.35105 5.52259 4.73532 3.26976 6.58903 5.10999
internal_count=456 283 173 271 108 86 143 132 163 124 104 75 111 90
is_linear=0
shrinkage=0.1


Tree=24
num_leaves=17
num_cat=0
split_feature=25 7 29 12 0 14 7 0 29 29 16 19 13 9 2 29
split_gain=12.566 3.75328 5.10485 4.54503 3.1432 1.94079 0.00952775 0.00488238 0.0011228 0.00102028 0.000166571 2.70736e-05 6.53165e-06 5.65832e-06 6.39118e-07 2.05299e-07
threshold=117.15000000000002 0.026805000000000006 22.020000000000003 0.090335000000000013 31.245000000000001 20.215000000000003 0.044700000000000011 32.850000000000009 31.100000000000005 23.880000000000006 0.4018500000000001 1.5495000000000003 0.14975000000000002 0.056180000000000008 0.012700000000000001 28.095000000000002
decision_type=2 2 2 2 2 2 2 2 2 2 2 2 2 2 2 2
left_child=1 7 6 -4 5 -5 -3 8 11 -2 -11 12 -1 -12 -15 -16
right_child=9 2 3 4 -6 -7 -8 -9 -10 10 13 -13 -14 14 15 -17
leaf_value=0.10382596821400805 -0.10900766007297076 0.10698215108135452 0.078802036311845056 0.045647725239786371 -0.17739063241525968 -0.095955967221919528 0.11743945624793317 0.11267361569902852 0.10712666364761457 -0.10706365586228871 -0.1059875690847074 0.10417862506926555 0.10348741277603007 -0.10566339643633385 -0.10578694587778764 -0.10573153689069603
leaf_weight=0.69437105953694045 1.423563815653323 1.5349853243678802 2.6712534204125387 1.9413494952023032 2.0789572410285473 1.9302652627229688 2.014980111271143 0.80056003108620633 1.1653537154197691 1.2734269611537454 1.0620209425687788 0.82639050856232632 3.1777798216789961 1.1150322370231154 1.0848908349871638 1.7430646233260629
leaf_count=20 20 35 29 26 17 17 24 10 20 21 20 22 98 22 21 34
internal_value=0.0010209 0.0450224 0.011992 -0.0295633 -0.0782093 -0.0249514 0.112918 0.105348 0.104348 -0.106591 -0.106043 0.103659 0.103548 -0.105783 -0.105728 -0.105753
internal_weight=26.5382 18.8362 12.1718 8.62183 5.95057 3.87161 3.54997 6.66446 5.8639 7.702 6.27844 4.69854 3.87215 5.00501 3.94299 2.82796
internal_count=456 318 148 89 60 43 59 170 160 138 118 140 118 97 77 55
is_linear=0
shrinkage=0.1


Tree=25
num_leaves=16
num_cat=0
split_feature=25 7 29 4 28 7 0 29 29 16 19 13 12 2 17
split_gain=11.2028 3.46973 4.52807 4.11164 3.15717 0.0069221 0.00359076 0.000821186 0.000744487 0.00012131 1.9864e-05 4.80235e-06 4.13287e-06 4.13623e-07 1.75168e-07
threshold=117.15000000000002 0.026805000000000006 22.020000000000003 0.0033210000000000006 0.31900000000000001 0.044700000000000011 32.850000000000009 31.100000000000005 23.880000000000006 0.4018500000000001 1.5495000000000003 0.14975000000000002 0.09394000000000001 0.012700000000000001 0.0069840000000000006
decision_type=2 2 2 2 2 2 2 2 2 2 2 2 2 2 2
left_child=1 6 5 -4 -5 -3 7 10 -2 -10 11 -1 -11 -14 -15
right_child=8 2 3 4 -6 -7 -8 -9 9 12 -12 -13 13 14 -16
leaf_value=0.10344932283171999 -0.10808759699011633 0.10631022255660641 -0.100603160916413 0.10877680595181947 -0.065787730922815729 0.11563510729187901 0.11138652713097685 0.10640761779068375 -0.10634800304675292 -0.10538033386653485 0.10376601940133533 0.10314465771037476 -0.1050990648176819 -0.10514433135446569 -0.10519776815637738
leaf_weight=0.63046381436289012 1.2984972707927216 1.3972429353743785 4.0058495383709651 2.6262020096182823 1.7111151777207849 1.8502176217734811 0.73231812193989743 1.0612169764935968 1.1596019156277177 1.013680677860975 0.75057070888578881 2.8844420313835144 1.0608769357204439 1.116745110601187 1.3611248321831224
leaf_count=20 20 35 37 35 17 24 10 20 21 21 22 98 23 24 29
internal_value=0.00101794 0.0434967 0.0114394 -0.0275557 0.0399093 0.111623 0.104821 0.103918 -0.105926 -0.105435 0.103299 0.103199 -0.105202 -0.105151 -0.105174
internal_weight=24.6602 17.6496 11.5906 8.34317 4.33732 3.24746 6.05901 5.32669 7.01053 5.71203 4.26548 3.51491 4.55243 3.53875 2.47787
internal_count=456 318 148 89 52 59 170 160 138 118 140 118 97 76 53
is_linear=0
shrinkage=0.1


Tree=26
num_leaves=13
num_cat=0
split_feature=0 22 5 23 29 25 28 5 22 29 10 8
split_gain=10.0626 3.5713 2.45137 2.85736 1.54358 1.23737 0.416125 0.118673 0.0399944 0.000181436 8.38757e-06 2.03091e-07
threshold=31.245000000000001 0.18165000000000001 689.85000000000014 0.26145000000000002 33.350000000000001 113.75000000000001 0.34995000000000004 801.55000000000007 0.14460000000000003 24.945000000000004 116.05000000000001 0.14845000000000003
decision_type=2 2 2 2 2 2 2 2 2 2 2 2
left_child=1 4 3 -2 5 6 8 -4 -1 -9 -11 -12
right_child=2 -3 7 -5 -6 -7 -8 9 -10 10 11 -13
leaf_value=0.105001170373271 0.069185516664713231 -0.12119819919298665 -0.13868837254255728 -0.098680566502560754 -0.021247147989851726 -0.017204398464641633 0.034768777872658661 -0.10619494459120329 0.12684450180567697 -0.10499189354472585 -0.10468631450624302 -0.10462860678238801
leaf_weight=7.5051321946084446 2.0879630111157876 0.99790639057755548 1.3402588516473768 1.9713897258043287 1.4367199689149863 0.98479122295975763 0.86897481419146139 1.099797014147043 0.94361601769924153 0.94321846961975131 0.89755163714289699 1.9025545418262479
leaf_count=225 25 12 18 22 17 11 11 21 7 21 21 45
internal_value=0.00107635 0.060417 -0.0727155 -0.0123372 0.0758554 0.0893967 0.100663 -0.112354 0.107441 -0.105066 -0.104734 -0.104647
internal_weight=22.9799 12.7371 10.2427 4.05935 11.7392 10.3025 9.31772 6.18338 8.44875 4.84312 3.74332 2.80011
internal_count=456 283 173 47 271 254 243 126 232 108 87 66
is_linear=0
shrinkage=0.1


Tree=27
num_leaves=17
num_cat=0
split_feature=25 7 1 28 29 0 14 0 29 14 16 29 28 9 10 1
split_gain=8.9204 3.05804 4.29279 2.99822 2.87566 0.431081 0.0532267 0.0021688 0.000716981 0.000399505 7.67244e-05 5.28705e-05 8.47236e-06 7.61661e-06 4.48457e-07 1.00545e-07
threshold=117.15000000000002 0.026805000000000006 0.012025000000000003 0.29585000000000006 26.375000000000004 32.850000000000009 20.215000000000003 32.850000000000009 32.125000000000007 17.805000000000003 0.4018500000000001 28.980000000000004 0.23075000000000004 0.055760000000000011 113.20000000000002 0.042865000000000007
decision_type=2 2 2 2 2 2 2 2 2 2 2 2 2 2 2 2
left_child=1 7 -3 5 -5 6 -4 8 11 -2 -11 12 -1 -12 -15 -16
right_child=9 2 3 4 -6 -7 -8 -9 -10 10 13 -13 -14 14 15 -17
leaf_value=0.10299212045606186 -0.10657671812988541 -0.17188515487793551 0.11341287134593565 0.066248743005989208 -0.093487374067305784 0.037269421660624878 0.086362612291989549 0.10958171692858126 0.10636465085797789 -0.10523147880212931 -0.10450283496342956 0.10373717880314459 0.10257033740288596 -0.10409118639564859 -0.10416475493427882 -0.10420953670283271
leaf_weight=0.57825619727373467 1.0692451484501351 1.1592038813978423 2.4960925765335547 1.9632440097630022 2.6459626145660877 1.2546929642558096 1.0265988633036611 0.6321161501109599 0.6596466191112994 0.96611392870545376 0.81645422056317363 0.51226077415049065 2.6994648016989231 0.75427809357643161 1.4201409667730334 0.77496530860662449
leaf_count=21 20 14 49 32 26 13 14 10 12 21 20 16 111 20 37 20
internal_value=0.00106523 0.0403756 0.0096682 0.0320893 -0.0254494 0.0876024 0.10553 0.104101 0.103322 -0.104831 -0.104436 0.102792 0.102645 -0.104233 -0.104158 -0.104181
internal_weight=21.4287 15.6275 10.5458 9.38659 4.60921 4.77738 3.52269 5.08174 4.44963 5.8012 4.73195 3.78998 3.27772 3.76584 2.94938 2.19511
internal_count=456 318 148 134 58 76 63 170 160 138 118 148 132 97 77 57
is_linear=0
shrinkage=0.1


Tree=28
num_leaves=12
num_cat=0
split_feature=0 22 29 27 29 25 14 18 22 19 25
split_gain=8.0289 2.96352 2.22142 1.82205 1.62824 0.735597 0.380434 0.0627902 0.0224186 0.0158886 0.00784401
threshold=31.245000000000001 0.15600000000000003 21.830000000000002 0.11365000000000001 33.350000000000001 113.75000000000001 19.300000000000001 0.024425000000000006 0.14460000000000003 1.6240000000000003 107.2
decision_type=2 2 2 2 2 2 2 2 2 2 2
left_child=1 4 -2 -4 5 8 -5 9 10 -8 -1
right_child=2 -3 3 6 -6 -7 7 -9 -10 -11 -12
leaf_value=0.10327509908370916 0.038810196904809927 -0.064377470073944731 0.013714693273573565 -0.15994268598420891 -0.021368911808957863 0.0027524735252650754 -0.10430909618827322 -0.079634572135058798 0.12290438794335873 -0.12023233085289434 0.11420329991329761
leaf_weight=5.8340550586581248 1.5537101533263902 1.6864973977208126 1.316642729565501 1.49248163215816 1.3671983741223801 0.7561591863632201 2.6993677429854874 1.0025506652891634 0.73643317818641651 0.81610223278403271 0.74013833515346039
leaf_count=224 23 20 18 27 17 8 72 21 6 12 8
internal_value=0.00109795 0.0577172 -0.0697999 -0.0928305 0.0795439 0.096647 -0.11617 -0.10171 0.106359 -0.108006 0.104505
internal_weight=20.0013 11.1205 8.88086 7.32715 9.43398 8.06679 6.0105 4.51802 7.31063 3.51547 6.57419
internal_count=456 283 173 150 263 246 132 105 238 84 232
is_linear=0
shrinkage=0.1


Tree=29
num_leaves=20
num_cat=0
split_feature=26 29 12 20 0 14 9 26 7 2 20 20 14 29 27 16 7 9 2
split_gain=7.2857 2.71812 4.00391 3.68953 1.41229 1.43664 0.727269 0.179693 0.0087916 0.00588118 0.00151697 0.00108772 0.000404983 0.000136447 1.50251e-05 9.23791e-06 2.96899e-06 3.35466e-07 3.01623e-07
threshold=17.720000000000002 22.020000000000003 0.090515000000000026 552.15000000000009 33.695000000000007 20.770000000000007 0.056365000000000005 12.770000000000001 0.044700000000000011 0.011595000000000003 1144.0000000000002 773.20000000000016 23.945000000000004 24.945000000000004 0.12755000000000002 0.35385000000000005 0.026460000000000004 0.057695000000000003 0.014540000000000003
decision_type=2 2 2 2 2 2 2 2 2 2 2 2 2 2 2 2 2 2 2
left_child=1 8 6 7 5 -5 -3 -4 11 12 -2 15 -8 -12 -15 16 -1 -16 -19
right_child=10 2 3 4 -6 -7 9 -9 -10 -11 13 -13 -14 14 17 -17 -18 18 -20
leaf_value=0.10211711728188706 -0.10811602011296902 0.0035564894026347015 0.10745084853930953 0.019961748287835705 -0.16820409502167455 -0.12645941619155651 0.10311152993953809 0.041660461872234135 0.11295633761139233 0.11318806739416061 -0.10496038957813401 0.10766305451624639 0.10652245236714929 -0.10390958369544315 -0.10344219373347439 0.10273110253731842 0.10240811212302912 -0.10330812794846403 -0.10339546457486704
leaf_weight=1.1879902351647649 1.0543360151350487 0.82104464434087132 1.0338470451533792 1.4335288275033238 1.5542473848909137 1.2582804057747123 0.84692717157304309 0.69372196681797493 1.4802013449370859 1.7122065331786869 0.8282527178525928 0.4627748206257819 0.59099116548895836 0.7077058665454391 0.64162733592093024 0.41225834749639023 0.49743149802088726 0.71223787777125813 0.8890038076788187
leaf_count=59 22 16 32 26 15 19 35 13 24 24 20 9 12 20 20 17 22 23 28
internal_value=0.00108148 0.0376594 0.00955829 -0.0421767 -0.092306 -0.0484825 0.0873806 0.0810321 0.106821 0.109228 -0.104762 0.103275 0.104513 -0.103826 -0.103508 0.102307 0.102203 -0.103381 -0.103357
internal_weight=18.8186 13.9855 9.9448 5.97363 4.24606 2.69181 3.97117 1.72757 4.04066 3.15012 4.83316 2.56045 1.43792 3.77883 2.95057 2.09768 1.68542 2.24287 1.60124
internal_count=456 323 192 105 60 45 87 45 131 71 133 107 47 111 91 98 81 71 51
is_linear=0
shrinkage=0.1


end of trees

feature_importances:
worst_texture=70
area_error=48
mean_texture=33
worst_concave_points=31
worst_perimeter=28
worst_area=22
radius_error=20
mean_fractal_dimension=18
mean_concave_points=14
worst_concavity=13
concave_points_error=9
mean_smoothness=9
worst_symmetry=8
texture_error=7
mean_perimeter=5
smoothness_error=5
worst_radius=5
worst_smoothness=5
perimeter_error=4
symmetry_error=4
mean_area=3
mean_concavity=3
worst_fractal_dimension=3
compactness_error=2
fractal_dimension_error=2
mean_compactness=2
mean_symmetry=2
concavity_error=1
worst_compactness=1

parameters:
[boosting: gbdt]
[objective: binary]
[metric: binary_logloss]
[tree_learner: serial]
[device_type: cpu]
[data_sample_strategy: bagging]
[data: ]
[valid: ]
[num_iterations: 30]
[learning_rate: 0.1]
[num_leaves: 31]
[num_threads: 0]
[seed: 42]
[deterministic: 0]
[force_col_wise: 0]
[force_row_wise: 0]
[histogram_pool_size: -1]
[max_depth: 6]
[min_data_in_leaf: 20]
[min_sum_hessian_in_leaf: 0.001]
[bagging_fraction: 1]
[pos_bagging_fraction: 1]
[neg_bagging_fraction: 1]
[bagging_freq: 0]
[bagging_seed: 400]
[bagging_by_query: 0]
[feature_fraction: 1]
[feature_fraction_bynode: 1]
[feature_fraction_seed: 30056]
[extra_trees: 0]
[extra_seed: 12879]
[early_stopping_round: 0]
[early_stopping_min_delta: 0]
[first_metric_only: 0]
[max_delta_step: 0]
[lambda_l1: 0]
[lambda_l2: 0]
[linear_lambda: 0]
[min_gain_to_split: 0]
[drop_rate: 0.1]
[max_drop: 50]
[skip_drop: 0.5]
[xgboost_dart_mode: 0]
[uniform_drop: 0]
[drop_seed: 17869]
[top_rate: 0.2]
[other_rate: 0.1]
[min_data_per_group: 100]
[max_cat_threshold: 32]
[cat_l2: 10]
[cat_smooth: 10]
[max_cat_to_onehot: 4]
[top_k: 20]
[monotone_constraints: ]
[monotone_constraints_method: basic]
[monotone_penalty: 0]
[feature_contri: ]
[forcedsplits_filename: ]
[refit_decay_rate: 0.9]
[cegb_tradeoff: 1]
[cegb_penalty_split: 0]
[cegb_penalty_feature_lazy: ]
[cegb_penalty_feature_coupled: ]
[path_smooth: 0]
[interaction_constraints: ]
[verbosity: -1]
[saved_feature_importance_type: 0]
[use_quantized_grad: 0]
[num_grad_quant_bins: 4]
[quant_train_renew_leaf: 0]
[stochastic_rounding: 1]
[linear_tree: 0]
[max_bin: 255]
[max_bin_by_feature: ]
[min_data_in_bin: 3]
[bin_construct_sample_cnt: 200000]
[data_random_seed: 175]
[is_enable_sparse: 1]
[enable_bundle: 1]
[use_missing: 1]
[zero_as_missing: 0]
[feature_pre_filter: 0]
[pre_partition: 0]
[two_round: 0]
[header: 0]
[label_column: ]
[weight_column: ]
[group_column: ]
[ignore_column: ]
[categorical_feature: ]
[forcedbins_filename: ]
[precise_float_parser: 0]
[parser_config_file: ]
[objective_seed: 16083]
[num_class: 1]
[is_unbalance: 0]
[scale_pos_weight: 1]
[sigmoid: 1]
[boost_from_average: 1]
[reg_sqrt: 0]
[alpha: 0.9]
[fair_c: 1]
[poisson_max_delta_step: 0.7]
[tweedie_variance_power: 1.5]
[lambdarank_truncation_level: 30]
[lambdarank_norm: 1]
[label_gain: ]
[lambdarank_position_bias_regularization: 0]
[eval_at: ]
[multi_error_top_k: 1]
[auc_mu_weights: ]
[num_machines: 1]
[local_listen_port: 12400]
[time_out: 120]
[machine_list_filename: ]
[machines: ]
[gpu_platform_id: -1]
[gpu_device_id: -1]
[gpu_use_dp: 0]
[num_gpu: 1]

end of parameters

pandas_categorical:[]
