tree
version=v4
num_class=1
num_tree_per_iteration=1
label_index=0
max_feature_idx=13
objective=binary sigmoid:1
feature_names=age capital_gain capital_loss education education_num fnlwgt hours_per_week marital_status native_country occupation race relationship sex workclass
feature_infos=[17:90] [0:99999] [0:4356] -1:11:15:9:12:8:1:7:0:5:14:6:2:10:4:3 [1:16] [12285:1484705] [1:99] -1:2:4:0:5:6:3 -1:38:25:39:29:10:1:32:7:18:4:8:22:34:2:40:21:12:23:5:3:35:30:19:13:31:26:28:20:6:9:11:0:16:24:36:37:27:41:17:33:15 -1:9:2:3:0:11:7:6:14:13:5:4:12:10:8 -1:4:2:1:0 -1:0:1:3:4:5:2 -1:1:0 -1:3:5:1:7:6:4:0:8
tree_sizes=1701 1808 1816 1814 1828 1706 1826 1804 1813 1716 1820 1816 1717 1829 1618 1703 1723 1812 1719 1806 1732 1824 1806 1814 1739 1721 1803 1821 1828 1722 1814 1807 1613 1788 1823 1591 1611 1827 1613 1704 1721 1635 1586 1604 1733 1697 1624 1598 1645 1721 1722 1606 1717 1629 1703 1648 1696 1709 1606 1327 1817 1807 1822 1705 1528 1796 1819 1831 1684 1782 1830 1393 1737 1693 1705 1813 1705 1806 1626 1697 1609 1816 1807 1605 1802 1531 1831 1622 1712 1813 1516 1519 1795 1822 1701 1744 1602 1507 1809 1522

Tree=0
num_leaves=15
num_cat=2
split_feature=11 4 1 1 9 1 4 2 6 2 0 6 5 0
split_gain=5161.11 2047.25 1178.41 1044.34 417.629 267.307 197.578 162.465 123.139 58.0637 6.4808 4.55986 0.910683 0.0875825
threshold=0 12.500000000000002 7073.5000000000009 5036.5000000000009 1 5036.5000000000009 12.500000000000002 1789.0000000000002 44.500000000000007 2218.5000000000005 61.500000000000007 35.500000000000007 67287.000000000015 62.500000000000007
decision_type=1 2 2 2 9 2 2 2 2 2 2 2 2 2
left_child=1 3 6 4 -1 7 9 -3 -8 -2 -5 -4 -13 -7
right_child=2 5 11 10 -6 13 8 -9 -10 -11 -12 12 -14 -15
leaf_value=-1.0486351333452884 -1.2671733336233537 -0.93080955752871719 -0.84691186979415334 -0.73295850834838383 -1.1595689113416836 -0.73295850834838383 -1.2302095401117412 -0.75230493112760133 -1.1243612956528595 -1.0120279649502681 -0.82412119750499935 -0.78765612184235323 -0.73549080526940092 -0.74272593932944986
leaf_weight=539.14600065350533 2045.2445945441723 493.80581477284431 4.3877599239349356 70.021335452795029 889.06985458731651 88.852138459682465 341.87962740659714 56.858055680990219 161.98147052526474 8.958343178033827 8.7755198478698713 3.6564666032791129 39.489839315414429 10.238106489181517
leaf_count=2949 11187 2701 24 383 4863 486 1870 311 886 49 48 20 216 56
internal_value=-1.14821 -1.03408 -1.24277 -1.09752 -1.11707 -0.88517 -1.2523 -0.912378 -1.19618 -1.26606 -0.743111 -0.749789 -0.739912 -0.733968
internal_weight=4762.36 2156.77 2605.6 1507.01 1428.22 649.754 2558.06 550.664 503.861 2054.2 78.7969 47.5341 43.1463 99.0902
internal_count=26049 11797 14252 8243 7812 3554 13992 3012 2756 11236 431 260 236 542
cat_boundaries=0 1 2
cat_threshold=33 7689
is_linear=0
shrinkage=1


Tree=1
num_leaves=16
num_cat=2
split_feature=11 9 1 1 4 4 4 1 2 0 6 4 0 1 5
split_gain=4144.38 1341.13 872.242 495.662 370.46 204.21 189.325 186.567 98.6404 81.5619 48.9733 2.24878 2.20948 1.76096 0.0162233
threshold=0 1 7073.5000000000009 5036.5000000000009 12.500000000000002 8.5000000000000018 13.500000000000002 5036.5000000000009 2218.5000000000005 28.500000000000004 43.500000000000007 10.500000000000002 61.500000000000007 9474.0000000000018 99091.000000000015
decision_type=1 9 2 2 2 2 2 2 2 2 2 2 2 2 2
left_child=1 4 6 5 7 -3 8 -1 -2 -6 -8 13 -5 -4 -13
right_child=2 3 11 12 9 -7 10 -9 -10 -11 -12 14 -14 -15 -16
leaf_value=0.093338114352617935 -0.10769100548100743 -0.08448974014179407 0.22085047654369028 0.30812287077317163 0.079404330670474213 0.026265815666863358 -0.032502084671956297 0.30348671494280177 0.16496898695466006 0.23753386347429176 0.092225179127174442 0.31627033525442649 0.25383585285138455 0.28893373734064587 0.31036238040396169
leaf_weight=457.13349205255508 2274.440601721406 204.28344765305519 5.4362175762653377 51.515722423791885 34.574142038822174 899.45920869708061 78.576483979821205 46.547295421361923 13.346059709787367 576.60134537518024 52.522018730640411 5.4048440456390372 8.7740892022848112 12.61408658325672 33.192291334271431
leaf_count=2379 13189 1122 25 235 169 4853 449 213 70 2785 284 25 41 58 152
internal_value=-0.000551324 0.0965393 -0.0899561 0.0208389 0.174691 0.0057669 -0.0994033 0.112759 -0.1061 0.228588 0.0174674 0.297564 0.300222 0.268429 0.31119
internal_weight=4754.42 2278.89 2475.53 1164.03 1114.86 1103.74 2418.89 503.681 2287.79 611.175 131.099 56.6474 60.2898 18.0503 38.5971
internal_count=26049 11797 14252 6251 5546 5975 13992 2592 13259 2954 733 260 276 83 177
cat_boundaries=0 1 2
cat_threshold=33 7688
is_linear=0
shrinkage=0.1


Tree=2
num_leaves=16
num_cat=2
split_feature=11 9 1 1 4 4 2 1 0 1 2 1 1 0 1
split_gain=3382.54 993.418 697.803 310.874 298.758 172.537 166.751 163.154 104.647 87.0797 42.515 39.4732 72.0012 1.72658 1.24879
threshold=0 1 4668.5000000000009 5036.5000000000009 12.500000000000002 12.500000000000002 1834.5000000000002 5036.5000000000009 31.500000000000004 5036.5000000000009 2429.5000000000005 7565.5000000000009 4826.0000000000009 61.500000000000007 30961.500000000004
decision_type=1 9 2 2 2 2 2 2 2 2 2 2 2 2 2
left_child=1 4 5 6 7 10 -3 -1 -7 -6 -2 12 -4 -5 -13
right_child=2 3 11 13 9 8 -8 -9 -10 -11 -12 14 -14 -15 -16
leaf_value=0.075867942328068247 -0.1109969407405953 -0.011871249589610864 0.44619634122831892 0.25293389870149169 0.17021594296104445 -0.09688374654580216 0.22394053722324908 0.24982895231045321 -0.00089061871814740193 0.26445980078244719 0.16845819164210521 0.25479364772129892 -0.027179378625586843 0.2044708584431478 0.20550952227391567
leaf_weight=587.85822553932667 1799.4585672616959 936.45447728037834 4.1693183630704906 43.985293388366699 578.88014233112335 197.92304295301437 30.97931843996048 59.356852829456329 266.45453484356403 118.0322013348341 5.460521697998046 53.018949836492538 14.010308608412741 8.8265355229377729 5.6934224963188163
leaf_count=2949 11163 5101 24 184 2609 1170 165 249 1543 502 26 223 79 38 24
internal_value=-0.000878884 0.0833605 -0.0857609 0.00849388 0.139705 -0.0961652 -0.00432005 0.0918221 -0.041804 0.186178 -0.110151 0.210145 0.0813847 0.244834 0.250014
internal_weight=4710.56 2364.37 2346.19 1020.25 1344.13 2269.3 967.434 647.215 464.378 696.912 1804.92 76.892 18.1796 52.8118 58.7124
internal_count=26049 11797 14252 5488 6309 13902 5266 3198 2713 3111 11189 350 103 222 247
cat_boundaries=0 1 2
cat_threshold=33 7689
is_linear=0
shrinkage=0.1


Tree=3
num_leaves=16
num_cat=2
split_feature=11 4 1 1 1 9 4 2 6 2 1 1 0 1 0
split_gain=2792.38 813.118 575.388 237.687 222.681 187.035 164.338 140.486 102.409 38.4923 31.0433 45.0558 1.28666 0.924518 0.614649
threshold=0 9.5000000000000018 4668.5000000000009 5036.5000000000009 5036.5000000000009 1 12.500000000000002 1789.0000000000002 44.500000000000007 2218.5000000000005 7565.5000000000009 4826.0000000000009 61.500000000000007 30961.500000000004 62.500000000000007
decision_type=1 2 2 2 2 9 2 2 2 2 2 2 2 2 2
left_child=1 3 6 7 5 -3 9 -1 -8 -2 11 -4 -5 -12 -6
right_child=2 4 10 12 14 -7 8 -9 -10 -11 13 -13 -14 -15 -16
leaf_value=-0.016149527859511389 -0.10765843558533504 0.14344314782722195 0.32229621183527746 0.21916975810728057 0.22389456090244125 0.062454937714451722 -0.07267364425565663 0.19562170548429419 0.027740642593748796 0.08518772496168954 0.21965187153710775 -0.024821432698098563 0.16830742774134766 0.17801302047787373 0.20510383470732418
leaf_weight=892.92689329385757 1676.4290615916252 645.34196259081364 5.1267839521169689 45.151787430047989 170.2456838786602 610.40009662508965 299.7709514349699 32.46457701921463 153.60999111831188 10.414563983678816 55.208550751209259 13.817652001976965 5.5892831683158866 5.9024308770894995 19.390308514237404
leaf_count=4776 11140 2848 24 182 689 3041 1848 159 865 49 223 79 23 24 79
internal_value=-0.00108137 0.0730462 -0.0818875 0.00283471 0.120969 0.105715 -0.0921019 -0.00872017 -0.0386523 -0.106468 0.180959 0.0691163 0.213567 0.21563 0.221973
internal_weight=4641.79 2421.51 2220.28 976.133 1445.38 1255.74 2140.22 925.391 453.381 1686.84 80.0554 18.9444 50.7411 61.111 189.636
internal_count=26049 11797 14252 5140 6657 5889 13902 4935 2713 11189 350 103 205 247 768
cat_boundaries=0 1 2
cat_threshold=33 4616
is_linear=0
shrinkage=0.1


Tree=4
num_leaves=16
num_cat=2
split_feature=11 4 1 0 1 4 4 9 0 4 6 1 1 6 0
split_gain=2324.74 625.994 482.87 197.311 190.739 156.63 131.87 130.298 93.3776 88.5595 36.0176 27.0024 40.3332 1.97968 1.14771
threshold=0 9.5000000000000018 4668.5000000000009 35.500000000000007 5036.5000000000009 12.500000000000002 7.5000000000000009 1 31.500000000000004 12.500000000000002 40.500000000000007 7073.5000000000009 4826.0000000000009 35.500000000000007 61.500000000000007
decision_type=1 2 2 2 2 2 2 9 2 2 2 2 2 2 2
left_child=1 4 5 9 6 10 -1 -5 -7 -3 -2 12 -4 -13 -6
right_child=2 3 11 7 14 8 -8 -9 -10 -11 -12 13 -14 -15 -16
leaf_value=-0.077908760405274904 -0.11019973083412038 -0.0003211334270185449 0.26147351700472066 0.031491803006818815 0.19571554272720496 -0.090715339494621211 0.012541802660839263 0.14138821046692279 0.0026215324753664062 0.092969023537859186 -0.071048292846192046 0.13454405015414547 -0.069104762964567731 0.19524711352347299 0.14814245228400189
leaf_weight=208.31340998411179 1286.9557050466537 203.33241330087185 5.6529387831687954 146.91006051003933 45.478032350540161 181.94845007359982 712.45942266285419 934.12396882474422 260.85456089675426 203.69512641429901 287.45803341269493 5.9126580804586402 10.632781550288199 58.802725240588188 5.7076358795166007
leaf_count=1183 9153 995 24 733 182 1170 3752 4066 1543 863 2036 24 66 236 23
internal_value=-0.00116132 0.0646771 -0.0782876 0.105709 0.00252314 -0.0882737 -0.00792151 0.128053 -0.0357307 0.0463655 -0.103051 0.160737 0.0456423 0.189701 0.190411
internal_weight=4558.24 2460.02 2098.22 1488.06 971.959 2017.22 920.773 1081.03 442.803 407.028 1574.41 81.0011 16.2857 64.7154 51.1857
internal_count=26049 11797 14252 6657 5140 13902 4935 4799 2713 1858 11189 350 90 260 205
cat_boundaries=0 1 2
cat_threshold=33 24816
is_linear=0
shrinkage=0.1


Tree=5
num_leaves=15
num_cat=3
split_feature=7 9 1 0 1 9 1 4 0 2 1 6 0 5
split_gain=1948.58 530.072 400.134 178.977 177.177 159.192 127.105 101.953 77.6532 50.1451 28.9326 2.02245 1.2378 0.304872
threshold=0 1 7073.5000000000009 29.500000000000004 5036.5000000000009 2 5036.5000000000009 7.5000000000000009 33.500000000000007 2429.5000000000005 5036.5000000000009 35.500000000000007 61.500000000000007 65003.500000000007
decision_type=9 9 2 2 2 9 2 2 2 2 2 2 2 2
left_child=1 3 5 10 7 8 -5 -3 -2 -7 -1 -4 -6 -13
right_child=2 4 11 6 12 9 -8 -9 -10 -11 -12 13 -14 -15
leaf_value=-0.018944076096464247 -0.079595392487200656 -0.077351318852374437 0.11462145427161452 0.095518982665750929 0.18329400904787055 -0.1020853425248069 0.18566885236314901 0.0072918802430966233 0.00506277116367465 0.21691946038632581 0.19727410557036087 0.15326805769769489 0.14360735319879672 0.17925287858655314
leaf_weight=138.23668387532234 186.14479629695415 172.3868673145771 5.7101722806692115 1141.4463372677565 45.796739131212234 1445.4154168516397 181.22970215976238 815.45577535033226 259.2458112090826 4.9444367736577979 6.4787969440221778 4.9396208226680747 9.4868688285350782 52.552295580506325
leaf_count=640 1306 1056 23 4987 185 10813 730 4309 1680 23 26 20 38 213
internal_value=-0.00121913 0.0570146 -0.0757536 0.0956672 0.00224902 -0.0843924 0.107871 -0.00747907 -0.0296531 -0.100306 -0.00926416 0.171383 0.176484 0.17702
internal_weight=4469.47 2510.52 1958.95 1467.39 1043.13 1895.75 1322.68 987.843 445.391 1450.36 144.715 63.2021 55.2836 57.4919
internal_count=26049 11971 14078 6383 5588 13822 5717 5365 2986 10836 666 256 223 233
cat_boundaries=0 1 2 3
cat_threshold=4 7689 1544
is_linear=0
shrinkage=0.1


Tree=6
num_leaves=16
num_cat=1
split_feature=7 4 1 1 2 6 1 2 4 2 1 1 0 1 0
split_gain=1634.52 435.987 345.302 163.336 163.193 152.375 135.033 101.857 87.8784 42.6017 20.3551 29.7361 1.19214 0.959721 0.618828
threshold=0 9.5000000000000018 4668.5000000000009 5036.5000000000009 1789.0000000000002 44.500000000000007 5036.5000000000009 1789.0000000000002 12.500000000000002 2218.5000000000005 8296.0000000000018 4826.0000000000009 61.500000000000007 30961.500000000004 62.500000000000007
decision_type=9 2 2 2 2 2 2 2 2 2 2 2 2 2 2
left_child=1 6 5 4 -3 9 7 -1 -7 -2 11 -4 -8 -12 -5
right_child=2 3 10 14 -6 8 12 -9 -10 -11 13 -13 -14 -15 -16
leaf_value=-0.0160119665944739 -0.098507750476654693 0.062045290751225328 0.23034828167202442 0.1735473743030837 0.19067948378944516 -0.064061403059670716 0.16573879054736529 0.15563627134073424 0.03485453986497402 0.11620715702421013 0.16785968519740052 -0.04116758707318819 0.11718071739866556 0.12523993548271029 0.15471450094093192
leaf_weight=897.21460877358913 1386.7070441395044 1246.1086404323578 5.8709467500448254 168.96497994661331 107.10236041247845 230.17870709300041 43.760427445173264 35.956518232822418 147.28550924360752 9.3026445806026441 52.417662113904953 12.88876551389694 5.7164329737424842 5.8757756054401389 19.456782221794128
leaf_count=4877 11018 5509 24 694 443 1815 183 163 854 47 218 78 23 24 79
internal_value=-0.00126913 0.0509903 -0.0724396 0.0843723 0.0722263 -0.0818351 -0.000862339 -0.0093981 -0.0254647 -0.0970769 0.134407 0.0438047 0.160129 0.163564 0.171603
internal_weight=4374.81 2524.28 1850.53 1541.63 1353.21 1773.47 982.648 933.171 377.464 1396.01 77.0531 18.7597 49.4769 58.2934 188.422
internal_count=26049 11971 14078 6725 5952 13734 5246 5040 2669 11065 344 102 206 242 773
cat_boundaries=0 1
cat_threshold=4
is_linear=0
shrinkage=0.1


Tree=7
num_leaves=16
num_cat=3
split_feature=7 9 1 1 4 9 0 0 1 6 1 1 6 0 1
split_gain=1375.64 383.587 295.694 207.023 150.1 130.782 86.7615 77.437 51.4225 33.481 17.9754 23.6584 6.442 2.08156 0.91881
threshold=0 1 4668.5000000000009 5036.5000000000009 12.500000000000002 2 27.500000000000004 26.500000000000004 5036.5000000000009 40.500000000000007 8296.0000000000018 4826.0000000000009 43.500000000000007 61.500000000000007 30961.500000000004
decision_type=9 9 2 2 2 9 2 2 2 2 2 2 2 2 2
left_child=1 7 4 5 9 -3 -6 12 -9 -2 11 -4 -1 -5 -12
right_child=2 3 10 13 6 -7 -8 8 -10 -11 14 -13 -14 -15 -16
leaf_value=-0.096175131154824942 -0.10309956745210819 0.026555568502403648 0.20378606224158965 0.15949140571472017 -0.10345306927009518 -0.036318630130684891 0.0026410312451887238 0.092546792835787844 0.16093113852038629 -0.061867014250567648 0.15739625688764891 -0.037833734008803799 0.001455703778729289 0.11756842828938203 0.11521843568057917
leaf_weight=19.30125313997269 1028.6829322576523 999.59655964374542 5.9657750576734569 87.549163743853569 104.22317255288363 482.4739687666297 295.97623138129711 789.41593490540981 127.75708885490894 243.56077463179827 50.413557171821594 12.635807871818541 10.400097042322157 13.696518883109091 5.7543778866529456
leaf_count=87 9037 4920 24 376 798 2649 1887 3294 543 2012 218 78 46 56 24
internal_value=-0.00128937 0.0457741 -0.0693087 0.0153755 -0.0784037 0.0060216 -0.0249889 0.0959132 0.102072 -0.0952059 0.124858 0.0396569 -0.0619891 0.15382 0.153075
internal_weight=4277.4 2530.19 1747.21 1583.32 1672.44 1482.07 400.199 946.874 917.173 1272.24 74.7695 18.6016 29.7014 101.246 56.1679
internal_count=26049 11971 14078 8001 13734 7569 2685 3970 3837 11049 344 102 133 432 242
cat_boundaries=0 1 2 3
cat_threshold=4 4616 11269
is_linear=0
shrinkage=0.1


Tree=8
num_leaves=16
num_cat=3
split_feature=7 4 1 0 9 6 0 1 6 6 1 12 1 1 1
split_gain=1159.97 335.363 253.889 188.44 149.169 140.365 65.7077 65.1207 59.5584 46.4956 38.6531 26.1517 16.0461 19.3203 0.907021
threshold=0 12.500000000000002 4668.5000000000009 35.500000000000007 1 34.500000000000007 27.500000000000004 5036.5000000000009 31.500000000000004 40.500000000000007 5036.5000000000009 2 8296.0000000000018 4826.0000000000009 30961.500000000004
decision_type=9 2 2 2 9 2 2 2 2 2 2 1 2 2 2
left_child=1 3 4 7 6 -5 -2 -1 11 -6 -10 -3 13 -4 -14
right_child=2 8 12 5 9 -7 -8 -9 10 -11 -12 -13 14 -15 -16
leaf_value=-0.041748686735409817 -0.095944622864855708 -0.033577998450728397 0.18483596317488962 -0.063822189352369843 -0.10339105546690733 0.049737035264628304 0.0013628917896836481 0.15302150188555938 0.090517119321497932 -0.053890092249258947 0.15258050510381307 0.10300896024546431 0.14905515760671209 -0.034725817304808552 0.10655461692093936
leaf_weight=498.5393859744072 89.532482206821442 51.19566510617733 5.9210243225097683 121.75714258849621 943.11271141469479 1026.4962727129459 308.51880782842636 17.778367057442665 676.1328266710043 237.54467137902975 117.83814099431038 19.303270250558853 48.033076092600822 12.402721121907232 5.6076776385307303
leaf_count=2594 769 217 24 623 8833 5091 2181 79 2764 1951 521 82 218 78 24
internal_value=-0.00129617 0.0412132 -0.0662741 0.0151337 -0.0750489 0.0376956 -0.0200212 -0.0350422 0.0919069 -0.0926469 0.0997283 0.00382079 0.117014 0.036222 0.144612
internal_weight=4179.71 2529.04 1650.67 1664.57 1578.71 1148.25 398.051 516.318 864.47 1180.66 793.971 70.4989 71.9645 18.3237 53.6408
internal_count=26049 11971 14078 8387 13734 5714 2950 2673 3584 10784 3285 299 344 102 242
cat_boundaries=0 1 2 3
cat_threshold=4 1544 2
is_linear=0
shrinkage=0.1


Tree=9
num_leaves=15
num_cat=2
split_feature=7 9 1 4 1 2 1 4 0 6 6 0 0 4
split_gain=978.077 279.44 219.507 146.495 116.353 126.7 101.455 77.9263 76.1809 34.2857 2.19722 1.41671 0.512111 0.285736
threshold=0 1 7073.5000000000009 12.500000000000002 5036.5000000000009 1789.0000000000002 5036.5000000000009 7.5000000000000009 27.500000000000004 40.500000000000007 35.500000000000007 61.500000000000007 68.500000000000014 10.500000000000002
decision_type=9 9 2 2 2 2 2 2 2 2 2 2 2 2
left_child=1 4 3 9 5 -1 7 -3 -5 -2 -4 -8 -6 -12
right_child=2 6 10 8 12 -7 11 -9 -10 -11 13 -13 -14 -15
leaf_value=0.046322421118503078 -0.098081430799044966 -0.072808042658167565 0.072511119111324587 -0.09799079165315322 0.14597716198376512 0.16037639463437797 0.14592020955783022 0.0027198566226242114 0.0064756855386204461 -0.054580494293970376 0.12878331807456836 0.10224375181189316 0.11456153139223589 0.145448881365423
leaf_weight=1218.2825916856527 890.15525209158659 163.56507451832294 5.2719315439462653 91.154589913785458 157.77347521483898 105.86248095333576 39.802343741059303 828.8054331317544 298.05723249912262 227.48476630449295 14.692308336496351 9.1300694048404676 5.3653201907873145 34.318290293216705
leaf_count=5189 9069 1056 23 802 732 438 185 4309 1924 2027 69 38 24 164
internal_value=-0.00129977 0.0370854 -0.0633047 -0.0708272 0.0648225 0.0554408 -0.002771 -0.00972885 -0.0179907 -0.0892272 0.133854 0.137771 0.144944 0.140453
internal_weight=4089.72 2528.59 1561.13 1506.85 1487.28 1324.15 1041.3 992.371 389.212 1117.64 54.2825 48.9324 163.139 49.0106
internal_count=26049 11971 14078 13822 6383 5627 5588 5365 2726 11096 256 223 756 233
cat_boundaries=0 1 2
cat_threshold=4 7689
is_linear=0
shrinkage=0.1


Tree=10
num_leaves=16
num_cat=3
split_feature=11 4 1 0 6 4 4 6 1 9 1 12 1 1 1
split_gain=827.532 247.029 197.138 141.472 140.804 109.721 56.9948 47.6335 46.6981 45.0564 34.7419 20.5281 10.0576 13.2671 1.01869
threshold=0 12.500000000000002 4668.5000000000009 35.500000000000007 44.500000000000007 7.5000000000000009 12.500000000000002 31.500000000000004 5036.5000000000009 1 5036.5000000000009 2 8296.0000000000018 4826.0000000000009 30961.500000000004
decision_type=1 2 2 2 2 2 2 2 2 9 2 1 2 2 2
left_child=1 3 4 8 9 -5 -6 11 -1 -2 -9 -3 13 -4 -14
right_child=2 7 12 5 6 -7 -8 10 -10 -11 -12 -13 14 -15 -16
leaf_value=-0.038652816126642432 -0.041498260409169013 -0.034233343967710474 0.17225699375836531 -0.050321665129403927 -0.047331939811100891 0.042518595500280656 0.034740034533166118 0.076817896489584384 0.13901522472903149 -0.096594028895321926 0.1385939840011931 0.088414003281921533 0.13702895901151368 -0.0093803329232271648 0.090219023012895277
leaf_weight=478.82580780982971 243.81903909891844 50.755239382386208 5.7835026085376766 145.70558850467205 198.22926776111126 1007.5804848670959 147.63166518509388 670.60518695414066 15.265459686517714 845.8674885109067 105.33545897901058 18.665553614497185 42.811854735016823 13.197666540741919 5.2154346853494635
leaf_count=2498 2068 216 24 898 1838 4771 865 2739 76 9131 520 79 218 84 24
internal_value=-0.00127653 0.0340223 -0.0596666 0.0116081 -0.0678895 0.0307892 -0.0122993 0.078104 -0.0331636 -0.0855335 0.0852041 -0.00125647 0.10759 0.045964 0.131946
internal_weight=3995.29 2492.74 1502.56 1647.38 1435.55 1153.29 345.861 845.361 494.091 1089.69 775.941 69.4208 67.0085 18.9812 48.0273
internal_count=26049 11797 14252 8243 13902 5669 2703 3554 2574 11199 3259 295 350 108 242
cat_boundaries=0 1 2 3
cat_threshold=33 1544 2
is_linear=0
shrinkage=0.1


Tree=11
num_leaves=16
num_cat=2
split_feature=7 1 2 4 9 2 0 1 6 0 1 1 0 4 6
split_gain=701.85 218.9 199.672 169.319 168.972 101.789 77.5217 70.1457 55.1881 36.4845 7.57522 1.51414 1.5141 1.65228 0.0928735
threshold=0 5036.5000000000009 1789.0000000000002 12.500000000000002 1 2001.5000000000002 27.500000000000004 8296.0000000000018 49.500000000000007 35.500000000000007 6808.0000000000009 22587.500000000004 61.500000000000007 11.500000000000002 31.500000000000004
decision_type=9 2 2 2 9 2 2 2 2 2 2 2 2 2 2
left_child=1 2 4 7 -1 -4 10 9 -8 -2 -5 -9 14 -14 -3
right_child=3 12 5 6 -6 -7 8 11 -10 -11 -12 -13 13 -15 -16
leaf_value=-0.039227906488918822 -0.099426997025694519 0.14957613177179238 0.18408781212753914 -0.094160400420974483 0.028770833024993711 -0.015204023308282572 -0.010010131151766029 0.13309635535618872 0.07848164323860124 -0.059925859697115239 0.09766079479888129 0.061924276014990356 0.07936422210061686 0.13334121551712896 0.13599339525653945
leaf_weight=454.91074995696545 592.80380489677191 5.1936900168657294 108.30519244074821 81.672113813459873 1717.7654542177916 33.572704464197159 217.48527157306671 13.770027950406076 104.26142105460167 386.12732657790184 2.1119800955057135 3.8179350942373267 10.32410177588463 12.583077415823935 163.77545136213303
leaf_count=2571 6841 25 461 800 7815 145 1503 74 567 4262 12 19 45 62 847
internal_value=-0.00129042 0.0303785 0.0219908 -0.0577097 0.0144853 0.136929 -0.00364576 -0.08029 0.0186655 -0.0838463 -0.0893251 0.117647 0.13314 0.109014 0.136411
internal_weight=3908.48 2506.43 2314.55 1402.05 2172.68 141.878 405.531 996.519 321.747 978.931 83.7841 17.588 191.876 22.9072 168.969
internal_count=26049 11971 10992 14078 10386 606 2882 11196 2070 11103 812 93 979 107 872
cat_boundaries=0 1 2
cat_threshold=4 16624
is_linear=0
shrinkage=0.1


Tree=12
num_leaves=15
num_cat=2
split_feature=0 9 11 1 2 1 1 0 1 6 1 2 1 1
split_gain=593.153 334.534 141.082 138.224 133.189 62.1109 37.8181 35.8654 24.4717 17.2373 6.91699 6.2077 2.4089 0.52266
threshold=28.500000000000004 0 1 5036.5000000000009 1748.0000000000002 4243.5000000000009 7565.5000000000009 24.500000000000004 5036.5000000000009 41.500000000000007 7073.5000000000009 1990.5000000000002 7073.5000000000009 7565.5000000000009
decision_type=2 9 1 2 2 2 2 2 2 2 2 2 2 2
left_child=7 3 5 4 -2 -3 -4 10 9 -9 11 -1 -5 -10
right_child=1 2 6 12 -6 -7 -8 8 13 -11 -12 -13 -14 -15
leaf_value=-0.10581750528787962 0.026404923476726461 -0.0083904087226941912 -0.084494572192756634 0.084936539803778424 0.13471078682900642 0.12037152724694962 0.12440791236153799 -0.079719144997066504 0.080607770525911823 -0.030522071366170564 0.058457175325220018 0.07614002641522126 0.12935037650392436 0.13120907530803405
leaf_weight=383.50931491702795 1743.4834619164467 663.29595107585192 355.95406924933195 13.198440819978712 121.45355196297169 39.704651385545731 8.882113039493559 214.1430591121316 3.5312178656458837 106.7050441429019 2.6086870282888404 1.8841645494103421 163.36859679222107 4.8377389013767242
leaf_count=4386 9529 3508 4118 76 560 206 48 1916 21 727 14 13 900 27
internal_value=-0.00125479 0.0176543 -0.0276083 0.0412626 0.0334583 -0.0011024 -0.0772902 -0.0832309 -0.0589543 -0.0633576 -0.103829 -0.104928 0.12603 0.109858
internal_weight=3826.56 3109.34 1067.84 2041.5 1864.94 703.001 364.836 717.219 329.217 320.848 388.002 385.393 176.567 8.36896
internal_count=26049 18945 7880 11065 10089 3714 4166 7104 2691 2643 4413 4399 976 48
cat_boundaries=0 1 2
cat_threshold=7692 33
is_linear=0
shrinkage=0.1


Tree=13
num_leaves=16
num_cat=2
split_feature=7 4 9 1 2 1 6 0 4 6 1 0 1 0 0
split_gain=527.878 186.056 143.571 86.6691 78.1684 69.1738 67.8825 64.9616 54.8462 50.0988 36.7212 21.6397 10.5083 0.882096 0.843153
threshold=0 9.5000000000000018 1 5036.5000000000009 1789.0000000000002 8296.0000000000018 39.500000000000007 35.500000000000007 14.500000000000002 40.500000000000007 7073.5000000000009 31.500000000000004 4243.5000000000009 62.500000000000007 30.500000000000004
decision_type=9 2 9 2 2 2 2 2 2 2 2 2 2 2 2
left_child=1 6 8 4 -3 9 12 -8 10 -4 -2 -10 -1 -5 -7
right_child=2 3 5 13 -6 14 7 -9 11 -11 -12 -13 -14 -15 -16
leaf_value=-0.078857548152373974 -0.021603298251451054 0.033829952784385657 -0.093479906545549718 0.12814883643709016 0.12674944576670774 0.073350038107262969 -0.039840055741018898 0.020887715757970896 -0.034764824308149055 -0.0365207106628909 0.12339683737883825 0.15511481163758237 0.070104825359918826 0.10230145040896517 0.12815308319251092
leaf_weight=132.11897564679384 340.6320233643055 1274.9849559813738 667.32174290716648 117.21562737226486 97.455355748534203 3.4782691895961788 253.03405138105154 579.72571704536676 7.6030069142580023 200.90927496552467 18.409398764371872 28.502302527427673 4.9117200225591651 14.879329800605772 14.554315134882925
leaf_count=743 2812 5509 8874 694 443 20 1466 3011 51 1970 110 155 26 79 86
internal_value=-0.00121046 0.0257544 -0.0530649 0.0478741 0.0404281 -0.0754222 -0.00829663 0.00243558 -0.00229621 -0.0802995 -0.0141686 0.11513 -0.0735181 0.125237 0.117582
internal_weight=3755.74 2474.33 1281.41 1504.54 1372.44 886.264 969.79 832.76 395.147 868.231 359.041 36.1053 137.031 132.095 18.0326
internal_count=26049 11971 14078 6725 5952 10950 5246 4477 3128 10844 2922 206 769 773 106
cat_boundaries=0 1 2
cat_threshold=4 1544
is_linear=0
shrinkage=0.1


Tree=14
num_leaves=14
num_cat=3
split_feature=0 9 1 6 11 9 1 0 1 6 2 1 1
split_gain=471.816 258.074 129.952 106.936 102.685 43.8409 28.773 19.4188 11.1326 9.54695 7.54649 5.53319 2.79483
threshold=27.500000000000004 0 5036.5000000000009 34.500000000000007 1 2 8296.0000000000018 24.500000000000004 5036.5000000000009 41.500000000000007 2190.0000000000005 7073.5000000000009 7073.5000000000009
decision_type=2 9 2 2 1 9 2 2 2 2 2 2 2
left_child=7 2 3 -2 5 -3 -6 10 9 -9 11 -1 -4
right_child=1 4 12 -5 6 -7 -8 8 -10 -11 -12 -13 -14
leaf_value=-0.10310739988385383 -0.054273954137755848 0.015338019393446324 0.075867093304153005 0.031797585480735108 -0.084065705157956278 -0.040439001343468818 0.12560093260196789 -0.080876752450936423 0.098171680701385655 -0.036050063183621188 0.12584000759588179 0.048343458167792751 0.12141627178199693
leaf_weight=334.31351806223392 156.1194167509675 359.69992892444134 14.791475802659987 1914.0784927383065 304.08149799704552 218.33553742617369 6.6892299503087989 142.47539286315441 4.2155912369489661 71.280175790190697 1.4598500132560719 2.4298390150070182 150.87622129917145
leaf_count=4391 965 1840 91 10488 4028 1240 42 1452 27 515 8 14 948
internal_value=-0.00116896 0.0139359 0.0319836 0.0253067 -0.0314705 -0.00605949 -0.0770727 -0.0860302 -0.0627549 -0.0659286 -0.101031 -0.102015 0.117349
internal_weight=3680.85 3124.67 2235.87 2070.2 888.806 578.035 310.771 556.174 217.971 213.756 338.203 336.743 165.668
internal_count=26049 19642 12492 11453 7150 3080 4070 6407 1994 1967 4413 4405 1039
cat_boundaries=0 1 2 3
cat_threshold=15884 33 16449
is_linear=0
shrinkage=0.1


Tree=15
num_leaves=15
num_cat=4
split_feature=0 9 1 2 7 0 9 1 1 7 2 1 1 1
split_gain=412.667 200.482 108.862 100.116 84.5355 47.3113 40.7285 23.8456 22.0723 16.8858 6.99652 5.00257 2.59863 0.00030941
threshold=29.500000000000004 0 5036.5000000000009 1748.0000000000002 1 24.500000000000004 2 8296.0000000000018 7073.5000000000009 3 2218.5000000000005 7073.5000000000009 7073.5000000000009 8296.0000000000018
decision_type=2 9 2 2 9 2 9 2 2 9 2 2 2 2
left_child=5 4 3 -3 6 10 -2 -6 9 -7 11 -1 -4 -10
right_child=1 2 12 -5 7 8 -8 -9 13 -11 -12 -13 -14 -15
leaf_value=-0.10120994400238661 0.016697057658113575 0.019575777566468274 0.072315746079607432 0.11310416736330087 -0.080448731989179512 -0.026851560035238028 -0.038526148353817805 0.12271784901069199 0.12369866719221123 -0.073587059373489791 0.12053412104943391 0.044734007832333084 0.11802313444944308 0.12240254463058611
leaf_weight=307.97341323643923 344.99090774357319 1842.8096903599799 13.690426431596277 122.02944332361221 252.86134637147188 212.978644490242 204.39541479945183 5.9120996594429007 3.2349742203950873 168.63249933719635 1.4439914375543583 2.3667144030332556 136.03120300173759 4.276693120598793
leaf_count=4392 1754 10095 86 589 3607 1153 1186 40 21 2155 7 14 921 29
internal_value=-0.00113886 0.015387 0.0314989 0.0253845 -0.0268277 -0.0700503 -0.00416979 -0.0729866 -0.0467943 -0.0501358 -0.0990751 -0.100097 0.113844 0.122961
internal_weight=3623.63 2922.72 2114.56 1964.84 808.16 700.907 549.386 258.773 389.123 381.611 311.784 310.34 149.722 7.51167
internal_count=26049 18278 11691 10684 6587 7771 2940 3647 3358 3308 4413 4406 1007 50
cat_boundaries=0 1 2 3 4
cat_threshold=16881 4 16449 12
is_linear=0
shrinkage=0.1


Tree=16
num_leaves=15
num_cat=3
split_feature=0 3 7 4 1 2 1 6 2 7 0 1 4 5
split_gain=355.941 196.206 137.169 77.4926 59.3149 52.619 28.0467 20.6144 10.4668 7.84074 6.78457 6.32421 5.84836 0.0819326
threshold=27.500000000000004 0 1 8.5000000000000018 7073.5000000000009 1881.5000000000002 4668.5000000000009 41.500000000000007 1881.5000000000002 2 24.500000000000004 9474.0000000000018 10.500000000000002 288535.00000000006
decision_type=2 9 9 2 2 2 2 2 2 9 2 2 2 2
left_child=7 4 3 -3 5 -2 -4 8 10 12 -1 -11 -9 -6
right_child=1 2 6 -5 13 -7 -8 9 -10 11 -12 -13 -14 -15
leaf_value=-0.10378731495559523 0.031012916742430244 -0.052885548623213902 -0.061992888712609752 0.015871465870920171 0.12029688870902384 0.12213502966467574 0.072221382164867551 -0.031007488007354041 0.056935409188104441 -0.080318942815250025 -0.075327402898843598 0.12220040241432023 0.038905239305560065 0.11203450967193146
leaf_weight=238.22214175015688 1050.7289741300046 189.39893135428429 439.64742488786578 1218.3918205574155 80.271039806306362 67.439064033329487 16.141477562487125 37.857829466462135 4.6663623601198188 59.868080019950867 129.18895677477121 1.5827254652976979 17.494509801268578 14.111738473176954
leaf_count=3866 5363 1212 6015 5879 594 355 118 235 32 736 1449 11 78 106
internal_value=-0.00112383 0.0114729 -0.00894974 0.00657445 0.0425833 0.0365087 -0.0560109 -0.0803849 -0.0918901 -0.0437349 -0.0937803 -0.0645917 -0.00754752 0.119062
internal_weight=3565.01 3076.13 1863.58 1407.79 1212.55 1118.17 455.789 488.881 372.077 116.803 367.411 61.4508 55.3523 94.3828
internal_count=26049 19642 13224 7091 6418 5718 6133 6407 5347 1060 5315 747 313 700
cat_boundaries=0 1 2 3
cat_threshold=22272 4 36
is_linear=0
shrinkage=0.1


Tree=17
num_leaves=16
num_cat=5
split_feature=7 9 6 1 4 0 0 9 4 13 12 4 2 0 0
split_gain=309.994 136.635 116.902 84.1549 62.4052 47.6062 37.9506 37.8734 33.7561 35.5343 32.9427 20.2789 11.4024 11.257 3.18009
threshold=0 1 43.500000000000007 5036.5000000000009 8.5000000000000018 33.500000000000007 37.500000000000007 2 13.500000000000002 3 4 10.500000000000002 2218.5000000000005 32.500000000000007 61.500000000000007
decision_type=9 9 2 2 2 2 2 9 2 9 1 2 2 2 2
left_child=1 8 5 4 -3 12 11 -7 9 -1 -8 -4 -2 -10 -5
right_child=2 3 6 14 -6 7 10 -9 13 -11 -12 -13 -14 -15 -16
leaf_value=-0.013056707385073838 -0.094412044049872371 -0.059585361307201629 -0.065015302054162366 0.12237002136703104 0.0036504690403138793 -0.0035408286536228769 0.080465609979918182 -0.067657216530916386 0.017491135263128184 0.049246633271134509 -0.010410656026414394 0.0043942597777833691 0.13302420546383995 0.089695983665016216 0.062450150139744753
leaf_weight=112.03239397704601 364.16836958006024 177.26295791566372 80.924441576004028 54.144947215914726 1304.774049565196 162.8619317188859 87.401371158659458 231.06842122599483 23.950908996164799 515.04479330778122 73.379360862076283 87.719662114977837 2.2177526354789725 219.22111658006907 10.589509248733519
leaf_count=491 6339 1246 1039 376 6323 1308 663 3508 106 2316 559 649 13 1057 56
internal_value=-0.00107866 0.0188846 -0.045116 0.000955692 -0.00391302 -0.0670891 0.00422862 -0.0429571 0.0503784 0.0386928 0.0389902 -0.0289122 -0.0930354 0.0825843 0.112568
internal_weight=3506.76 2417.02 1089.74 1546.77 1482.04 760.316 329.425 393.93 870.249 627.077 160.781 168.644 366.386 243.172 64.7345
internal_count=26049 11971 14078 8001 7569 11168 2910 4816 3970 2807 1222 1688 6352 1163 432
cat_boundaries=0 1 2 3 4 5
cat_threshold=4 4616 5640 34 2
is_linear=0
shrinkage=0.1


Tree=18
num_leaves=15
num_cat=3
split_feature=0 6 7 1 13 0 4 1 4 1 7 2 6 6
split_gain=281.631 148.378 96.6639 67.1138 55.9402 41.9937 36.6389 33.861 26.5481 17.0364 11.9629 5.24831 4.98523 0.000396906
threshold=29.500000000000004 41.500000000000007 0 5036.5000000000009 1 24.500000000000004 9.5000000000000018 4668.5000000000009 14.500000000000002 7073.5000000000009 2 2218.5000000000005 43.500000000000007 41.500000000000007
decision_type=2 2 9 2 9 2 2 2 2 2 9 2 2 2
left_child=5 2 3 -2 8 11 -6 -4 -3 10 -7 12 -1 -11
right_child=1 4 7 -5 6 9 -8 -9 -10 13 -12 -13 -14 -15
leaf_value=-0.10185707852683666 0.0028567215922639506 -0.012894172264447949 -0.052912889746565051 0.1112290523145279 0.021395590574939991 -0.024344973811419764 0.066280597798217655 0.079487959624230942 0.1090730230738783 0.11958732858692381 -0.0660178330368313 0.088677796805204601 -0.063834500268027922 0.11802165263987102
leaf_weight=206.55863298103213 1230.4617603197694 220.55927667021751 422.79389864206314 59.92770180106163 259.42936357483268 208.07129314914346 608.24172340333462 20.240787886083126 19.417369395494461 3.6221191212534896 142.86776987463236 1.556745409965514 41.392900120466948 2.9279875159263611
leaf_count=3907 5925 1176 5603 445 1686 1153 3201 144 98 27 2155 7 499 23
internal_value=-0.00104645 0.0121636 -0.00610443 0.00782903 0.0407524 -0.0628766 0.0522579 -0.0458295 -0.00290434 -0.0409025 -0.0438849 -0.0943604 -0.0955096 0.118887
internal_weight=3448.07 2841.07 1733.42 1290.39 1107.65 606.997 867.671 443.035 239.977 357.489 350.939 249.508 247.952 6.55011
internal_count=26049 18278 12117 6370 6161 7771 4887 5747 1274 3358 3308 4413 4406 50
cat_boundaries=0 1 2 3
cat_threshold=4 34 12
is_linear=0
shrinkage=0.1


Tree=19
num_leaves=16
num_cat=5
split_feature=0 6 9 0 12 7 6 11 1 1 9 6 0 2 0
split_gain=247.236 131.413 92.8398 70.9995 51.0022 50.0882 39.6663 29.2426 25.8922 24.8508 9.89093 8.61296 8.36543 6.42273 3.88204
threshold=33.500000000000007 34.500000000000007 0 25.500000000000004 1 2 48.500000000000007 3 4243.5000000000009 5036.5000000000009 4 43.500000000000007 52.500000000000007 1975.5000000000002 23.500000000000004
decision_type=2 2 9 2 1 9 2 1 2 2 9 2 2 2 2
left_child=3 7 4 11 -3 -4 9 12 -9 -5 -8 13 -2 -1 -13
right_child=1 2 5 6 -6 -7 10 8 -10 -11 -12 14 -14 -15 -16
leaf_value=-0.095432825217763209 0.051659850347817483 0.060346681727749554 0.0158660670257517 -0.044584221003358182 0.0033184283021227782 -0.03285935630022787 0.044482200374371943 -0.0774978911616101 0.10533140659477323 0.10539411592149961 -0.0034131195210859062 -0.077702861772350737 -0.052470173850225704 0.082928316819388601 -0.024416087631777522
leaf_weight=231.82020105049014 33.616128109395504 726.50952780991793 1009.9394528716803 475.80993281677365 199.99278938770294 256.44485205039382 56.072939775884151 196.65050781518221 8.0636094361543638 11.310595765709875 126.7964525744319 26.141647774726152 10.013028189539908 2.0366582572460166 28.660780381411314
leaf_count=4455 171 3603 5059 4163 1331 3573 332 1676 51 93 847 362 51 14 268
internal_value=-0.00102383 0.0158747 0.0236826 -0.0440566 0.0475237 0.00581895 -0.0261935 -0.0530694 -0.0670224 -0.0411018 0.0135188 -0.0855175 0.0225851 -0.0938795 -0.0498347
internal_weight=3399.88 2441.23 2192.89 958.649 926.502 1266.38 669.99 248.343 204.714 487.121 182.869 288.659 43.6292 233.857 54.8024
internal_count=26049 15515 13566 10534 4934 8632 5435 1949 1727 4256 1179 5099 222 4469 630
cat_boundaries=0 1 2 3 4 5
cat_threshold=5640 2 4 32 9224
is_linear=0
shrinkage=0.1


Tree=20
num_leaves=15
num_cat=1
split_feature=0 1 2 9 2 0 6 1 2 4 6 0 5 5
split_gain=212.639 138.817 125.872 106.443 46.7793 21.2011 10.2228 6.2586 4.58696 4.01728 2.6563 1.49836 2.90544 0.326136
threshold=27.500000000000004 7073.5000000000009 1748.0000000000002 0 1978.5000000000002 23.500000000000004 41.500000000000007 2985.0000000000005 2218.5000000000005 8.5000000000000018 45.500000000000007 61.500000000000007 239166.00000000003 32875.500000000007
decision_type=2 2 2 9 2 2 2 2 2 2 2 2 2 2
left_child=5 2 3 -2 -4 8 7 -7 10 -8 -1 13 -13 -3
right_child=1 11 4 -5 -6 6 9 -9 -10 -11 -12 12 -14 -15
leaf_value=-0.10270225838357497 -0.040814411012792373 0.085012982246494298 0.13739759263867254 0.008642163737958234 0.015490100841040466 -0.070121970523504593 -0.11317293789490185 0.039925777488687926 0.071480490308667308 -0.015181944935358047 -0.063251257365831204 0.10111579789360886 -0.009121345734267863 0.11422907446527426
leaf_weight=151.05528635531664 534.22860364243388 3.9577688798308364 92.487017057836056 2162.230202358216 47.716888517141342 134.38630533218384 4.4352192468941203 5.3745888881385318 1.6073543429374684 73.771168056875467 19.241105079650879 12.518261052668093 2.9553008228540412 110.40892687439919
leaf_count=3487 4892 30 494 12903 248 1913 50 43 7 622 285 91 20 964
internal_value=-0.00096902 0.00815581 0.00352775 -0.0012756 0.0959077 -0.0703993 -0.04969 -0.06589 -0.0966579 -0.0207392 -0.0982448 0.109267 0.0800616 0.113218
internal_weight=3356.37 2966.5 2836.66 2696.46 140.204 389.871 217.967 139.761 171.904 78.2064 170.296 129.84 15.4736 114.367
internal_count=26049 19642 18537 17795 742 6407 2628 1956 3779 672 3772 1105 111 994
cat_boundaries=0 1
cat_threshold=16880
is_linear=0
shrinkage=0.1


Tree=21
num_leaves=16
num_cat=3
split_feature=11 1 9 6 0 0 12 6 1 6 2 4 0 5 1
split_gain=199.81 122.337 100.829 64.4514 44.9755 33.1613 24.1163 9.87024 9.36429 9.00323 7.17309 3.36498 2.44397 2.72614 1.52413
threshold=0 5036.5000000000009 1 39.500000000000007 36.500000000000007 41.500000000000007 2 42.500000000000007 4243.5000000000009 49.500000000000007 2218.5000000000005 9.5000000000000018 61.500000000000007 257042.50000000003 7073.5000000000009
decision_type=1 2 9 2 2 2 1 2 2 2 2 2 2 2 2
left_child=1 2 4 -4 -1 8 7 -7 10 -8 -2 -10 14 -14 -3
right_child=5 12 3 -5 -6 6 9 -9 11 -11 -12 -13 13 -15 -16
leaf_value=-0.0013137329912078295 -0.085523457861777272 0.075569519188918882 -0.057595877096693608 -0.0028588944939651004 0.042222545925470936 -0.00058521896639164854 -0.06292606117289655 0.10007142211682461 -0.066120607671218259 0.024467283272801142 0.09973634037615467 0.076680664670338156 0.085747088901038937 -0.020583142016605313 0.1126531834173332
leaf_weight=350.74133940413594 303.93905567005277 12.454744711518286 254.24388475343585 1397.7266565337777 733.56358656659722 22.228118624538183 78.404945679008961 17.342605739831924 2.4699176289141169 13.87396679073572 2.1044599860906592 4.9716280922293663 15.635130606591703 2.8508635684847823 100.62755323946476
leaf_count=2139 5967 92 2307 9262 3549 306 1039 130 19 103 12 38 113 19 954
internal_value=-0.000907252 0.00883717 0.00433903 -0.0112152 0.0278827 -0.0624549 -0.0217806 0.0435294 -0.0815545 -0.0497866 -0.0842495 0.0292836 0.103058 0.0693491 0.108569
internal_weight=3313.18 2867.84 2736.28 1651.97 1084.3 445.335 131.85 39.5707 313.485 92.2789 306.044 7.44155 131.568 18.486 113.082
internal_count=26049 18435 17257 11569 5688 7614 1578 436 6036 1142 5979 57 1178 132 1046
cat_boundaries=0 1 2 3
cat_threshold=35 5640 2
is_linear=0
shrinkage=0.1


Tree=22
num_leaves=16
num_cat=4
split_feature=11 1 2 3 2 0 12 1 1 9 2 6 0 1 1
split_gain=171.282 108.685 98.5534 85.5946 48.7614 31.1248 20.0458 8.70279 8.45238 8.03835 6.21661 3.02366 2.56181 2.50787 1.74913
threshold=0 5036.5000000000009 1789.0000000000002 1 1978.5000000000002 41.500000000000007 2 4668.5000000000009 4243.5000000000009 3 2218.5000000000005 44.500000000000007 61.500000000000007 10585.500000000002 7073.5000000000009
decision_type=1 2 2 9 2 2 1 2 2 9 2 2 2 2 2
left_child=1 2 3 -1 -4 8 9 -8 10 -7 -2 -10 14 -14 -3
right_child=5 12 4 -5 -6 6 7 -9 11 -11 -12 -13 13 -15 -16
leaf_value=0.022713072444009524 -0.083113772100080793 0.070456874246676876 0.12953973462276736 -0.014597889107104807 0.0024015593546447985 0.059800113146016888 -0.053846521650464753 0.089257841911706992 -0.019229963887780529 -0.022968178143391232 0.085534686086079031 0.11601937365772781 0.030114820753280376 0.10547709697251145 0.11097318978447115
leaf_weight=981.08041166886687 282.58578303456306 12.0447601377964 90.22918339073658 1609.7244695499539 45.317520879209042 25.414946023374796 84.419757582247257 4.474911890923976 4.8779807202517977 14.868460118770598 2.2027273476123801 2.5001704394817352 9.4840733036398905 8.2626810371875745 92.359398327767849
leaf_count=5169 5967 92 500 11354 234 212 1112 30 37 224 12 20 60 72 954
internal_value=-0.000851276 0.00801756 0.0039111 -0.000437732 0.0870334 -0.0595852 -0.0201246 -0.0466427 -0.0790716 0.0383938 -0.0818093 0.0266008 0.100328 0.0652026 0.106299
internal_weight=3269.85 2848.5 2726.35 2590.8 135.547 421.345 129.178 88.8947 292.167 40.2834 284.789 7.37815 122.151 17.7468 104.404
internal_count=26049 18435 17257 16523 734 7614 1578 1142 6036 436 5979 57 1178 132 1046
cat_boundaries=0 1 2 3 4
cat_threshold=35 22272 2 2572
is_linear=0
shrinkage=0.1


Tree=23
num_leaves=16
num_cat=4
split_feature=0 6 4 7 2 7 6 11 4 4 6 0 2 0 13
split_gain=159.013 94.422 64.3359 55.7658 36.6464 36.404 26.4462 24.5331 24.0458 20.6255 16.0557 10.6981 9.7168 6.8253 6.72656
threshold=33.500000000000007 34.500000000000007 9.5000000000000018 0 1881.5000000000002 1 40.500000000000007 2 12.500000000000002 14.500000000000002 48.500000000000007 25.500000000000004 2218.5000000000005 52.500000000000007 3
decision_type=2 2 2 9 2 9 2 1 2 2 2 2 2 2 9
left_child=3 7 5 8 -4 -3 12 13 10 -9 -1 -8 -5 -2 -10
right_child=1 2 4 6 -6 -7 11 9 14 -11 -12 -13 -14 -15 -16
leaf_value=-0.041283753069251902 0.048830368671958363 0.0067621375014123401 0.02907517432354231 -0.088609300974978322 0.10696527440968553 -0.048345128122235785 -0.080635529803271599 -0.073719872778533854 -0.02417022820363398 0.059772900774896422 0.008517793574356369 -0.011531081221788135 0.15312355551818102 -0.047421071567735361 0.027121757745159392
leaf_weight=266.09738864190876 32.583448395133018 669.65471446141601 1261.0921338871121 245.67645950987935 63.44304558634758 135.63412673771381 30.162862427532673 175.96008868888021 25.213871531188488 12.389036320149897 85.547578029334545 87.073285840451717 1.6741773635148991 9.5197349339723569 124.52605695649981
leaf_count=1704 171 3730 7305 6231 386 2145 538 1666 114 61 473 893 9 51 572
internal_value=-0.000772471 0.0126749 0.0192541 -0.0374244 0.032806 -0.00303591 -0.0666044 -0.0481297 -0.0145866 -0.0616651 -0.0291681 -0.0293105 -0.0869731 0.0218725 0.0186821
internal_weight=3226.25 2360.28 2129.82 865.972 1324.54 805.289 364.587 230.452 501.385 188.349 351.645 117.236 247.351 42.1032 149.74
internal_count=26049 15515 13566 10534 7691 5875 7671 1949 2863 1727 2177 1431 6240 222 686
cat_boundaries=0 1 2 3 4
cat_threshold=68 68 32 67
is_linear=0
shrinkage=0.1


Tree=24
num_leaves=15
num_cat=1
split_feature=0 1 2 9 2 0 6 1 6 2 6 0 5 5
split_gain=139.874 97.8629 78.9789 76.924 36.8349 20.2605 7.88509 4.7782 3.71445 3.50042 3.04301 1.77967 3.38457 0.458531
threshold=27.500000000000004 7073.5000000000009 1748.0000000000002 0 1978.5000000000002 23.500000000000004 41.500000000000007 2985.0000000000005 77.500000000000014 2218.5000000000005 45.500000000000007 61.500000000000007 243662.50000000003 32875.500000000007
decision_type=2 2 2 9 2 2 2 2 2 2 2 2 2 2
left_child=5 2 3 -2 -4 9 7 -7 -8 10 -1 13 -13 -3
right_child=1 11 4 -5 -6 6 8 -9 -10 -11 -12 12 -14 -15
leaf_value=-0.10033305791935497 -0.042938060438500361 0.071059277939617513 0.11966082956989194 0.0059541425101536467 0.0088594251402644153 -0.062041142529526798 -0.021394816261716521 0.036658214770721759 0.085521810764286013 0.050326726313253911 -0.053972563711076685 0.092956477998919207 -0.036015735875394181 0.10928653063386139
leaf_weight=114.78508519381285 364.77309403195977 3.2580434978008261 81.948858644813299 2266.9198873601854 47.33297111093998 116.00901401042938 70.944413732737303 5.1215012408792964 3.4053769968450061 1.6877090632915486 16.150243241339922 10.787937134504316 2.5077424868941298 85.005809590220451
leaf_count=3487 3705 30 494 14090 248 1913 644 43 28 7 285 93 18 964
internal_value=-0.00075696 0.00633162 0.00278542 -0.000963229 0.079094 -0.0626012 -0.0421331 -0.057868 -0.0164978 -0.0927702 -0.0946147 0.102738 0.0686306 0.107875
internal_weight=3190.64 2862.53 2760.97 2631.69 129.282 328.103 195.48 121.131 74.3498 132.623 130.935 101.56 13.2957 88.2639
internal_count=26049 19642 18537 17795 742 6407 2628 1956 672 3779 3772 1105 111 994
cat_boundaries=0 1
cat_threshold=16816
is_linear=0
shrinkage=0.1


Tree=25
num_leaves=15
num_cat=2
split_feature=7 4 6 1 1 0 2 4 9 1 2 2 0 0
split_gain=128.61 75.9229 63.2176 62.8867 61.0564 27.8739 27.6543 26.2602 23.3637 14.4836 8.6023 6.62447 2.97238 0.473653
threshold=0 7.5000000000000009 42.500000000000007 5036.5000000000009 3120.0000000000005 32.500000000000007 2429.5000000000005 14.500000000000002 1 4243.5000000000009 1834.5000000000002 2218.5000000000005 61.500000000000007 51.500000000000007
decision_type=9 2 2 2 2 2 2 2 9 2 2 2 2 2
left_child=1 9 5 4 -3 11 8 -7 -4 10 -1 -2 -5 -11
right_child=2 3 6 12 -6 7 -8 -9 -10 13 -12 -13 -14 -15
leaf_value=-0.061882424446671129 -0.08655128451407125 0.015817765254670144 0.02590146506588243 0.10898657374043506 -0.091293001537483098 -0.043078889072180576 0.23264509081224075 0.10987651904632056 -0.028171330211588172 0.07056067392890035 0.061343870980853601 0.096409720226264373 0.057115206438947547 0.12714403562936136
leaf_weight=162.49047433584929 204.20826306007802 2022.1399115696549 141.46467776224017 71.499172113835812 54.657289855182171 297.41167779639363 5.071939840912818 11.664752610027788 159.36494633927941 2.7409867644309989 5.8697445914149275 1.9983108043670643 13.065868549048899 3.2141682356595993
leaf_count=1340 6025 10137 1240 864 262 4282 21 74 1616 21 28 10 110 19
internal_value=-0.000709241 0.0112724 -0.0345055 0.0164408 0.0129988 -0.0563036 0.00108493 -0.0373062 -0.00281913 -0.052165 -0.0575862 -0.0847782 0.100972 0.1011
internal_weight=3156.86 2335.68 821.185 2161.36 2076.8 515.283 305.902 309.076 300.83 174.315 168.36 206.207 84.565 5.95516
internal_count=26049 12781 13268 11373 10399 10391 2877 4356 2856 1408 1368 6035 974 40
cat_boundaries=0 1 2
cat_threshold=68 3084
is_linear=0
shrinkage=0.1


Tree=26
num_leaves=16
num_cat=6
split_feature=0 6 6 9 11 12 6 11 4 4 13 2 9 4 0
split_gain=116.999 77.9439 53.2064 47.4125 41.372 37.5603 22.3989 17.9025 16.5745 14.8998 12.6058 10.9318 9.94331 7.58592 6.82958
threshold=36.500000000000007 34.500000000000007 40.500000000000007 0 1 2 39.500000000000007 3 13.500000000000002 12.500000000000002 4 1834.5000000000002 5 8.5000000000000018 48.500000000000007
decision_type=2 2 2 9 1 1 2 1 2 2 9 2 9 2 2
left_child=2 7 4 11 13 -5 -6 14 -9 12 -11 -3 -4 -1 -2
right_child=1 3 9 5 6 -7 -8 8 -10 10 -12 -13 -14 -15 -16
leaf_value=-0.097486150255224363 0.058814664187074539 -0.037707966099187834 0.0046055203725610117 0.032196175379755304 -0.08987407851206991 -0.0072467791744377152 -0.043542459156036384 -0.073154377347065425 0.017069601169515169 0.033605572625417683 -0.031678681179408121 0.10922633164004292 -0.033509787838906797 0.034941638492443493 -0.032804206052481834
leaf_weight=4.6013804674148551 22.800191096961498 153.98588818311691 136.75963978841901 1367.7278296276927 136.15410983376205 293.18149385973811 446.63361994363368 143.49075574427843 23.727707572281361 145.50703613460064 29.860972691327333 5.235593367367982 128.70636726543307 72.182099923491478 12.650606311857699
leaf_count=43 120 1430 992 7563 3380 2618 5573 1447 138 837 173 27 1244 395 69
internal_value=-0.00067534 0.0136002 -0.026917 0.0201504 -0.0448938 0.0250827 -0.0534496 -0.0452262 -0.0569464 -2.03171e-05 0.0225991 -0.0309336 -0.0149628 0.0238938 0.0203735
internal_weight=3123.21 2022.8 1100.41 1820.13 659.571 1660.91 582.788 202.669 167.218 440.834 175.368 159.221 265.466 76.7835 35.4508
internal_count=26049 13412 12637 11638 9391 10181 8953 1774 1585 3246 1010 1457 2236 438 189
cat_boundaries=0 1 2 3 4 5 6
cat_threshold=432 32 2 32 56 9228
is_linear=0
shrinkage=0.1


Tree=27
num_leaves=16
num_cat=3
split_feature=11 1 4 6 0 1 12 1 6 9 4 0 1 5 1
split_gain=102.751 77.3741 66.0202 57.6971 23.3407 16.6673 15.4976 7.47828 7.43593 6.736 5.73225 2.80587 2.50825 2.34758 2.07316
threshold=0 5036.5000000000009 13.500000000000002 34.500000000000007 41.500000000000007 257.50000000000006 1 4243.5000000000009 49.500000000000007 2 10.500000000000002 61.500000000000007 10585.500000000002 167303.50000000003 7073.5000000000009
decision_type=1 2 2 2 2 2 1 2 2 9 2 2 2 2 2
left_child=1 2 3 -1 7 -4 9 10 -8 -6 -2 14 -13 -9 -3
right_child=4 11 5 -5 6 -7 8 13 -10 -11 -12 12 -14 -15 -16
leaf_value=-0.054209788421098665 -0.084610404446981063 0.060151699078346776 0.049445529807471182 0.0017096084076910487 0.057860649652153796 -0.074374069643179011 -0.055089599676113814 0.093450318478159988 0.02596770015106379 -0.016704523720306758 -0.049556683247885473 0.019719219191603961 0.10009318824418073 -0.021719697308018038 0.10718101276664543
leaf_weight=202.07177524454892 156.43852914869785 10.803576454520224 311.37230020016432 2123.5426211040467 21.785544130951166 11.264701157808302 68.45352479070425 3.1948467418551436 13.559297539293764 18.155551064759493 66.473068339750171 8.87380752712488 6.9033220484852782 3.9681285303086042 70.80405506119132
leaf_count=1939 4925 92 1591 13671 164 56 1039 26 103 272 1054 60 72 31 954
internal_value=-0.000655112 0.0059293 0.00273174 -0.00314921 -0.0507372 0.0451224 -0.016811 -0.0709254 -0.0416883 0.0342706 -0.0741573 0.0934917 0.054887 0.0296487 0.100955
internal_weight=3097.66 2745.64 2648.25 2325.61 352.028 322.637 121.954 230.075 82.0128 39.9411 222.912 97.3848 15.7771 7.16298 81.6076
internal_count=26049 18435 17257 15610 7614 1647 1578 6036 1142 436 5979 1178 132 57 1046
cat_boundaries=0 1 2 3
cat_threshold=35 2 10760
is_linear=0
shrinkage=0.1


Tree=28
num_leaves=16
num_cat=1
split_feature=7 4 1 6 4 2 1 1 0 5 2 0 5 5 0
split_gain=93.5876 61.6505 53.8233 53.5119 40.1897 26.5167 25.6413 12.6989 11.131 10.1859 6.8721 1.70169 1.15967 1.07863 0.951339
threshold=0 7.5000000000000009 7073.5000000000009 34.500000000000007 14.500000000000002 2218.5000000000005 8296.0000000000018 4243.5000000000009 31.500000000000004 93781.500000000015 1834.5000000000002 61.500000000000007 149946.00000000003 173852.50000000003 46.500000000000007
decision_type=9 2 2 2 2 2 2 2 2 2 2 2 2 2 2
left_child=4 7 3 -3 5 6 -1 10 13 -10 -2 -4 -7 -6 -9
right_child=1 2 11 -5 8 12 -8 14 9 -11 -12 -13 -14 -15 -16
leaf_value=-0.054641286925409274 -0.05788181916679655 -0.040550506709679884 0.10455603653360537 0.013443512710637802 0.015286125084561753 0.16364080634397077 0.10033788330906122 0.04409083184193572 -0.040948093054782191 0.14922208645975274 0.045087661324900295 0.060638497920395579 0.090244516231776414 -0.071768456661018595 0.12315225051529102
leaf_weight=446.42701721005142 169.29409588687122 200.9151950981468 59.244623508304358 2123.9245843924582 2.3019847981631782 4.2146963849663717 10.937164604663847 2.582683064043521 3.3994325734674957 16.425705708563328 6.7394722774624816 10.366557482630013 4.4001216515898705 3.7286416441202164 3.7057812139391899
leaf_count=9373 1664 1557 878 12084 20 20 117 21 19 85 33 101 22 30 25
internal_value=-0.000595003 0.00707594 0.0113716 0.00877729 -0.0401122 -0.0476613 -0.0509352 -0.0489515 0.0804257 0.116613 -0.0539396 0.0980158 0.126153 -0.0385384 0.0906816
internal_weight=3068.61 2576.77 2394.45 2324.84 491.835 465.979 457.364 182.322 25.8558 19.8251 176.034 69.6112 8.61482 6.03063 6.28846
internal_count=26049 16363 14620 13641 9686 9532 9490 1743 154 104 1697 979 42 50 46
cat_boundaries=0 1
cat_threshold=56
is_linear=0
shrinkage=0.1


Tree=29
num_leaves=15
num_cat=3
split_feature=0 4 1 2 7 4 0 12 6 11 2 6 0 6
split_gain=87.9512 63.9159 39.7952 38.269 30.3615 25.1177 18.2174 9.57889 6.67242 8.71281 2.62774 3.15396 1.9128 0.417699
threshold=27.500000000000004 9.5000000000000018 7073.5000000000009 1881.5000000000002 0 5.5000000000000009 23.500000000000004 1 34.500000000000007 2 2218.5000000000005 45.500000000000007 62.500000000000007 25.500000000000004
decision_type=2 2 2 2 9 2 2 1 2 1 2 2 2 2
left_child=6 4 3 -3 5 -2 10 -6 13 -10 11 -1 -4 -8
right_child=1 2 12 -5 7 -7 8 -9 9 -11 -12 -13 -14 -15
leaf_value=-0.097736176352294493 -0.059389268655859417 0.010655553290975098 0.10623614291322009 0.08541466906969411 -0.029378743462535852 -0.00040059271349877082 -0.11203171210655585 -0.072888877769498706 0.031942874065147737 -0.035600485370434802 0.034777821528006625 -0.046815245051904528 0.052533731357097872 -0.076798078162721883
leaf_weight=84.544758467003703 79.72675358876586 1588.9519045315683 49.14771568775177 71.556596109643579 102.53077055886388 763.02455305680633 9.4541970156133157 99.895891753956676 16.163395330309868 145.56336460076272 1.7056678682565678 14.207737989723681 7.6673053354024878 5.223878411576151
leaf_count=3487 631 9488 814 475 1824 4116 241 2213 96 2166 7 285 81 125
internal_value=-0.000558851 0.00482646 0.016693 0.0138772 -0.0146713 -0.00591096 -0.0542927 -0.0484568 -0.0349353 -0.0290762 -0.0882845 -0.0904101 0.0989889 -0.0994922
internal_weight=3039.36 2762.5 1717.32 1660.51 1045.18 842.751 276.863 202.427 176.405 161.727 100.458 98.7525 56.815 14.6781
internal_count=26049 19642 10858 9963 8784 4747 6407 4037 2628 2262 3779 3772 895 366
cat_boundaries=0 1 2 3
cat_threshold=4 2 32
is_linear=0
shrinkage=0.1


Tree=30
num_leaves=16
num_cat=5
split_feature=0 0 0 9 4 6 11 13 13 1 9 5 6 2 5
split_gain=81.1457 51.3619 40.7394 35.6565 33.0234 28.6948 26.6031 23.6318 13.5899 10.2599 7.80153 6.83098 2.56325 4.12063 1.29835
threshold=36.500000000000007 61.500000000000007 23.500000000000004 0 14.500000000000002 48.500000000000007 1 2 3 4243.5000000000009 4 115246.00000000001 45.500000000000007 2218.5000000000005 213923.50000000003
decision_type=2 2 2 9 2 2 1 9 9 2 9 2 2 2 2
left_child=2 3 12 7 -5 6 -4 -2 11 -10 -7 -3 13 -1 -14
right_child=1 8 5 4 -6 10 -8 -9 9 -11 -12 -13 14 -15 -16
leaf_value=-0.096521367637278102 -0.011759917033148255 0.14614409107855691 0.024860377041192726 0.0048193806171732299 0.073972995141699985 0.032824883018975251 -0.035323531788573538 0.051993838227147586 -0.051301448976690367 0.0406916247072504 -0.0020521084849468652 0.016502613141409345 -0.071591346191150249 0.073193502719808942 -0.0091892171716477147
leaf_weight=77.413935037329793 71.125323072075844 5.3791158143430975 79.42334770411253 1257.0417771600187 73.068496868014336 87.018523331731558 584.69347748719156 362.77647922933102 176.03903281129897 13.020373325794933 192.91765743866563 16.629122443497181 8.4144011661410314 1.4575537294149388 5.5225348751991978
leaf_count=3487 379 37 438 8834 444 543 6531 2105 1396 112 1346 105 180 6 106
internal_value=-0.000525675 0.0113669 -0.0231795 0.0169451 0.00855397 -0.0169645 -0.0282835 0.0415138 -0.0352526 -0.042707 0.00988873 0.0331337 -0.0863991 -0.093385 -0.0468644
internal_weight=3011.94 1975.08 1036.86 1764.01 1330.11 944.053 664.117 433.902 211.068 189.059 279.936 22.0082 92.8084 78.8715 13.9369
internal_count=26049 13412 12637 11762 9278 8858 6969 2484 1650 1508 1889 142 3779 3493 286
cat_boundaries=0 1 2 3 4 5
cat_threshold=5128 32 96 17 9224
is_linear=0
shrinkage=0.1


Tree=31
num_leaves=16
num_cat=5
split_feature=11 1 8 4 0 12 2 7 4 6 11 0 0 5 1
split_gain=70.2981 55.1471 54.7748 45.698 18.0928 12.9545 8.39212 7.3913 5.45954 5.39841 5.30594 4.53413 3.27373 2.6677 2.06747
threshold=0 5036.5000000000009 1 12.500000000000002 41.500000000000007 2 2462.0000000000005 3 10.500000000000002 29.500000000000004 4 35.500000000000007 61.500000000000007 108811.50000000001 7073.5000000000009
decision_type=1 2 9 2 2 1 2 9 2 2 1 2 2 2 2
left_child=1 2 3 -1 7 10 -7 11 -9 -4 -6 -2 14 -14 -3
right_child=4 12 9 -5 5 6 -8 8 -10 -11 -12 -13 13 -15 -16
leaf_value=-0.0035850723280492335 0.0044708984427652967 0.055424277914729217 -0.13173366591839364 0.02538276999671283 0.049456740060278545 -0.043046203794786374 0.20709703521904443 -0.083229653726420522 -0.04639918642693279 -0.051376791474884213 -0.018317470192957645 0.15589453665864511 -0.03448105897884212 0.067776518293773014 0.10423198186546806
leaf_weight=1620.3367192558944 9.3498733974993211 10.310677856206892 8.8488258626312 820.27246363647282 24.507853839546442 76.332349963486195 1.3651894479989994 123.58082211297005 59.686373667791486 151.42063009180129 14.893368117511271 2.5078530870378026 3.3621518686413756 10.577277079224585 54.837801907211542
leaf_count=11583 123 92 90 4496 257 1135 7 4849 1045 1088 179 19 30 102 954
internal_value=-0.000474505 0.00481599 0.00233251 0.00612573 -0.0446108 -0.0149654 -0.038651 -0.0646879 -0.0675489 -0.0525355 0.0317417 0.0197991 0.0870964 0.0431123 0.0965075
internal_weight=2992.19 2679.97 2600.88 2440.61 312.224 117.099 77.6975 195.125 183.267 160.269 39.4012 11.8577 79.0879 13.9394 65.1485
internal_count=26049 18435 17257 16079 7614 1578 1142 6036 5894 1178 436 142 1178 132 1046
cat_boundaries=0 1 3 4 5 6
cat_threshold=35 1622419219 72 2 4 16
is_linear=0
shrinkage=0.1


Tree=32
num_leaves=14
num_cat=0
split_feature=0 1 2 2 2 0 1 2 0 5 5 5 4
split_gain=63.6763 53.7477 53.1654 64.0129 37.5994 7.56378 6.99648 5.0242 2.46396 4.56986 2.40962 1.89706 1.15258
threshold=25.500000000000004 7073.5000000000009 1748.0000000000002 1568.5000000000002 1978.5000000000002 21.500000000000004 7073.5000000000009 1881.5000000000002 61.500000000000007 253288.50000000003 541540.00000000012 26272.000000000004 11.500000000000002
decision_type=2 2 2 2 2 2 2 2 2 2 2 2 2
left_child=5 2 3 -2 -4 10 7 -7 11 -10 12 -3 -1
right_child=1 8 4 -5 -6 6 -8 -9 9 -11 -12 -13 -14
leaf_value=-0.10160118717309033 -0.00051395863265922103 -0.024218845415663923 0.10907078332917833 -0.15180779441824513 -0.0042914685376881844 -0.055847484876704372 0.12610296145562902 0.083743509472196276 0.079657215437873741 -0.092655798633445308 0.14673810402081333 0.10391001068898727 0.020638417697991865
leaf_weight=44.221794121898711 2598.05206903629 1.1809213012456883 75.383067805320024 28.269972058013082 47.816859025508165 103.83605754654855 2.2424960881471625 2.6440673433244219 8.2507772110402566 1.8920413255691517 0.40105220954865117 53.779890421777964 0.78503677621483703
leaf_count=2414 18865 14 508 201 258 2597 16 18 95 16 21 993 33
internal_value=-0.000431535 0.00299563 0.000869239 -0.0021425 0.0650722 -0.0630161 -0.0486998 -0.0523812 0.0927996 0.0475139 -0.0972945 0.101157 -0.099469
internal_weight=2968.76 2814.63 2749.52 2626.32 123.2 154.131 108.723 106.48 65.1036 10.1428 45.4079 54.9608 45.0068
internal_count=26049 20950 19832 19066 766 5099 2631 2615 1118 111 2468 1007 2447
is_linear=0
shrinkage=0.1


Tree=33
num_leaves=16
num_cat=7
split_feature=6 7 13 13 0 4 9 4 4 9 12 9 1 4 4
split_gain=62.5444 57.3329 35.532 32.7217 36.5061 27.4213 23.6049 15.2566 14.8486 13.9945 12.657 11.3643 9.0872 5.48489 4.8684
threshold=41.500000000000007 0 1 2 36.500000000000007 7.5000000000000009 3 10.500000000000002 14.500000000000002 4 5 6 8296.0000000000018 15.500000000000002 13.500000000000002
decision_type=2 9 9 9 2 2 9 2 2 9 1 9 2 2 2
left_child=1 2 14 8 7 -4 10 -5 11 -6 -3 -2 -8 -10 -1
right_child=3 6 5 4 9 -7 12 -9 13 -11 -12 -13 -14 -15 -16
leaf_value=0.046008134564441361 -0.039464892560641132 0.021639178920465307 -0.055384226069481027 -0.019302423725584147 0.056699911217771126 -0.0026533184814555868 -0.068896858548272447 0.022457596807483177 0.1171580338064733 0.022655450038633972 -0.035861414478632309 0.005774786428812957 0.080436085557343454 -0.0096887868403299944 0.10846354860427639
leaf_weight=96.68011531047523 132.51416646875441 63.881660871207714 107.87214658781886 182.44847944565117 299.11175125092268 1149.6113073453307 246.48323308676481 168.08265547640622 10.96226532012224 279.9913724809885 95.525098283775151 93.528553079813719 4.1434160247445098 4.9472780935466281 14.330953925848005
leaf_count=506 804 786 1058 1707 1800 6433 8241 1070 70 1659 1227 528 45 30 85
internal_value=-0.000391422 -0.0122091 -0.00219242 0.0175484 0.0259138 -0.00712017 -0.0445011 0.000721861 -0.0150428 0.04161 -0.0120616 -0.0222367 -0.0638793 0.0777134 0.0496026
internal_weight=2950.11 1778.53 1368.49 1171.59 929.634 1257.48 410.033 350.531 241.952 579.103 159.407 226.043 250.627 15.9095 111.011
internal_count=26049 18381 8082 7668 6236 7491 10299 2777 1432 3459 2013 1332 8286 100 591
cat_boundaries=0 1 2 3 4 5 6 7
cat_threshold=68 17 34 1800 20557 2 10896
is_linear=0
shrinkage=0.1


Tree=34
num_leaves=16
num_cat=3
split_feature=6 0 6 13 4 11 11 4 1 1 0 4 5 6 0
split_gain=55.8577 51.8406 31.1736 27.6101 30.4803 23.782 22.6461 15.523 14.0867 12.7415 10.4308 5.70095 3.67745 2.46111 2.14544
threshold=34.500000000000007 42.500000000000007 41.500000000000007 0 8.5000000000000018 1 2 14.500000000000002 7073.5000000000009 4243.5000000000009 65.500000000000014 10.500000000000002 101139.00000000001 19.500000000000004 30.500000000000004
decision_type=2 2 2 9 2 1 1 2 2 2 2 2 2 2 2
left_child=5 2 6 10 -5 11 -2 9 -4 -7 -3 12 -1 -9 -13
right_child=1 3 8 4 -6 7 -8 13 -10 -11 -12 14 -14 -15 -16
leaf_value=-0.080740948155670331 0.02579971724707604 -0.015291644421842436 0.0049677407846985171 -0.029638476718239909 0.029874285619513968 -0.072447780726813668 -0.028045860951556863 -0.018028381954199708 0.10747893248837377 0.07052758638904183 -0.11481682261908155 -0.0084324134327578674 0.007592711399529487 0.073666172099128499 0.069341478671233608
leaf_weight=5.8688888810575035 82.089470241218805 128.7270948253572 650.15720503777266 94.289042297750711 986.03487866185606 190.02633445896208 697.53207107353956 4.3424514569342128 13.687239261344073 6.4443968674167982 11.468812176957725 4.3148397281765964 23.928906697779894 8.9810949042439443 19.929039996117353
leaf_count=39 451 760 4412 932 6258 4018 8432 25 274 55 69 23 150 49 102
internal_value=-0.000363797 0.00398301 -0.00884438 0.0191535 0.0244537 -0.0442541 -0.0224051 -0.057914 0.00708133 -0.0677581 -0.0218732 0.0164479 -0.00980523 0.0437808 0.0554996
internal_weight=2927.82 2663.99 1443.47 1220.52 1080.32 263.836 779.622 209.794 663.844 196.471 140.196 54.0417 29.7978 13.3235 24.2439
internal_count=26049 21588 13569 8019 7190 4461 8883 4147 4686 4073 829 314 189 74 125
cat_boundaries=0 1 2 3
cat_threshold=32 32 32
is_linear=0
shrinkage=0.1


Tree=35
num_leaves=14
num_cat=6
split_feature=7 8 9 4 13 2 12 13 4 1 1 2 1
split_gain=51.5555 42.0167 38.9467 34.5694 30.7555 23.7937 18.889 15.6781 10.7938 7.39028 5.15525 4.44532 2.27021
threshold=0 1 2 12.500000000000002 3 2429.5000000000005 4 5 14.500000000000002 4668.5000000000009 4243.5000000000009 1834.5000000000002 5036.5000000000009
decision_type=9 9 9 2 9 2 1 9 2 2 2 2 2
left_child=1 10 5 4 -3 6 -2 -5 9 -4 11 -1 -12
right_child=2 3 8 7 -6 -7 -8 -9 -10 -11 12 -13 -14
leaf_value=-0.056572603948154589 0.0075996633857484319 0.048237226818019431 -0.066595967161365663 0.039738614791792762 -0.0023001361266343063 0.16826730531127188 -0.033261726801052549 0.0034420858687565364 0.1745860726564582 0.030089077063418693 -0.022237877072472767 0.032044967638673698 0.11370576118770821
leaf_weight=123.17960423603654 258.03666112665087 122.24854771606624 208.75189501605928 452.66352113708854 1341.1669670064002 7.5839139819145194 201.45642030145973 175.66011589579284 1.9302757903933514 8.2169180288910848 2.2648247182369223 5.933269351720809 2.6844562403857708
leaf_count=756 3467 616 7032 2501 7881 32 2640 929 16 81 10 38 50
internal_value=-0.000346508 0.00705452 -0.0241121 0.0106084 0.00223548 -0.00726019 -0.0103153 0.0302784 -0.058182 -0.0629344 -0.0452831 -0.0525003 0.051497
internal_weight=2911.78 2225.8 685.976 2091.74 1463.42 467.077 459.493 628.324 218.899 216.969 134.062 129.113 4.94928
internal_count=26049 12781 13268 11927 8497 6139 6107 3430 7129 7113 854 794 60
cat_boundaries=0 1 3 4 5 6 7
cat_threshold=68 374085804 389 11788 17 2 153
is_linear=0
shrinkage=0.1


Tree=36
num_leaves=14
num_cat=0
split_feature=1 0 2 2 2 6 2 0 5 5 5 5 6
split_gain=47.9101 47.9685 42.5551 56.571 35.0559 3.75018 3.70203 2.53768 4.62342 2.32721 2.22031 1.70947 1.61202
threshold=7073.5000000000009 24.500000000000004 1748.0000000000002 1568.5000000000002 1978.5000000000002 43.500000000000007 2218.5000000000005 61.500000000000007 257042.50000000003 315312.00000000006 108811.50000000001 26272.000000000004 20.500000000000004
decision_type=2 2 2 2 2 2 2 2 2 2 2 2 2
left_child=1 5 3 -3 -4 6 -1 11 10 -7 -9 -2 -13
right_child=7 2 4 -5 -6 9 -8 8 -10 -11 -12 12 -14
leaf_value=-0.087033673551284108 -0.022526970674022866 -0.00089914123709424225 0.10325938590873662 -0.14756538717186449 -0.0079079844559928961 -0.051542217853006694 0.074251407709878328 -0.0034486277894251413 -0.10366514200723871 0.033417289339723315 0.11259024610934013 -0.012652341662314848 0.10335082276768631
leaf_weight=69.060606499202549 1.1575004011392582 2590.7584588741884 71.130161043256521 26.568343056365848 47.183024732396007 20.754249982535843 1.4530991315841664 2.4365025646984559 1.7908257544040678 3.8170918468385926 5.1014229729771614 1.2288534007966507 47.598377561196685
leaf_count=3900 14 19528 511 212 262 433 6 26 15 60 70 16 996
internal_value=-0.000299348 -0.00216311 0.000263817 -0.00238794 0.0589261 -0.0719868 -0.08371 0.0886481 0.0407688 -0.038344 0.0750827 0.097584 0.100431
internal_weight=2890.04 2830.73 2735.64 2617.33 118.313 95.085 70.5137 59.3135 9.32875 24.5713 7.53793 49.9847 48.8272
internal_count=26049 24912 20513 19740 773 4399 3906 1137 111 493 96 1026 1012
is_linear=0
shrinkage=0.1


Tree=37
num_leaves=16
num_cat=4
split_feature=6 0 9 8 11 4 6 13 4 1 6 4 5 6 5
split_gain=44.9762 41.47 26.6673 22.2915 19.7424 19.1182 18.0989 13.3074 12.712 10.231 7.61279 4.31158 3.10249 2.07636 1.83149
threshold=34.500000000000007 36.500000000000007 0 1 2 10.500000000000002 48.500000000000007 3 14.500000000000002 4243.5000000000009 52.500000000000007 10.500000000000002 101139.00000000001 23.500000000000004 102080.50000000001
decision_type=2 2 9 9 1 2 2 9 2 2 2 2 2 2 2
left_child=4 5 10 -4 11 6 -2 -7 9 -6 -3 12 -1 -10 -13
right_child=1 2 3 -5 8 7 -8 -9 13 -11 -12 14 -14 -15 -16
leaf_value=-0.075394944528819577 -0.038893155165457931 -0.050876451106478426 -0.052385541781548244 0.017751336834881556 -0.067958275715542651 -0.040437030257166579 0.0029167531179662945 0.010430087520052752 -0.0016885235810529264 0.062996781950391476 0.0080174431856267301 0.0048869608951108146 0.0074794640904728218 0.07722789512188899 0.06625834932123506
leaf_weight=5.5727797038853195 358.40900872275233 83.995593566447496 37.715350322425365 1588.3709437921643 176.81253201235086 50.676703941076994 145.59591135568917 330.12544800806791 6.6991445235908014 6.1741908881813279 29.712423242628574 6.7791047282516983 23.847874894738197 6.6372415162622929 17.200706904754043
leaf_count=39 5584 929 276 10224 4018 394 1285 2687 39 55 209 36 150 35 89
internal_value=-0.000270399 0.00358813 0.0125523 0.0158143 -0.0408236 -0.0140381 -0.0268152 0.00287276 -0.0539234 -0.0635397 -0.0326186 0.0146849 -0.00821838 0.0375865 0.0489086
internal_weight=2874.32 2624.6 1739.79 1626.09 249.724 884.807 504.005 380.802 196.323 182.987 113.708 53.4005 29.4207 13.3364 23.9798
internal_count=26049 21588 11638 10500 4461 9950 6869 3081 4147 4073 1138 314 189 74 125
cat_boundaries=0 1 3 4 5
cat_threshold=144 37750828 261 32 66
is_linear=0
shrinkage=0.1


Tree=38
num_leaves=14
num_cat=4
split_feature=1 11 8 1 7 13 4 6 0 5 5 5 0
split_gain=41.5756 41.7521 33.9005 31.0679 13.4233 12.5565 5.44749 4.85307 2.59001 3.89413 2.14585 1.64129 1.67058
threshold=7073.5000000000009 0 1 3120.0000000000005 2 3 14.500000000000002 29.500000000000004 61.500000000000007 257042.50000000003 108811.50000000001 26272.000000000004 22.500000000000004
decision_type=2 1 9 2 9 9 2 2 2 2 2 2 2
left_child=1 2 3 -1 6 -6 -3 -4 11 10 -10 -2 -13
right_child=8 4 7 -5 5 -7 -8 -9 9 -11 -12 12 -14
leaf_value=0.0070734083328719338 -0.021121662813602518 -0.071946373049204412 -0.1239845742746504 -0.057799163053797835 0.037762317142677554 -0.02976183401552765 0.051433929777039956 -0.041232580358806142 -0.0051587957805444276 -0.090454413022409516 0.11147034722297311 -0.029592388298225789 0.10191636221787129
leaf_weight=2315.8096372680739 1.1676184833049763 120.44640866387635 7.4567499915137878 76.253386576659977 27.280017480254173 111.09228629525751 3.6881094127893439 142.90585147030652 2.405860271304844 1.8906042650341985 4.5821364969015121 0.98795280605554481 43.391859356313944
leaf_count=15699 14 5224 90 490 331 1957 27 1094 26 15 70 5 1007
internal_value=-0.000286764 -0.00196645 0.00202019 0.00498458 -0.0391628 -0.0148016 -0.0631902 -0.0425093 0.0862784 0.0368693 0.0713167 0.0959097 0.0989888
internal_weight=2859.36 2804.93 2542.43 2392.06 262.507 138.372 124.135 150.363 54.426 8.8786 6.988 45.5474 44.3798
internal_count=26049 24912 17373 16189 7539 2288 5251 1184 1137 111 96 1026 1012
cat_boundaries=0 1 3 4 5
cat_threshold=35 1622419219 72 48 113
is_linear=0
shrinkage=0.1


Tree=39
num_leaves=15
num_cat=4
split_feature=4 7 1 1 9 12 4 9 5 2 0 2 0 0
split_gain=38.4113 43.2185 29.0264 38.1396 24.5172 14.1605 9.59956 14.4597 13.7598 7.88445 5.8913 5.06728 6.16617 2.95752
threshold=13.500000000000002 0 5036.5000000000009 4401.0000000000009 1 2 14.500000000000002 3 347468.50000000006 2218.5000000000005 29.500000000000004 2139.0000000000005 64.500000000000014 61.500000000000007
decision_type=2 9 2 2 9 1 2 9 2 2 2 2 2 2
left_child=1 4 3 -3 5 -1 7 10 -9 -6 -2 12 -8 -4
right_child=6 2 13 -5 9 -7 11 8 -10 -11 -12 -13 -14 -15
leaf_value=0.0033571844908354834 -0.050536931706409882 0.0015858395226462951 0.10093229368338733 -0.17965717380638496 -0.065164493895523479 -0.038020952901014274 0.055831625577854038 -0.010449357487450767 0.12518329855187779 0.10895861208879309 0.061526228194812072 0.15763538620639914 -0.030844335436861534 0.036523545341434968
leaf_weight=202.62923296820372 4.9939641077071419 1926.8866194663569 31.114173226058483 11.680966876447199 177.28464446123689 139.74514864105731 110.26818450540304 131.96205721609294 7.9291390459984532 2.6392246037721625 77.382709560915828 4.4867482483386985 8.867686899378894 9.2481898628175241
leaf_count=3092 36 10880 658 61 6754 2311 709 832 48 15 481 27 56 89
internal_value=-0.000263475 -0.00458283 0.00223003 0.000493748 -0.0298669 -0.0131479 0.030971 0.0185468 -0.00257736 -0.0593138 0.0488076 0.053309 0.04938 0.0861744
internal_weight=2847.12 2501.23 1978.93 1938.57 522.298 342.374 345.89 222.268 139.891 179.924 82.3767 123.623 119.136 40.3624
internal_count=26049 23860 11688 10941 12172 5403 2189 1397 880 6769 517 792 765 747
cat_boundaries=0 1 2 3 4
cat_threshold=49 12044 2 2056
is_linear=0
shrinkage=0.1


Tree=40
num_leaves=15
num_cat=3
split_feature=6 0 0 1 6 12 11 2 1 13 4 5 0 5
split_gain=36.1355 33.9392 26.7826 22.2593 21.0372 20.4561 16.4063 10.5033 8.70595 6.34336 3.47148 2.69492 1.76074 1.09508
threshold=34.500000000000007 43.500000000000007 61.500000000000007 7073.5000000000009 41.500000000000007 0 1 2234.5000000000005 4243.5000000000009 2 10.500000000000002 101139.00000000001 30.500000000000004 36930.000000000007
decision_type=2 2 2 2 2 1 1 2 2 9 2 2 2 2
left_child=6 3 5 4 -2 -3 10 8 -8 -4 11 -1 -12 -5
right_child=1 2 9 13 -6 -7 7 -9 -10 -11 12 -13 -14 -15
leaf_value=-0.071708238872738417 -0.019393102601890609 0.028500620157217722 0.024986286257357531 0.017279999809348676 0.0046888621033510944 -0.010198765425050969 -0.059872178529875503 0.13639123404519002 0.062376645836735856 -0.03319917898373264 -0.013956239570708649 0.0068185493214328449 0.056625538232444664 0.10260820071541768
leaf_weight=5.351211134344342 781.28285322990268 817.52889569103718 17.144365582615137 1.6319651026278759 677.14034477714449 163.98651565052569 175.76007555657998 2.8881033509969702 6.0251096924766889 113.35903572104871 4.3152533303946283 23.841163199394941 19.531016442924738 19.188933569937944
leaf_count=39 9013 4828 111 24 4620 1691 4072 15 60 825 23 150 102 476
internal_value=-0.000246639 0.00317648 0.016376 -0.00674624 -0.00821194 0.0220349 -0.0375616 -0.0501014 -0.0558203 -0.0261846 0.0130803 -0.00757608 0.043853 0.0959201
internal_weight=2828.97 2591.26 1112.02 1479.24 1458.42 981.515 237.712 184.673 181.785 130.503 53.0386 29.1924 23.8463 20.8209
internal_count=26049 21588 7455 14133 13633 6519 4461 4147 4132 936 314 189 125 500
cat_boundaries=0 1 2 3
cat_threshold=2 32 17
is_linear=0
shrinkage=0.1


Tree=41
num_leaves=14
num_cat=2
split_feature=0 8 2 2 9 1 5 0 1 6 5 4 1
split_gain=33.6469 32.429 29.0773 29.9039 27.8439 7.14973 4.22174 4.21548 4.24861 4.81375 2.91411 1.57533 0.0211614
threshold=24.500000000000004 0 1881.5000000000002 1978.5000000000002 1 5036.5000000000009 450807.50000000006 21.500000000000004 4243.5000000000009 69.000000000000014 541540.00000000012 4.5000000000000009 8296.0000000000018
decision_type=2 9 2 2 9 2 2 2 2 2 2 2 2
left_child=7 2 4 -4 -2 6 -3 10 9 -9 11 -1 -7
right_child=1 5 3 -5 -6 12 -8 8 -10 -11 -12 -13 -14
leaf_value=0.06265389343379893 -0.031365155122386197 -0.044351659371642017 0.11027722145623775 -0.0024998761086519727 0.0056005233456154439 0.12410853770708946 -0.14209294271378758 -0.056191268115245586 0.10521401038457517 0.15238874079385761 0.20325276941331571 -0.10033517921218607 0.10574390146640691
leaf_weight=0.60566293681041017 213.83734257053584 145.19888411276042 51.469054896384478 43.285017792135477 2272.1801693756133 1.6871354598551982 4.557832144200801 50.435135972686112 1.7872693892568339 1.1312850005924691 0.32705368380993505 28.360599561128765 0.99897383525967587
leaf_count=40 2808 1325 406 242 16747 26 55 1904 20 21 21 2407 27
internal_value=-0.000233951 0.00166688 0.00437258 0.058759 0.00231724 -0.0416911 -0.0473264 -0.0630963 -0.0463618 -0.0516154 -0.0935758 -0.0969272 0.117279
internal_weight=2815.86 2733.21 2580.77 94.7541 2486.02 152.443 149.757 82.647 53.3537 51.5664 29.2933 28.9663 2.68611
internal_count=26049 21636 20203 648 19555 1433 1380 4413 1945 1925 2468 2447 53
cat_boundaries=0 2 3
cat_threshold=1626670931 90 176
is_linear=0
shrinkage=0.1


Tree=42
num_leaves=14
num_cat=6
split_feature=9 4 7 13 8 12 11 4 2 5 0 2 6
split_gain=31.3355 31.8633 34.4285 22.8201 20.5999 19.2122 13.6787 10.2305 8.51659 7.74971 6.5934 3.83559 3.52814
threshold=0 14.500000000000002 1 2 3 4 5 8.5000000000000018 1789.0000000000002 53390.000000000007 67.500000000000014 2139.0000000000005 19.500000000000004
decision_type=9 2 9 9 9 1 1 2 2 2 2 2 2
left_child=3 2 5 8 -4 -2 9 -8 10 -5 -1 12 -3
right_child=1 11 4 6 -6 -7 7 -9 -10 -11 -12 -13 -14
leaf_value=-0.026930236020314077 -0.015273628569125368 -0.050356289628210406 0.00058358864662412058 0.12061742209222591 -0.049702071666025444 -0.057865932825926274 -0.057718438698775798 0.034332114605489003 0.10039730546000991 -0.04351863300779369 -0.16227471172486077 0.15127887156947484 0.047415811753584024
leaf_weight=93.640112337656319 234.1551106995903 3.8334091678261748 1539.5015379833058 3.1084141805768004 76.024889656342566 193.35642314422876 12.373676810413597 498.22651069564745 5.1029174737632266 38.570353869348764 3.7432736530899993 3.4294694289565077 99.185943378135562
leaf_count=570 5511 23 9285 45 639 5416 78 3113 33 643 22 23 648
internal_value=-0.000227237 -0.00606984 -0.00887722 0.0187593 -0.002074 -0.033748 0.0268326 0.0314848 -0.0232639 -0.0252251 -0.0321327 0.047241 0.0437777
internal_weight=2804.25 2149.49 2043.04 654.765 1615.53 427.512 552.279 510.6 102.486 41.6788 97.3834 106.449 103.019
internal_count=26049 21545 20851 4504 9924 10927 3879 3191 625 688 592 694 671
cat_boundaries=0 1 2 3 5 6 7
cat_threshold=5128 49 96 1617437971 192 2 24
is_linear=0
shrinkage=0.1


Tree=43
num_leaves=14
num_cat=0
split_feature=1 2 2 2 2 2 2 0 5 5 5 0 2
split_gain=31.0005 28.8471 49.6637 86.3334 27.7754 62.9082 5.74806 2.47884 3.44664 2.03892 1.5865 2.08136 0.524664
threshold=7073.5000000000009 1748.0000000000002 1568.5000000000002 1534.0000000000002 1978.5000000000002 2190.0000000000005 1881.5000000000002 61.500000000000007 257042.50000000003 108811.50000000001 26272.000000000004 21.500000000000004 1670.5000000000002
decision_type=2 2 2 2 2 2 2 2 2 2 2 2 2
left_child=1 2 3 -1 6 -6 -3 10 9 -9 -2 -12 -4
right_child=7 4 12 -5 5 -7 -8 8 -10 -11 11 -13 -14
leaf_value=-0.0029700920613927526 -0.02498244541125132 0.030593395246163998 -0.12727836994182598 0.54007892387650014 -0.16448249185118699 0.075195059111294815 0.10577035526844383 -0.0061930297809207682 -0.084597314261654052 0.11042016700357925 -0.071730157465550642 0.099767776436147287 -0.15629647049495241
leaf_weight=2602.6735580642708 1.1112787500023831 12.662756837904452 11.240575434174389 2.9308211728930464 16.946393931284547 30.953574726358056 51.680499386973679 2.3693440966308099 1.9338082149624822 4.0833544209599495 0.72214333713054557 35.303237233310938 13.980213315226138
leaf_count=23816 14 91 156 20 100 175 434 26 15 70 3 1009 120
internal_value=-0.000234539 -0.00159282 -0.00371102 -0.00235926 0.0480549 -0.00959978 0.0909755 0.0816108 0.0325065 0.0676014 0.0926999 0.09633 -0.143363
internal_weight=2788.59 2743.07 2630.83 2605.6 112.243 47.9 64.3433 45.5232 8.38651 6.4527 37.1367 36.0254 25.2208
internal_count=26049 24912 24112 23836 800 275 525 1137 111 96 1026 1012 276
is_linear=0
shrinkage=0.1


Tree=44
num_leaves=15
num_cat=2
split_feature=4 5 7 8 0 2 4 1 1 1 6 0 5 0
split_gain=28.9824 22.6495 21.7111 19.548 19.795 19.4525 16.2572 16.141 21.7282 16.099 10.3597 7.84444 7.75945 5.05009
threshold=9.5000000000000018 117084.00000000001 0 1 24.500000000000004 2139.0000000000005 13.500000000000002 4243.5000000000009 3120.0000000000005 4462.0000000000009 41.500000000000007 51.500000000000007 125429.00000000001 41.500000000000007
decision_type=2 2 9 9 2 2 2 2 2 2 2 2 2 2
left_child=2 5 10 4 -3 6 -2 8 -4 -9 13 -12 -5 -1
right_child=1 3 7 12 -6 -7 -8 9 -10 -11 11 -13 -14 -15
leaf_value=-0.085060317867564947 -0.022809116924807402 -0.061951651413963832 -0.0069248995334426425 0.077489599870547918 0.02031214092230638 0.16219410832206449 0.0237634720482435 0.23533471874788853 -0.13237108173332093 0.03188435726448198 -0.029712559785034426 0.074692450599885191 -0.040396627742020817 -0.04011876200137357
leaf_weight=63.288161078933626 370.38744308799505 30.017963209655136 842.20225375937298 5.9937039073556653 1144.5460525816306 6.3969530109316102 93.967910343781114 4.9743118658661869 14.03746812418103 17.832841958850622 53.809976840391755 8.3075022958219034 81.578557584900409 41.333483247086406
leaf_count=3719 3029 1605 5564 50 8238 36 592 25 95 245 976 99 664 1112
internal_value=-0.000212755 0.0077211 -0.0133593 0.0147032 0.018056 -0.0109987 -0.0133846 -0.0066938 -0.0089815 0.0762575 -0.045377 -0.0157496 -0.0290149 -0.067305
internal_weight=2778.67 1732.89 1045.79 1262.14 1174.56 470.752 464.355 879.047 856.24 22.8072 166.739 62.1175 87.5723 104.622
internal_count=26049 14214 11835 10557 9843 3657 3621 5929 5659 270 5906 1075 714 4831
cat_boundaries=0 1 3
cat_threshold=49 543238034 72
is_linear=0
shrinkage=0.1


Tree=45
num_leaves=15
num_cat=6
split_feature=13 6 9 9 11 13 0 3 4 4 0 6 0 4
split_gain=28.0981 26.9203 23.8022 21.5274 18.448 13.147 12.6351 11.3013 10.2802 6.47747 4.96387 3.48453 2.13497 2.15458
threshold=0 41.500000000000007 1 2 3 4 26.500000000000004 5 13.500000000000002 11.500000000000002 43.500000000000007 69.000000000000014 35.500000000000007 14.500000000000002
decision_type=9 2 9 9 1 9 2 9 2 2 2 2 2 2
left_child=8 2 6 5 -4 -3 -2 -5 9 11 -11 -1 -10 -14
right_child=1 3 4 7 -6 -7 -8 -9 12 10 -12 -13 13 -15
leaf_value=0.041134748802360795 -0.055012715958943116 -0.017135702668520287 0.012255652588126355 0.034819369641034291 -0.034761344114540509 0.02932045782498667 0.001170374190325484 -0.011236621874432048 0.026722410697060873 -0.027156303961684836 0.025297549931739601 -0.025968646865363904 0.068818905861354335 0.12224107333575705
leaf_weight=127.24201035313308 41.973677061032504 66.801017675548792 99.062816942110658 50.844747074879706 506.46243033045903 453.44088514428586 863.62142489943653 440.45827145688236 5.9300950225442639 34.876106526702642 37.375097762793303 8.2395677119493467 17.196908527053896 13.457431618124245
leaf_count=913 1365 382 577 370 9141 3106 6334 3092 34 245 224 45 108 113
internal_value=-0.00020959 -0.00338987 -0.0118552 0.00922273 -0.0269953 0.0231446 -0.00141801 -0.00587081 0.0314783 0.0241584 -2.22522e-05 0.0370537 0.0816465 0.0922715
internal_weight=2766.98 2522.67 1511.12 1011.54 605.525 520.242 905.595 491.303 244.317 207.733 72.2512 135.482 36.5844 30.6543
internal_count=26049 24367 17417 6950 9718 3488 7699 3462 1682 1427 469 958 255 221
cat_boundaries=0 1 2 3 4 5 6
cat_threshold=17 5708 28685 32 32 17410
is_linear=0
shrinkage=0.1


Tree=46
num_leaves=14
num_cat=2
split_feature=1 6 0 0 11 11 4 0 0 5 5 0 5
split_gain=26.9516 26.6643 24.3601 20.5613 18.0365 12.5086 8.41581 3.56307 2.51183 2.91114 1.90731 1.55204 1.50087
threshold=7073.5000000000009 34.500000000000007 43.500000000000007 61.500000000000007 0 1 14.500000000000002 53.500000000000007 61.500000000000007 257042.50000000003 108811.50000000001 21.500000000000004 26272.000000000004
decision_type=2 2 2 2 1 1 2 2 2 2 2 2 2
left_child=1 5 4 -4 -3 7 -7 -1 11 10 -10 -2 -13
right_child=8 2 3 -5 -6 6 -8 -9 9 -11 -12 12 -14
leaf_value=0.022973318715397914 -0.053797590526576788 0.030162680017324153 0.017829488463755521 -0.025908843743579175 -0.010343149613425227 -0.055819023511921861 0.028875372574532789 -0.052096405466638386 -0.0056108491958534101 -0.074712768037994606 0.10964134852830801 -0.019483985992663572 0.09881425916450054
leaf_weight=44.092253021895885 0.71799342334270377 110.60134084150195 952.16963781043887 121.15554627217352 1313.4694075342268 154.5692409966141 12.696079224348066 7.3809690214693537 2.369624510407446 2.0127499774098396 3.6440336350351572 1.1099231466650952 31.788149295374751
leaf_count=250 3 584 6033 845 13049 4039 69 43 26 15 70 14 1009
internal_value=-0.000192049 -0.00141612 0.00151619 0.0128924 -0.00705806 -0.034895 -0.0466042 0.0102227 0.0796478 0.0293859 0.0642273 0.0916487 0.0948231
internal_weight=2757.78 2716.13 2497.4 1073.33 1424.07 218.739 167.265 51.4732 41.6425 8.02641 6.01366 33.6161 32.8981
internal_count=26049 24912 20511 6878 13633 4401 4108 293 1137 111 96 1026 1023
cat_boundaries=0 1 2
cat_threshold=32 32
is_linear=0
shrinkage=0.1


Tree=47
num_leaves=14
num_cat=5
split_feature=4 7 13 10 9 0 2 2 1 5 9 6 0
split_gain=23.7621 22.9295 23.1026 21.7787 15.5094 14.4681 12.8042 9.72443 7.36623 5.44614 5.38548 3.065 1.40764
threshold=8.5000000000000018 0 1 2 3 32.500000000000007 2218.5000000000005 2429.5000000000005 4243.5000000000009 186942.00000000003 4 59.500000000000007 44.500000000000007
decision_type=2 9 9 9 9 2 2 2 2 2 9 2 2
left_child=8 5 3 -3 -4 6 -2 -7 9 10 -1 -11 -10
right_child=1 2 4 -5 -6 7 -8 -9 12 11 -12 -13 -14
leaf_value=-0.00064794179543623204 -0.052085527890373497 0.014639797800425647 0.030058172369873116 -0.027374939919983 -0.019013332637353567 -0.0076089590392802928 0.21621139251122631 0.17537200750880069 0.015592938885895875 -0.061297984386522668 -0.047286027767125469 0.01386381614283023 0.11418713568053361
leaf_weight=65.330404509790242 131.3273793971166 1602.1681966404431 66.392151254229248 125.34336851164699 458.1869362462312 166.95599553454667 1.8031968623399723 2.9557909518480292 2.4151962995529166 79.553065170533955 35.657797315623611 5.8225535172969094 3.6162674315273762
leaf_count=892 5427 10784 371 1076 2914 2081 9 13 28 1566 789 67 32
internal_value=-0.000168909 0.00238298 0.00587563 0.0114513 -0.0123566 -0.0230077 -0.0484516 -0.00442582 -0.0340596 -0.0375797 -0.0218618 -0.056172 0.0747068
internal_weight=2747.53 2555.13 2252.09 1727.51 524.579 303.042 133.131 169.912 192.395 186.364 100.988 85.3756 6.03146
internal_count=26049 22675 15145 11860 3285 7530 5436 2094 3374 3314 1681 1633 60
cat_boundaries=0 1 2 3 4 5
cat_threshold=24 153 18 5216 10852
is_linear=0
shrinkage=0.1


Tree=48
num_leaves=14
num_cat=1
split_feature=1 0 8 5 5 0 1 4 6 0 5 6 6
split_gain=23.5379 22.9983 21.6891 20.0861 3.78237 2.52456 2.83005 2.51276 1.8463 1.41696 1.37117 1.41182 0.620111
threshold=7073.5000000000009 23.500000000000004 0 116164.00000000001 450807.50000000006 61.500000000000007 10585.500000000002 4.5000000000000009 45.500000000000007 22.500000000000004 26272.000000000004 20.500000000000004 49.500000000000007
decision_type=2 2 9 2 2 2 2 2 2 2 2 2 2
left_child=1 7 3 -3 -4 10 -7 9 -9 -1 -2 -12 -8
right_child=5 2 4 -5 -6 6 12 8 -10 -11 11 -13 -14
leaf_value=0.14722461024401076 -0.018747565928058787 -0.012638621940026766 -0.035596052414602723 0.007600359187724632 -0.13337142030650237 -0.035877530163972597 0.1100737044567644 -0.085840096573425728 -0.035273575740952696 -0.10187899868284166 -0.02642752294873606 0.098185896021667773 0.022419005585230505
leaf_weight=0.80045745102688559 1.1140530928969408 669.10875584417954 145.29344842722639 1835.6198008526117 4.067199505865573 3.7619782052934161 2.8413504716008906 35.321740912739187 9.0760327177122218 0.31948874797672033 0.93881328962743538 28.801816867664456 1.1272910162806509
leaf_count=55 14 5090 1442 14550 59 37 50 3425 268 23 16 996 24
internal_value=-0.000183017 -0.00129146 -8.27267e-05 0.00218503 -0.0358578 0.0773687 0.026267 -0.0717713 -0.075503 0.0761624 0.0901722 0.0942523 0.0851754
internal_weight=2738.19 2699.61 2654.09 2504.73 149.361 38.5853 7.73062 45.5177 44.3978 1.11995 30.8547 29.7406 3.96864
internal_count=26049 24912 21141 19640 1501 1137 111 3771 3693 78 1026 1012 74
cat_boundaries=0 2
cat_threshold=3769894739 74
is_linear=0
shrinkage=0.1


Tree=49
num_leaves=15
num_cat=3
split_feature=4 2 13 6 0 5 7 2 13 6 6 5 4 0
split_gain=21.5946 18.4882 17.632 17.4208 13.8668 13.7321 13.5013 13.0777 8.83861 7.00936 5.28093 3.99532 1.78169 0.387287
threshold=9.5000000000000018 2384.5000000000005 0 38.500000000000007 32.500000000000007 107822.50000000001 1 2001.5000000000002 2 59.500000000000007 24.500000000000004 197311.00000000003 10.500000000000002 50.500000000000007
decision_type=2 2 9 2 2 2 9 2 9 2 2 2 2 2
left_child=3 2 4 8 -2 -4 7 -5 10 -8 -1 -10 -3 -14
right_child=1 12 5 6 -6 -7 9 -9 11 -11 -12 -13 13 -15
leaf_value=-0.050171290144011317 -0.0076262672079377928 0.06071994953914716 -0.04308740487979415 0.00035121650578101083 0.017327620266923603 -0.0015930526614516089 -0.043530827516455754 -0.11710855556257192 -0.044126809825604213 0.024988813079316687 0.080767456121407039 -0.083796399573577332 0.12922109542846702 0.16972106857266581
leaf_weight=4.3956862096674731 287.62175124650821 3.4115817993879309 106.63928867504001 740.68348164670169 986.41975791100413 316.36118587711826 130.51187438471243 9.6016520969569665 68.940637686755508 16.858027992770076 10.292106111068277 40.188520000316203 6.3407145477831346 3.7620554342865944
leaf_count=95 4484 15 711 4438 6657 2282 4065 43 1626 284 160 1124 42 23
internal_value=-0.000167764 0.00670252 0.00577478 -0.0116727 0.0116031 -0.0117755 -0.00682258 -0.0011368 -0.0468357 -0.0334246 0.0247381 -0.0538053 0.123203 0.144302
internal_weight=2732.03 1710.56 1697.04 1021.47 1274.04 423 897.655 750.285 123.817 147.37 14.6878 109.129 13.5144 10.1028
internal_count=26049 14214 14134 11835 11141 2993 8830 4481 3005 4349 255 2750 80 65
cat_boundaries=0 1 2 3
cat_threshold=153 4 83
is_linear=0
shrinkage=0.1


Tree=50
num_leaves=15
num_cat=1
split_feature=2 2 2 2 2 7 4 2 2 2 4 4 0 0
split_gain=20.8485 44.6322 55.5996 25.8522 46.6977 21.3881 8.78426 5.19958 19.1039 3.19774 0.883123 0.393474 0.373004 0.0464648
threshold=1748.0000000000002 1568.5000000000002 1534.0000000000002 1978.5000000000002 2139.0000000000005 0 11.500000000000002 1881.5000000000002 1862.0000000000002 1894.5000000000002 11.500000000000002 9.5000000000000018 44.500000000000007 36.500000000000007
decision_type=2 2 2 2 2 9 2 2 2 2 2 2 2 2
left_child=1 2 5 7 10 -1 -6 8 -2 -9 -5 13 -13 -3
right_child=3 11 -4 4 6 -7 -8 9 -10 -11 -12 12 -14 -15
leaf_value=-0.024566998847365819 0.11735118119761688 -0.11301447601275082 0.39402662317429316 -0.16240496006800842 0.004271224348443548 0.0022879727900695446 0.1080434334506746 0.13552562782800334 -0.14451521441996071 0.081765557886067694 -0.22093369136933713 -0.1365634451961707 -0.16912959562311183 -0.12850247471170489
leaf_weight=331.23549902718514 8.2169003803282958 2.9011973028536904 3.563712812960147 8.6478868899866921 19.427190940827131 2258.0237478297204 14.061465672217308 17.293894592672586 4.2149270735681048 30.715361697599292 3.6729264073073855 8.3688460490666312 6.0666080294176927 5.8284451644867659
leaf_count=9435 60 76 20 60 102 15518 92 124 31 310 21 107 34 59
internal_value=-0.000161215 -0.0019249 -0.000690274 0.0432625 -0.0133969 -0.00123354 0.0478439 0.0862057 0.0285671 0.101131 -0.179853 -0.140115 -0.15025 -0.123355
internal_weight=2722.24 2615.99 2592.82 106.251 45.8095 2589.26 33.4887 60.4411 12.4318 48.0093 12.3208 23.1651 14.4355 8.72964
internal_count=26049 25249 24973 800 275 24953 194 525 91 434 81 276 141 135
cat_boundaries=0 1
cat_threshold=56
is_linear=0
shrinkage=0.1


Tree=51
num_leaves=14
num_cat=0
split_feature=1 1 1 1 1 1 4 0 5 4 5 5 0
split_gain=20.737 19.8292 81.377 56.1925 50.6362 45.9643 8.89145 2.50701 2.60759 1.90481 1.80194 1.30183 1.30497
threshold=7073.5000000000009 3120.0000000000005 2985.0000000000005 4243.5000000000009 1.0000000180025095e-35 4401.0000000000009 12.500000000000002 61.500000000000007 257042.50000000003 12.500000000000002 108811.50000000001 26272.000000000004 21.500000000000004
decision_type=2 2 2 2 2 2 2 2 2 2 2 2 2
left_child=1 2 4 9 -1 -5 -4 11 10 -3 -9 -2 -13
right_child=7 3 6 5 -6 -7 -8 8 -10 -11 -12 12 -14
leaf_value=0.0003994314524879397 -0.01702057674255944 -0.13774138433008878 0.27317676485475179 0.17963279905415555 -0.13487295944646024 -0.038266742143594192 0.12571669917880177 -0.0068319728443140305 -0.073180577543013742 -0.19472732100386167 0.10890823457261421 -0.041769390869987301 0.096740088180150952
leaf_weight=2546.6859705452807 1.1153639145195509 25.257230142131448 10.656506186351182 12.913302071392534 27.97610121127218 38.672043566592038 6.6350193917751303 2.3422167990356675 2.0211250185966492 7.6399381868541232 3.1599108260124922 0.69805234670639293 26.610692886635661
leaf_count=23860 14 203 51 58 376 289 30 26 15 45 70 3 1009
internal_value=-0.000158979 -0.00117231 0.000381662 -0.0488488 -0.00107043 0.0162798 0.216594 0.0752882 0.0239566 -0.150976 0.0596384 0.0888745 0.0931996
internal_weight=2712.38 2676.44 2591.95 84.4825 2574.66 51.5853 17.2915 35.9474 7.52325 32.8972 5.50213 28.4241 27.3087
internal_count=26049 24912 24317 595 24236 347 81 1137 111 248 96 1026 1012
is_linear=0
shrinkage=0.1


Tree=52
num_leaves=15
num_cat=5
split_feature=13 3 0 0 9 8 13 4 4 4 0 5 0 4
split_gain=19.8624 20.1595 20.8753 21.1932 18.0275 17.627 13.5764 12.272 8.54813 5.36506 3.40478 2.88093 1.71368 2.06203
threshold=0 1 38.500000000000007 61.500000000000007 2 3 4 14.500000000000002 13.500000000000002 11.500000000000002 43.500000000000007 206890.00000000003 35.500000000000007 14.500000000000002
decision_type=9 9 2 2 9 9 9 2 2 2 2 2 2 2
left_child=8 4 5 -4 6 -3 -2 -6 9 11 -11 -1 -10 -14
right_child=1 2 3 -5 7 -7 -8 -9 12 10 -12 -13 13 -15
leaf_value=0.022212578565209237 0.030801943609916622 0.062789435967597132 0.0049605481797857605 -0.043369391661304726 -0.011374339530678582 -0.02707822877705178 -0.015107885999529468 0.03148322885009195 0.024282545441335235 -0.024910958369015957 0.018980557398835453 0.054113806937071532 0.060843857450027794 0.11501281362281855
leaf_weight=94.601685128640383 371.54311079997569 14.183746602851896 807.9214674513787 102.21146640647203 422.34553128341213 594.06675753486343 74.844392593018711 79.368439332582057 5.8159284349530926 34.207044037058949 36.566420743241906 40.396986667066813 16.584401923231784 12.194752532988785
leaf_count=650 2560 229 6299 1109 3326 9882 428 534 34 245 224 308 108 113
internal_value=-0.000153768 -0.00286631 -0.00998682 -0.000467092 0.0085224 -0.0243955 0.022942 -0.00450472 0.0266894 0.0200674 -0.00223359 0.0317587 0.0737919 0.0837972
internal_weight=2706.85 2466.48 1518.38 910.133 948.101 608.251 446.388 501.714 240.367 205.772 70.7735 134.999 34.5951 28.7792
internal_count=26049 24367 17519 7408 6848 10111 2988 3860 1682 1427 469 958 255 221
cat_boundaries=0 1 2 3 5 6
cat_threshold=17 22272 19468 14419286 256 138
is_linear=0
shrinkage=0.1


Tree=53
num_leaves=14
num_cat=1
split_feature=1 6 1 1 1 11 0 0 0 1 1 5 6
split_gain=18.1379 18.5557 16.1854 61.7171 46.4141 10.5778 6.36954 5.85811 2.37025 2.56792 11.5801 1.21521 1.34121
threshold=7073.5000000000009 34.500000000000007 3120.0000000000005 2985.0000000000005 4243.5000000000009 0 50.500000000000007 27.500000000000004 61.500000000000007 10543.000000000002 11141.500000000002 26272.000000000004 35.500000000000007
decision_type=2 2 2 2 2 1 2 2 2 2 2 2 2
left_child=1 5 3 -3 -4 7 -7 -1 11 -10 -11 -2 -13
right_child=8 2 4 -5 -6 6 -8 -9 9 10 -12 12 -14
leaf_value=-0.12118224842954946 -0.014312618973176316 0.0014534352753288824 -0.14663540934806946 0.19183044124173754 0.015371359050057976 -0.065712688780849376 -0.025113691204812251 0.0219644662940345 0.092621315574662855 -0.28798623712972871 0.076754425964075002 0.026233058226354564 0.10005818794506344
leaf_weight=3.0416719801723948 1.1268236525356794 2363.7273749157321 27.915062174666673 17.152067303657532 48.251163737848401 72.112502586329356 83.261919225566089 47.569953110069036 3.0755826756358138 1.2175223119556902 3.0535663245245814 2.768394852057102 22.152359352447093
leaf_count=31 14 19889 223 77 322 3094 1014 262 32 12 67 68 944
internal_value=-0.000125231 -0.00104366 0.00137326 0.00282493 -0.0440044 -0.0298732 -0.0412985 0.0111571 0.0731153 0.0229505 -0.027219 0.0872642 0.0918571
internal_weight=2696.43 2663.03 2457.05 2380.88 76.1662 205.986 155.374 50.6116 33.3942 7.34667 4.27109 26.0476 24.9208
internal_count=26049 24912 20511 19966 545 4401 4108 293 1137 111 79 1026 1012
cat_boundaries=0 1
cat_threshold=32
is_linear=0
shrinkage=0.1


Tree=54
num_leaves=15
num_cat=3
split_feature=2 2 2 2 2 9 4 0 11 12 2 4 0 0
split_gain=17.5737 39.2317 39.6653 22.2656 39.7515 19.5403 5.50388 4.73762 4.72131 8.38586 1.76519 0.284404 0.249854 0.0357194
threshold=1748.0000000000002 1568.5000000000002 1534.0000000000002 1978.5000000000002 2218.5000000000005 0 11.500000000000002 57.500000000000007 1 2 1894.5000000000002 9.5000000000000018 44.500000000000007 36.500000000000007
decision_type=2 2 2 2 2 9 2 2 1 1 2 2 2 2
left_child=1 2 5 8 7 -1 -6 -5 10 -10 -2 13 -13 -3
right_child=3 11 -4 4 6 -7 -8 -9 9 -11 -12 12 -14 -15
leaf_value=-0.028290802097505882 0.12961367182654213 -0.11149672347531164 0.31680185989431159 -0.16200993455209911 0.01967012646929726 0.0017113381142751613 0.1084398349274328 -0.02269045117003235 -0.12774270125575946 0.046978799762275758 0.089863757118859078 -0.1331777202295707 -0.16062997090404862 -0.12577384646458897
leaf_weight=229.2855705593247 20.528414979577065 2.5914135356433707 3.9314445331692687 13.333585051354023 15.548132598400118 2332.6368265280034 12.681291259825228 2.9877621196210375 4.2720949249342084 7.6947172940708679 24.510438516736031 7.7452900141943228 5.7965571051463485 5.4121515252627432
leaf_count=4531 149 76 20 94 76 20422 86 19 36 77 263 107 34 59
internal_value=-0.000117199 -0.00171883 -0.000590465 0.0406882 -0.0122776 -0.00107753 0.0595475 -0.136506 0.0820817 -0.00838721 0.0883624 -0.136096 -0.144929 -0.121151
internal_weight=2688.96 2587.4 2565.85 101.556 44.5508 2561.92 28.2294 16.3213 57.0057 11.9668 45.0389 21.5454 13.5418 8.00357
internal_count=26049 25249 24973 800 275 24953 162 113 525 113 412 276 141 135
cat_boundaries=0 1 2 3
cat_threshold=432 1 2
is_linear=0
shrinkage=0.1


Tree=55
num_leaves=14
num_cat=1
split_feature=0 8 4 5 5 1 6 6 5 5 5 2 1
split_gain=17.0582 17.4362 15.6008 17.644 5.26255 4.64288 4.34797 2.42228 3.56784 2.8954 2.74122 2.50009 0.00626481
threshold=23.500000000000004 0 5.5000000000000009 116164.00000000001 136244.00000000003 5036.5000000000009 29.500000000000004 45.500000000000007 43948.500000000007 213923.50000000003 541540.00000000012 2218.5000000000005 7565.5000000000009
decision_type=2 9 2 2 2 2 2 2 2 2 2 2 2
left_child=7 2 4 -4 -2 6 -3 10 -9 -10 11 -1 -7
right_child=1 5 3 -5 -6 12 -8 8 9 -11 -12 -13 -14
leaf_value=-0.086525442096931471 -0.0097992522444024319 -0.11392875197774421 -0.010001776004354876 0.009272293203322627 -0.070261666411149074 0.12261922679299148 -0.032030818024332296 0.21147063939009803 -0.088911530600495906 0.029007141397550597 0.21668332194163292 0.048502527371563436 0.1114674697531529
leaf_weight=29.916049778694294 23.338171048555523 6.8051310260780147 647.01870476733893 1785.9437539428473 37.568283571861684 0.96794209629297201 136.72171067399904 0.62674034852534433 4.6275143399834615 3.7858857279643416 0.31383365765213866 1.4370932579040516 1.0504604782909153
leaf_count=3459 311 130 5112 14764 533 14 1365 24 156 106 28 6 41
internal_value=-0.000118859 0.000871907 0.0028836 0.00414657 -0.0470936 -0.0316231 -0.0359139 -0.0643592 -0.0187037 -0.0358502 -0.0773927 -0.0803363 0.116815
internal_weight=2680.12 2639.41 2493.87 2432.96 60.9065 145.545 143.527 40.7071 9.04014 8.4134 31.667 31.3531 2.0184
internal_count=26049 22270 20720 19876 844 1550 1495 3779 286 262 3493 3465 55
cat_boundaries=0 2
cat_threshold=3769894739 74
is_linear=0
shrinkage=0.1


Tree=56
num_leaves=15
num_cat=5
split_feature=4 7 12 1 1 11 5 9 6 3 6 1 0 5
split_gain=16.127 17.9181 18.7146 16.2319 33.5411 12.0712 7.25735 5.69915 7.07658 6.48966 5.04011 2.7962 2.61837 0.190013
threshold=13.500000000000002 0 1 5036.5000000000009 4401.0000000000009 2 386198.50000000006 3 45.500000000000007 4 39.500000000000007 6457.5000000000009 41.500000000000007 436056.50000000006
decision_type=2 9 1 2 2 1 2 9 2 9 2 2 2 2
left_child=1 2 5 4 -3 -1 7 8 -2 -9 -4 -5 -8 -14
right_child=6 3 10 11 -6 -7 12 9 -10 -11 -12 -13 13 -15
leaf_value=0.0076052008056166163 0.019385882319571626 0.0012233033756564409 -0.078309110000179649 0.1219408292900992 -0.17278478550087392 -0.045561392970354282 0.16088510994091584 0.035930212253973019 0.077106433584651718 -0.0018752636161385391 -0.036596919798055717 0.054742397461627026 0.075908516869172868 0.038928792241270292
leaf_weight=209.36032192152925 52.54411740694195 1862.152722466737 35.132784633897245 9.1876083016395587 11.143714331090449 43.117336006602272 4.5203643785789591 52.256405374035239 35.652545081451535 171.13818499399349 165.0771496493835 18.99362591188401 2.9472053125500679 2.6289415182545781
leaf_count=3594 352 10880 2307 86 61 2522 33 388 261 1114 3749 661 21 20
internal_value=-0.000117182 -0.00298693 -0.0206281 0.00131449 0.000188178 -0.00297777 0.0208842 0.0181804 0.0383685 0.00812874 -0.0439166 0.0766503 0.104325 0.058474
internal_weight=2675.85 2354.17 452.688 1901.48 1873.3 252.478 321.688 311.591 88.1967 223.395 200.21 28.1812 10.0965 5.57615
internal_count=26049 23860 12172 11688 10941 6116 2189 2115 613 1502 6056 747 74 41
cat_boundaries=0 1 2 3 4 5
cat_threshold=49 2 18 16393 16384
is_linear=0
shrinkage=0.1


Tree=57
num_leaves=15
num_cat=5
split_feature=13 6 11 9 9 3 0 0 4 4 6 6 0 4
split_gain=15.4941 16.3467 15.7224 24.3216 14.9775 9.04802 8.92494 7.4227 6.64652 4.32429 2.82778 2.81717 1.52358 1.96517
