tree
version=v4
num_class=1
num_tree_per_iteration=1
label_index=0
max_feature_idx=5
objective=binary sigmoid:1
feature_names=age fare sex class embark_town alone
feature_infos=[0.41999999999999998:80] [0:512.32920000000001] [0:1] -1:2:0:1 -1:2:0:1 [0:1]
tree_sizes=1372 1473 1388 1467 1465 1390 1382 1571 1375 1488 1678 1382 1472 1594 1693

Tree=0
num_leaves=12
num_cat=2
split_feature=2 3 0 3 1 0 0 0 1 0 1
split_gain=207.369 45.587 21.7206 18.3775 13.3403 6.26063 5.47722 1.74197 1.43362 0.944088 0.147223
threshold=1.0000000180025095e-35 0 7.5000000000000009 1 7.8875000000000011 53.000000000000007 5.5000000000000009 32.250000000000007 29.850000000000005 33.500000000000007 126.82500000000002
decision_type=2 1 8 1 2 8 10 8 2 10 2
left_child=1 4 -2 5 -1 -4 -6 -5 9 -3 -10
right_child=2 8 3 7 6 -7 -8 -9 10 -11 -12
leaf_value=-0.31445509465944532 -0.35593288215381624 -0.24220346483054103 -0.4388884571425582 -0.57718086478846098 -0.39118900152403163 -0.55609665664278074 -0.51195996362200324 -0.60702524449778883 -0.21490840467295497 -0.29952309116147169 -0.23505475859879221
leaf_weight=8.0364299416542071 4.9636773169040671 7.3273331820964831 12.05464491248131 39.473052948713303 5.6727740764617947 7.3273331820964804 11.109182566404341 38.763956189155579 13.472838431596758 4.7273117303848267 4.9636773169040671
leaf_count=34 21 31 51 167 24 31 47 164 57 20 21
internal_value=-0.475846 -0.319773 -0.559996 -0.570372 -0.420401 -0.483199 -0.471136 -0.591968 -0.237866 -0.264682 -0.220332
internal_weight=157.892 55.3095 102.583 97.619 24.8184 19.382 16.782 78.237 30.4912 12.0546 18.4365
internal_count=668 234 434 413 105 82 71 331 129 51 78
cat_boundaries=0 1 2
cat_threshold=4 1
is_linear=0
shrinkage=1


Tree=1
num_leaves=13
num_cat=2
split_feature=2 3 0 3 1 0 0 0 1 1 0 0
split_gain=165.974 33.9509 21.6213 15.9351 10.701 5.93444 5.14433 3.82027 1.64986 1.04032 0.689834 0.111512
threshold=1.0000000180025095e-35 0 6.5000000000000009 1 14.200000000000001 19.500000000000004 53.000000000000007 8.5000000000000018 7.133350000000001 29.850000000000005 33.500000000000007 25.500000000000004
decision_type=2 1 8 1 2 10 8 10 2 2 10 8
left_child=1 4 -2 6 5 -1 -4 -6 -5 10 -3 -11
right_child=2 9 3 8 7 -7 -8 -9 -10 11 -12 -13
leaf_value=0.15956274559356987 0.1341187693127068 0.20121857577114688 0.032971081964348337 -0.15505043268566734 0.041426207093627043 0.02768412619723979 -0.073783753769515736 -0.077857396211688246 -0.1036774224531349 0.20838509567450522 0.1531137762362734 0.22468772998178688
leaf_weight=8.4792883545160311 4.6026782840490332 7.6374432891607302 12.155200436711313 6.869104951620101 4.8007570505142194 5.7099097967147818 7.1804213672876349 6.0920201241970062 69.516073301434517 6.1750443130731609 4.8895132541656494 13.089823767542837
leaf_count=35 19 31 51 30 20 24 31 26 303 25 20 53
internal_value=-0.000222967 0.136249 -0.0775893 -0.0877692 0.0492633 0.106493 -0.00667309 -0.0252857 -0.108297 0.204875 0.182442 0.219462
internal_weight=157.197 56.8738 100.323 95.7208 25.082 14.1892 19.3356 10.8928 76.3852 31.7918 12.527 19.2649
internal_count=668 234 434 415 105 59 82 46 333 129 51 78
cat_boundaries=0 1 2
cat_threshold=4 1
is_linear=0
shrinkage=0.1


Tree=2
num_leaves=12
num_cat=1
split_feature=2 3 0 1 1 0 1 1 1 0 1
split_gain=134.898 26.8351 17.8013 13.8351 8.49498 5.61582 4.1613 1.79231 0.859935 0.560782 0.112201
threshold=1.0000000180025095e-35 0 6.5000000000000009 26.266650000000002 7.8875000000000011 24.500000000000004 23.125000000000004 7.133350000000001 29.850000000000005 33.500000000000007 126.82500000000002
decision_type=2 1 8 2 2 8 2 2 2 10 2
left_child=1 4 -2 7 -1 -5 -6 -4 9 -3 -10
right_child=2 8 3 5 6 -7 -8 -9 10 -11 -12
leaf_value=0.12601825949458934 0.11827068426835824 0.17836634047226435 -0.14932586269479955 -0.11435149416430578 0.033965474528060743 0.0086683912522449082 -0.076912122558955187 -0.098175595892700557 0.19956938381982131 0.13533752550092798 0.18246759289288383
leaf_weight=8.4170306473970431 4.692048877477645 7.7467465847730619 7.7051075100898734 4.6087409704923656 12.091704264283182 19.044850155711174 4.7007592171430579 61.757799491286278 14.249722540378572 4.9733006954193115 5.2496324926614752
leaf_count=34 19 31 35 20 51 82 20 278 57 20 21
internal_value=-0.000349742 0.121305 -0.0717798 -0.0813562 0.0440253 -0.0153012 0.00292721 -0.103849 0.18177 0.161543 0.194965
internal_weight=155.237 57.4289 97.8085 93.1165 25.2095 23.6536 16.7925 69.4629 32.2194 12.72 19.4994
internal_count=668 234 434 415 105 102 71 313 129 51 78
cat_boundaries=0 1
cat_threshold=4
is_linear=0
shrinkage=0.1


Tree=3
num_leaves=13
num_cat=3
split_feature=2 3 0 3 4 1 0 1 0 1 0 1
split_gain=110.727 22.1118 14.7284 12.299 7.44674 6.82573 4.31905 3.10259 1.58699 0.772458 0.488392 0.0993079
threshold=1.0000000180025095e-35 0 6.5000000000000009 1 2 20.089600000000001 53.000000000000007 8.0937500000000018 32.250000000000007 29.850000000000005 33.500000000000007 126.82500000000002
decision_type=2 1 8 1 9 2 8 2 8 2 10 2
left_child=1 4 -2 6 5 -1 -4 -6 -5 10 -3 -11
right_child=2 9 3 8 7 -7 -8 -9 -10 11 -12 -13
leaf_value=0.043056165563479194 0.10536384794500171 0.16123536315828846 0.031529784143293917 -0.080046930399740465 0.15338427774364238 -0.099927959973937955 -0.067032406756903376 0.044172418252467927 -0.10989467666587854 0.18155611109183833 0.1211108786458745 0.16540349529461543
leaf_weight=9.6783006191253644 4.7372912168502799 7.7135467827320081 12.182161986827852 36.423906549811363 5.7395099401473999 5.0969233810901651 7.0010886192321768 4.7574363946914673 34.86429850757122 14.102685928344728 4.9998468160629272 5.2133033126592627
leaf_count=40 19 31 51 169 23 22 31 20 164 57 20 21
internal_value=-0.000414655 0.109418 -0.0665179 -0.075518 0.0394855 -0.00626824 -0.00444132 0.103887 -0.0946443 0.164598 0.145455 0.177197
internal_weight=152.51 57.3016 95.2087 90.4715 25.2722 14.7752 19.1833 10.4969 71.2882 32.0294 12.7134 19.316
internal_count=668 234 434 415 105 62 82 43 333 129 51 78
cat_boundaries=0 1 2 3
cat_threshold=4 1 4
is_linear=0
shrinkage=0.1


Tree=4
num_leaves=13
num_cat=3
split_feature=2 3 0 1 4 1 0 1 4 1 0 0
split_gain=91.5926 18.713 12.235 10.9437 6.00422 5.64961 4.67545 2.55485 1.88464 0.732103 0.444834 0.0995027
threshold=1.0000000180025095e-35 0 6.5000000000000009 26.266650000000002 1 20.089600000000001 24.500000000000004 8.0937500000000018 2 29.850000000000005 33.500000000000007 25.500000000000004
decision_type=2 1 8 2 9 2 8 2 9 2 10 8
left_child=1 4 -2 8 5 -1 -5 -6 -4 10 -3 -11
right_child=2 9 3 6 7 -7 -8 -9 -10 11 -12 -13
leaf_value=0.038494005103322779 0.094554879639016917 0.14779832067003684 -0.043166604132990616 -0.10451008473329149 0.1382989437002938 -0.092676012621939127 0.010117644300549839 0.039389787721012447 -0.097502553793520408 0.15313651069409692 0.10933750219935022 0.16870184318068371
leaf_weight=9.7393120378255826 4.7499960362911215 7.5797650367021578 7.1839724779129028 4.3835832029581097 5.7289697676897049 4.95373558998108 18.900599822402 4.799187958240509 57.284222215414047 6.0491498261690166 4.9848946928977966 12.791336253285406
leaf_count=40 19 31 35 20 23 22 82 20 278 25 20 53
internal_value=-0.000445837 0.0997193 -0.0617631 -0.0702245 0.0355717 -0.00572974 -0.0114627 0.0932119 -0.0914477 0.151236 0.132539 0.163704
internal_weight=149.129 56.6264 92.5024 87.7524 25.2212 14.693 23.2842 10.5282 64.4682 31.4051 12.5647 18.8405
internal_count=668 234 434 415 105 62 102 43 313 129 51 78
cat_boundaries=0 1 2 3
cat_threshold=4 4 1
is_linear=0
shrinkage=0.1


Tree=5
num_leaves=12
num_cat=1
split_feature=2 3 0 1 0 1 0 1 0 1 1
split_gain=76.1616 16.1378 10.1831 9.59873 5.37454 5.0335 3.94842 1.88526 0.725932 1.01312 0.00325359
threshold=1.0000000180025095e-35 0 6.5000000000000009 26.266650000000002 27.500000000000004 7.910400000000001 24.500000000000004 7.133350000000001 24.500000000000004 30.597900000000003 41.989600000000003
decision_type=2 1 8 2 10 2 8 2 10 2 2
left_child=1 4 -2 7 5 -1 -5 -4 10 -10 -3
right_child=2 8 3 6 -6 -7 -8 -9 9 -11 -12
leaf_value=0.12001299097564525 0.085304540469465062 0.16281930785633114 -0.13586174131823339 -0.097857163227101571 -0.054803546955477317 0.016070537161462273 0.0090806556854618244 -0.079762720819021984 0.10295164565317945 0.14897397158219747 0.15937021746878618
leaf_weight=7.660755127668387 4.7389874011278144 4.9740029424428958 6.7193591296672812 4.2219519615173366 5.5371595174074164 11.889595717191694 18.95032025873661 55.224650114774704 8.5095254331827181 10.923212245106695 6.0757471919059753
leaf_count=31 19 21 35 20 24 50 82 278 35 47 26
internal_value=-0.000454356 0.0915693 -0.0573654 -0.0653088 0.0321677 0.0568001 -0.0104032 -0.085848 0.140458 0.128821 0.160923
internal_weight=145.425 55.57 89.8553 85.1163 25.0875 19.5504 23.1723 61.944 30.4825 19.4327 11.0498
internal_count=668 234 434 415 105 81 102 313 129 82 47
cat_boundaries=0 1
cat_threshold=4
is_linear=0
shrinkage=0.1


Tree=6
num_leaves=12
num_cat=2
split_feature=2 3 0 3 0 1 0 0 1 0 1
split_gain=63.5507 14.1349 8.489 8.54152 4.69928 4.75306 3.69614 1.65721 0.718041 0.409644 0.11689
threshold=1.0000000180025095e-35 0 6.5000000000000009 1 5.5000000000000009 14.200000000000001 53.000000000000007 32.250000000000007 29.850000000000005 33.500000000000007 126.82500000000002
decision_type=2 1 8 1 10 2 8 8 2 10 2
left_child=1 4 -2 6 -1 -6 -4 -5 9 -3 -10
right_child=2 8 3 7 5 -7 -8 -9 10 -11 -12
leaf_value=0.084825604298913518 0.077252657724675738 0.12796895210156237 0.031249226454434155 -0.062653717079601101 0.040628019111873942 -0.072270131669197504 -0.060840669682126751 -0.094954462043872229 0.14953251979251453 0.090350069787642359 0.13110558340134176
leaf_weight=9.4252159297466296 4.7110180556774131 7.1313481777906436 12.139709755778314 32.75230847299099 9.2889892011880857 6.2301492989063254 6.7995130121707907 30.840011268854141 12.626164123415949 4.872346818447113 4.7328706979751578
leaf_count=39 19 31 51 169 38 28 31 164 57 20 21
internal_value=-0.000444135 0.0844821 -0.0533093 -0.060762 0.0291304 -0.00469488 -0.00181266 -0.0783184 0.131505 0.112699 0.144508
internal_weight=141.55 54.3071 87.2426 82.5315 24.9444 15.5191 18.9392 63.5923 29.3627 12.0037 17.359
internal_count=668 234 434 415 105 66 82 333 129 51 78
cat_boundaries=0 1 2
cat_threshold=4 1
is_linear=0
shrinkage=0.1


Tree=7
num_leaves=14
num_cat=3
split_feature=2 3 1 0 3 4 1 0 0 1 1 0 1
split_gain=53.1238 12.5457 7.60935 5.09154 5.36293 4.23899 4.15873 1.60634 0.99686 1.29409 0.730732 0.393898 0.117691
threshold=1.0000000180025095e-35 0 7.910400000000001 6.5000000000000009 1 2 20.089600000000001 3.5000000000000004 32.250000000000007 7.8875000000000011 29.850000000000005 33.500000000000007 126.82500000000002
decision_type=2 1 2 8 1 9 2 10 10 2 2 10 2
left_child=1 5 8 -4 -5 6 -1 -7 9 -2 11 -3 -12
right_child=2 10 3 4 -6 7 -8 -9 -10 -11 12 -13 -14
leaf_value=0.02879214754503941 -0.070234903068238083 0.12010392938394113 0.07015010943663802 0.0064356110490165243 -0.060300547208337135 0.11191145530293745 -0.085365999810002452 0.032702105783880948 -0.1311002318115056 -0.13202920042459887 0.14265329338375829 0.082732838275743112 0.12371607724402195
leaf_weight=9.7691423147916776 14.693557664752012 6.8529804199934024 4.6712640374898902 17.842102885246277 37.0382379591465 5.5516835898160934 4.7392585575580606 4.7515388876199722 6.0386369079351416 4.404943734407424 11.946454539895059 4.793020486831665 4.5248041003942481
leaf_count=40 81 31 19 77 199 23 22 20 34 24 57 20 21
internal_value=-0.000429977 0.0781612 -0.049548 -0.0300733 -0.038604 0.0263338 -0.00849831 0.0753825 -0.0956851 -0.0844874 0.123896 0.104724 0.137451
internal_weight=137.618 52.9289 84.6887 59.5516 54.8803 24.8116 14.5084 10.3032 25.1371 19.0985 28.1173 11.646 16.4713
internal_count=668 234 434 295 276 105 62 43 139 105 129 51 78
cat_boundaries=0 1 2 3
cat_threshold=4 1 4
is_linear=0
shrinkage=0.1


Tree=8
num_leaves=12
num_cat=2
split_feature=2 3 0 3 0 1 0 1 1 0 0
split_gain=44.5049 11.1922 9.01636 7.1895 3.53207 3.68359 3.29074 1.53065 0.749706 0.381054 0.125858
threshold=1.0000000180025095e-35 0 3.5000000000000004 1 27.500000000000004 7.910400000000001 53.000000000000007 7.133350000000001 29.850000000000005 33.500000000000007 25.500000000000004
decision_type=2 1 8 1 10 2 8 2 2 10 8
left_child=1 4 -2 6 5 -1 -4 -5 9 -3 -10
right_child=2 8 3 7 -6 -7 -8 -9 10 -11 -12
leaf_value=0.099419604703174028 0.11325440733821707 0.11321644313944056 0.030880137283302762 -0.12454008580074452 -0.0479939745875387 0.0094342637102318595 -0.056241691440311381 -0.065274668788358567 0.11847093850542012 0.075922168359492781 0.13772568342189356
leaf_weight=7.3665863424539628 3.406926065683364 6.5582677721977252 12.43991255760193 4.7325642555952063 5.3503204286098471 11.894241288304327 6.654797598719596 55.040662497282028 5.0095104426145527 4.7053363919258118 10.531517267227173
leaf_count=31 14 31 52 30 24 50 31 307 25 20 53
internal_value=-0.000410935 0.072575 -0.0460218 -0.0529022 0.023884 0.0438505 0.000516852 -0.069967 0.117281 0.0976369 0.131519
internal_weight=133.691 51.4158 82.2749 78.8679 24.6111 19.2608 19.0947 59.7732 26.8046 11.2636 15.541
internal_count=668 234 434 420 105 81 83 337 129 51 78
cat_boundaries=0 1 2
cat_threshold=4 1
is_linear=0
shrinkage=0.1


Tree=9
num_leaves=13
num_cat=2
split_feature=2 3 1 0 3 0 1 0 1 0 1 1
split_gain=37.3435 10.0256 6.38238 3.36816 4.35147 3.20051 3.22486 1.03561 1.31148 0.789898 1.01147 0.00207601
threshold=1.0000000180025095e-35 0 7.910400000000001 6.5000000000000009 1 5.5000000000000009 9.5437500000000011 32.250000000000007 7.8875000000000011 24.500000000000004 30.597900000000003 41.989600000000003
decision_type=2 1 2 8 1 10 2 10 2 10 2 2
left_child=1 5 7 -4 -5 -1 -7 8 -2 11 -11 -3
right_child=2 9 3 4 -6 6 -8 -9 -10 10 -12 -13
leaf_value=0.06822179864710684 -0.060824822649469035 0.13683480706883641 0.057582812289507249 -0.082550712852798414 -0.015612866875182272 0.044718541333019945 -0.047965734731903242 -0.12583107935354887 -0.12629751644038573 0.07187864827177641 0.12159205316021363 0.13379048401065721
leaf_weight=9.2096493840217608 13.546547532081609 4.1246668249368685 4.5591024905443183 12.866328224539757 39.608519792556763 6.7935714125633231 8.3905166387557966 5.3654137253761283 3.9519870877265921 7.6817922294139889 8.7595557868480665 4.902334064245224
leaf_count=39 81 21 19 74 202 28 38 34 24 35 47 26
internal_value=-0.000378055 0.0675297 -0.0427574 -0.0248624 -0.0320254 0.0217121 -0.00649751 -0.0873965 -0.0756116 0.111414 0.0983648 0.135182
internal_weight=129.76 49.8621 79.8979 57.034 52.4748 24.3937 15.1841 22.8639 17.4985 25.4683 16.4413 9.027
internal_count=668 234 434 295 276 105 66 139 105 129 82 47
cat_boundaries=0 1 2
cat_threshold=4 2
is_linear=0
shrinkage=0.1


Tree=10
num_leaves=15
num_cat=3
split_feature=2 3 1 4 1 4 0 0 1 1 1 1 0 1
split_gain=31.3048 9.02951 5.70117 3.17776 3.60465 2.97511 3.4115 2.22858 1.25302 1.03175 1.69487 0.793198 0.364786 0.151985
threshold=1.0000000180025095e-35 0 7.910400000000001 1 52.277100000000011 2 27.500000000000004 35.500000000000007 8.0937500000000018 7.133350000000001 7.8875000000000011 29.850000000000005 33.500000000000007 126.82500000000002
decision_type=2 1 2 9 2 9 8 8 2 2 2 2 10 2
left_child=1 5 9 7 -5 6 -1 -4 -7 -2 -11 12 -3 -13
right_child=2 11 3 4 -6 8 -8 -9 -10 10 -12 13 -14 -15
leaf_value=0.029174316327768665 -0.12261398683616408 0.10167606499347948 0.073990102264360536 -0.045503055044334349 0.037651742614966073 0.095820039007980598 -0.071366202884391772 -0.016643833421176927 0.024838561925095579 -0.051471725701376939 -0.12303356178389822 0.12856825280426828 0.063996475869059738 0.10505060374615303
leaf_weight=8.7438871711492521 5.0710968226194408 5.95976570248604 5.0915938913822165 39.229983597993851 6.0118947923183432 5.1607673168182373 5.4963867366313943 5.807352915406228 4.8000813275575638 12.073363631963732 4.5594374835491172 9.849818602204321 4.5165246725082397 3.8112773150205603
leaf_count=37 35 31 24 216 28 23 25 27 20 74 30 57 20 21
internal_value=-0.000352758 0.0628553 -0.0396025 -0.0227758 -0.0344532 0.0196922 -0.00963179 0.0256971 0.0616144 -0.0831274 -0.0710885 0.106132 0.0854317 0.122007
internal_weight=126.183 48.3385 77.8447 56.1408 45.2419 24.2011 14.2403 10.8989 9.96085 21.7039 16.6328 24.1374 10.4763 13.6611
internal_count=668 234 434 295 244 105 62 51 43 139 104 129 51 78
cat_boundaries=0 1 2 3
cat_threshold=4 1 4
is_linear=0
shrinkage=0.1


Tree=11
num_leaves=12
num_cat=2
split_feature=2 3 0 3 0 0 1 0 0 1 1
split_gain=26.241 8.13156 6.60346 5.39503 2.51014 2.46355 2.62743 1.51712 0.826542 1.02011 0.00142286
threshold=1.0000000180025095e-35 0 3.5000000000000004 1 53.000000000000007 5.5000000000000009 14.200000000000001 45.250000000000007 24.500000000000004 30.597900000000003 41.989600000000003
decision_type=2 1 8 1 8 10 2 10 10 2 2
left_child=1 5 -2 4 -4 -1 -7 -5 10 -10 -3
right_child=2 8 3 7 -6 6 -8 -9 9 -11 -12
leaf_value=0.059087521988840833 0.10164227039898516 0.12888131493718077 0.029435004727685468 -0.05448386257732131 -0.047758903148005849 0.026461015277252326 -0.059584733054443152 -0.12226331304243827 0.060568615552086535 0.112877065465945 0.12619045784387958
leaf_weight=9.0452326089143771 3.3065431565046302 3.6419434398412731 12.431761443614961 50.438237108290195 6.3713062405586234 9.1117500960826856 5.8124910145997992 3.5337180197238913 7.2561822086572629 7.66812564432621 4.2679335027933121
leaf_count=39 14 21 52 313 31 38 28 24 35 47 26
internal_value=-0.000326752 0.0585902 -0.0365711 -0.0428509 0.00327831 0.0179074 -0.00705092 -0.0589216 0.101296 0.0874448 0.127429
internal_weight=122.885 46.8037 76.0816 72.775 18.8031 23.9695 14.9242 53.972 22.8342 14.9243 7.90988
internal_count=668 234 434 420 83 105 66 337 129 82 47
cat_boundaries=0 1 2
cat_threshold=4 1
is_linear=0
shrinkage=0.1


Tree=12
num_leaves=13
num_cat=3
split_feature=2 3 0 3 1 4 1 1 1 1 1 1
split_gain=22.0132 7.3419 5.51075 4.63219 2.49334 2.37517 2.98208 1.48791 1.00454 0.838508 0.359848 0.175537
threshold=1.0000000180025095e-35 0 3.5000000000000004 1 30.597900000000003 2 20.089600000000001 7.133350000000001 8.0937500000000018 29.850000000000005 20.787500000000005 126.82500000000002
decision_type=2 1 8 1 2 9 2 2 2 2 2 2
left_child=1 5 -2 4 -4 6 -1 -5 -7 10 -3 -11
right_child=2 9 3 7 -6 8 -8 -9 -10 11 -12 -13
leaf_value=0.021231783182095076 0.09403735177774826 0.095106518412639771 0.048348896516607204 -0.11666104341075592 -0.026364119256556351 0.086085150583093017 -0.077834422953476284 -0.050401346302914908 0.021665362966609824 0.12230809894696391 0.056573769319627688 0.095318604587468547
leaf_weight=9.6471596807241422 3.221051648259162 4.6514027118682879 7.3492491990327862 3.6438124775886527 11.388324499130247 4.915921539068222 4.4356688410043725 48.470951795578003 4.7688400000333786 8.4991952180862409 5.0601591318845749 3.3634153902530661
leaf_count=40 14 24 34 30 49 23 22 307 20 57 27 21
internal_value=-0.000295234 0.0545822 -0.0338868 -0.0397024 0.00293981 0.0162442 -0.0099711 -0.0550342 0.0543644 0.096818 0.0750292 0.114656
internal_weight=119.415 45.3418 74.0734 70.8523 18.7376 23.7676 14.0828 52.1148 9.68476 21.5742 9.71156 11.8626
internal_count=668 234 434 420 83 105 62 337 43 129 51 78
cat_boundaries=0 1 2 3
cat_threshold=4 1 4
is_linear=0
shrinkage=0.1


Tree=13
num_leaves=14
num_cat=2
split_feature=2 3 1 4 1 0 0 1 0 1 0 1 1
split_gain=18.4652 6.59185 4.60505 2.33752 2.91246 2.14801 1.99557 1.88948 1.15963 1.35924 0.900925 1.04173 0.0013861
threshold=1.0000000180025095e-35 0 7.910400000000001 1 52.277100000000011 27.500000000000004 5.5000000000000009 14.200000000000001 32.250000000000007 7.8875000000000011 24.500000000000004 30.597900000000003 41.989600000000003
decision_type=2 1 2 9 2 10 10 2 10 2 10 2 2
left_child=1 6 8 5 -5 -4 -1 -8 9 -2 12 -12 -3
right_child=2 10 3 4 -6 -7 7 -9 -10 -11 11 -13 -14
leaf_value=0.052331053657369814 -0.044450308347017083 0.12345830032248527 0.071677855315681327 -0.037301966482569948 0.038292811830680701 -0.017782521966091185 0.020392771957369035 -0.05352144358686272 -0.11927834305196149 -0.11845723886503326 0.050103002975935257 0.10566783236845881 0.12061503576923271
leaf_weight=8.8368122875690478 11.662379652261736 3.2158439308404949 5.1947493851184845 36.516525059938431 5.9232383072376242 5.5530168414115906 9.0549971461296064 5.5957519859075537 4.2827783897519103 3.1525605022907248 6.8433920294046384 6.65549236536026 3.6728421747684479
leaf_count=39 81 21 26 216 28 25 38 28 34 24 35 47 26
internal_value=-0.000263683 0.050912 -0.0313259 -0.0162015 -0.0267513 0.0254566 0.0147995 -0.00783825 -0.0734477 -0.0601987 0.0925156 0.0774987 0.121942
internal_weight=116.16 43.8751 72.2852 53.1875 42.4398 10.7478 23.4876 14.6507 19.0977 14.8149 20.3876 13.4989 6.88869
internal_count=668 234 434 295 244 51 105 66 139 105 129 82 47
cat_boundaries=0 1 2
cat_threshold=4 1
is_linear=0
shrinkage=0.1


Tree=14
num_leaves=15
num_cat=2
split_feature=2 3 1 0 1 1 4 0 1 1 0 1 1 1
split_gain=15.4536 5.94356 4.08163 2.14478 4.10773 2.19378 1.90069 2.60647 1.16436 1.74934 0.906225 1.01873 0.81166 0.000960575
threshold=1.0000000180025095e-35 0 7.910400000000001 49.500000000000007 52.277100000000011 13.679150000000002 1 27.500000000000004 7.133350000000001 7.8875000000000011 24.500000000000004 30.597900000000003 8.0937500000000018 41.989600000000003
decision_type=2 1 2 8 2 2 9 8 2 2 10 2 2 2
left_child=1 6 8 4 -4 -5 7 -1 -2 -10 13 -12 -8 -3
right_child=2 10 3 5 -6 -7 12 -9 9 -11 11 -13 -14 -15
leaf_value=0.023666736958641962 -0.11715151497210932 0.12073908195320425 -0.018088277164332606 -0.12116577356096953 0.065869403918602062 -0.026973336660925371 0.077676742594159867 -0.065715505429874199 -0.03561992973599909 -0.11629070142253249 0.046213609060635652 0.1024897681368183 0.018930137148647202 0.11827548419898853
leaf_weight=8.6378657817840558 4.0270760655403164 2.9719568490982082 30.96765448153019 3.1577935814857474 7.1782893389463416 11.39606900513172 4.6757964938879013 5.2426271140575418 10.534705586731432 3.6089588999748221 6.6859168112277967 6.199308916926384 4.7319101393222809 3.3856666088104248
leaf_count=37 35 21 181 22 32 60 23 25 74 30 35 47 20 26
internal_value=-0.00024459 0.0474078 -0.0288419 -0.0147501 -0.00228915 -0.0474105 0.0134267 -0.0100927 -0.0697116 -0.0562042 0.0885326 0.0732891 0.0481282 0.119427
internal_weight=113.402 42.531 70.8705 52.6998 38.1459 14.5539 23.2882 13.8805 18.1707 14.1437 19.2428 12.8852 9.40771 6.35762
internal_count=668 234 434 295 213 82 105 62 139 104 129 82 43 47
cat_boundaries=0 1 2
cat_threshold=4 4
is_linear=0
shrinkage=0.1


end of trees

feature_importances:
fare=72
age=60
class=24
sex=15
embark_town=9

parameters:
[boosting: gbdt]
[objective: binary]
[metric: binary_logloss]
[tree_learner: serial]
[device_type: cpu]
[data_sample_strategy: bagging]
[data: ]
[valid: ]
[num_iterations: 15]
[learning_rate: 0.1]
[num_leaves: 31]
[num_threads: 8]
[seed: 42]
[deterministic: 0]
[force_col_wise: 0]
[force_row_wise: 0]
[histogram_pool_size: -1]
[max_depth: 4]
[min_data_in_leaf: 20]
[min_sum_hessian_in_leaf: 0.001]
[bagging_fraction: 1]
[pos_bagging_fraction: 1]
[neg_bagging_fraction: 1]
[bagging_freq: 0]
[bagging_seed: 400]
[bagging_by_query: 0]
[feature_fraction: 1]
[feature_fraction_bynode: 1]
[feature_fraction_seed: 30056]
[extra_trees: 0]
[extra_seed: 12879]
[early_stopping_round: 0]
[early_stopping_min_delta: 0]
[first_metric_only: 0]
[max_delta_step: 0]
[lambda_l1: 0]
[lambda_l2: 0]
[linear_lambda: 0]
[min_gain_to_split: 0]
[drop_rate: 0.1]
[max_drop: 50]
[skip_drop: 0.5]
[xgboost_dart_mode: 0]
[uniform_drop: 0]
[drop_seed: 17869]
[top_rate: 0.2]
[other_rate: 0.1]
[min_data_per_group: 100]
[max_cat_threshold: 32]
[cat_l2: 10]
[cat_smooth: 10]
[max_cat_to_onehot: 4]
[top_k: 20]
[monotone_constraints: ]
[monotone_constraints_method: basic]
[monotone_penalty: 0]
[feature_contri: ]
[forcedsplits_filename: ]
[refit_decay_rate: 0.9]
[cegb_tradeoff: 1]
[cegb_penalty_split: 0]
[cegb_penalty_feature_lazy: ]
[cegb_penalty_feature_coupled: ]
[path_smooth: 0]
[interaction_constraints: ]
[verbosity: 1]
[saved_feature_importance_type: 0]
[use_quantized_grad: 0]
[num_grad_quant_bins: 4]
[quant_train_renew_leaf: 0]
[stochastic_rounding: 1]
[linear_tree: 0]
[max_bin: 255]
[max_bin_by_feature: ]
[min_data_in_bin: 3]
[bin_construct_sample_cnt: 200000]
[data_random_seed: 175]
[is_enable_sparse: 1]
[enable_bundle: 1]
[use_missing: 1]
[zero_as_missing: 0]
[feature_pre_filter: 1]
[pre_partition: 0]
[two_round: 0]
[header: 0]
[label_column: ]
[weight_column: ]
[group_column: ]
[ignore_column: ]
[categorical_feature: 3,4]
[forcedbins_filename: ]
[precise_float_parser: 0]
[parser_config_file: ]
[objective_seed: 16083]
[num_class: 1]
[is_unbalance: 0]
[scale_pos_weight: 1]
[sigmoid: 1]
[boost_from_average: 1]
[reg_sqrt: 0]
[alpha: 0.9]
[fair_c: 1]
[poisson_max_delta_step: 0.7]
[tweedie_variance_power: 1.5]
[lambdarank_truncation_level: 30]
[lambdarank_norm: 1]
[label_gain: ]
[lambdarank_position_bias_regularization: 0]
[eval_at: ]
[multi_error_top_k: 1]
[auc_mu_weights: ]
[num_machines: 1]
[local_listen_port: 12400]
[time_out: 120]
[machine_list_filename: ]
[machines: ]
[gpu_platform_id: -1]
[gpu_device_id: -1]
[gpu_use_dp: 0]
[num_gpu: 1]

end of parameters

pandas_categorical:[["First", "Second", "Third"], ["Cherbourg", "Queenstown", "Southampton"]]
