tree
version=v4
num_class=1
num_tree_per_iteration=1
label_index=0
max_feature_idx=9
objective=binary sigmoid:1
feature_names=age sex bmi bp s1 s2 s3 s4 s5 s6
feature_infos=[-0.10722563160735379:0.11072667545381144] [-0.044641636506989144:0.050680118739818619] [-0.090275295898509453:0.13714305169033927] [-0.11239880254408448:0.13204361674121307] [-0.12678066991651324:0.15253776029831428] [-0.11561306597939897:0.19878798965729408] [-0.10230705051741597:0.18117906039727852] [-0.076394503750003298:0.18523444326019867] [-0.12609712083330468:0.13359728192191356] [-0.13776722569000302:0.13561183068907107]
tree_sizes=1614 1514 1521 1718 1623 1724 1518 1518 1721 1519 1623 1733

Tree=0
num_leaves=14
num_cat=0
split_feature=2 8 3 6 1 8 6 5 3 0 3 6 0
split_gain=76.2567 32.5302 12.3849 5.69689 5.61122 3.57696 3.52424 3.27966 2.50002 2.3458 1.95215 0.400745 7.10543e-15
threshold=0.0078056028246433007 0.0066169375651375798 -0.018873755785139307 0.021027815919496564 1.0000000180025095e-35 -0.011400050993453051 -0.026833475533633671 0.043936075302369079 -0.038377506563325364 0.021729483403835632 -0.011988053833440785 0.054162556156279039 0.039892175658932737
decision_type=2 2 2 2 2 2 2 2 2 2 2 2 2
left_child=1 3 -2 4 8 -4 -3 12 -1 -6 11 -5 -7
right_child=2 6 5 10 9 7 -8 -9 -10 -11 -12 -13 -14
leaf_value=-0.034617875567221824 0.013953943843522424 0.057107000439680596 0.045382768168121618 -0.076436393883424061 -0.079803424343665816 0.10538325096962921 0.0086082787091331138 0.059928339756365918 0.015382526767367842 -0.034617875567221824 -0.051139747642999292 -0.094618358368729436 0.10538325096962926
leaf_weight=4.9999597668647766 8.7499295920133573 7.2499416619539261 4.9999597668647793 5.499955743551256 6.7499456852674484 8.9999275803565997 7.749937638640402 5.4999557435512534 4.9999597668647766 4.9999597668647766 5.7499537318944922 6.7499456852674484 5.2499577552080146
leaf_count=20 35 29 20 22 27 36 31 22 20 20 23 27 21
internal_value=0.00566573 -0.0306909 0.0650844 -0.0543665 -0.0371466 0.0831608 0.0320493 0.0927249 -0.00961767 -0.0605755 -0.0751738 -0.086455 0.105383
internal_weight=88.2493 54.7496 33.4997 39.7497 21.7498 24.7498 14.9999 19.7498 9.99992 11.7499 17.9999 12.2499 14.2499
internal_count=353 219 134 159 87 99 60 79 40 47 72 49 57
is_linear=0
shrinkage=1


Tree=1
num_leaves=13
num_cat=0
split_feature=2 8 3 6 2 4 3 9 2 0 5 3
split_gain=68.9088 29.3918 11.2199 5.35249 4.37548 5.70696 3.45914 3.38083 1.88593 1.30124 0.729862 0.130829
threshold=0.0078056028246433007 0.0066169375651375798 -0.018873755785139307 -0.015788562121372845 -0.030456725798125067 -0.00088098339111068638 0.044250916857056906 0.017561783616289087 0.038523246930246093 -0.06181890096961104 -0.034194465914119877 0.073515150151775635
decision_type=2 2 2 2 2 2 2 2 2 2 2 2
left_child=1 3 -2 -1 9 -6 8 -3 -4 -5 -11 -8
right_child=2 7 6 4 5 -7 11 -9 -10 10 -12 -13
leaf_value=-0.016509599173268909 0.0078741277297606337 0.0043128538127282521 0.036985623223395075 -0.05770538320851553 -0.012111973376695388 -0.079375383777801872 0.095989002105810725 0.052225422414749034 0.076977950806672427 -0.074831052443999277 -0.096866758134918962 0.085604129364402592
leaf_weight=6.7453742027282706 8.7495739012956601 8.4966571629047376 6.7389908432960528 4.9955513030290577 6.9943704456090927 5.7425011992454547 7.7350913286209089 6.4972914755344382 5.2401455044746399 6.7422467619180653 8.4890617430210131 4.9887730777263641
leaf_count=27 35 34 27 20 28 23 31 26 21 27 34 20
internal_value=3.2674e-07 -0.034569 0.0565296 -0.0570902 -0.0653942 -0.0424381 0.0737629 0.0250747 0.0544798 -0.0798496 -0.0871125 0.0919173
internal_weight=88.1556 54.7031 33.4526 39.7091 32.9637 12.7369 24.703 14.9939 11.9791 20.2269 15.2313 12.7239
internal_count=353 219 134 159 132 51 99 60 48 81 61 51
is_linear=0
shrinkage=0.05


Tree=2
num_leaves=13
num_cat=0
split_feature=2 8 3 6 2 4 8 6 5 0 5 3
split_gain=62.3887 26.6108 10.2206 4.86887 3.98876 5.18991 3.24011 3.17983 2.97596 1.19425 0.671601 0.00286612
threshold=0.0078056028246433007 0.0066169375651375798 -0.018873755785139307 -0.015788562121372845 -0.030456725798125067 -0.00088098339111068638 -0.011400050993453051 -0.026833475533633671 0.043936075302369079 -0.06181890096961104 -0.034194465914119877 0.044250916857056906
decision_type=2 2 2 2 2 2 2 2 2 2 2 2
left_child=1 3 -2 -1 9 -6 -4 -3 11 -5 -11 -8
right_child=2 7 6 4 5 -7 8 -9 -10 10 -12 -13
leaf_value=-0.015690574529180764 0.0074809584335314497 0.047670736777989636 0.034403973694608174 -0.054942715273958546 -0.011509924725399424 -0.075732744785594525 0.092516417679655363 0.0015761808160753581 0.048264141673969224 -0.071356516985939894 -0.092541768201253455 0.091074483560033878
leaf_weight=6.7426669150590888 8.7489579617977125 7.2365369647741318 4.9829352647066143 4.9846540987491581 6.9922657012939453 5.7183274924755114 5.9600452780723598 7.7468073368072492 5.4758957326412192 6.7175823450088474 8.4425581097602862 8.170697405934332
leaf_count=27 35 29 20 20 28 23 24 31 22 27 34 33
internal_value=6.13097e-07 -0.0329171 0.0538931 -0.0543927 -0.0623352 -0.0404029 0.0704065 0.0238386 0.0795564 -0.0761737 -0.0831544 0.0916827
internal_weight=87.9199 54.5814 33.3385 39.5981 32.8554 12.7106 24.5896 14.9833 19.6066 20.1448 15.1601 14.1307
internal_count=353 219 134 159 132 51 99 60 79 81 61 57
is_linear=0
shrinkage=0.05


Tree=3
num_leaves=15
num_cat=0
split_feature=2 8 3 6 1 8 9 2 8 3 3 2 9 4
split_gain=56.596 24.145 9.4257 4.56205 5.22453 3.83515 3.05599 2.37413 2.17919 2.13561 1.73951 0.443321 0.394147 0.00293276
threshold=0.0078056028246433007 0.0066169375651375798 1.0000000180025095e-35 0.021027815919496564 1.0000000180025095e-35 -0.00468185186991077 0.017561783616289087 0.040678871078007703 -0.030137172158230731 -0.038377506563325364 -0.011988053833440785 0.030978562413080495 -0.048711927021062203 0.022510215198308373
decision_type=2 2 2 2 2 2 2 2 2 2 2 2 2 2
left_child=1 3 7 4 9 -4 -3 -2 -6 -1 12 -7 -5 -13
right_child=2 6 5 10 8 11 -8 -9 -10 -11 -12 13 -14 -15
leaf_value=-0.033101691474911002 0.037462432657767789 0.0029384998621185248 0.032692630472523639 -0.071430945996097853 -0.083257967616991169 0.070688579038714949 0.048541953166638452 -0.0075680029190252386 -0.039802998854930105 0.013200797328891775 -0.047918867308138872 0.087645453552441743 -0.089589017404781826 0.089270191478573541
leaf_weight=4.97086501121521 5.9779025316238386 8.4878863990306836 4.971086889505389 5.4254587739706048 5.211181700229643 5.1804992109537151 6.4768913388252249 5.7353915274143219 6.4634038805961627 4.9904092401266098 5.6983007639646521 6.3707336783409101 6.6535421907901773 4.9243724048137665
leaf_count=20 24 34 20 22 21 21 26 23 26 20 23 26 27 20
internal_value=9.30723e-07 -0.0313941 0.0514845 -0.051924 -0.0365043 0.0711851 0.0226761 0.0154134 -0.0592 -0.00990502 -0.0706905 0.0827992 -0.0814331 0.0883538
internal_weight=87.5379 54.3779 33.16 39.4132 21.6359 21.4467 14.9648 11.7133 11.6746 9.96127 17.7773 16.4756 12.079 11.2951
internal_count=353 219 134 159 87 87 60 47 47 40 72 67 49 46
is_linear=0
shrinkage=0.05


Tree=4
num_leaves=14
num_cat=0
split_feature=2 8 3 6 2 4 3 6 2 5 3 7 9
split_gain=51.4101 21.9397 8.72218 4.37087 3.65057 4.67542 3.04881 2.9164 1.73176 1.11651 0.680769 0.510524 0.141703
threshold=0.0078056028246433007 0.0066169375651375798 -0.018873755785139307 -0.015788562121372845 -0.030456725798125067 -0.00088098339111068638 0.044250916857056906 -0.041560026749981431 0.038523246930246093 -0.057837174779229762 -0.028048953635777585 0.016780826461669476 0.038272318190461375
decision_type=2 2 2 2 2 2 2 2 2 2 2 2 2
left_child=1 3 -2 -1 9 -6 8 -3 -4 -5 -11 -9 -8
right_child=2 7 6 4 5 -7 12 11 -10 10 -12 -13 -14
leaf_value=-0.012937194267776196 0.0064594014272350182 0.052867264526951757 0.029689385212649428 -0.050601721166180058 -0.0088087590278861285 -0.07005811861094205 0.086499422008435869 0.017279560080425936 0.068331067935366849 -0.065749936439169598 -0.08738400889889042 -0.0053453212010966386 0.075634651446627427
leaf_weight=6.7226360738277426 8.7449837625026685 4.9696301817893973 6.6551423966884631 5.1661935001611683 6.9700656235218048 5.6343324184417742 7.3049497306346876 4.9936145544052106 5.1378816664218903 6.6236741989850971 8.0626204162836093 4.9798204749822617 5.0937272310256958
leaf_count=27 35 20 27 21 28 23 30 20 21 27 33 20 21
internal_value=1.35697e-06 -0.0299721 0.0492547 -0.0496323 -0.0572328 -0.036188 0.0647247 0.0215752 0.0465245 -0.0705941 -0.0776268 0.00598277 0.0820359
internal_weight=87.0593 54.1226 32.9367 39.1795 32.4569 12.6044 24.1917 14.9431 11.793 19.8525 14.6863 9.97344 12.3987
internal_count=353 219 134 159 132 51 99 60 48 81 60 40 51
is_linear=0
shrinkage=0.05


Tree=5
num_leaves=15
num_cat=0
split_feature=2 8 3 6 1 8 9 2 0 3 3 5 9 3
split_gain=46.7604 19.9683 8.08 4.03873 4.85369 3.60973 2.81223 2.15806 2.02728 1.89756 1.62857 0.415531 0.375791 0.0030514
threshold=0.0078056028246433007 0.0066169375651375798 1.0000000180025095e-35 0.021027815919496564 1.0000000180025095e-35 -0.00468185186991077 0.017561783616289087 0.040678871078007703 0.021729483403835632 -0.038377506563325364 -0.011988053833440785 0.037359957604788843 -0.048711927021062203 0.051136618808755432
decision_type=2 2 2 2 2 2 2 2 2 2 2 2 2 2
left_child=1 3 7 4 9 -4 -3 -2 -6 -1 12 13 -5 -7
right_child=2 6 5 10 8 11 -8 -9 -10 -11 -12 -13 -14 -15
leaf_value=-0.029306436642876056 0.034930969603256715 0.0016042490346751934 0.028279496073033705 -0.066075492551442738 -0.073127287492015566 0.083417974287139304 0.045429788698227488 -0.0080533910326272672 -0.030788329564559333 0.014450778910484985 -0.043240091284795473 0.064989288576087059 -0.084003116573663661 0.08175986309294403
leaf_weight=4.9306323528289795 5.9567087292671186 8.4755682349204999 4.9231381565332439 5.3164808005094537 6.6089771240949631 5.0379318147897738 6.4431890100240699 5.7277493327856064 4.9411178082227707 4.9801204651594162 5.6233126968145362 4.8507822006940833 6.4930520206689843 6.1763076782226562
leaf_count=20 24 34 20 22 27 21 26 23 20 20 23 20 27 26
internal_value=1.38874e-06 -0.0286463 0.0471847 -0.0475099 -0.0329884 0.0657371 0.0205318 0.0138599 -0.0550147 -0.00731858 -0.0653868 0.077216 -0.0759324 0.0825048
internal_weight=86.4851 53.8125 32.6726 38.8937 21.4608 20.9882 14.9188 11.6845 11.5501 9.91075 17.4328 16.065 11.8095 11.2142
internal_count=353 219 134 159 87 87 60 47 47 40 72 67 49 47
is_linear=0
shrinkage=0.05


Tree=6
num_leaves=13
num_cat=0
split_feature=2 8 3 6 2 4 5 8 6 5 8 9
split_gain=42.5828 18.1949 7.66707 3.96647 3.401 4.2404 3.15158 4.67059 2.71982 1.06196 0.668141 0.140464
threshold=0.0078056028246433007 0.0066169375651375798 0.044250916857056906 -0.015788562121372845 -0.030456725798125067 -0.00088098339111068638 0.043936075302369079 -0.012402767280548925 -0.026833475533633671 -0.057837174779229762 -0.046153285943934627 0.038272318190461375
decision_type=2 2 2 2 2 2 2 2 2 2 2 2
left_child=1 3 6 -1 9 -6 7 -2 -3 -5 -11 -4
right_child=2 8 11 4 5 -7 -8 -9 -10 10 -12 -13
leaf_value=-0.010532920826427549 0.0021566096840405394 0.041743550408732483 0.081425839735603509 -0.046307889264102814 -0.0064618940349548864 -0.065215324232330077 -0.0050773633187727145 0.060522631202172633 -0.0010272629485216589 -0.061745630226094597 -0.083338131222515363 0.070440779804171863
leaf_weight=6.692928433418273 5.4599700272083274 7.1619161069393158 7.0866710245609266 5.0837998241186151 6.9379459172487259 5.5098932832479495 5.6771865040063849 9.2083165049552935 7.7272901237010938 6.9335425347089767 7.413017526268959 4.9376222044229507
leaf_count=27 22 29 30 21 28 23 23 38 31 29 31 21
internal_value=1.80031e-06 -0.0274027 0.0452617 -0.0455258 -0.0528726 -0.0324684 0.0265544 0.0387971 0.0195461 -0.0659444 -0.0729027 0.076915
internal_weight=85.8301 53.4603 32.3698 38.5711 31.8782 12.4478 20.3455 14.6683 14.8892 19.4304 14.3466 12.0243
internal_count=353 219 134 159 132 51 83 60 60 81 60 51
is_linear=0
shrinkage=0.05


Tree=7
num_leaves=13
num_cat=0
split_feature=2 8 3 6 2 4 8 5 9 0 5 3
split_gain=38.8076 16.5977 7.28443 3.6719 3.17509 3.91932 2.62645 2.63934 2.55822 1.05242 0.597729 0.0156219
threshold=0.0078056028246433007 0.0066169375651375798 -0.018873755785139307 -0.015788562121372845 -0.030456725798125067 -0.00088098339111068638 -0.011400050993453051 0.043936075302369079 0.017561783616289087 -0.06181890096961104 -0.034194465914119877 0.044250916857056906
decision_type=2 2 2 2 2 2 2 2 2 2 2 2
left_child=1 3 -2 -1 9 -6 -4 11 -3 -5 -11 -8
right_child=2 8 6 4 5 -7 7 -9 -10 10 -12 -13
leaf_value=-0.01001526437505993 0.0044806252678244486 0.00057488427654173505 0.025390049214447891 -0.043344378008219185 -0.0061420581858904269 -0.062856877185992713 0.080620923263010819 0.036790129352055438 0.042480323958302452 -0.059013396349468727 -0.079542237357106083 0.077140475015062909
leaf_weight=6.6870734542608252 8.7284221798181516 8.4606566131114942 4.8755547702312496 4.8208777904510507 6.9343582838773727 5.4327557682991046 5.6409463733434695 5.2806019186973563 6.3946168869733802 6.4215221554040909 7.9178758710622787 7.524870365858078
leaf_count=27 35 34 20 20 28 23 24 22 26 27 34 33
internal_value=1.92223e-06 -0.0262345 0.0434448 -0.0436685 -0.0508065 -0.0310563 0.0580275 0.0666538 0.0186135 -0.0635544 -0.0703489 0.0786317
internal_weight=85.1201 53.0697 32.0504 38.2145 31.5274 12.3671 23.322 18.4464 14.8553 19.1603 14.3394 13.1658
internal_count=353 219 134 159 132 51 99 79 60 81 61 57
is_linear=0
shrinkage=0.05


Tree=8
num_leaves=15
num_cat=0
split_feature=2 8 3 6 1 5 8 6 8 3 3 7 9 3
split_gain=35.4095 15.159 7.05514 3.4972 4.65411 2.79889 4.08902 2.51998 1.9731 1.6215 1.56349 0.533628 0.374018 0.144344
threshold=0.0078056028246433007 0.0066169375651375798 0.044250916857056906 0.021027815919496564 1.0000000180025095e-35 0.043936075302369079 -0.012402767280548925 -0.041560026749981431 -0.030137172158230731 -0.038377506563325364 -0.011988053833440785 0.016780826461669476 -0.048711927021062203 0.073515150151775635
decision_type=2 2 2 2 2 2 2 2 2 2 2 2 2 2
left_child=1 3 5 4 9 6 -2 -3 -6 -1 12 -9 -5 -4
right_child=2 7 13 10 8 -7 -8 11 -10 -11 -12 -13 -14 -15
leaf_value=-0.023739936082491055 0.0013563138402722212 0.04709024226431556 0.07731878494735317 -0.05961718584579645 -0.073688303040367761 -0.0059412310924979121 0.056232077502574834 0.014809940331245358 -0.031630118925365901 0.01697191958377876 -0.03704844563226594 -0.0083769863923773072 -0.077917297145898456 0.065880264306143729
leaf_weight=4.8337222337722778 5.4508689045906094 4.8940849900245658 7.0514586567878705 5.0979977846145639 5.0020548999309522 5.6622721701860419 8.9991209954023379 4.9770792275667173 6.3018730729818362 4.9507652521133423 5.4637884795665732 4.9484944045543671 6.1727326363325128 4.5297574996948242
leaf_count=20 22 20 31 22 21 23 38 20 26 20 23 20 27 20
internal_value=2.10773e-06 -0.0251364 0.041757 -0.0419313 -0.0283876 0.0238557 0.0355317 0.0177278 -0.0502411 -0.00314051 -0.0589988 0.00324987 -0.0696398 0.0728448
internal_weight=84.3361 52.6426 31.6935 37.8229 21.0884 20.1123 14.45 14.8197 11.3039 9.78449 16.7345 9.92557 11.2707 11.5812
internal_count=353 219 134 159 87 83 60 60 47 40 72 40 49 51
is_linear=0
shrinkage=0.05


Tree=9
num_leaves=13
num_cat=0
split_feature=2 8 3 6 8 2 4 9 2 5 3 8
split_gain=32.3212 13.8503 6.71431 3.37992 3.10877 2.99966 3.60845 2.36659 1.82532 1.00536 0.668182 0.176849
threshold=0.0078056028246433007 0.0066169375651375798 1.0000000180025095e-35 -0.015788562121372845 0.0082395148297109075 -0.030456725798125067 -0.00088098339111068638 0.017561783616289087 0.040678871078007703 -0.057837174779229762 -0.028048953635777585 0.0603351837456459
decision_type=2 2 2 2 2 2 2 2 2 2 2 2
left_child=1 3 8 -1 -4 9 -7 -3 -2 -5 -11 -6
right_child=2 7 4 5 11 6 -8 -9 -10 10 -12 -13
leaf_value=-0.0079547402545106019 0.029478272492877978 -0.00045139642333237535 0.029918815337451034 -0.04052730138001992 0.076068708508001334 -0.004149535737784758 -0.05909121843615539 0.039968601628978792 -0.010253832652860439 -0.054776602927049958 -0.076970821507817422 0.063796669665847169
leaf_weight=6.651212513446807 5.8643431216478366 8.4435025602579099 6.6200489401817348 4.9290385842323312 8.7155203819274885 6.8956683278083801 5.2743962854146975 6.3409154117107382 5.7005982249975204 6.2257577031850815 7.4484126716852188 4.4267713278532019
leaf_count=27 24 34 28 21 39 28 23 26 23 27 33 20
internal_value=2.50937e-06 -0.0240891 0.0401527 -0.0402755 0.0578603 -0.0472612 -0.0279608 0.0168844 0.0098935 -0.0598874 -0.0668659 0.0719351
internal_weight=83.5362 52.2089 31.3273 37.4245 19.7623 30.7733 12.1701 14.7844 11.5649 18.6032 13.6742 13.1423
internal_count=353 219 134 159 87 132 51 60 47 81 60 59
is_linear=0
shrinkage=0.05


Tree=10
num_leaves=14
num_cat=0
split_feature=2 8 3 6 1 5 8 6 0 3 3 9 9
split_gain=29.5222 12.6673 6.48117 3.18726 4.36135 2.56984 3.69994 2.34625 1.85636 1.517 1.4456 0.374434 0.144395
threshold=0.0078056028246433007 0.0066169375651375798 0.044250916857056906 0.021027815919496564 1.0000000180025095e-35 0.043936075302369079 -0.012402767280548925 -0.026833475533633671 0.021729483403835632 -0.011988053833440785 -0.038377506563325364 -0.048711927021062203 0.038272318190461375
decision_type=2 2 2 2 2 2 2 2 2 2 2 2 2
left_child=1 3 5 4 10 6 -2 -3 -6 11 -1 -5 -4
right_child=2 7 12 9 8 -7 -8 -9 -10 -11 -12 -13 -14
leaf_value=-0.020918379396605367 0.00044527301496425178 0.036931905942088332 0.074050542239375891 -0.055926799502028959 -0.065063025775133676 -0.0070165124588175073 0.052909567330220245 -0.0029972615244772682 -0.023800394523422249 -0.033562877071182523 0.017677549973782021 -0.07458639590535697 0.062445331479775983
leaf_weight=4.7718096524477005 5.4378244876861599 7.0469304770231247 6.5262236595153791 4.9292078912258157 6.2898050397634506 5.6384528279304496 8.7969933450222033 7.697942838072775 4.8104286938905716 5.3476622998714438 4.9352395087480545 5.9142919480800638 4.5482923537492752
leaf_count=20 22 29 30 22 27 23 38 31 20 23 20 27 21
internal_value=2.35938e-06 -0.0231025 0.0386326 -0.0387201 -0.0257746 0.0215518 0.0328677 0.0160859 -0.0471813 -0.0553563 -0.00129551 -0.0661042 0.0692843
internal_weight=82.6911 51.7433 30.9478 36.9984 20.8073 19.8733 14.2348 14.7449 11.1002 16.1912 9.70705 10.8435 11.0745
internal_count=353 219 134 159 87 83 60 60 47 72 40 49 51
is_linear=0
shrinkage=0.05


Tree=11
num_leaves=15
num_cat=0
split_feature=2 8 3 6 2 4 5 4 6 8 0 5 7 3
split_gain=26.9804 11.5889 6.16344 3.12059 2.85738 3.3216 2.34751 3.54398 2.17254 2.04625 0.993363 0.598097 0.532131 0.143948
threshold=0.0078056028246433007 0.0066169375651375798 0.044250916857056906 -0.015788562121372845 -0.030456725798125067 -0.00088098339111068638 0.043936075302369079 0.0087506866162971614 -0.041560026749981431 -0.012402767280548925 -0.06181890096961104 -0.034194465914119877 0.016780826461669476 0.073515150151775635
decision_type=2 2 2 2 2 2 2 2 2 2 2 2 2 2
left_child=1 3 6 -1 10 -6 7 9 -3 -2 -5 -12 -10 -4
right_child=2 8 13 4 5 -7 -8 -9 12 -11 11 -13 -14 -15
leaf_value=-0.006143415239288917 -0.0081044143483859372 0.042886531182145866 0.072218595165640401 -0.036716878454835518 -0.0024070700941076382 -0.055701359068496062 -0.0066604520422681645 0.067874531579905903 0.013477250333763725 0.038145634001106425 -0.051989590602926621 -0.073226940761897716 -0.009716508949908699 0.060390975722932852
leaf_weight=6.6114937663078299 4.9493176788091677 4.8112060427665702 6.5617175251245481 4.6300580948591241 6.8531496673822403 5.0989291369915026 5.6427702009677878 4.5409491807222357 4.9644051641225797 4.6275806725025213 6.0704405158758163 7.3042076826095581 4.9275496006011963 4.2313190102577209
leaf_count=27 20 20 31 20 28 23 23 20 20 20 27 34 20 20
internal_value=2.70386e-06 -0.0221611 0.0371953 -0.0372344 -0.0440962 -0.0251432 0.0205987 0.0314939 0.0153276 0.0142437 -0.0566777 -0.0635878 0.00192358 0.0675817
internal_weight=81.8251 51.2714 30.5537 36.5683 29.9568 11.9521 19.7606 14.1178 14.7032 9.5769 18.0047 13.3746 9.89195 10.793
internal_count=353 219 134 159 132 51 83 60 60 40 81 61 40 51
is_linear=0
shrinkage=0.05


end of trees

feature_importances:
bp=32
s5=26
bmi=25
s3=20
s2=15
s6=12
s1=9
age=8
sex=5
s4=3

parameters:
[boosting: gbdt]
[objective: binary]
[metric: binary_logloss]
[tree_learner: serial]
[device_type: cpu]
[data_sample_strategy: bagging]
[data: ]
[valid: ]
[num_iterations: 12]
[learning_rate: 0.05]
[num_leaves: 15]
[num_threads: 8]
[seed: 42]
[deterministic: 0]
[force_col_wise: 0]
[force_row_wise: 0]
[histogram_pool_size: -1]
[max_depth: 6]
[min_data_in_leaf: 20]
[min_sum_hessian_in_leaf: 0.001]
[bagging_fraction: 1]
[pos_bagging_fraction: 1]
[neg_bagging_fraction: 1]
[bagging_freq: 0]
[bagging_seed: 400]
[bagging_by_query: 0]
[feature_fraction: 1]
[feature_fraction_bynode: 1]
[feature_fraction_seed: 30056]
[extra_trees: 0]
[extra_seed: 12879]
[early_stopping_round: 0]
[early_stopping_min_delta: 0]
[first_metric_only: 0]
[max_delta_step: 0]
[lambda_l1: 0]
[lambda_l2: 0]
[linear_lambda: 0]
[min_gain_to_split: 0]
[drop_rate: 0.1]
[max_drop: 50]
[skip_drop: 0.5]
[xgboost_dart_mode: 0]
[uniform_drop: 0]
[drop_seed: 17869]
[top_rate: 0.2]
[other_rate: 0.1]
[min_data_per_group: 100]
[max_cat_threshold: 32]
[cat_l2: 10]
[cat_smooth: 10]
[max_cat_to_onehot: 4]
[top_k: 20]
[monotone_constraints: ]
[monotone_constraints_method: basic]
[monotone_penalty: 0]
[feature_contri: ]
[forcedsplits_filename: ]
[refit_decay_rate: 0.9]
[cegb_tradeoff: 1]
[cegb_penalty_split: 0]
[cegb_penalty_feature_lazy: ]
[cegb_penalty_feature_coupled: ]
[path_smooth: 0]
[interaction_constraints: ]
[verbosity: 1]
[saved_feature_importance_type: 0]
[use_quantized_grad: 0]
[num_grad_quant_bins: 4]
[quant_train_renew_leaf: 0]
[stochastic_rounding: 1]
[linear_tree: 0]
[max_bin: 255]
[max_bin_by_feature: ]
[min_data_in_bin: 3]
[bin_construct_sample_cnt: 200000]
[data_random_seed: 175]
[is_enable_sparse: 1]
[enable_bundle: 1]
[use_missing: 1]
[zero_as_missing: 0]
[feature_pre_filter: 1]
[pre_partition: 0]
[two_round: 0]
[header: 0]
[label_column: ]
[weight_column: ]
[group_column: ]
[ignore_column: ]
[categorical_feature: ]
[forcedbins_filename: ]
[precise_float_parser: 0]
[parser_config_file: ]
[objective_seed: 16083]
[num_class: 1]
[is_unbalance: 0]
[scale_pos_weight: 1]
[sigmoid: 1]
[boost_from_average: 1]
[reg_sqrt: 0]
[alpha: 0.9]
[fair_c: 1]
[poisson_max_delta_step: 0.7]
[tweedie_variance_power: 1.5]
[lambdarank_truncation_level: 30]
[lambdarank_norm: 1]
[label_gain: ]
[lambdarank_position_bias_regularization: 0]
[eval_at: ]
[multi_error_top_k: 1]
[auc_mu_weights: ]
[num_machines: 1]
[local_listen_port: 12400]
[time_out: 120]
[machine_list_filename: ]
[machines: ]
[gpu_platform_id: -1]
[gpu_device_id: -1]
[gpu_use_dp: 0]
[num_gpu: 1]

end of parameters

pandas_categorical:[]
