{"learner":{"attributes":{},"feature_names":["area error","compactness error","concave points error","concavity error","fractal dimension error","mean area","mean compactness","mean concave points","mean concavity","mean fractal dimension","mean perimeter","mean radius","mean smoothness","mean symmetry","mean texture","perimeter error","radius error","smoothness error","symmetry error","texture error","worst area","worst compactness","worst concave points","worst concavity","worst fractal dimension","worst perimeter","worst radius","worst smoothness","worst symmetry","worst texture"],"feature_types":["float","float","float","float","float","float","float","float","float","float","float","float","float","float","float","float","float","float","float","float","float","float","float","float","float","float","float","float","float","float"],"gradient_booster":{"model":{"cats":{"enc":[],"feature_segments":[],"sorted_idx":[]},"gbtree_model_param":{"num_parallel_tree":"1","num_trees":"30"},"iteration_indptr":[0,1,2,3,4,5,6,7,8,9,10,11,12,13,14,15,16,17,18,19,20,21,22,23,24,25,26,27,28,29,30],"tree_info":[0,0,0,0,0,0,0,0,0,0,0,0,0,0,0,0,0,0,0,0,0,0,0,0,0,0,0,0,0,0],"trees":[{"base_weights":[3.5445066E-8,1.1954854E0,-2.5754213E-1,1.3837352E0,-1.2133225E0,1.504552E0,2.72527E-1,8.5935496E-2,-1.9056739E-1,1.5348865E0,3.422506E-2,8.740428E-1,-1.285805E-1,1.5505974E-1,3.983363E-2,-3.1759452E-2,1.2739204E-1],"categories":[],"categories_nodes":[],"categories_segments":[],"categories_sizes":[],"default_left":[0,0,0,0,0,0,0,0,0,0,0,0,0,0,0,0,0],"id":0,"left_children":[1,3,-1,5,7,9,11,-1,-1,13,-1,15,-1,-1,-1,-1,-1],"loss_changes":[3.344364E2,3.5319267E1,0E0,8.890457E0,1.0118999E1,1.6698761E0,8.636478E0,0E0,0E0,4.606781E-1,0E0,3.443719E0,0E0,0E0,0E0,0E0,0E0],"parents":[2147483647,0,0,1,1,3,3,4,4,5,5,6,6,9,9,11,11],"right_children":[2,4,-1,6,8,10,12,-1,-1,14,-1,16,-1,-1,-1,-1,-1],"split_conditions":[1.146E2,1.492E-1,-2.5754213E-1,3.301E1,2.387E1,1.131E2,2.623E-1,8.5935496E-2,-1.9056739E-1,1.703E-1,3.422506E-2,5.956E-2,-1.285805E-1,1.5505974E-1,3.983363E-2,-3.1759452E-2,1.2739204E-1],"split_indices":[25,22,0,0,29,25,23,0,0,27,0,6,0,0,0,0,0],"split_type":[0,0,0,0,0,0,0,0,0,0,0,0,0,0,0,0,0],"sum_hessian":[1.066228E2,7.318627E1,3.343654E1,6.827601E1,4.9102607E0,6.126135E1,7.0146585E0,1.1691097E0,3.741151E0,5.9390774E1,1.8705755E0,5.377905E0,1.6367536E0,5.8221664E1,1.1691097E0,1.4029317E0,3.974973E0],"tree_param":{"num_deleted":"0","num_feature":"30","num_nodes":"17","size_leaf_vector":"1"}},{"base_weights":[2.7749524E-3,1.1185645E0,-2.2090523E-1,1.3137441E0,-9.614935E-1,1.4073247E0,1.1279668E-1,5.1051104E-1,-1.8525101E-1,1.4518386E0,4.539989E-1,-8.2868494E-2,8.676577E-2,-5.543729E-3,8.4316514E-2,1.46751E-1,3.590416E-2,1.020711E-1,-5.549684E-2],"categories":[],"categories_nodes":[],"categories_segments":[],"categories_sizes":[],"default_left":[0,0,0,0,0,0,0,0,0,0,0,0,0,0,0,0,0,0,0],"id":1,"left_children":[1,3,-1,5,7,9,11,13,-1,15,17,-1,-1,-1,-1,-1,-1,-1,-1],"loss_changes":[2.6599478E2,3.0347374E1,0E0,7.249237E0,9.763329E0,1.9321747E0,4.8780637E0,6.715817E-1,0E0,4.644165E-1,2.9560182E0,0E0,0E0,0E0,0E0,0E0,0E0,0E0,0E0],"parents":[2147483647,0,0,1,1,3,3,4,4,5,5,6,6,7,7,9,9,10,10],"right_children":[2,4,-1,6,8,10,12,14,-1,16,18,-1,-1,-1,-1,-1,-1,-1,-1],"split_conditions":[1.146E2,1.456E-1,-2.2090523E-1,3.524E1,2.693E1,1.329E-1,2.778E-3,3.698E-2,-1.8525101E-1,8.621E2,1.877E1,-8.2868494E-2,8.676577E-2,-5.543729E-3,8.4316514E-2,1.46751E-1,3.590416E-2,1.020711E-1,-5.549684E-2],"split_indices":[25,22,0,0,29,22,4,1,0,20,14,0,0,0,0,0,0,0,0],"split_type":[0,0,0,0,0,0,0,0,0,0,0,0,0,0,0,0,0,0,0],"sum_hessian":[1.0577914E2,7.063867E1,3.514046E1,6.4915794E1,5.722882E0,6.006365E1,4.8521457E0,2.3189332E0,3.4039485E0,5.6884598E1,3.1790507E0,2.1156528E0,2.7364929E0,1.1669446E0,1.1519885E0,5.574233E1,1.1422668E0,2.0282137E0,1.150837E0],"tree_param":{"num_deleted":"0","num_feature":"30","num_nodes":"19","size_leaf_vector":"1"}},{"base_weights":[4.546544E-3,1.1215034E0,-1.8444109E0,1.2759217E0,-1.3057939E0,3.470094E-2,-1.9595381E0,1.3542383E0,2.3812573E-1,-4.3986525E-2,-1.4888932E-1,-4.8928004E-2,-2.0056184E-1,1.3854607E0,-1.0636059E-2,9.476417E-2,-1.2612161E-1,1.4006339E-1,4.2855613E-2],"categories":[],"categories_nodes":[],"categories_segments":[],"categories_sizes":[],"default_left":[0,0,0,0,0,0,0,0,0,0,0,0,0,0,0,0,0,0,0],"id":2,"left_children":[1,3,5,7,9,-1,11,13,15,-1,-1,-1,-1,17,-1,-1,-1,-1,-1],"loss_changes":[2.1786842E2,2.6315392E1,1.0703552E1,4.7439423E0,4.7097683E-2,0E0,1.5862274E0,2.7808685E0,7.1390696E0,0E0,0E0,0E0,0E0,2.2169495E-1,0E0,0E0,0E0,0E0,0E0],"parents":[2147483647,0,0,1,1,2,2,3,3,4,4,6,6,7,7,8,8,13,13],"right_children":[2,4,6,8,10,-1,12,14,16,-1,-1,-1,-1,18,-1,-1,-1,-1,-1],"split_conditions":[1.682E1,1.607E-1,4.956E-1,1.357E-1,1.933E1,3.470094E-2,1.493E1,6.137E-1,2.025E1,-4.3986525E-2,-1.4888932E-1,-4.8928004E-2,-2.0056184E-1,1.201E-1,-1.0636059E-2,9.476417E-2,-1.2612161E-1,1.4006339E-1,4.2855613E-2],"split_indices":[26,22,19,22,0,0,14,16,14,0,0,0,0,8,0,0,0,0,0],"split_type":[0,0,0,0,0,0,0,0,0,0,0,0,0,0,0,0,0,0,0],"sum_hessian":[1.0349318E2,6.4763145E1,3.8730034E1,6.1335487E1,3.4276614E0,1.8326082E0,3.6897427E1,5.674811E1,4.5873756E0,1.1921197E0,2.2355416E0,1.4743423E0,3.5423084E1,5.5610794E1,1.1373163E0,3.3636136E0,1.223762E0,5.428629E1,1.3245084E0],"tree_param":{"num_deleted":"0","num_feature":"30","num_nodes":"19","size_leaf_vector":"1"}},{"base_weights":[3.7219804E-3,9.986911E-1,-1.784006E0,1.1860344E0,-8.084745E-1,-5.9709907E-2,-1.8089126E-1,1.279913E0,7.555729E-2,8.477786E-2,-1.3656489E0,1.325281E-1,4.156671E-1,-6.251555E-1,9.601261E-2,-3.653327E-2,-1.5625654E-1,-5.5145796E-2,9.545307E-2,3.5383046E-2,-1.17417E-1],"categories":[],"categories_nodes":[],"categories_segments":[],"categories_sizes":[],"default_left":[0,0,0,0,0,0,0,0,0,0,0,0,0,0,0,0,0,0,0,0,0],"id":3,"left_children":[1,3,5,7,9,-1,-1,11,13,-1,15,-1,17,19,-1,-1,-1,-1,-1,-1,-1],"loss_changes":[1.8176503E2,2.318457E1,5.340576E-5,6.1464767E0,7.396875E0,0E0,0E0,1.6117325E0,4.1523767E0,0E0,5.011091E-1,0E0,2.719339E0,2.4596996E0,0E0,0E0,0E0,0E0,0E0,0E0,0E0],"parents":[2147483647,0,0,1,1,2,2,3,3,4,4,7,7,8,8,10,10,12,12,13,13],"right_children":[2,4,6,8,10,-1,-1,12,14,-1,16,-1,18,20,-1,-1,-1,-1,-1,-1,-1],"split_conditions":[1.146E2,1.456E-1,2.302E1,3.524E1,2.387E1,-5.9709907E-2,-1.8089126E-1,3.587E-1,3.317E-3,8.477786E-2,9.901E-2,1.325281E-1,2.052E-2,1.739E1,9.601261E-2,-3.653327E-2,-1.5625654E-1,-5.5145796E-2,9.545307E-2,3.5383046E-2,-1.17417E-1],"split_indices":[25,22,0,0,29,0,0,23,4,0,8,0,1,14,0,0,0,0,0,0,0],"split_type":[0,0,0,0,0,0,0,0,0,0,0,0,0,0,0,0,0,0,0,0,0],"sum_hessian":[1.0018621E2,6.464761E1,3.5538593E1,5.888671E1,5.760901E0,1.2437177E0,3.4294876E1,5.4155857E1,4.730856E0,1.3188696E0,4.442032E0,5.094793E1,3.207928E0,2.8034012E0,1.9274544E0,1.2002337E0,3.241798E0,1.1394782E0,2.0684497E0,1.1350075E0,1.6683937E0],"tree_param":{"num_deleted":"0","num_feature":"30","num_nodes":"21","size_leaf_vector":"1"}},{"base_weights":[3.3968796E-3,1.0153881E0,-1.5478473E0,1.2457234E0,-4.4969755E-1,-8.831353E-2,-1.6881917E-1,1.2777572E0,-9.726147E-3,6.416028E-1,-1.5358064E-1,9.740435E-2,-1.1250525E-1,1.29323E-1,3.788952E-2,9.8843224E-2,6.2692626E-3],"categories":[],"categories_nodes":[],"categories_segments":[],"categories_sizes":[],"default_left":[0,0,0,0,0,0,0,0,0,0,0,0,0,0,0,0,0],"id":4,"left_children":[1,3,5,7,9,11,-1,13,-1,15,-1,-1,-1,-1,-1,-1,-1],"loss_changes":[1.5421367E2,2.0621819E1,7.7955475E0,2.3457718E0,1.1429153E1,6.005283E0,0E0,2.1243286E-1,0E0,9.621234E-1,0E0,0E0,0E0,0E0,0E0,0E0,0E0],"parents":[2147483647,0,0,1,1,2,2,3,3,4,4,5,5,7,7,9,9],"right_children":[2,4,6,8,10,12,-1,14,-1,16,-1,-1,-1,-1,-1,-1,-1],"split_conditions":[1.682E1,1.357E-1,1.615E1,6.137E-1,2.025E1,2.925E1,-1.6881917E-1,1.201E-1,-9.726147E-3,2.146E1,-1.5358064E-1,9.740435E-2,-1.1250525E-1,1.29323E-1,3.788952E-2,9.8843224E-2,6.2692626E-3],"split_indices":[26,22,14,16,14,0,0,8,0,0,0,0,0,0,0,0,0],"split_type":[0,0,0,0,0,0,0,0,0,0,0,0,0,0,0,0,0],"sum_hessian":[9.623378E1,5.8448765E1,3.778502E1,5.0637466E1,7.8113003E0,3.4575002E0,3.432752E1,4.95052E1,1.1322668E0,4.1004825E0,3.710818E0,1.7375195E0,1.7199807E0,4.823613E1,1.2690669E0,2.1218588E0,1.9786234E0],"tree_param":{"num_deleted":"0","num_feature":"30","num_nodes":"17","size_leaf_vector":"1"}},{"base_weights":[3.6459423E-3,9.723426E-1,-1.4445156E0,1.1224748E0,-1.0642416E0,-7.826674E-2,-1.5765367E-1,1.2195148E0,3.2073846E-1,-3.45237E-2,-1.2195212E-1,9.327739E-2,-1.0585481E-1,1.2505004E-1,2.7851317E-2,7.8794944E-1,-7.552578E-2,1.0561609E-1,-1.4386944E-2],"categories":[],"categories_nodes":[],"categories_segments":[],"categories_sizes":[],"default_left":[0,0,0,0,0,0,0,0,0,0,0,0,0,0,0,0,0,0,0],"id":5,"left_children":[1,3,5,7,9,11,-1,13,15,-1,-1,-1,-1,-1,-1,17,-1,-1,-1],"loss_changes":[1.3156361E2,1.837587E1,6.656967E0,3.7183914E0,6.7017555E-2,5.3131237E0,0E0,1.015152E0,4.144255E0,0E0,0E0,0E0,0E0,0E0,0E0,1.5045214E0,0E0,0E0,0E0],"parents":[2147483647,0,0,1,1,2,2,3,3,4,4,5,5,7,7,8,8,15,15],"right_children":[2,4,6,8,10,12,-1,14,16,-1,-1,-1,-1,-1,-1,18,-1,-1,-1],"split_conditions":[1.682E1,1.607E-1,1.964E1,3.301E1,7.066E2,2.925E1,-1.5765367E-1,5.596E-2,2.623E-1,-3.45237E-2,-1.2195212E-1,9.327739E-2,-1.0585481E-1,1.2505004E-1,2.7851317E-2,1.911E0,-7.552578E-2,1.0561609E-1,-1.4386944E-2],"split_indices":[26,22,29,0,20,0,0,7,23,0,0,0,0,0,0,19,0,0,0],"split_type":[0,0,0,0,0,0,0,0,0,0,0,0,0,0,0,0,0,0,0],"sum_hessian":[9.178325E1,5.5192642E1,3.6590607E1,5.182134E1,3.3713026E0,3.3645635E0,3.3226044E1,4.5761406E1,6.0599318E0,1.1712563E0,2.2000463E0,1.6801534E0,1.6844101E0,4.3984188E1,1.7772198E0,4.4119225E0,1.6480092E0,3.3222249E0,1.0896976E0],"tree_param":{"num_deleted":"0","num_feature":"30","num_nodes":"19","size_leaf_vector":"1"}},{"base_weights":[2.660098E-3,9.3129563E-1,-1.3610785E0,1.1624882E0,-4.1122347E-1,3.0462855E-2,-1.4495215E0,1.1970015E0,-1.0862542E-2,5.8443016E-1,-1.3781224E-1,-3.5129625E-2,-1.4858024E-1,1.2132355E-1,3.3961646E-2,8.150967E-2,-1.1195526E-2],"categories":[],"categories_nodes":[],"categories_segments":[],"categories_sizes":[],"default_left":[0,0,0,0,0,0,0,0,0,0,0,0,0,0,0,0,0],"id":6,"left_children":[1,3,5,7,9,-1,11,13,-1,15,-1,-1,-1,-1,-1,-1,-1],"loss_changes":[1.1287607E2,1.6935074E1,5.760887E0,2.1258583E0,9.015413E0,0E0,8.5110474E-1,2.0561218E-1,0E0,8.789649E-1,0E0,0E0,0E0,0E0,0E0,0E0,0E0],"parents":[2147483647,0,0,1,1,2,2,3,3,4,4,6,6,7,7,9,9],"right_children":[2,4,6,8,10,-1,12,14,-1,16,-1,-1,-1,-1,-1,-1,-1],"split_conditions":[1.682E1,1.357E-1,4.956E-1,6.137E-1,2.025E1,3.0462855E-2,1.493E1,1.201E-1,-1.0862542E-2,1.078E-1,-1.3781224E-1,-3.5129625E-2,-1.4858024E-1,1.2132355E-1,3.3961646E-2,8.150967E-2,-1.1195526E-2],"split_indices":[26,22,19,16,14,0,14,8,0,12,0,0,0,0,0,0,0],"split_type":[0,0,0,0,0,0,0,0,0,0,0,0,0,0,0,0,0],"sum_hessian":[8.71294E1,5.2022125E1,3.5107277E1,4.4494E1,7.5281262E0,1.6468414E0,3.3460434E1,4.33746E1,1.1193995E0,3.9037967E0,3.6243296E0,1.411669E0,3.2048767E1,4.216126E1,1.2133429E0,2.8044121E0,1.0993845E0],"tree_param":{"num_deleted":"0","num_feature":"30","num_nodes":"17","size_leaf_vector":"1"}},{"base_weights":[2.3786258E-3,8.2443607E-1,-1.4104709E-1,1.0096531E0,-7.495486E-1,1.1356746E0,1.0624377E-1,7.135837E-2,-1.17743924E-1,1.1942072E0,2.2541332E-1,6.057146E-1,-9.301219E-2,3.859767E-2,1.212708E-1,7.7063315E-2,-5.748334E-2,-3.412353E-2,9.930284E-2],"categories":[],"categories_nodes":[],"categories_segments":[],"categories_sizes":[],"default_left":[0,0,0,0,0,0,0,0,0,0,0,0,0,0,0,0,0,0,0],"id":7,"left_children":[1,3,-1,5,7,9,11,-1,-1,13,15,17,-1,-1,-1,-1,-1,-1,-1],"loss_changes":[9.800267E1,1.6307236E1,0E0,5.361294E0,4.7154684E0,1.976738E0,4.1856894E0,0E0,0E0,1.2067413E-1,2.0920177E0,2.2928612E0,0E0,0E0,0E0,0E0,0E0,0E0,0E0],"parents":[2147483647,0,0,1,1,3,3,4,4,5,5,6,6,9,9,10,10,11,11],"right_children":[2,4,-1,6,8,10,12,-1,-1,14,16,18,-1,-1,-1,-1,-1,-1,-1],"split_conditions":[1.162E2,1.492E-1,-1.4104709E-1,3.301E1,2.387E1,3.294E1,2.623E-1,7.135837E-2,-1.17743924E-1,3.35E-3,1.386E-1,5.956E-2,-9.301219E-2,3.859767E-2,1.212708E-1,7.7063315E-2,-5.748334E-2,-3.412353E-2,9.930284E-2],"split_indices":[25,22,0,0,29,29,23,0,0,17,27,6,0,0,0,0,0,0,0],"split_type":[0,0,0,0,0,0,0,0,0,0,0,0,0,0,0,0,0,0,0],"sum_hessian":[8.237887E1,5.2341038E1,3.0037827E1,4.7151115E1,5.1899223E0,4.1153316E1,5.997798E0,1.0232697E0,4.1666527E0,3.8373825E1,2.779493E0,4.32765E0,1.6701479E0,1.3479887E0,3.7025837E1,1.6751764E0,1.1043167E0,1.2907772E0,3.0368729E0],"tree_param":{"num_deleted":"0","num_feature":"30","num_nodes":"19","size_leaf_vector":"1"}},{"base_weights":[2.5286293E-3,9.913163E-1,-1.0824313E0,1.1107987E0,-1.6587912E-1,1.1151753E-1,-1.2878993E0,1.15111925E-1,-1.2505707E-2,7.924813E-2,-8.286594E-2,1.0321293E-1,-1.0424347E-1,-1.4595187E-2,-1.3505816E-1],"categories":[],"categories_nodes":[],"categories_segments":[],"categories_sizes":[],"default_left":[0,0,0,0,0,0,0,0,0,0,0,0,0,0,0],"id":8,"left_children":[1,3,5,7,9,11,13,-1,-1,-1,-1,-1,-1,-1,-1],"loss_changes":[8.542055E1,5.9439583E0,9.457603E0,2.031952E0,3.685691E0,7.9755883E0,2.1272316E0,0E0,0E0,0E0,0E0,0E0,0E0,0E0,0E0],"parents":[2147483647,0,0,1,1,2,2,3,3,4,4,5,5,6,6],"right_children":[2,4,6,8,10,12,14,-1,-1,-1,-1,-1,-1,-1,-1],"split_conditions":[1.06E2,1.357E-1,1.693E1,4.519E1,2.558E1,9.67E2,1.092E-1,1.15111925E-1,-1.2505707E-2,7.924813E-2,-8.286594E-2,1.0321293E-1,-1.0424347E-1,-1.4595187E-2,-1.3505816E-1],"split_indices":[25,22,14,0,29,20,27,0,0,0,0,0,0,0,0],"split_type":[0,0,0,0,0,0,0,0,0,0,0,0,0,0,0],"sum_hessian":[7.762407E1,4.065714E1,3.6966927E1,3.688844E1,3.7686994E0,5.4947653E0,3.1472162E1,3.5789356E1,1.0990849E0,1.460773E0,2.3079264E0,3.1151216E0,2.3796434E0,1.8108357E0,2.9661327E1],"tree_param":{"num_deleted":"0","num_feature":"30","num_nodes":"15","size_leaf_vector":"1"}},{"base_weights":[2.3645293E-3,7.68309E-1,-1.3016413E-1,1.0459142E0,-2.1378525E-1,1.12942636E-1,1.8034028E-2,8.605518E-1,-9.435199E-1,-8.155515E-2,8.025058E-2,2.4983421E-2,9.620984E-2,1.613792E-2,-1.2304913E-1],"categories":[],"categories_nodes":[],"categories_segments":[],"categories_sizes":[],"default_left":[0,0,0,0,0,0,0,0,0,0,0,0,0,0,0],"id":9,"left_children":[1,3,-1,5,7,-1,9,11,13,-1,-1,-1,-1,-1,-1],"loss_changes":[7.491361E1,1.3105101E1,0E0,3.1562195E0,9.6259165E0,0E0,3.1373732E0,7.409072E-2,2.4726453E0,0E0,0E0,0E0,0E0,0E0,0E0],"parents":[2147483647,0,0,1,1,3,3,4,4,6,6,7,7,8,8],"right_children":[2,4,-1,6,8,-1,10,12,14,-1,-1,-1,-1,-1,-1],"split_conditions":[1.162E2,1.225E-1,-1.3016413E-1,3.849E1,2.558E1,1.12942636E-1,2.778E-3,7.961E-2,2.964E-1,-8.155515E-2,8.025058E-2,2.4983421E-2,9.620984E-2,1.613792E-2,-1.2304913E-1],"split_indices":[25,22,0,0,29,0,4,24,28,0,0,0,0,0,0],"split_type":[0,0,0,0,0,0,0,0,0,0,0,0,0,0,0],"sum_hessian":[7.3002655E1,4.624825E1,2.6754404E1,3.600567E1,1.024258E1,3.3208763E1,2.796905E0,4.0705414E0,6.172039E0,1.3367964E0,1.4601085E0,1.0736611E0,2.9968803E0,1.3627636E0,4.809275E0],"tree_param":{"num_deleted":"0","num_feature":"30","num_nodes":"15","size_leaf_vector":"1"}},{"base_weights":[2.6619222E-3,7.4289984E-1,-1.2575136E-1,1.0188211E0,-1.973811E-1,1.1046306E0,1.6709821E-2,8.2847184E-1,-8.866323E-1,1.1328473E-1,4.7338313E-1,-7.713944E-2,7.739859E-2,9.347263E-2,2.139338E-2,1.5245214E-2,-1.1635219E-1,9.622484E-3,6.126019E-2],"categories":[],"categories_nodes":[],"categories_segments":[],"categories_sizes":[],"default_left":[0,0,0,0,0,0,0,0,0,0,0,0,0,0,0,0,0,0,0],"id":10,"left_children":[1,3,-1,5,7,9,11,13,15,-1,17,-1,-1,-1,-1,-1,-1,-1,-1],"loss_changes":[6.565906E1,1.1704445E1,0E0,2.943203E0,8.439387E0,2.853775E-2,2.8243153E0,1.197319E-1,2.1915817E0,0E0,1.0249251E-1,0E0,0E0,0E0,0E0,0E0,0E0,0E0,0E0],"parents":[2147483647,0,0,1,1,3,3,4,4,5,5,6,6,7,7,8,8,10,10],"right_children":[2,4,-1,6,8,10,12,14,16,-1,18,-1,-1,-1,-1,-1,-1,-1,-1],"split_conditions":[1.162E2,1.225E-1,-1.2575136E-1,3.849E1,2.558E1,3.294E1,2.778E-3,1.483E-1,2.964E-1,1.1328473E-1,2.368E-1,-7.713944E-2,7.739859E-2,9.347263E-2,2.139338E-2,1.5245214E-2,-1.1635219E-1,9.622484E-3,6.126019E-2],"split_indices":[25,22,0,0,29,29,4,27,28,0,16,0,0,0,0,0,0,0,0],"split_type":[0,0,0,0,0,0,0,0,0,0,0,0,0,0,0,0,0,0,0],"sum_hessian":[6.8385506E1,4.3338547E1,2.5046957E1,3.34417E1,9.896847E0,3.070976E1,2.7319384E0,3.8960857E0,6.000761E0,2.8635153E1,2.0746083E0,1.3295841E0,1.4023541E0,2.8775337E0,1.0185521E0,1.3571588E0,4.643602E0,1.0152813E0,1.0593269E0],"tree_param":{"num_deleted":"0","num_feature":"30","num_nodes":"19","size_leaf_vector":"1"}},{"base_weights":[4.0338133E-3,7.200493E-1,-1.21932104E-1,9.9437493E-1,-1.8244451E-1,1.082528E0,1.5878107E-2,6.128111E-1,-1.0024439E0,1.1120625E-1,4.5706832E-1,-7.305433E-2,7.472526E-2,8.3244354E-1,-2.295539E-2,-1.890718E-2,-1.14886604E-1,5.973939E-2,8.674989E-3,9.408698E-2,2.1362802E-2],"categories":[],"categories_nodes":[],"categories_segments":[],"categories_sizes":[],"default_left":[0,0,0,0,0,0,0,0,0,0,0,0,0,0,0,0,0,0,0,0,0],"id":11,"left_children":[1,3,-1,5,7,9,11,13,15,-1,17,-1,-1,19,-1,-1,-1,-1,-1,-1,-1],"loss_changes":[5.7806847E1,1.0486935E1,0E0,2.7497177E0,7.492874E0,3.5015106E-2,2.5471687E0,1.2966208E0,4.4646502E-1,0E0,1.0531938E-1,0E0,0E0,1.3152075E-1,0E0,0E0,0E0,0E0,0E0,0E0,0E0],"parents":[2147483647,0,0,1,1,3,3,4,4,5,5,6,6,7,7,8,8,10,10,13,13],"right_children":[2,4,-1,6,8,10,12,14,16,-1,18,-1,-1,20,-1,-1,-1,-1,-1,-1,-1],"split_conditions":[1.162E2,1.225E-1,-1.21932104E-1,3.849E1,2.025E1,3.294E1,2.778E-3,1.607E-1,3.12E-1,1.1120625E-1,6.019E-2,-7.305433E-2,7.472526E-2,2.963E1,-2.295539E-2,-1.890718E-2,-1.14886604E-1,5.973939E-2,8.674989E-3,9.408698E-2,2.1362802E-2],"split_indices":[25,22,0,0,14,29,4,22,23,0,9,0,0,0,0,0,0,0,0,0,0],"split_type":[0,0,0,0,0,0,0,0,0,0,0,0,0,0,0,0,0,0,0,0,0],"sum_hessian":[6.3991673E1,4.062547E1,2.3366205E1,3.1077286E1,9.548182E0,2.8411379E1,2.6659064E0,4.975494E0,4.5726876E0,2.6387365E1,2.0240142E0,1.3199438E0,1.3459628E0,3.9558506E0,1.0196433E0,1.0471377E0,3.52555E0,1.0231282E0,1.000886E0,2.9232197E0,1.0326309E0],"tree_param":{"num_deleted":"0","num_feature":"30","num_nodes":"21","size_leaf_vector":"1"}},{"base_weights":[4.5081307E-3,7.692173E-1,-1.0777339E0,9.9866974E-1,-2.9326504E-1,-4.3258374E-3,-1.1942487E-1,1.0438702E0,-1.3068172E-2,4.7100347E-1,-1.0526297E-1,7.130464E-2,-7.2601035E-2,1.0634669E-1,2.8666666E-2,7.888433E-2,-1.4960713E-3],"categories":[],"categories_nodes":[],"categories_segments":[],"categories_sizes":[],"default_left":[0,0,0,0,0,0,0,0,0,0,0,0,0,0,0,0,0],"id":12,"left_children":[1,3,5,7,9,11,-1,13,-1,15,-1,-1,-1,-1,-1,-1,-1],"loss_changes":[5.1157684E1,9.122297E0,3.195984E0,1.6684475E0,4.677483E0,2.3347993E0,0E0,1.2499428E-1,0E0,6.731868E-1,0E0,0E0,0E0,0E0,0E0,0E0,0E0],"parents":[2147483647,0,0,1,1,2,2,3,3,4,4,5,5,7,7,9,9],"right_children":[2,4,6,8,10,12,-1,14,-1,16,-1,-1,-1,-1,-1,-1,-1],"split_conditions":[1.682E1,1.357E-1,1.964E1,6.137E-1,2.025E1,2.925E1,-1.1942487E-1,1.126E-1,-1.3068172E-2,3.055E-1,-1.0526297E-1,7.130464E-2,-7.2601035E-2,1.0634669E-1,2.8666666E-2,7.888433E-2,-1.4960713E-3],"split_indices":[26,22,29,16,14,0,0,8,0,28,0,0,0,0,0,0,0],"split_type":[0,0,0,0,0,0,0,0,0,0,0,0,0,0,0,0,0],"sum_hessian":[5.9812767E1,3.5217453E1,2.4595316E1,2.9012094E1,6.2053585E0,2.5098755E0,2.208544E1,2.7968397E1,1.0436971E0,3.2819521E0,2.9234066E0,1.2647009E0,1.2451746E0,2.686856E1,1.0998358E0,1.6073968E0,1.6745553E0],"tree_param":{"num_deleted":"0","num_feature":"30","num_nodes":"17","size_leaf_vector":"1"}},{"base_weights":[4.1216607E-3,6.7606807E-1,-1.1571363E-1,9.504316E-1,-1.6538635E-1,1.042955E0,1.7163554E-2,7.549341E-1,-7.8188837E-1,1.0770088E-1,3.927053E-2,-6.794878E-2,7.099726E-2,8.627602E-2,1.924332E-2,1.3036323E-2,-1.0339884E-1],"categories":[],"categories_nodes":[],"categories_segments":[],"categories_sizes":[],"default_left":[0,0,0,0,0,0,0,0,0,0,0,0,0,0,0,0,0],"id":13,"left_children":[1,3,-1,5,7,9,11,13,15,-1,-1,-1,-1,-1,-1,-1,-1],"loss_changes":[4.5110493E1,8.610813E0,0E0,2.3793125E0,6.182048E0,1.3597679E-1,2.1817043E0,1.046257E-1,1.6050756E0,0E0,0E0,0E0,0E0,0E0,0E0,0E0,0E0],"parents":[2147483647,0,0,1,1,3,3,4,4,5,5,6,6,7,7,8,8],"right_children":[2,4,-1,6,8,10,12,14,16,-1,-1,-1,-1,-1,-1,-1,-1],"split_conditions":[1.162E2,1.225E-1,-1.1571363E-1,3.849E1,2.558E1,3.294E1,2.778E-3,2.963E1,2.964E-1,1.0770088E-1,3.927053E-2,-6.794878E-2,7.099726E-2,8.627602E-2,1.924332E-2,1.3036323E-2,-1.0339884E-1],"split_indices":[25,22,0,0,29,29,4,0,28,0,0,0,0,0,0,0,0],"split_type":[0,0,0,0,0,0,0,0,0,0,0,0,0,0,0,0,0],"sum_hessian":[5.580893E1,3.561728E1,2.0191648E1,2.676184E1,8.855439E0,2.4241072E1,2.5207696E0,3.4623156E0,5.3931236E0,2.2411097E1,1.8299737E0,1.2664868E0,1.2542827E0,2.4574516E0,1.004864E0,1.2722474E0,4.1208763E0],"tree_param":{"num_deleted":"0","num_feature":"30","num_nodes":"17","size_leaf_vector":"1"}},{"base_weights":[5.128017E-3,7.2589326E-1,-1.0219264E0,9.561262E-1,-2.6406062E-1,4.5312676E-3,-1.13796785E-1,1.005752E0,-1.2719794E-2,4.391895E-1,-9.823909E-2,6.595384E-2,-6.617907E-2,1.027302E0,2.5929032E-2,7.483082E-2,-2.1086566E-3,1.0622668E-1,4.0689066E-2],"categories":[],"categories_nodes":[],"categories_segments":[],"categories_sizes":[],"default_left":[0,0,0,0,0,0,0,0,0,0,0,0,0,0,0,0,0,0,0],"id":14,"left_children":[1,3,5,7,9,11,-1,13,-1,15,-1,-1,-1,17,-1,-1,-1,-1,-1],"loss_changes":[4.000715E1,7.489708E0,2.6600132E0,1.5245495E0,3.8539703E0,1.8592325E0,0E0,1.3502693E-1,0E0,6.0119104E-1,0E0,0E0,0E0,8.654785E-2,0E0,0E0,0E0,0E0,0E0],"parents":[2147483647,0,0,1,1,2,2,3,3,4,4,5,5,7,7,9,9,13,13],"right_children":[2,4,6,8,10,12,-1,14,-1,16,-1,-1,-1,18,-1,-1,-1,-1,-1],"split_conditions":[1.682E1,1.357E-1,1.615E1,6.137E-1,2.025E1,2.925E1,-1.13796785E-1,1.126E-1,-1.2719794E-2,3.055E-1,-9.823909E-2,6.595384E-2,-6.617907E-2,3.294E1,2.5929032E-2,7.483082E-2,-2.1086566E-3,1.0622668E-1,4.0689066E-2],"split_indices":[26,22,14,16,14,0,0,8,0,28,0,0,0,29,0,0,0,0,0],"split_type":[0,0,0,0,0,0,0,0,0,0,0,0,0,0,0,0,0,0,0],"sum_hessian":[5.2042263E1,3.0753399E1,2.1288862E1,2.4978369E1,5.7750316E0,2.2598698E0,1.9028994E1,2.3952728E1,1.0256395E0,3.114506E0,2.6605256E0,1.1447444E0,1.1151253E0,2.2914953E1,1.0377755E0,1.488833E0,1.6256729E0,2.1018225E1,1.8967292E0],"tree_param":{"num_deleted":"0","num_feature":"30","num_nodes":"19","size_leaf_vector":"1"}},{"base_weights":[5.528627E-3,6.380657E-1,-1.107527E-1,9.1092736E-1,-1.45809E-1,1.0080565E0,2.0381149E-2,7.110311E-1,-7.2480625E-1,1.0466506E-1,3.557683E-2,-6.355535E-2,6.777881E-2,1.755553E-2,8.257489E-2,1.0708084E-2,-9.881831E-2],"categories":[],"categories_nodes":[],"categories_segments":[],"categories_sizes":[],"default_left":[0,0,0,0,0,0,0,0,0,0,0,0,0,0,0,0,0],"id":15,"left_children":[1,3,-1,5,7,9,11,13,15,-1,-1,-1,-1,-1,-1,-1,-1],"loss_changes":[3.5577633E1,7.023512E0,0E0,2.0584793E0,5.06993E0,1.7269135E-1,1.8901423E0,1.1345625E-1,1.4146638E0,0E0,0E0,0E0,0E0,0E0,0E0,0E0,0E0],"parents":[2147483647,0,0,1,1,3,3,4,4,5,5,6,6,7,7,8,8],"right_children":[2,4,-1,6,8,10,12,14,16,-1,-1,-1,-1,-1,-1,-1,-1],"split_conditions":[1.162E2,1.225E-1,-1.107527E-1,3.849E1,2.558E1,3.294E1,2.778E-3,8.187E-2,4.846E-2,1.0466506E-1,3.557683E-2,-6.355535E-2,6.777881E-2,1.755553E-2,8.257489E-2,1.0708084E-2,-9.881831E-2],"split_indices":[25,22,0,0,29,29,4,24,7,0,0,0,0,0,0,0,0],"split_type":[0,0,0,0,0,0,0,0,0,0,0,0,0,0,0,0,0],"sum_hessian":[4.8529175E1,3.1216137E1,1.7313038E1,2.3035534E1,8.180602E0,2.0651217E1,2.3843176E0,3.206848E0,4.973754E0,1.8926786E1,1.7244309E0,1.2101349E0,1.1741828E0,1.0122455E0,2.1946025E0,1.3387345E0,3.6350193E0],"tree_param":{"num_deleted":"0","num_feature":"30","num_nodes":"17","size_leaf_vector":"1"}},{"base_weights":[6.4887917E-3,6.19435E-1,-1.0856725E-1,8.914406E-1,-1.344887E-1,9.913597E-1,2.0307716E-2,5.2505445E-1,-8.3341146E-1,1.0325035E-1,3.392446E-2,-6.0498543E-2,6.563302E-2,7.032951E-1,-9.282835E-3,-2.379135E-2,-9.350286E-2,8.235306E-2,1.696351E-2],"categories":[],"categories_nodes":[],"categories_segments":[],"categories_sizes":[],"default_left":[0,0,0,0,0,0,0,0,0,0,0,0,0,0,0,0,0,0,0],"id":16,"left_children":[1,3,-1,5,7,9,11,13,15,-1,-1,-1,-1,17,-1,-1,-1,-1,-1],"loss_changes":[3.1624125E1,6.323619E0,0E0,1.9263191E0,4.5353913E0,1.8741608E-1,1.7181973E0,6.3655126E-1,6.2100887E-2,0E0,0E0,0E0,0E0,1.2609625E-1,0E0,0E0,0E0,0E0,0E0],"parents":[2147483647,0,0,1,1,3,3,4,4,5,5,6,6,7,7,8,8,13,13],"right_children":[2,4,-1,6,8,10,12,14,16,-1,-1,-1,-1,18,-1,-1,-1,-1,-1],"split_conditions":[1.162E2,1.225E-1,-1.0856725E-1,3.849E1,2.025E1,3.294E1,2.778E-3,1.583E-1,1.342E-1,1.0325035E-1,3.392446E-2,-6.0498543E-2,6.563302E-2,1.392E-1,-9.282835E-3,-2.379135E-2,-9.350286E-2,8.235306E-2,1.696351E-2],"split_indices":[25,22,0,0,14,29,4,22,22,0,0,0,0,27,0,0,0,0,0],"split_type":[0,0,0,0,0,0,0,0,0,0,0,0,0,0,0,0,0,0,0],"sum_hessian":[4.523536E1,2.9251549E1,1.5983811E1,2.1362017E1,7.8895316E0,1.9040102E1,2.3219151E0,4.1871066E0,3.702425E0,1.7361406E1,1.6786945E0,1.19544E0,1.126475E0,3.1423879E0,1.0447187E0,1.0267463E0,2.6756787E0,2.1212811E0,1.0211068E0],"tree_param":{"num_deleted":"0","num_feature":"30","num_nodes":"19","size_leaf_vector":"1"}},{"base_weights":[6.569546E-3,6.6880333E-1,-9.5556974E-1,8.9853764E-1,-2.2418232E-1,2.757482E-3,-1.07463636E-1,-9.036544E-3,9.5883095E-1,3.885144E-1,-8.817192E-2,9.979325E-1,3.2618914E-2,7.113432E-2,-7.04698E-3,1.0296916E-1,2.6548136E-2],"categories":[],"categories_nodes":[],"categories_segments":[],"categories_sizes":[],"default_left":[0,0,0,0,0,0,0,0,0,0,0,0,0,0,0,0,0],"id":17,"left_children":[1,3,5,7,9,-1,-1,-1,11,13,-1,15,-1,-1,-1,-1,-1],"loss_changes":[2.8151552E1,5.5690174E0,2.1385212E0,1.3393574E0,2.8218791E0,0E0,0E0,0E0,1.6648293E-1,6.2501496E-1,0E0,1.5106583E-1,0E0,0E0,0E0,0E0,0E0],"parents":[2147483647,0,0,1,1,2,2,3,3,4,4,8,8,9,9,11,11],"right_children":[2,4,6,8,10,-1,-1,-1,12,14,-1,16,-1,-1,-1,-1,-1],"split_conditions":[1.682E1,1.357E-1,1.964E1,1.987E-1,2.025E1,2.757482E-3,-1.07463636E-1,-9.036544E-3,3.294E1,2.146E1,-8.817192E-2,2.079E0,3.2618914E-2,7.113432E-2,-7.04698E-3,1.0296916E-1,2.6548136E-2],"split_indices":[26,22,29,28,14,0,0,0,29,0,0,19,0,0,0,0,0],"split_type":[0,0,0,0,0,0,0,0,0,0,0,0,0,0,0,0,0],"sum_hessian":[4.2179756E1,2.5164253E1,1.7015503E1,2.0010124E1,5.1541295E0,1.9211097E0,1.5094393E1,1.121243E0,1.8888882E1,2.8798268E0,2.2743027E0,1.7245583E1,1.6432991E0,1.3678925E0,1.5119344E0,1.6139938E1,1.1056437E0],"tree_param":{"num_deleted":"0","num_feature":"30","num_nodes":"17","size_leaf_vector":"1"}},{"base_weights":[7.0007946E-3,5.8379894E-1,-1.0486739E-1,8.678838E-1,-9.378104E-2,9.5883137E-1,6.732096E-2,6.5926296E-1,-5.864505E-1,1.0062676E-1,3.0935554E-2,-3.3484776E-2,4.3654498E-2,7.7486366E-2,1.6284283E-2,1.2832165E-2,-9.023008E-2],"categories":[],"categories_nodes":[],"categories_segments":[],"categories_sizes":[],"default_left":[0,0,0,0,0,0,0,0,0,0,0,0,0,0,0,0,0],"id":18,"left_children":[1,3,-1,5,7,9,11,13,15,-1,-1,-1,-1,-1,-1,-1,-1],"loss_changes":[2.5231394E1,5.237875E0,0E0,1.3168087E0,3.6573749E0,2.112608E-1,5.9327686E-1,1.0092211E-1,1.4384203E0,0E0,0E0,0E0,0E0,0E0,0E0,0E0,0E0],"parents":[2147483647,0,0,1,1,3,3,4,4,5,5,6,6,7,7,8,8],"right_children":[2,4,-1,6,8,10,12,14,16,-1,-1,-1,-1,-1,-1,-1,-1],"split_conditions":[1.162E2,1.184E-1,-1.0486739E-1,3.849E1,2.558E1,3.294E1,6.9E-2,1.658E1,4.846E-2,1.0062676E-1,3.0935554E-2,-3.3484776E-2,4.3654498E-2,7.7486366E-2,1.6284283E-2,1.2832165E-2,-9.023008E-2],"split_indices":[25,22,0,0,29,29,6,14,7,0,0,0,0,0,0,0,0],"split_type":[0,0,0,0,0,0,0,0,0,0,0,0,0,0,0,0,0],"sum_hessian":[3.9431477E1,2.5788292E1,1.3643184E1,1.7972298E1,7.8159947E0,1.5961323E1,2.0109756E0,2.9574285E0,4.8585663E0,1.4362934E1,1.5983887E0,1.0071092E0,1.0038663E0,1.943861E0,1.0135673E0,1.6709399E0,3.1876264E0],"tree_param":{"num_deleted":"0","num_feature":"30","num_nodes":"17","size_leaf_vector":"1"}},{"base_weights":[8.20719E-3,5.6551015E-1,-1.0310306E-1,8.641254E-1,-5.3438168E-2,9.5087826E-1,-1.1140819E-2,6.4263844E-1,-4.8880646E-1,1.0035157E-1,2.2949263E-2,1.41475E-2,7.674505E-2,3.5640515E-2,-8.6095035E-2],"categories":[],"categories_nodes":[],"categories_segments":[],"categories_sizes":[],"default_left":[0,0,0,0,0,0,0,0,0,0,0,0,0,0,0],"id":19,"left_children":[1,3,-1,5,7,9,-1,11,13,-1,-1,-1,-1,-1,-1],"loss_changes":[2.249661E1,4.717595E0,0E0,1.5537338E0,3.0922377E0,3.702278E-1,0E0,1.3909376E-1,2.2594275E0,0E0,0E0,0E0,0E0,0E0,0E0],"parents":[2147483647,0,0,1,1,3,3,4,4,5,5,7,7,8,8],"right_children":[2,4,-1,6,8,10,-1,12,14,-1,-1,-1,-1,-1,-1],"split_conditions":[1.162E2,2.671E-1,-1.0310306E-1,4.519E1,2.558E1,3.294E1,-1.1140819E-2,6.183E-2,4.223E-2,1.0035157E-1,2.2949263E-2,1.41475E-2,7.674505E-2,3.5640515E-2,-8.6095035E-2],"split_indices":[25,23,0,0,29,29,0,9,7,0,0,0,0,0,0],"split_type":[0,0,0,0,0,0,0,0,0,0,0,0,0,0,0],"sum_hessian":[3.6836117E1,2.427449E1,1.2561627E1,1.6107307E1,8.167183E0,1.4815094E1,1.2922133E0,2.9594567E0,5.207726E0,1.3443096E1,1.371998E0,1.0154755E0,1.9439813E0,1.6049232E0,3.6028028E0],"tree_param":{"num_deleted":"0","num_feature":"30","num_nodes":"15","size_leaf_vector":"1"}},{"base_weights":[9.372696E-3,7.73667E-1,-7.159502E-1,8.9809185E-1,1.1778757E-1,3.0596742E-1,-9.2670816E-1,9.424491E-1,2.592722E-2,7.075529E-2,-6.751164E-2,7.616093E-2,-4.6880715E-2,8.663798E-3,-1.0042493E0,2.228829E-2,9.873181E-2,-1.9145612E-2,-1.0546837E-1],"categories":[],"categories_nodes":[],"categories_segments":[],"categories_sizes":[],"default_left":[0,0,0,0,0,0,0,0,0,0,0,0,0,0,0,0,0,0,0],"id":20,"left_children":[1,3,5,7,9,11,13,15,-1,-1,-1,-1,-1,-1,17,-1,-1,-1,-1],"loss_changes":[2.0178244E1,1.340106E0,4.307313E0,1.7336464E-1,2.3370297E0,1.7500752E0,1.3235092E0,2.1273327E-1,0E0,0E0,0E0,0E0,0E0,0E0,4.005537E-1,0E0,0E0,0E0,0E0],"parents":[2147483647,0,0,1,1,2,2,3,3,4,4,5,5,6,6,7,7,14,14],"right_children":[2,4,6,8,10,12,14,16,-1,-1,-1,-1,-1,-1,18,-1,-1,-1,-1],"split_conditions":[1.044E2,2.247E1,1.658E1,5.627E-2,6.337E2,1.453E-1,1.092E-1,2.112E-1,2.592722E-2,7.075529E-2,-6.751164E-2,7.616093E-2,-4.6880715E-2,8.663798E-3,2.477E-1,2.228829E-2,9.873181E-2,-1.9145612E-2,-1.0546837E-1],"split_indices":[25,14,14,7,20,22,27,28,0,0,0,0,0,0,23,0,0,0,0],"split_type":[0,0,0,0,0,0,0,0,0,0,0,0,0,0,0,0,0,0,0],"sum_hessian":[3.4399975E1,1.6717548E1,1.7682428E1,1.3741411E1,2.976136E0,2.9460335E0,1.4736395E1,1.2404774E1,1.3366377E0,1.7684208E0,1.2077152E0,1.8657725E0,1.0802609E0,1.0391362E0,1.3697259E1,1.0783669E0,1.1326407E1,1.0804822E0,1.2616776E1],"tree_param":{"num_deleted":"0","num_feature":"30","num_nodes":"19","size_leaf_vector":"1"}},{"base_weights":[1.0958283E-2,5.811054E-1,-9.231795E-1,8.2791734E-1,-1.8042362E-1,-5.0468574E-4,-1.006095E-1,-1.2037276E-2,9.0045327E-1,3.5673648E-1,-8.106505E-2,9.501271E-1,2.612476E-2,6.733079E-2,-5.6918957E-3,9.870684E-2,2.61686E-2],"categories":[],"categories_nodes":[],"categories_segments":[],"categories_sizes":[],"default_left":[0,0,0,0,0,0,0,0,0,0,0,0,0,0,0,0,0],"id":21,"left_children":[1,3,5,7,9,-1,-1,-1,11,13,-1,15,-1,-1,-1,-1,-1],"loss_changes":[1.8240713E1,4.1445575E0,9.8346233E-1,1.2249222E0,2.3284876E0,0E0,0E0,0E0,2.3430443E-1,5.551243E-1,0E0,9.066582E-2,0E0,0E0,0E0,0E0,0E0],"parents":[2147483647,0,0,1,1,2,2,3,3,4,4,8,8,9,9,11,11],"right_children":[2,4,6,8,10,-1,-1,-1,12,14,-1,16,-1,-1,-1,-1,-1],"split_conditions":[8.887E2,1.329E-1,1.973E0,1.987E-1,2.025E1,-5.0468574E-4,-1.006095E-1,-1.2037276E-2,3.294E1,3.055E-1,-8.106505E-2,3.327E-1,2.612476E-2,6.733079E-2,-5.6918957E-3,9.870684E-2,2.61686E-2],"split_indices":[20,22,15,28,14,0,0,0,29,28,0,23,0,0,0,0,0],"split_type":[0,0,0,0,0,0,0,0,0,0,0,0,0,0,0,0,0],"sum_hessian":[3.224143E1,2.0256115E1,1.1985312E1,1.5232181E1,5.0239344E0,1.0805984E0,1.0904714E1,1.0354791E0,1.4196701E1,2.9465027E0,2.0774317E0,1.272166E1,1.475042E0,1.313543E0,1.6329597E0,1.1662106E1,1.0595537E0],"tree_param":{"num_deleted":"0","num_feature":"30","num_nodes":"17","size_leaf_vector":"1"}},{"base_weights":[1.1164212E-2,5.1964235E-1,-9.854852E-2,7.9784024E-1,-9.542148E-2,9.108182E-1,1.4040369E-1,6.920583E-2,-7.0736617E-1,9.70349E-2,2.158563E-2,-3.6907252E-2,6.171403E-2,1.8436668E-2,-1.0307311E-1],"categories":[],"categories_nodes":[],"categories_segments":[],"categories_sizes":[],"default_left":[0,0,0,0,0,0,0,0,0,0,0,0,0,0,0],"id":22,"left_children":[1,3,-1,5,7,9,11,-1,13,-1,-1,-1,-1,-1,-1],"loss_changes":[1.6318077E1,3.7220287E0,0E0,9.697838E-1,4.117799E0,3.0474567E-1,1.041294E0,0E0,1.5543323E0,0E0,0E0,0E0,0E0,0E0,0E0],"parents":[2147483647,0,0,1,1,3,3,4,4,5,5,6,6,8,8],"right_children":[2,4,-1,6,8,10,12,-1,14,-1,-1,-1,-1,-1,-1],"split_conditions":[1.162E2,2.082E1,-9.854852E-2,3.262E-1,6.536E2,3.849E1,6.38E-3,6.920583E-2,8.983E-2,9.70349E-2,2.158563E-2,-3.6907252E-2,6.171403E-2,1.8436668E-2,-1.0307311E-1],"split_indices":[25,14,0,21,20,0,17,0,12,0,0,0,0,0,0],"split_type":[0,0,0,0,0,0,0,0,0,0,0,0,0,0,0],"sum_hessian":[3.0189375E1,2.0307402E1,9.881974E0,1.3778237E1,6.529164E0,1.1428828E1,2.3494093E0,2.7978458E0,3.7313182E0,1.0162077E1,1.2667512E0,1.2448769E0,1.1045325E0,1.1073805E0,2.6239376E0],"tree_param":{"num_deleted":"0","num_feature":"30","num_nodes":"15","size_leaf_vector":"1"}},{"base_weights":[1.1780686E-2,5.6932914E-1,-8.545769E-1,8.075887E-1,-1.5814677E-1,5.244546E-3,-9.824809E-2,8.855889E-1,-1.01097785E-2,5.0901765E-1,-7.3399305E-2,9.672314E-2,1.6588787E-2,1.5104572E-2,6.0907584E-2],"categories":[],"categories_nodes":[],"categories_segments":[],"categories_sizes":[],"default_left":[0,0,0,0,0,0,0,0,0,0,0,0,0,0,0],"id":23,"left_children":[1,3,5,7,9,-1,-1,11,-1,13,-1,-1,-1,-1,-1],"loss_changes":[1.4601526E1,3.3134098E0,1.4253206E0,1.0824442E0,2.4369597E0,0E0,0E0,6.03632E-1,0E0,1.8270195E-2,0E0,0E0,0E0,0E0,0E0],"parents":[2147483647,0,0,1,1,2,2,3,3,4,4,7,7,9,9],"right_children":[2,4,6,8,10,-1,-1,12,-1,14,-1,-1,-1,-1,-1],"split_conditions":[1.682E1,4.938E-2,1.615E1,3.993E1,2.489E1,5.244546E-3,-9.824809E-2,3.294E1,-1.01097785E-2,6.462E-2,-7.3399305E-2,9.672314E-2,1.6588787E-2,1.5104572E-2,6.0907584E-2],"split_indices":[26,7,14,0,29,0,0,29,0,7,0,0,0,0,0],"split_type":[0,0,0,0,0,0,0,0,0,0,0,0,0,0,0],"sum_hessian":[2.8221388E1,1.7379547E1,1.0841841E1,1.300883E1,4.370717E0,1.4128284E0,9.429012E0,1.2003858E1,1.0049726E0,2.0785742E0,2.2921429E0,1.0471986E1,1.5318718E0,1.0022973E0,1.0762768E0],"tree_param":{"num_deleted":"0","num_feature":"30","num_nodes":"15","size_leaf_vector":"1"}},{"base_weights":[1.1882902E-2,4.9010864E-1,-9.5738895E-2,7.634386E-1,-9.4014004E-2,8.8179916E-1,1.22549586E-1,6.585129E-2,-6.742507E-1,9.479422E-2,1.9536348E-2,-3.5057176E-2,5.792683E-2,1.6904496E-2,-9.838346E-2],"categories":[],"categories_nodes":[],"categories_segments":[],"categories_sizes":[],"default_left":[0,0,0,0,0,0,0,0,0,0,0,0,0,0,0],"id":24,"left_children":[1,3,-1,5,7,9,11,-1,13,-1,-1,-1,-1,-1,-1],"loss_changes":[1.3189343E1,3.1111813E0,0E0,8.8399506E-1,3.4825032E0,3.086996E-1,8.9458275E-1,0E0,1.3210981E0,0E0,0E0,0E0,0E0,0E0,0E0],"parents":[2147483647,0,0,1,1,3,3,4,4,5,5,6,6,8,8],"right_children":[2,4,-1,6,8,10,12,-1,14,-1,-1,-1,-1,-1,-1],"split_conditions":[1.162E2,2.082E1,-9.5738895E-2,3.262E-1,6.536E2,3.849E1,6.38E-3,6.585129E-2,8.983E-2,9.479422E-2,1.9536348E-2,-3.5057176E-2,5.792683E-2,1.6904496E-2,-9.838346E-2],"split_indices":[25,14,0,21,20,0,17,0,12,0,0,0,0,0,0],"split_type":[0,0,0,0,0,0,0,0,0,0,0,0,0,0,0],"sum_hessian":[2.6441803E1,1.8036963E1,8.404841E0,1.20781975E1,5.958764E0,9.878008E0,2.2001894E0,2.5354965E0,3.4232676E0,8.662365E0,1.2156438E0,1.1948447E0,1.0053445E0,1.0411558E0,2.3821118E0],"tree_param":{"num_deleted":"0","num_feature":"30","num_nodes":"15","size_leaf_vector":"1"}},{"base_weights":[1.2436182E-2,4.742607E-1,-9.428712E-2,7.4337727E-1,-9.026529E-2,8.641724E-1,1.1938687E-1,6.34683E-2,-6.442498E-1,9.349079E-2,1.8544897E-2,3.9642643E-2,-2.170603E-2,1.609621E-2,-9.485359E-2],"categories":[],"categories_nodes":[],"categories_segments":[],"categories_sizes":[],"default_left":[0,0,0,0,0,0,0,0,0,0,0,0,0,0,0],"id":25,"left_children":[1,3,-1,5,7,9,11,-1,13,-1,-1,-1,-1,-1,-1],"loss_changes":[1.1813894E1,2.806775E0,0E0,8.254533E-1,3.1049936E0,3.1447744E-1,3.804458E-1,0E0,1.2066274E0,0E0,0E0,0E0,0E0,0E0,0E0],"parents":[2147483647,0,0,1,1,3,3,4,4,5,5,6,6,8,8],"right_children":[2,4,-1,6,8,10,12,-1,14,-1,-1,-1,-1,-1,-1],"split_conditions":[1.162E2,2.082E1,-9.428712E-2,3.262E-1,6.536E2,3.849E1,1.032E-1,6.34683E-2,8.983E-2,9.349079E-2,1.8544897E-2,3.9642643E-2,-2.170603E-2,1.609621E-2,-9.485359E-2],"split_indices":[25,14,0,21,20,0,12,0,12,0,0,0,0,0,0],"split_type":[0,0,0,0,0,0,0,0,0,0,0,0,0,0,0],"sum_hessian":[2.476412E1,1.7033272E1,7.730848E0,1.1320048E1,5.7132244E0,9.161589E0,2.1584592E0,2.411651E0,3.3015735E0,7.955074E0,1.2065148E0,1.08597E0,1.0724891E0,1.0346543E0,2.2669194E0],"tree_param":{"num_deleted":"0","num_feature":"30","num_nodes":"15","size_leaf_vector":"1"}},{"base_weights":[1.2749257E-2,4.5774E-1,-9.284967E-2,7.217502E-1,-8.6628884E-2,8.463694E-1,1.1405747E-1,6.1125077E-2,-6.152782E-1,9.218289E-2,1.7603293E-2,3.804122E-2,-2.0553531E-2,1.0674637E-2,-9.525061E-2],"categories":[],"categories_nodes":[],"categories_segments":[],"categories_sizes":[],"default_left":[0,0,0,0,0,0,0,0,0,0,0,0,0,0,0],"id":26,"left_children":[1,3,-1,5,7,9,11,-1,13,-1,-1,-1,-1,-1,-1],"loss_changes":[1.0579559E1,2.524632E0,0E0,7.8523636E-1,2.769663E0,3.185935E-1,3.4523955E-1,0E0,1.1218487E0,0E0,0E0,0E0,0E0,0E0,0E0],"parents":[2147483647,0,0,1,1,3,3,4,4,5,5,6,6,8,8],"right_children":[2,4,-1,6,8,10,12,-1,14,-1,-1,-1,-1,-1,-1],"split_conditions":[1.162E2,2.082E1,-9.284967E-2,3.262E-1,6.536E2,3.849E1,1.032E-1,6.1125077E-2,1.288E-1,9.218289E-2,1.7603293E-2,3.804122E-2,-2.0553531E-2,1.0674637E-2,-9.525061E-2],"split_indices":[25,14,0,21,20,0,12,0,27,0,0,0,0,0,0],"split_type":[0,0,0,0,0,0,0,0,0,0,0,0,0,0,0],"sum_hessian":[2.3244125E1,1.6131405E1,7.112721E0,1.0643587E1,5.487817E0,8.506421E0,2.137166E0,2.297972E0,3.1898448E0,7.3085303E0,1.1978912E0,1.0618756E0,1.0752903E0,1.2331207E0,1.9567243E0],"tree_param":{"num_deleted":"0","num_feature":"30","num_nodes":"15","size_leaf_vector":"1"}},{"base_weights":[1.2649106E-2,4.8464295E-1,-8.3593935E-1,7.2313523E-1,-1.5204825E-1,-1.1416699E-2,-9.198775E-2,-1.02007305E-2,8.140591E-1,3.776471E-2,-5.9826095E-2,8.848408E-2,1.6412875E-2],"categories":[],"categories_nodes":[],"categories_segments":[],"categories_sizes":[],"default_left":[0,0,0,0,0,0,0,0,0,0,0,0,0],"id":27,"left_children":[1,3,5,7,9,-1,-1,-1,11,-1,-1,-1,-1],"loss_changes":[9.557007E0,2.435592E0,4.1198826E-1,9.320154E-1,1.4076927E0,0E0,0E0,0E0,3.287921E-1,0E0,0E0,0E0,0E0],"parents":[2147483647,0,0,1,1,2,2,3,3,4,4,8,8],"right_children":[2,4,6,8,10,-1,-1,-1,12,-1,-1,-1,-1],"split_conditions":[8.887E2,1.329E-1,1.641E1,2.09E-1,2.62E1,-1.1416699E-2,-9.198775E-2,-1.02007305E-2,3.294E1,3.776471E-2,-5.9826095E-2,8.848408E-2,1.6412875E-2],"split_indices":[20,22,14,28,29,0,0,0,29,0,0,0,0],"split_type":[0,0,0,0,0,0,0,0,0,0,0,0,0],"sum_hessian":[2.1849499E1,1.4315789E1,7.5337095E0,1.0315886E1,3.9999032E0,1.0307307E0,6.502979E0,1.0118006E0,9.304085E0,1.8991269E0,2.1007762E0,8.064382E0,1.2397039E0],"tree_param":{"num_deleted":"0","num_feature":"30","num_nodes":"13","size_leaf_vector":"1"}},{"base_weights":[1.070461E-2,4.2490909E-1,-9.015413E-2,6.864417E-1,-9.822647E-2,8.055033E-1,2.5101122E-3,6.651025E-2,-5.445407E-1,9.103295E-2,3.9452193E-3,1.9306978E-2,-8.349188E-2],"categories":[],"categories_nodes":[],"categories_segments":[],"categories_sizes":[],"default_left":[0,0,0,0,0,0,0,0,0,0,0,0,0],"id":28,"left_children":[1,3,-1,5,7,9,-1,-1,11,-1,-1,-1,-1],"loss_changes":[8.550965E0,2.194386E0,0E0,8.0573845E-1,2.4254827E0,6.75334E-1,0E0,0E0,1.0975362E0,0E0,0E0,0E0,0E0],"parents":[2147483647,0,0,1,1,3,3,4,4,5,5,8,8],"right_children":[2,4,-1,6,8,10,-1,-1,12,-1,-1,-1,-1],"split_conditions":[1.162E2,2.082E1,-9.015413E-2,3.513E1,2.438E-2,1.492E-1,2.5101122E-3,6.651025E-2,9.04E-2,9.103295E-2,3.9452193E-3,1.9306978E-2,-8.349188E-2],"split_indices":[25,14,0,0,7,22,0,0,12,0,0,0,0],"split_type":[0,0,0,0,0,0,0,0,0,0,0,0,0],"sum_hessian":[2.0616398E1,1.4546011E1,6.0703874E0,9.489654E0,5.056357E0,7.8571415E0,1.6325121E0,1.6847413E0,3.371616E0,6.7457185E0,1.1114228E0,1.0470463E0,2.3245695E0],"tree_param":{"num_deleted":"0","num_feature":"30","num_nodes":"13","size_leaf_vector":"1"}},{"base_weights":[1.083266E-2,4.6953264E-1,-7.731444E-1,7.0479405E-1,-1.4552277E-1,4.589393E-3,-9.018187E-2,-8.040843E-3,8.0416656E-1,4.2502277E-2,-6.536665E-2,9.111888E-2,9.498613E-3],"categories":[],"categories_nodes":[],"categories_segments":[],"categories_sizes":[],"default_left":[0,0,0,0,0,0,0,0,0,0,0,0,0],"id":29,"left_children":[1,3,5,7,9,-1,-1,-1,11,-1,-1,-1,-1],"loss_changes":[7.703741E0,2.0560348E0,8.7530375E-1,8.3996105E-1,1.6010273E0,0E0,0E0,0E0,5.897689E-1,0E0,0E0,0E0,0E0],"parents":[2147483647,0,0,1,1,2,2,3,3,4,4,8,8],"right_children":[2,4,6,8,10,-1,-1,-1,12,-1,-1,-1,-1],"split_conditions":[1.682E1,4.938E-2,1.964E1,2.102E-1,2.489E1,4.589393E-3,-9.018187E-2,-8.040843E-3,3.294E1,4.2502277E-2,-6.536665E-2,9.111888E-2,9.498613E-3],"split_indices":[26,7,29,28,29,0,0,0,29,0,0,0,0],"split_type":[0,0,0,0,0,0,0,0,0,0,0,0,0],"sum_hessian":[1.9413E1,1.2500263E1,6.9127355E0,8.936218E0,3.5640457E0,1.0259141E0,5.8868217E0,1.0253271E0,7.910891E0,1.7559909E0,1.8080548E0,6.6261005E0,1.2847906E0],"tree_param":{"num_deleted":"0","num_feature":"30","num_nodes":"13","size_leaf_vector":"1"}}]},"name":"gbtree"},"learner_model_param":{"base_score":"[6.27193E-1]","boost_from_average":"1","num_class":"0","num_feature":"30","num_target":"1"},"objective":{"name":"binary:logistic","reg_loss_param":{"scale_pos_weight":"1"}}},"version":[3,2,0]}